{"learner":{"attributes":{},"feature_names":["age","sex","bmi","bp","s1","s2","s3","s4","s5","s6"],"feature_types":["float","float","float","float","float","float","float","float","float","float"],"gradient_booster":{"model":{"cats":{"enc":[],"feature_segments":[],"sorted_idx":[]},"gbtree_model_param":{"num_parallel_tree":"1","num_trees":"500"},"iteration_indptr":[0,1,2,3,4,5,6,7,8,9,10,11,12,13,14,15,16,17,18,19,20,21,22,23,24,25,26,27,28,29,30,31,32,33,34,35,36,37,38,39,40,41,42,43,44,45,46,47,48,49,50,51,52,53,54,55,56,57,58,59,60,61,62,63,64,65,66,67,68,69,70,71,72,73,74,75,76,77,78,79,80,81,82,83,84,85,86,87,88,89,90,91,92,93,94,95,96,97,98,99,100,101,102,103,104,105,106,107,108,109,110,111,112,113,114,115,116,117,118,119,120,121,122,123,124,125,126,127,128,129,130,131,132,133,134,135,136,137,138,139,140,141,142,143,144,145,146,147,148,149,150,151,152,153,154,155,156,157,158,159,160,161,162,163,164,165,166,167,168,169,170,171,172,173,174,175,176,177,178,179,180,181,182,183,184,185,186,187,188,189,190,191,192,193,194,195,196,197,198,199,200,201,202,203,204,205,206,207,208,209,210,211,212,213,214,215,216,217,218,219,220,221,222,223,224,225,226,227,228,229,230,231,232,233,234,235,236,237,238,239,240,241,242,243,244,245,246,247,248,249,250,251,252,253,254,255,256,257,258,259,260,261,262,263,264,265,266,267,268,269,270,271,272,273,274,275,276,277,278,279,280,281,282,283,284,285,286,287,288,289,290,291,292,293,294,295,296,297,298,299,300,301,302,303,304,305,306,307,308,309,310,311,312,313,314,315,316,317,318,319,320,321,322,323,324,325,326,327,328,329,330,331,332,333,334,335,336,337,338,339,340,341,342,343,344,345,346,347,348,349,350,351,352,353,354,355,356,357,358,359,360,361,362,363,364,365,366,367,368,369,370,371,372,373,374,375,376,377,378,379,380,381,382,383,384,385,386,387,388,389,390,391,392,393,394,395,396,397,398,399,400,401,402,403,404,405,406,407,408,409,410,411,412,413,414,415,416,417,418,419,420,421,422,423,424,425,426,427,428,429,430,431,432,433,434,435,436,437,438,439,440,441,442,443,444,445,446,447,448,449,450,451,452,453,454,455,456,457,458,459,460,461,462,463,464,465,466,467,468,469,470,471,472,473,474,475,476,477,478,479,480,481,482,483,484,485,486,487,488,489,490,491,492,493,494,495,496,497,498,499,500],"tree_info":[0,0,0,0,0,0,0,0,0,0,0,0,0,0,0,0,0,0,0,0,0,0,0,0,0,0,0,0,0,0,0,0,0,0,0,0,0,0,0,0,0,0,0,0,0,0,0,0,0,0,0,0,0,0,0,0,0,0,0,0,0,0,0,0,0,0,0,0,0,0,0,0,0,0,0,0,0,0,0,0,0,0,0,0,0,0,0,0,0,0,0,0,0,0,0,0,0,0,0,0,0,0,0,0,0,0,0,0,0,0,0,0,0,0,0,0,0,0,0,0,0,0,0,0,0,0,0,0,0,0,0,0,0,0,0,0,0,0,0,0,0,0,0,0,0,0,0,0,0,0,0,0,0,0,0,0,0,0,0,0,0,0,0,0,0,0,0,0,0,0,0,0,0,0,0,0,0,0,0,0,0,0,0,0,0,0,0,0,0,0,0,0,0,0,0,0,0,0,0,0,0,0,0,0,0,0,0,0,0,0,0,0,0,0,0,0,0,0,0,0,0,0,0,0,0,0,0,0,0,0,0,0,0,0,0,0,0,0,0,0,0,0,0,0,0,0,0,0,0,0,0,0,0,0,0,0,0,0,0,0,0,0,0,0,0,0,0,0,0,0,0,0,0,0,0,0,0,0,0,0,0,0,0,0,0,0,0,0,0,0,0,0,0,0,0,0,0,0,0,0,0,0,0,0,0,0,0,0,0,0,0,0,0,0,0,0,0,0,0,0,0,0,0,0,0,0,0,0,0,0,0,0,0,0,0,0,0,0,0,0,0,0,0,0,0,0,0,0,0,0,0,0,0,0,0,0,0,0,0,0,0,0,0,0,0,0,0,0,0,0,0,0,0,0,0,0,0,0,0,0,0,0,0,0,0,0,0,0,0,0,0,0,0,0,0,0,0,0,0,0,0,0,0,0,0,0,0,0,0,0,0,0,0,0,0,0,0,0,0,0,0,0,0,0,0,0,0,0,0,0,0,0,0,0,0,0,0,0,0,0,0,0,0,0,0,0,0,0,0,0,0,0,0,0,0,0,0,0,0,0,0,0,0,0,0,0,0,0,0,0,0,0,0,0,0,0,0,0,0,0,0,0,0,0,0,0,0,0,0,0,0,0,0,0,0,0,0,0,0,0],"trees":[{"base_weights":[7.3260074E-3,-1.7905405E-1,2.2619048E-1,-2.5E-1,1.4814815E-1,6.382979E-2,3.1875E-1,-3.0526316E-1,-5.357143E-2,3.4375E-1,-1.25E-1,2.9411766E-1,-6.451613E-2,1.3793103E-1,4.1346154E-1,-3.8541666E-1,-2.1875E-1,1.0526316E-1,-3.5E-1,4.6153847E-2,-1.25E-1,-3.125E-1,2E-1,-8.3333336E-2,4.5833334E-2,-3.3333334E-1,1.764706E-1,-4.0000003E-2,2.4E-1,4.4791666E-1,-0E0,-8.3333336E-2,-4.1860464E-1,-3.243243E-1,1.25E-1,3.5E-1,-1.5E-1,-4.375E-2,-0E0,-3.3333335E-2,2.5E-2,-4.2857144E-2,2.5E-2,3.75E-2,-2.5E-2,-3.75E-2,3.3333335E-2,-3.9285713E-1,2.5E-2,3.75E-1,-2.5E-1,-1.4285715E-1,3.6842105E-1,2.2222222E-1,4.8750002E-2,3.3333335E-2,-3.3333335E-2,-3.3333335E-2,1.25E-2,-4.5588236E-2,-2.5E-2,8.333334E-3,-3.90625E-2,4.2857144E-2,-2.5E-2,-2.5E-2,4.4444446E-2,-4.1666668E-2,2.0000001E-2,-2.5E-2,2.5E-2,-4.6153847E-2,2.5E-2,-2.5E-2,4.5454547E-2,2.5E-2,-4.0000003E-2,3.3333335E-2,-4.0000003E-2,-0E0,4.6666667E-2,4.1666668E-2,-1.25E-2],"categories":[],"categories_nodes":[],"categories_segments":[],"categories_sizes":[],"default_left":[1,1,0,0,0,0,1,0,1,1,1,0,0,0,1,0,1,1,1,0,0,0,1,0,0,1,0,0,0,0,0,0,1,0,0,0,0,0,0,0,0,0,0,0,0,0,0,1,0,0,0,0,0,0,0,0,0,0,0,0,0,0,0,0,0,0,0,0,0,0,0,0,0,0,0,0,0,0,0,0,0,0,0],"id":0,"left_children":[1,3,5,7,9,11,13,15,17,19,21,23,25,27,29,31,33,35,37,-1,39,41,43,45,-1,47,49,-1,51,53,55,57,59,61,63,65,67,-1,69,-1,-1,-1,-1,-1,-1,-1,-1,71,-1,73,75,77,79,81,-1,-1,-1,-1,-1,-1,-1,-1,-1,-1,-1,-1,-1,-1,-1,-1,-1,-1,-1,-1,-1,-1,-1,-1,-1,-1,-1,-1,-1],"loss_changes":[1.1176709E1,3.4726596E0,1.8731856E0,1.3079891E0,1.4855324E0,1.4081311E0,1.3130226E0,5.744524E-1,1.3551692E0,9.4110584E-1,7.9375E-1,1.0919118E0,2.0670462E0,1.6882758E0,7.4078465E-1,4.463415E-1,1.782517E0,1.2394737E0,3.0624998E-1,0E0,3.9583334E-1,6.2946427E-1,4.875E-1,8.541667E-1,0E0,6.1904776E-1,1.5330882E0,0E0,1.2818043E0,3.2048702E-1,6.666667E-1,3.541667E-1,1.5629292E-1,1.032587E0,1.4732143E0,6.7777777E-1,1.0166667E0,0E0,2.5E-1,0E0,0E0,0E0,0E0,0E0,0E0,0E0,0E0,7.3351645E-1,0E0,7.1022725E-1,5.5E-1,9.904762E-1,6.8771935E-1,6.597222E-1,0E0,0E0,0E0,0E0,0E0,0E0,0E0,0E0,0E0,0E0,0E0,0E0,0E0,0E0,0E0,0E0,0E0,0E0,0E0,0E0,0E0,0E0,0E0,0E0,0E0,0E0,0E0,0E0,0E0],"parents":[2147483647,0,0,1,1,2,2,3,3,4,4,5,5,6,6,7,7,8,8,9,9,10,10,11,11,12,12,13,13,14,14,15,15,16,16,17,17,18,18,20,20,21,21,22,22,23,23,25,25,26,26,28,28,29,29,30,30,31,31,32,32,33,33,34,34,35,35,36,36,38,38,47,47,49,49,50,50,51,51,52,52,53,53],"right_children":[2,4,6,8,10,12,14,16,18,20,22,24,26,28,30,32,34,36,38,-1,40,42,44,46,-1,48,50,-1,52,54,56,58,60,62,64,66,68,-1,70,-1,-1,-1,-1,-1,-1,-1,-1,72,-1,74,76,78,80,82,-1,-1,-1,-1,-1,-1,-1,-1,-1,-1,-1,-1,-1,-1,-1,-1,-1,-1,-1,-1,-1,-1,-1,-1,-1,-1,-1,-1,-1],"split_conditions":[-2.3983933E-3,2.5050595E-2,9.961227E-3,5.0914362E-2,7.78808E-4,-3.235593E-2,-2.7309787E-2,-2.2516528E-2,1.9186998E-2,5.2860808E-2,-1.9441826E-2,-6.1809033E-2,1.4986684E-2,-1.107952E-2,3.023191E-2,-9.2695475E-2,-4.3208655E-3,-3.712884E-2,4.1708443E-2,8.35E0,9.015599E-3,1.3566522E-2,-1.728445E-2,-7.0727714E-3,7.7000003E0,6.3503675E-2,-1.8947058E-3,-5.2000003E0,-1.5998974E-2,3.3673093E-2,1.1951489E-1,-9.996056E-2,-9.113274E-3,-5.6177046E-2,1.08146155E-2,-8.4855996E-2,-9.43939E-3,-7.4E0,-1.9441826E-2,-3.1000001E0,6.1E0,-4.9500003E0,1.56E1,5E0,-4.2000003E0,-3.6000001E0,5.15E0,9.833287E-2,3.3E0,-5.0782982E-2,-1.6704442E-2,-5.6177046E-2,-9.824677E-3,2.3972783E-2,1.08E1,1.02E1,-2.55E0,-4.2000003E0,2.1000001E0,-6.5E0,-6.9E0,5E-1,-4.8E0,2.7E0,-4E0,-8.2E0,7.7000003E0,-4.8E0,4.3E0,-3.3E0,4.5E0,-3.5E0,1.25E1,-6E-1,6.15E0,5.4E0,-4.2000003E0,4.3E0,-7E-1,2.5E0,9.7E0,1.25E1,-1.5E0],"split_indices":[8,2,2,7,6,6,0,8,6,5,3,6,3,7,6,0,4,8,0,0,0,4,5,4,0,0,2,0,3,2,4,0,3,3,4,3,2,0,3,0,0,0,0,0,0,0,0,9,0,9,4,3,4,2,0,0,0,0,0,0,0,0,0,0,0,0,0,0,0,0,0,0,0,0,0,0,0,0,0,0,0,0,0],"split_type":[0,0,0,0,0,0,0,0,0,0,0,0,0,0,0,0,0,0,0,0,0,0,0,0,0,0,0,0,0,0,0,0,0,0,0,0,0,0,0,0,0,0,0,0,0,0,0,0,0,0,0,0,0,0,0,0,0,0,0,0,0,0,0,0,0,0,0,0,0,0,0,0,0,0,0,0,0,0,0,0,0,0,0],"sum_hessian":[2.72E2,1.47E2,1.25E2,1.21E2,2.6E1,4.6E1,7.9E1,9.4E1,2.7E1,1.5E1,1.1E1,1.6E1,3E1,2.8E1,5.1E1,4.7E1,4.7E1,1.8E1,9E0,1.2E1,3E0,7E0,4E0,5E0,1.1E1,1.4E1,1.6E1,4E0,2.4E1,4.7E1,4E0,5E0,4.2E1,3.6E1,1.1E1,9E0,9E0,7E0,2E0,2E0,1E0,6E0,1E0,3E0,1E0,3E0,2E0,1.3E1,1E0,1.1E1,5E0,6E0,1.8E1,8E0,3.9E1,2E0,2E0,2E0,3E0,3.3E1,9E0,5E0,3.1E1,6E0,5E0,1E0,8E0,5E0,4E0,1E0,1E0,1.2E1,1E0,1E0,1E1,1E0,4E0,2E0,4E0,4E0,1.4E1,5E0,3E0],"tree_param":{"num_deleted":"0","num_feature":"10","num_nodes":"83","size_leaf_vector":"1"}},{"base_weights":[-2.3214286E-2,-1.9166666E-1,2.7722773E-1,-6.7708336E-2,-3.2941177E-1,1.2195122E-1,3.7704918E-1,-2.016129E-1,1.7142858E-1,-4.1666666E-1,-1.71875E-1,-1.875E-1,1.9117647E-1,4.3396226E-1,-0E0,-2.6415095E-1,1.5E-1,-4.1666668E-2,2.8333333E-1,-0E0,-4.3269232E-1,-3.529412E-1,3.125E-2,1.25E-1,-4.0000003E-2,-3.3333335E-2,2.34375E-1,4.5192307E-1,-2.5E-2,-3.75E-2,2.5E-1,2E-1,-3.0612245E-1,-2E-1,4.1666668E-2,-8.3333336E-2,3.6E-1,-2.5E-2,2.5E-2,-4.4680852E-1,-2.5E-1,-4.5454547E-2,-1.4285715E-1,3.3333334E-1,-3.125E-1,3.3333335E-2,-2.5E-2,-3.3333335E-2,2.8333333E-1,2E-1,4.6875E-1,4.0000003E-2,-2.5E-2,-2.5E-2,3.75E-2,1.25E-2,-3.3695653E-2,2.5E-2,-3.75E-2,1.25E-2,-3.3333335E-2,3.9583337E-2,-2.5E-2,-4.651163E-2,-2.0000001E-2,2.5E-2,-4.0000003E-2,-3.75E-2,1.25E-2,-2.5E-2,4.375E-2,-4.2857144E-2,2.5E-2,3.6842104E-2,1.25E-2,3.75E-2,-2.5E-2,4.883721E-2,2.5E-2],"categories":[],"categories_nodes":[],"categories_segments":[],"categories_sizes":[],"default_left":[1,0,0,1,0,0,1,1,0,0,0,1,0,1,0,0,1,0,0,0,1,0,0,0,0,0,0,0,0,0,0,0,0,0,0,0,1,0,0,0,0,0,1,0,1,0,0,0,0,0,1,0,0,0,0,0,0,0,0,0,0,0,0,0,0,0,0,0,0,0,0,0,0,0,0,0,0,0,0],"id":1,"left_children":[1,3,5,7,9,11,13,15,17,19,21,23,25,27,29,31,33,-1,35,37,39,41,43,45,-1,-1,47,49,-1,-1,51,53,55,57,-1,59,61,-1,-1,63,65,-1,67,69,71,-1,-1,-1,73,75,77,-1,-1,-1,-1,-1,-1,-1,-1,-1,-1,-1,-1,-1,-1,-1,-1,-1,-1,-1,-1,-1,-1,-1,-1,-1,-1,-1,-1],"loss_changes":[1.4223983E1,3.051134E0,1.5195117E0,3.1086285E0,1.0967827E0,9.1414094E-1,1.309001E0,1.4029517E0,2.4214282E0,3.6057663E-1,1.1879597E0,5.8125E-1,8.484987E-1,7.6406E-1,9.375E-1,1.0937235E0,1.0166667E0,0E0,8.7333345E-1,2.5E-1,2.240181E-2,2.9793715E-1,1.765625E0,3.9583334E-1,0E0,0E0,9.8385406E-1,1.2668228E-1,0E0,0E0,5.5E-1,4.875E-1,6.934891E-1,4.875E-1,0E0,3.541667E-1,6.4541674E-1,0E0,0E0,1.1934662E-1,5.5E-1,0E0,4.8214287E-1,6.5625E-1,6.2946427E-1,0E0,0E0,0E0,3.58114E-1,4.875E-1,8.39386E-2,0E0,0E0,0E0,0E0,0E0,0E0,0E0,0E0,0E0,0E0,0E0,0E0,0E0,0E0,0E0,0E0,0E0,0E0,0E0,0E0,0E0,0E0,0E0,0E0,0E0,0E0,0E0,0E0],"parents":[2147483647,0,0,1,1,2,2,3,3,4,4,5,5,6,6,7,7,8,8,9,9,10,10,11,11,12,12,13,13,14,14,15,15,16,16,18,18,19,19,20,20,21,21,22,22,23,23,26,26,27,27,30,30,31,31,32,32,33,33,35,35,36,36,39,39,40,40,42,42,43,43,44,44,48,48,49,49,50,50],"right_children":[2,4,6,8,10,12,14,16,18,20,22,24,26,28,30,32,34,-1,36,38,40,42,44,46,-1,-1,48,50,-1,-1,52,54,56,58,-1,60,62,-1,-1,64,66,-1,68,70,72,-1,-1,-1,74,76,78,-1,-1,-1,-1,-1,-1,-1,-1,-1,-1,-1,-1,-1,-1,-1,-1,-1,-1,-1,-1,-1,-1,-1,-1,-1,-1,-1,-1],"split_conditions":[7.02714E-3,2.2868635E-2,1.7293394E-2,-8.361578E-3,9.961227E-3,3.070201E-3,8.142084E-3,2.7917052E-2,-4.5424037E-2,-1.0684491E-1,-5.2198046E-3,-3.0995632E-2,-5.0782982E-2,1.2739015E-1,-1.641217E-2,-8.54304E-2,-1.25561245E-2,-3.350006E-1,-3.7648328E-2,1.750522E-3,2.4051148E-2,-6.1173533E-4,5.9743747E-2,1.0137024E-1,-1.7900002E0,-2.9949996E0,-6.075604E-2,1.9907486E-2,-1.0500001E0,-5.78E0,4.666178E-2,-8.16528E-2,-7.1772285E-2,5.068012E-2,6.6300006E0,-1.2779632E-2,1.3020848E-1,-9.010001E0,1.45E0,3.6153916E-2,-6.0002632E-2,-4E0,-2.7309787E-2,-5.0427485E-2,1.0480869E-1,8.085E0,-2.7300003E0,-1.8000001E0,-5.670422E-3,2.3545753E-2,8.176444E-2,6.2525E0,-4.1800003E0,-3.8100007E0,1.8899994E0,4.5000002E-1,-4.05E0,1.28E1,-4.3199997E0,1.17E1,-5.1125E0,7.5649996E0,-1.2899994E0,-5.85E0,-3.1650002E0,7.4300003E0,-5.465E0,-7.3199997E0,8.800003E-1,-8.85E0,4.5E0,-6.1400003E0,1.815E1,8.21E0,3.300003E-1,8.72E0,-7.5399995E0,8.32E0,9.72E0],"split_indices":[8,6,3,2,2,5,6,9,8,5,9,2,9,5,0,0,3,0,7,0,5,8,3,1,0,0,3,8,0,0,8,2,5,1,0,0,5,0,0,7,0,0,0,3,2,0,0,0,3,0,9,0,0,0,0,0,0,0,0,0,0,0,0,0,0,0,0,0,0,0,0,0,0,0,0,0,0,0,0],"split_type":[0,0,0,0,0,0,0,0,0,0,0,0,0,0,0,0,0,0,0,0,0,0,0,0,0,0,0,0,0,0,0,0,0,0,0,0,0,0,0,0,0,0,0,0,0,0,0,0,0,0,0,0,0,0,0,0,0,0,0,0,0,0,0,0,0,0,0,0,0,0,0,0,0,0,0,0,0,0,0],"sum_hessian":[2.79E2,1.79E2,1E2,9.5E1,8.4E1,4E1,6E1,6.1E1,3.4E1,5.3E1,3.1E1,7E0,3.3E1,5.2E1,8E0,5.2E1,9E0,5E0,2.9E1,2E0,5.1E1,1.6E1,1.5E1,3E0,4E0,2E0,3.1E1,5.1E1,1E0,3E0,5E0,4E0,4.8E1,4E0,5E0,5E0,2.4E1,1E0,1E0,4.6E1,5E0,1E1,6E0,8E0,7E0,2E0,1E0,2E0,2.9E1,4E0,4.7E1,4E0,1E0,1E0,3E0,3E0,4.5E1,1E0,3E0,3E0,2E0,2.3E1,1E0,4.2E1,4E0,1E0,4E0,3E0,3E0,1E0,7E0,6E0,1E0,1.8E1,1.1E1,3E0,1E0,4.2E1,5E0],"tree_param":{"num_deleted":"0","num_feature":"10","num_nodes":"79","size_leaf_vector":"1"}},{"base_weights":[7.1174377E-3,-9.3596056E-2,2.658228E-1,-2.080537E-1,2.1818182E-1,-1.5E-1,3.2142857E-1,-2.5403225E-1,1.923077E-2,4E-2,3.548387E-1,-4.2857144E-2,3.75E-2,1.724138E-1,4.1666666E-1,-2.7731094E-1,2.5E-1,-4.1666668E-2,1.4285715E-1,1.5789473E-1,-2.857143E-1,-0E0,4.782609E-2,-4.1666668E-2,3.0555555E-1,1.4285715E-1,4.5833334E-1,2E-1,-2.9565218E-1,-2.5E-2,4.0000003E-2,4.2857144E-2,-0E0,-1.875E-1,3.75E-1,-4.1666668E-2,2.5E-2,4.0000003E-2,-4.0000003E-2,1.875E-1,-4.0000003E-2,4.0625E-1,-3.3333335E-2,-1.25E-1,3.75E-2,4.8437502E-2,2E-1,3.75E-2,-2.5E-2,-0E0,-3.119266E-2,-3.75E-2,1.25E-2,1.25E-2,-4.0000003E-2,4.4999998E-2,-0E0,-1.25E-2,4.0000003E-2,4.6428572E-2,-0E0,2.5E-2,-3.3333335E-2,3.75E-2,-2.5E-2],"categories":[],"categories_nodes":[],"categories_segments":[],"categories_sizes":[],"default_left":[1,1,0,1,1,1,0,1,0,1,0,0,0,0,0,0,0,0,1,0,0,0,0,0,1,0,0,1,0,0,0,0,0,0,1,0,0,0,0,0,0,1,0,0,0,0,0,0,0,0,0,0,0,0,0,0,0,0,0,0,0,0,0,0,0],"id":2,"left_children":[1,3,5,7,9,11,13,15,17,19,21,-1,-1,23,25,27,29,-1,31,33,35,37,-1,39,41,43,45,47,49,-1,-1,-1,51,53,55,-1,-1,-1,-1,57,-1,59,-1,61,-1,-1,63,-1,-1,-1,-1,-1,-1,-1,-1,-1,-1,-1,-1,-1,-1,-1,-1,-1,-1],"loss_changes":[7.3463683E0,7.289521E0,1.8748646E0,1.5619664E0,1.3250442E0,1.6232142E0,9.2159224E-1,1.5242443E0,1.4606227E0,1.0051129E0,1.3576436E0,0E0,0E0,8.3932E-1,4.1369057E-1,1.100913E0,5.5E-1,0E0,8.571428E-1,1.4950658E0,5.9523803E-1,1.6E0,0E0,1.0604166E0,1.2934027E0,4.8214287E-1,1.4531231E-1,4.875E-1,5.533314E-1,0E0,0E0,0E0,7.5E-1,5.8125E-1,3.375001E-1,0E0,0E0,0E0,0E0,5.8125E-1,0E0,3.7723207E-1,0E0,3.9583334E-1,0E0,0E0,4.875E-1,0E0,0E0,0E0,0E0,0E0,0E0,0E0,0E0,0E0,0E0,0E0,0E0,0E0,0E0,0E0,0E0,0E0,0E0],"parents":[2147483647,0,0,1,1,2,2,3,3,4,4,5,5,6,6,7,7,8,8,9,9,10,10,13,13,14,14,15,15,16,16,18,18,19,19,20,20,21,21,23,23,24,24,25,25,26,26,27,27,28,28,32,32,33,33,34,34,39,39,41,41,43,43,46,46],"right_children":[2,4,6,8,10,12,14,16,18,20,22,-1,-1,24,26,28,30,-1,32,34,36,38,-1,40,42,44,46,48,50,-1,-1,-1,52,54,56,-1,-1,-1,-1,58,-1,60,-1,62,-1,-1,64,-1,-1,-1,-1,-1,-1,-1,-1,-1,-1,-1,-1,-1,-1,-1,-1,-1,-1],"split_conditions":[8.100982E-3,7.02714E-3,-2.3450946E-2,2.8284032E-2,-5.514555E-3,1.5568459E-2,1.549073E-2,7.076875E-2,-4.5424037E-2,7.120998E-2,-1.9441826E-2,-7.0699997E0,3.753E0,6.6867573E-3,1.7293394E-2,-8.116674E-2,-4.1235074E-2,-3.0149993E-1,-4.358892E-2,-2.5664712E-3,4.3373402E-2,4.658939E-2,7.1585E0,6.662945E-2,6.447678E-2,3.081083E-2,1.04135655E-1,-3.82074E-2,-9.2695475E-2,-3.8879998E0,7.3892503E0,9.535999E0,-3.3881318E-2,-1.728445E-2,4.034337E-2,-7.51001E-1,7.0489993E0,1.1255249E1,-1.5680001E0,2.5315236E-2,-4.7799997E0,8.989708E-2,-3.735125E0,3.626394E-2,1.0397E1,1.0298001E1,5.9871137E-2,1.4649963E-1,-6.6349998E0,-5.540001E-1,-3.7849998E0,-3.8050003E0,1.9084991E0,3.6414993E0,-3.2795007E0,4.909E0,3.0789993E0,-5.1199955E-1,9.16175E0,7.9880004E0,3.954998E-1,9.387E0,-2.7330003E0,3.8500062E-1,-1.8150002E0],"split_indices":[3,8,2,2,0,8,9,0,8,7,3,0,0,4,3,5,3,0,5,5,2,4,0,3,4,0,8,0,0,0,0,0,5,5,9,0,0,0,0,3,0,8,0,5,0,0,0,0,0,0,0,0,0,0,0,0,0,0,0,0,0,0,0,0,0],"split_type":[0,0,0,0,0,0,0,0,0,0,0,0,0,0,0,0,0,0,0,0,0,0,0,0,0,0,0,0,0,0,0,0,0,0,0,0,0,0,0,0,0,0,0,0,0,0,0,0,0,0,0,0,0,0,0,0,0,0,0,0,0,0,0,0,0],"sum_hessian":[2.8E2,2.02E2,7.8E1,1.48E2,5.4E1,9E0,6.9E1,1.23E2,2.5E1,2.4E1,3E1,6E0,3E0,2.8E1,4.1E1,1.18E2,5E0,5E0,2E1,1.8E1,6E0,8E0,2.2E1,1.1E1,1.7E1,6E0,3.5E1,4E0,1.14E2,1E0,4E0,6E0,1.4E1,7E0,1.1E1,5E0,1E0,4E0,4E0,7E0,4E0,1.5E1,2E0,3E0,3E0,3.1E1,4E0,3E0,1E0,6E0,1.08E2,3E0,1.1E1,3E0,4E0,9E0,2E0,3E0,4E0,1.3E1,2E0,1E0,2E0,3E0,1E0],"tree_param":{"num_deleted":"0","num_feature":"10","num_nodes":"65","size_leaf_vector":"1"}},{"base_weights":[-2.6785715E-2,-1.4814815E-1,2.228261E-1,-0E0,-2.8865978E-1,3.0136988E-1,-7.5E-2,-1.0769231E-1,2.413793E-1,-3.809524E-1,-1.14285715E-1,1.2903225E-1,4.1860464E-1,-3.0769232E-1,3.125E-1,9.52381E-2,-2E-1,-4.0000003E-2,3.6E-1,3.75E-2,-4.25E-1,-3.846154E-1,4.347826E-2,1.9642857E-1,-3.75E-2,-2.5E-2,4.4047618E-1,-3.75E-1,2.5E-2,4.1666668E-2,-0E0,-1.25E-1,3.5E-1,-3.9583334E-1,2.2727273E-2,-2.5E-2,3.9583334E-1,-0E0,-4.3965518E-1,-1.25E-1,-4.4999998E-2,-2.5E-1,2.5E-1,2.9545453E-1,-1.4285715E-1,-2.5E-2,4.6341464E-1,-4.5454547E-2,2.5E-2,-2.5E-2,2.5E-2,8.333334E-3,-2.857143E-2,4.4444446E-2,-2.5E-2,2.5E-2,-4.347826E-2,1.7857144E-2,-2.2222223E-2,2.2222223E-2,4.6875E-2,-2.5E-2,2.5E-2,-4.883721E-2,-2.8125001E-2,-3.3333335E-2,2.5E-2,2.5E-2,-3.3333335E-2,-2.5E-2,3.0769233E-2,1.25E-2,4.5454547E-2,3.3333335E-2,-4.0000003E-2,2.5E-2,4.8611112E-2],"categories":[],"categories_nodes":[],"categories_segments":[],"categories_sizes":[],"default_left":[1,0,0,1,0,0,1,0,0,0,0,0,0,1,0,0,1,0,0,0,0,0,1,0,0,0,0,1,0,0,0,0,1,0,1,0,0,0,1,1,0,0,0,0,0,0,0,0,0,0,0,0,0,0,0,0,0,0,0,0,0,0,0,0,0,0,0,0,0,0,0,0,0,0,0,0,0],"id":3,"left_children":[1,3,5,7,9,11,13,15,17,19,21,23,25,27,29,31,33,-1,35,-1,37,39,41,43,-1,-1,45,47,-1,-1,49,51,53,55,57,-1,59,61,63,65,-1,67,69,71,73,-1,75,-1,-1,-1,-1,-1,-1,-1,-1,-1,-1,-1,-1,-1,-1,-1,-1,-1,-1,-1,-1,-1,-1,-1,-1,-1,-1,-1,-1,-1,-1],"loss_changes":[8.515191E0,3.9343257E0,2.1747022E0,2.4435015E0,1.5175266E0,1.4208751E0,1.8995192E0,1.23663E0,2.3503447E0,2.257142E0,1.5094123E0,1.1267282E0,7.3892593E-1,5.817307E-1,2.6041663E-1,1.2220238E0,1.9717805E0,0E0,6.4541674E-1,0E0,3.7370682E-1,1.6442323E-1,1.4565217E0,9.829544E-1,0E0,0E0,7.810688E-1,7.1022725E-1,0E0,0E0,2.5E-1,4.2559528E-1,6.7777777E-1,7.1240926E-1,8.795094E-1,0E0,1.9965267E-1,2.5E-1,3.1023216E-1,3.9583334E-1,0E0,5E-1,4.8076928E-1,5.3977275E-1,9.904762E-1,0E0,7.706642E-2,0E0,0E0,0E0,0E0,0E0,0E0,0E0,0E0,0E0,0E0,0E0,0E0,0E0,0E0,0E0,0E0,0E0,0E0,0E0,0E0,0E0,0E0,0E0,0E0,0E0,0E0,0E0,0E0,0E0,0E0],"parents":[2147483647,0,0,1,1,2,2,3,3,4,4,5,5,6,6,7,7,8,8,9,9,10,10,11,11,12,12,13,13,14,14,15,15,16,16,18,18,20,20,21,21,22,22,23,23,26,26,27,27,30,30,31,31,32,32,33,33,34,34,36,36,37,37,38,38,39,39,41,41,42,42,43,43,44,44,46,46],"right_children":[2,4,6,8,10,12,14,16,18,20,22,24,26,28,30,32,34,-1,36,-1,38,40,42,44,-1,-1,46,48,-1,-1,50,52,54,56,58,-1,60,62,64,66,-1,68,70,72,74,-1,76,-1,-1,-1,-1,-1,-1,-1,-1,-1,-1,-1,-1,-1,-1,-1,-1,-1,-1,-1,-1,-1,-1,-1,-1,-1,-1,-1,-1,-1,-1],"split_conditions":[1.482098E-2,1.9186998E-2,1.0137024E-1,3.081083E-2,6.727791E-3,3.908664E-2,2.7917052E-2,-2.3547418E-2,-3.665608E-2,-7.449446E-2,-3.0072445E-2,3.220094E-2,-7.653558E-2,5.9743747E-2,7.076875E-2,-4.9105015E-2,-1.2672827E-2,-3.6328495E0,-6.917231E-2,1.2903503E0,-1.0463037E-1,4.1276824E-2,-5.1403873E-2,6.713621E-2,-3.8015504E0,-5.718994E-1,1.5568459E-2,5.19959E-2,1.10582E1,9.89315E0,3.4943544E-3,5.068012E-2,4.034337E-2,-7.563562E-2,5.068012E-2,-4.6369996E0,-1.3750639E-2,-5.2737556E-2,1.6280675E-2,-2.7309787E-2,-3.4245002E0,-1.03593096E-1,2.5050595E-2,1.9632837E-2,-1.8061887E-2,-4.87405E0,5.2858043E-2,-1.8119751E0,7.2151184E-2,-1.624051E0,1.30282E1,7.835007E-1,-5.1164994E0,3.57275E0,-5.4945006E0,1.7563995E0,-3.9667497E0,2.91765E0,-2.8141243E0,3.900009E-1,3.9346986E0,-4.886501E0,2.4349976E-1,-5.301501E0,-2.275E0,-5.6131754E0,3.1205003E0,1.5350342E-2,-6.4385004E0,-3.4149933E-1,2.0123367E0,2.6061006E0,7.9747005E0,7.424025E0,-1.3508004E0,4.5134506E0,8.4092E0],"split_indices":[8,6,1,0,2,3,9,5,3,4,9,3,6,3,0,0,2,0,6,0,9,6,8,0,0,0,8,2,0,0,2,1,9,9,1,0,2,0,0,0,0,0,2,9,2,0,3,0,0,0,0,0,0,0,0,0,0,0,0,0,0,0,0,0,0,0,0,0,0,0,0,0,0,0,0,0,0],"split_type":[0,0,0,0,0,0,0,0,0,0,0,0,0,0,0,0,0,0,0,0,0,0,0,0,0,0,0,0,0,0,0,0,0,0,0,0,0,0,0,0,0,0,0,0,0,0,0,0,0,0,0,0,0,0,0,0,0,0,0,0,0,0,0,0,0,0,0,0,0,0,0,0,0,0,0,0,0],"sum_hessian":[2.79E2,1.88E2,9.1E1,9.2E1,9.6E1,7.2E1,1.9E1,6.4E1,2.8E1,6.2E1,3.4E1,3E1,4.2E1,1.2E1,7E0,2E1,4.4E1,4E0,2.4E1,3E0,5.9E1,1.2E1,2.2E1,2.7E1,3E0,1E0,4.1E1,1.1E1,1E0,5E0,2E0,1.1E1,9E0,2.3E1,2.1E1,1E0,2.3E1,2E0,5.7E1,3E0,9E0,9E0,1.3E1,2.1E1,6E0,1E0,4E1,1E1,1E0,1E0,1E0,5E0,6E0,8E0,1E0,1E0,2.2E1,1.3E1,8E0,8E0,1.5E1,1E0,1E0,4.2E1,1.5E1,2E0,1E0,1E0,8E0,1E0,1.2E1,1.1E1,1E1,2E0,4E0,5E0,3.5E1],"tree_param":{"num_deleted":"0","num_feature":"10","num_nodes":"77","size_leaf_vector":"1"}},{"base_weights":[-3.057554E-2,-1.0514019E-1,2.1538462E-1,-2.5E-1,4.761905E-2,1.0227273E-1,4.318182E-1,-3.3802816E-1,-8.75E-2,-1.7045455E-2,3.611111E-1,-2.857143E-1,1.7105263E-1,4.75E-2,-0E0,-3.7121212E-1,8.3333336E-2,1.1363637E-1,-3.1578946E-1,4.2857144E-2,-5.487805E-2,4.117647E-1,-2.5E-2,2.5E-2,-4.1666668E-2,-1.5E-1,2.7586207E-1,2.5E-2,-2.5E-2,-1.7391305E-1,-4.659091E-1,3.75E-2,-3.3333335E-2,2.5E-1,-4.0000003E-2,-3.611111E-1,2.5E-2,-2.361111E-1,8.510638E-2,-2.5E-2,4.6875E-2,8.3333336E-2,-4.0000003E-2,3.9583334E-1,-2.5E-1,-3.0555556E-2,2.5E-2,-4.8750002E-2,-2.0000001E-2,-3.3333335E-2,3.4375E-2,-4.5833334E-2,-1.4285715E-2,-0E0,-3.8636364E-2,-1.7857144E-2,1.9117648E-2,3.3333335E-2,-1.25E-2,4.347826E-2,-2.5E-2,2.5E-2,-4.0000003E-2],"categories":[],"categories_nodes":[],"categories_segments":[],"categories_sizes":[],"default_left":[1,0,1,1,1,0,0,1,1,0,0,0,0,0,0,1,0,1,1,0,1,0,0,0,0,0,1,0,0,0,1,0,0,0,0,0,0,0,0,0,0,0,0,1,0,0,0,0,0,0,0,0,0,0,0,0,0,0,0,0,0,0,0],"id":4,"left_children":[1,3,5,7,9,11,13,15,17,19,21,23,25,-1,27,29,31,33,35,-1,37,39,-1,-1,-1,41,43,-1,-1,45,47,-1,-1,49,-1,51,-1,53,55,-1,-1,57,-1,59,61,-1,-1,-1,-1,-1,-1,-1,-1,-1,-1,-1,-1,-1,-1,-1,-1,-1,-1],"loss_changes":[5.1211467E0,4.7474413E0,1.5471153E0,1.5439253E0,2.1346953E0,1.2230434E0,4.102273E-1,1.0236883E0,1.8725778E0,1.5070974E0,6.601305E-1,5.9523803E-1,1.3200543E0,0E0,2.5E-1,1.152091E0,8.541667E-1,1.6409091E0,5.7748544E-1,0E0,2.1004186E0,7.582722E-1,0E0,0E0,0E0,6.166667E-1,1.9285204E0,0E0,0E0,1.3599033E0,1.5511417E-1,0E0,0E0,1.0989583E0,0E0,3.16468E-1,0E0,1.2771466E0,1.3486501E0,0E0,0E0,3.541667E-1,0E0,7.1240926E-1,5.5E-1,0E0,0E0,0E0,0E0,0E0,0E0,0E0,0E0,0E0,0E0,0E0,0E0,0E0,0E0,0E0,0E0,0E0,0E0],"parents":[2147483647,0,0,1,1,2,2,3,3,4,4,5,5,6,6,7,7,8,8,9,9,10,10,11,11,12,12,14,14,15,15,16,16,17,17,18,18,20,20,21,21,25,25,26,26,29,29,30,30,33,33,35,35,37,37,38,38,41,41,43,43,44,44],"right_children":[2,4,6,8,10,12,14,16,18,20,22,24,26,-1,28,30,32,34,36,-1,38,40,-1,-1,-1,42,44,-1,-1,46,48,-1,-1,50,-1,52,-1,54,56,-1,-1,58,-1,60,62,-1,-1,-1,-1,-1,-1,-1,-1,-1,-1,-1,-1,-1,-1,-1,-1,-1,-1],"split_conditions":[1.7293394E-2,5.386331E-3,1.9632837E-2,-1.0776975E-3,4.448548E-2,-1.107952E-2,1.0329702E-1,2.4051148E-2,-2.1981675E-2,-5.523112E-2,7.803383E-2,-3.82074E-2,-5.696818E-3,8.917281E0,3.8075905E-2,-7.174256E-2,4.597154E-2,2.732605E-2,8.7867975E-2,2.216575E0,-2.0217512E-2,1.1785484E-2,-1.4616455E0,9.256551E0,-9.8964995E-1,2.9894229E-2,6.447678E-2,1.7876532E1,-6.496888E-2,4.5529027E-2,-9.113274E-3,7.5956497E0,-6.2028503E0,-8.237869E-2,-2.7563508E0,2.4165425E-3,7.8111053E0,8.5530706E-2,-1.5998974E-2,-3.1795502E0,8.91568E0,-1.15950145E-2,-3.871812E0,1.0766178E-1,-3.7462503E-2,-2.800351E0,2.8951662E0,-3.7590005E0,-3.855063E0,-4.3676753E0,2.5499666E0,-4.56485E0,-1.0565919E0,7.152054E-1,-3.327051E0,-7.116715E-1,2.625885E0,6.6505218E0,-7.214096E-1,5.9327807E0,-2.7271882E-1,1.1903002E1,-4.0231147E0],"split_indices":[3,8,9,9,9,7,8,5,5,4,0,0,4,0,0,4,5,4,4,0,2,8,0,0,0,3,4,0,0,2,3,0,0,8,0,2,0,8,3,0,0,2,0,5,2,0,0,0,0,0,0,0,0,0,0,0,0,0,0,0,0,0,0],"split_type":[0,0,0,0,0,0,0,0,0,0,0,0,0,0,0,0,0,0,0,0,0,0,0,0,0,0,0,0,0,0,0,0,0,0,0,0,0,0,0,0,0,0,0,0,0,0,0,0,0,0,0,0,0,0,0,0,0,0,0,0,0,0,0],"sum_hessian":[2.77E2,2.13E2,6.4E1,1.09E2,1.04E2,4.3E1,2.1E1,7E1,3.9E1,8.7E1,1.7E1,6E0,3.7E1,1.9E1,2E0,6.5E1,5E0,2.1E1,1.8E1,6E0,8.1E1,1.6E1,1E0,1E0,5E0,9E0,2.8E1,1E0,1E0,2.2E1,4.3E1,3E0,2E0,1.7E1,4E0,1.7E1,1E0,3.5E1,4.6E1,1E0,1.5E1,5E0,4E0,2.3E1,5E0,1.7E1,5E0,3.9E1,4E0,2E0,1.5E1,1.1E1,6E0,1.4E1,2.1E1,1.3E1,3.3E1,2E0,3E0,2.2E1,1E0,1E0,4E0],"tree_param":{"num_deleted":"0","num_feature":"10","num_nodes":"63","size_leaf_vector":"1"}},{"base_weights":[-1.2411348E-2,-1.0969388E-1,2.0689656E-1,-2.1582734E-2,-3.1896552E-1,1.4084508E-1,4.7058824E-2,-1.15E-1,2.125E-1,-3.4545454E-1,1.25E-1,9.52381E-2,4.4444446E-2,7E-2,-2.9411766E-1,8.928572E-2,4.6153847E-2,-3.75E-1,1.25E-1,3.3333335E-2,-2.5E-2,1.632653E-1,-1.3333334E-1,-6.896552E-2,2.5E-1,-4.4827586E-1,-8.695652E-2,2.3809524E-1,-3.125E-1,2.5E-2,-3.9215687E-1,-2.5E-2,3.3333335E-2,2.3255815E-1,-2.857143E-1,-4.2857144E-2,1.1111111E-1,4.1666668E-2,-1.875E-2,-2.0000001E-2,3.6111113E-2,-4.814815E-2,-0E0,1.3333335E-2,-4.4444446E-2,4.5833334E-2,-5.0000004E-3,-4.2857144E-2,2.5E-2,-2.9545454E-2,-4.4999998E-2,3.125E-3,3.392857E-2,-4.1666668E-2,2.5E-2,3.75E-2,-8.333334E-3],"categories":[],"categories_nodes":[],"categories_segments":[],"categories_sizes":[],"default_left":[1,1,1,1,1,0,0,1,1,1,1,1,0,1,0,0,0,0,0,0,0,0,0,0,0,1,1,1,0,0,0,0,0,0,1,0,1,0,0,0,0,0,0,0,0,0,0,0,0,0,0,0,0,0,0,0,0],"id":5,"left_children":[1,3,5,7,9,11,-1,13,15,17,19,21,-1,23,25,27,-1,29,31,-1,-1,33,35,37,39,41,43,45,47,-1,49,-1,-1,51,53,-1,55,-1,-1,-1,-1,-1,-1,-1,-1,-1,-1,-1,-1,-1,-1,-1,-1,-1,-1,-1,-1],"loss_changes":[6.039117E0,3.607192E0,1.4490187E0,3.0640016E0,7.252741E-1,9.407557E-1,0E0,3.3342645E0,1.1861953E0,8.113637E-1,3.9583334E-1,1.0013604E0,0E0,1.267931E0,1.5897346E0,1.7485119E0,0E0,6.5563726E-1,3.9583334E-1,0E0,0E0,1.5908874E0,1.1301588E0,1.7474856E0,1.1722224E0,4.3167305E-1,1.8705316E0,1.3553572E0,6.2946427E-1,0E0,1.5231705E-1,0E0,0E0,9.132581E-1,5.9523803E-1,0E0,4.9305558E-1,0E0,0E0,0E0,0E0,0E0,0E0,0E0,0E0,0E0,0E0,0E0,0E0,0E0,0E0,0E0,0E0,0E0,0E0,0E0,0E0],"parents":[2147483647,0,0,1,1,2,2,3,3,4,4,5,5,7,7,8,8,9,9,10,10,11,11,13,13,14,14,15,15,17,17,18,18,21,21,22,22,23,23,24,24,25,25,26,26,27,27,28,28,30,30,33,33,34,34,36,36],"right_children":[2,4,6,8,10,12,-1,14,16,18,20,22,-1,24,26,28,-1,30,32,-1,-1,34,36,38,40,42,44,46,48,-1,50,-1,-1,52,54,-1,56,-1,-1,-1,-1,-1,-1,-1,-1,-1,-1,-1,-1,-1,-1,-1,-1,-1,-1,-1,-1],"split_conditions":[9.961227E-3,2.2868635E-2,4.448548E-2,9.438663E-3,6.3503675E-2,9.403057E-2,8.312608E0,5.068012E-2,5.608052E-2,4.5972344E-2,-1.8947058E-3,4.44058E-2,9.440277E0,1.750522E-3,1.9632837E-2,7.803383E-2,7.4617095E0,-9.10059E-2,-1.641217E-2,2.6518638E0,-7.9334903E0,6.0618393E-2,1.1543833E-2,-5.4925088E-2,-3.665608E-2,-8.361578E-3,-3.0995632E-2,2.7808929E-2,1.0137024E-1,1.4413513E0,-1.5689598E-3,-7.4871287E0,2.929589E0,-1.641217E-2,4.5340985E-2,-1.4815193E0,5.3830603E-3,9.8518676E-1,-1.6151482E0,-1.4300171E0,3.6409683E0,-3.914929E0,-1.0574917E0,2.9139595E0,-1.7938973E0,4.34966E0,-6.6674656E-1,-2.6076114E0,6.7871203E0,-2.9936454E0,-4.373646E0,6.8893433E-3,2.6056488E0,-1.7526535E0,8.468643E0,6.975002E0,-1.976532E-1],"split_indices":[2,6,9,4,0,2,0,1,7,3,2,5,0,0,9,0,0,4,0,0,0,2,3,9,3,2,2,5,1,0,4,0,0,0,0,0,0,0,0,0,0,0,0,0,0,0,0,0,0,0,0,0,0,0,0,0,0],"split_type":[0,0,0,0,0,0,0,0,0,0,0,0,0,0,0,0,0,0,0,0,0,0,0,0,0,0,0,0,0,0,0,0,0,0,0,0,0,0,0,0,0,0,0,0,0,0,0,0,0,0,0,0,0,0,0,0,0],"sum_hessian":[2.81E2,1.95E2,8.6E1,1.38E2,5.7E1,7E1,1.6E1,9.9E1,3.9E1,5.4E1,3E0,6.2E1,8E0,4.9E1,5E1,2.7E1,1.2E1,5.1E1,3E0,2E0,1E0,4.8E1,1.4E1,2.8E1,2.1E1,2.8E1,2.2E1,2E1,7E0,1E0,5E1,1E0,2E0,4.2E1,6E0,6E0,8E0,5E0,2.3E1,4E0,1.7E1,2.6E1,2E0,1.4E1,8E0,1.1E1,9E0,6E0,1E0,2.1E1,2.9E1,1.5E1,2.7E1,5E0,1E0,3E0,5E0],"tree_param":{"num_deleted":"0","num_feature":"10","num_nodes":"57","size_leaf_vector":"1"}},{"base_weights":[-3.6713287E-2,-1.0585585E-1,2E-1,-5.277778E-2,-3.255814E-1,2.4166666E-1,-2.5E-1,-9.1772154E-2,2.173913E-1,-3.6585367E-1,3.3333335E-2,1.2820514E-1,4.318182E-1,2.5E-2,-4.0000003E-2,-1.980198E-2,-2.1551724E-1,-4.1666668E-2,4.5833334E-2,-4.4444445E-1,-2E-1,1.6216215E-1,-3.3333335E-2,4.7222223E-2,2E-1,1.1956522E-1,-1.3392857E-1,-2.9807693E-1,4.2857144E-2,2.5E-1,-2.857143E-1,-4.782609E-2,-2E-1,-3.0769232E-1,3.3333335E-2,5.357143E-2,4.4999998E-2,3.3333335E-2,-0E0,2.3214286E-2,-5.263158E-3,-2.3076924E-2,8.333334E-3,-3.6458336E-2,4.0000003E-2,4.0000003E-2,-2.5E-2,2.5E-2,-4.1666668E-2,2.5E-2,-3.75E-2,-0E0,-4.4444446E-2,1.4583333E-2,-4.0000003E-2,-2.5E-2,2.5E-2],"categories":[],"categories_nodes":[],"categories_segments":[],"categories_sizes":[],"default_left":[1,1,1,1,1,1,0,1,1,1,0,1,1,0,0,0,1,0,0,0,1,1,0,0,0,1,1,1,0,0,0,0,0,0,0,0,0,0,0,0,0,0,0,0,0,0,0,0,0,0,0,0,0,0,0,0,0],"id":6,"left_children":[1,3,5,7,9,11,13,15,17,19,-1,21,23,-1,-1,25,27,29,-1,31,33,35,-1,-1,37,39,41,43,-1,45,47,-1,49,51,-1,53,-1,-1,55,-1,-1,-1,-1,-1,-1,-1,-1,-1,-1,-1,-1,-1,-1,-1,-1,-1,-1],"loss_changes":[4.702123E0,2.5719156E0,1.2791667E0,1.9162637E0,1.262999E0,1.2391315E0,5.5E-1,1.4028732E0,1.45471E0,4.455285E-1,0E0,6.652807E-1,1.11616135E-1,0E0,0E0,1.622469E0,3.2119412E0,9.255953E-1,0E0,1.2753582E-1,9.641026E-1,1.1323842E0,0E0,0E0,1.3333334E-1,9.0395147E-1,1.1974589E0,2.5600162E0,0E0,5.5E-1,5.9523803E-1,0E0,4.875E-1,5.470085E-1,0E0,1.2300595E0,0E0,0E0,2.5E-1,0E0,0E0,0E0,0E0,0E0,0E0,0E0,0E0,0E0,0E0,0E0,0E0,0E0,0E0,0E0,0E0,0E0,0E0],"parents":[2147483647,0,0,1,1,2,2,3,3,4,4,5,5,6,6,7,7,8,8,9,9,11,11,12,12,15,15,16,16,17,17,19,19,20,20,21,21,24,24,25,25,26,26,27,27,29,29,30,30,32,32,33,33,35,35,38,38],"right_children":[2,4,6,8,10,12,14,16,18,20,-1,22,24,-1,-1,26,28,30,-1,32,34,36,-1,-1,38,40,42,44,-1,46,48,-1,50,52,-1,54,-1,-1,56,-1,-1,-1,-1,-1,-1,-1,-1,-1,-1,-1,-1,-1,-1,-1,-1,-1,-1],"split_conditions":[1.7293394E-2,3.391355E-2,8.636769E-2,4.448548E-2,1.0300346E-1,1.9632837E-2,-9.361912E-3,5.068012E-2,9.438663E-3,-1.0776975E-3,7.550963E0,5.622106E-2,5.62386E-2,9.96653E0,-5.828293E-1,-5.071659E-3,2.4574144E-2,1.2152797E-3,5.620102E0,3.9062154E-2,-7.2837663E-3,1.747503E-2,-3.8761551E0,8.278607E0,9.295276E-2,-4.42235E-2,9.015599E-3,5.4151524E-2,4.064117E0,1.9913213E-2,-4.1471593E-2,-3.632836E0,-2.3677247E-2,-2.9449128E-3,3.5256355E0,-1.3138774E-3,6.1084075E0,9.42964E0,5.9871137E-2,2.968567E-1,-2.1282616E-1,-1.267326E0,8.82843E-1,-2.943789E0,4.394649E0,5.6459856E0,-2.5000398E0,1.0192172E1,-1.1539673E0,3.4405212E0,-4.753785E0,-2.3318508E0,-4.134559E0,3.4649506E-1,-1.7107872E0,-3.4986725E-1,4.9237304E0],"split_indices":[3,6,5,9,4,9,9,1,4,9,0,4,0,0,0,5,4,3,0,2,2,5,0,0,2,4,0,2,0,0,4,0,0,4,0,5,0,0,0,0,0,0,0,0,0,0,0,0,0,0,0,0,0,0,0,0,0],"split_type":[0,0,0,0,0,0,0,0,0,0,0,0,0,0,0,0,0,0,0,0,0,0,0,0,0,0,0,0,0,0,0,0,0,0,0,0,0,0,0,0,0,0,0,0,0,0,0,0,0,0,0,0,0,0,0,0,0],"sum_hessian":[2.85E2,2.21E2,6.4E1,1.79E2,4.2E1,5.9E1,5E0,1.57E2,2.2E1,4E1,2E0,3.8E1,2.1E1,1E0,4E0,1E2,5.7E1,1.1E1,1.1E1,2.6E1,1.4E1,3.6E1,2E0,1.7E1,4E0,4.5E1,5.5E1,5.1E1,6E0,5E0,6E0,2.2E1,4E0,1.2E1,2E0,2.7E1,9E0,2E0,2E0,2.7E1,1.8E1,3.8E1,1.7E1,4.7E1,4E0,4E0,1E0,1E0,5E0,1E0,3E0,4E0,8E0,2.3E1,4E0,1E0,1E0],"tree_param":{"num_deleted":"0","num_feature":"10","num_nodes":"57","size_leaf_vector":"1"}},{"base_weights":[-3.0797102E-2,-1.257485E-1,1.1363637E-1,-2.6027396E-1,-2.1052632E-2,2.3026316E-1,-1.4285715E-1,-5.882353E-2,-3.1578946E-1,6.481481E-2,-1.3095239E-1,9.677419E-2,3.152174E-1,-3.5416666E-1,2.9166666E-1,4.1666668E-2,-2.9166666E-1,-1.1764706E-1,-3.902439E-1,-1.1764706E-1,1.4473684E-1,-1.6666668E-2,-3.846154E-1,-1.5625E-1,3.4375E-1,1.6E-1,4.7727272E-2,-3.9130434E-1,2.5E-2,-3.3333335E-2,4.4999998E-2,1.25E-1,-4.4444446E-2,-2E-1,3.3333335E-2,-4.1025642E-1,-0E0,9.090909E-2,-4.2857144E-2,2.1666667E-1,-1.1111111E-1,1.764706E-1,-2.5E-1,-4.5454547E-2,-0E0,1.875E-1,-4.4444446E-2,-0E0,4.5833334E-2,2.7777778E-2,4.375E-2,-2.5E-1,-4.6428572E-2,3.3333335E-2,-2.5E-2,3.3333335E-2,-3.0769233E-2,-4.3055557E-2,-1.25E-2,2.5E-2,-2.5E-2,4.0000003E-2,-1.4285715E-2,3.846154E-2,8.333334E-3,2.0000001E-2,-4.0000003E-2,-1.25E-2,2.5E-2,3.3333335E-2,-3.75E-2,-2.5E-2,2.5E-2,2.857143E-2,-2.5E-2,3.3333335E-2,-3.3333335E-2,-1.25E-2,2.857143E-2,-4.375E-2,3.3333335E-2],"categories":[],"categories_nodes":[],"categories_segments":[],"categories_sizes":[],"default_left":[1,0,1,1,0,0,1,1,0,0,0,0,1,1,0,0,0,0,1,1,0,1,1,0,0,1,0,0,0,0,0,0,0,0,0,1,0,1,0,1,1,0,0,0,0,0,0,0,0,0,0,1,0,0,0,0,0,0,0,0,0,0,0,0,0,0,0,0,0,0,0,0,0,0,0,0,0,0,0,0,0],"id":7,"left_children":[1,3,5,7,9,11,13,15,17,19,21,23,25,27,29,-1,31,33,35,37,39,41,43,45,47,49,-1,51,-1,-1,-1,53,-1,55,-1,57,59,61,-1,63,65,67,69,-1,71,73,-1,75,-1,77,-1,79,-1,-1,-1,-1,-1,-1,-1,-1,-1,-1,-1,-1,-1,-1,-1,-1,-1,-1,-1,-1,-1,-1,-1,-1,-1,-1,-1,-1,-1],"loss_changes":[3.7993975E0,2.3465924E0,3.3234367E0,7.978282E-1,9.0498465E-1,8.313694E-1,3.3169641E0,2.0036764E0,7.9498625E-1,8.04495E-1,1.2111721E0,1.9909275E0,1.0807114E0,6.363225E-1,1.3375E0,0E0,8.194444E-1,6.980393E-1,3.2020044E-1,1.1413293E0,7.2339183E-1,1.3960785E0,3.4965038E-1,1.6684027E0,6.3020825E-1,9.0513885E-1,0E0,1.2111783E-1,0E0,0E0,0E0,3.9583334E-1,0E0,9.641026E-1,0E0,1.7200851E-1,2.5E-1,8.51948E-1,0E0,6.3974357E-1,8.888889E-1,4.080882E-1,1.1458333E0,0E0,2.5E-1,4.151786E-1,0E0,6.666667E-1,0E0,7.450397E-1,0E0,1.2395834E0,0E0,0E0,0E0,0E0,0E0,0E0,0E0,0E0,0E0,0E0,0E0,0E0,0E0,0E0,0E0,0E0,0E0,0E0,0E0,0E0,0E0,0E0,0E0,0E0,0E0,0E0,0E0,0E0,0E0],"parents":[2147483647,0,0,1,1,2,2,3,3,4,4,5,5,6,6,7,7,8,8,9,9,10,10,11,11,12,12,13,13,14,14,16,16,17,17,18,18,19,19,20,20,21,21,22,22,23,23,24,24,25,25,27,27,31,31,33,33,35,35,36,36,37,37,39,39,40,40,41,41,42,42,44,44,45,45,47,47,49,49,51,51],"right_children":[2,4,6,8,10,12,14,16,18,20,22,24,26,28,30,-1,32,34,36,38,40,42,44,46,48,50,-1,52,-1,-1,-1,54,-1,56,-1,58,60,62,-1,64,66,68,70,-1,72,74,-1,76,-1,78,-1,80,-1,-1,-1,-1,-1,-1,-1,-1,-1,-1,-1,-1,-1,-1,-1,-1,-1,-1,-1,-1,-1,-1,-1,-1,-1,-1,-1,-1,-1],"split_conditions":[9.015599E-3,-5.14219E-3,-2.9028298E-3,-7.563562E-2,-1.8820165E-3,1.7293394E-2,1.9632837E-2,-7.311851E-2,-2.977038E-2,-1.916334E-2,1.0329702E-1,9.433659E-3,3.1192603E-2,1.0300346E-1,-4.6984635E-2,8.569824E-1,-5.6370094E-2,-3.665608E-2,2.0446286E-2,-3.7343733E-2,1.0137024E-1,2.840468E-2,6.447678E-2,-7.889995E-3,3.070201E-3,-2.4992656E-2,5.1560044E0,1.9070333E-2,2.5907364E0,-2.0574086E0,2.8764818E0,-5.071659E-3,-3.881052E0,-7.1772285E-2,4.19275E0,6.31866E-2,5.068012E-2,5.068012E-2,-6.4160843E0,-2.8796198E-3,1.1010658E-2,-1.107952E-2,5.3830603E-3,-2.8152394E0,1.750522E-3,4.1708443E-2,-1.7208599E0,5.068012E-2,6.6308413E0,3.6153916E-2,4.076874E-1,-1.090325E-2,-2.2798958E0,1.0964177E0,-8.178024E-1,8.867981E-1,-4.791323E0,-3.3976715E0,-2.8448487E-2,1.6818405E0,-2.9077241E0,7.862697E0,-2.1172013E0,4.0054994E0,1.9348099E0,5.7790446E0,-3.174865E0,-2.762278E0,5.497566E0,5.5067596E0,-1.1142868E0,-1.6313187E0,6.9182405E0,1.6483811E0,-2.7488405E-1,4.983722E0,-3.5940845E0,-3.1488037E-1,6.2867885E0,-3.6204522E0,5.8122134E0],"split_indices":[0,8,6,9,0,3,9,4,3,5,8,8,8,4,3,0,0,3,4,4,1,7,4,5,5,6,0,4,0,0,0,5,0,5,0,3,1,1,0,5,8,7,0,0,0,0,0,1,0,7,0,8,0,0,0,0,0,0,0,0,0,0,0,0,0,0,0,0,0,0,0,0,0,0,0,0,0,0,0,0,0],"split_type":[0,0,0,0,0,0,0,0,0,0,0,0,0,0,0,0,0,0,0,0,0,0,0,0,0,0,0,0,0,0,0,0,0,0,0,0,0,0,0,0,0,0,0,0,0,0,0,0,0,0,0,0,0,0,0,0,0,0,0,0,0,0,0,0,0,0,0,0,0,0,0,0,0,0,0,0,0,0,0,0,0],"sum_hessian":[2.75E2,1.66E2,1.09E2,7.2E1,9.4E1,7.5E1,3.4E1,1.6E1,5.6E1,5.3E1,4.1E1,3E1,4.5E1,2.3E1,1.1E1,5E0,1.1E1,1.6E1,4E1,1.6E1,3.7E1,2.9E1,1.2E1,1.5E1,1.5E1,2.4E1,2.1E1,2.2E1,1E0,2E0,9E0,3E0,8E0,1.4E1,2E0,3.8E1,2E0,1E1,6E0,2.9E1,8E0,1.6E1,1.3E1,1E1,2E0,7E0,8E0,4E0,1.1E1,1.7E1,7E0,9E0,1.3E1,2E0,1E0,2E0,1.2E1,3.5E1,3E0,1E0,1E0,4E0,6E0,1.2E1,1.7E1,4E0,4E0,3E0,1.3E1,2E0,1.1E1,1E0,1E0,6E0,1E0,2E0,2E0,1.1E1,6E0,7E0,2E0],"tree_param":{"num_deleted":"0","num_feature":"10","num_nodes":"81","size_leaf_vector":"1"}},{"base_weights":[-3.1358887E-2,-1.65625E-1,1.3671875E-1,-7.079646E-2,-3.8541666E-1,2.6666667E-2,2.8703704E-1,5E-2,-2.6136363E-1,-4.53125E-1,-2.3529412E-1,-4.2857144E-2,7.2463766E-2,9.375E-2,3.5897437E-1,1.9736843E-1,-1.21212125E-1,-4.782609E-2,-2.2727273E-2,-4.8076924E-2,-2.857143E-1,-3.75E-1,8.3333336E-2,1.2096774E-1,-3.125E-1,-2.5E-1,2.7272728E-1,4.4444445E-1,1.5384616E-1,3.529412E-1,6.818182E-2,7.5E-2,-3.9285713E-1,-3.5E-1,2.3076923E-1,2.5E-2,-4.1666668E-2,-4.4444446E-2,-1.25E-1,3.75E-2,-3.3333335E-2,-0E0,2.34375E-1,-4.2857144E-2,2.5E-2,-4.0000003E-2,2.5E-2,-3.3333335E-2,4.4444446E-2,4.8076924E-2,-2.5E-2,-3.3333335E-2,2.7272728E-1,4.6428572E-2,-1.25E-2,-1.5384616E-2,3.5E-2,-1.25E-2,3.3333335E-2,-4.6153847E-2,2.5E-2,-0E0,-4.375E-2,3.636364E-2,-3.3333335E-2,-3.3333335E-2,2.5E-2,1.4583333E-2,-4.375E-2,3.1034483E-2,-3.75E-2,4.1666668E-2,8.333334E-3],"categories":[],"categories_nodes":[],"categories_segments":[],"categories_sizes":[],"default_left":[1,1,1,1,1,0,0,1,0,1,0,0,1,1,1,1,0,0,0,0,0,0,0,1,1,1,0,1,1,1,0,1,1,0,1,0,0,0,0,0,0,0,0,0,0,0,0,0,0,0,0,0,0,0,0,0,0,0,0,0,0,0,0,0,0,0,0,0,0,0,0,0,0],"id":8,"left_children":[1,3,5,7,9,11,13,15,17,19,21,-1,23,25,27,29,31,-1,33,-1,35,37,39,41,43,45,47,49,51,53,55,57,59,61,63,-1,-1,-1,65,-1,-1,67,69,-1,-1,-1,-1,-1,-1,-1,-1,-1,71,-1,-1,-1,-1,-1,-1,-1,-1,-1,-1,-1,-1,-1,-1,-1,-1,-1,-1,-1,-1],"loss_changes":[6.4994106E0,3.3075175E0,2.1098294E0,2.61431E0,3.8128042E-1,1.5946999E0,7.171917E-1,1.7901117E0,2.2665513E0,1.0731697E-2,7.8799015E-1,0E0,1.3261892E0,1.0525568E0,6.1538506E-1,7.396568E-1,1.7883658E0,0E0,1.9059441E0,0E0,5.9523803E-1,1.5277779E-1,8.541667E-1,8.505544E-1,6.2946427E-1,5.5E-1,1.2929294E0,8.012819E-1,8.4382284E-1,9.627099E-1,1.4304196E0,1.075E0,7.3351645E-1,3.0624998E-1,1.0955712E0,0E0,0E0,0E0,3.9583334E-1,0E0,0E0,2.0416667E0,1.597791E0,0E0,0E0,0E0,0E0,0E0,0E0,0E0,0E0,0E0,2.6515144E-1,0E0,0E0,0E0,0E0,0E0,0E0,0E0,0E0,0E0,0E0,0E0,0E0,0E0,0E0,0E0,0E0,0E0,0E0,0E0,0E0],"parents":[2147483647,0,0,1,1,2,2,3,3,4,4,5,5,6,6,7,7,8,8,9,9,10,10,12,12,13,13,14,14,15,15,16,16,18,18,20,20,21,21,22,22,23,23,24,24,25,25,26,26,27,27,28,28,29,29,30,30,31,31,32,32,33,33,34,34,38,38,41,41,42,42,52,52],"right_children":[2,4,6,8,10,12,14,16,18,20,22,-1,24,26,28,30,32,-1,34,-1,36,38,40,42,44,46,48,50,52,54,56,58,60,62,64,-1,-1,-1,66,-1,-1,68,70,-1,-1,-1,-1,-1,-1,-1,-1,-1,72,-1,-1,-1,-1,-1,-1,-1,-1,-1,-1,-1,-1,-1,-1,-1,-1,-1,-1,-1,-1],"split_conditions":[-5.14219E-3,2.6550272E-2,1.9632837E-2,5.068012E-2,-1.0776975E-3,-4.9291342E-2,5.6499788E-3,-2.323427E-2,8.06271E-3,-1.1334628E-2,1.0137024E-1,-1.7937294E0,1.1348623E-2,-1.8820165E-3,2.342485E-2,-2.3677247E-2,1.2190569E-2,-3.2205048E0,1.6280675E-2,-3.057904E0,-3.665608E-2,4.5340985E-2,-2.9449128E-3,-5.696818E-3,3.8075905E-2,7.00723E-2,-4.6984635E-2,4.1276824E-2,5.068012E-2,8.100982E-3,5.068012E-2,-3.321323E-2,7.076875E-2,-1.3947743E-2,4.5340985E-2,2.6959198E0,-3.990429E0,-3.5552537E0,6.6867573E-3,1.7173325E0,-3.7994637E0,1.0137024E-1,1.0386467E-1,-3.184925E0,2.4276338E0,-1.5971695E0,1.0558039E1,-1.8516678E0,5.9343415E-1,6.9397006E0,-2.4860504E0,-1.3910927E0,9.0619884E-2,1.1791153E0,-2.0487192E0,-3.951758E0,4.1738588E-1,-7.1300966E-1,4.3514986E0,-2.915025E0,6.720737E0,2.7473207E0,-3.719153E0,2.6476674E0,-3.8618743E0,-6.5361114E0,1.5136566E0,1.2348816E0,-2.7835808E0,3.5414567E0,-1.7995301E-1,4.6404037E0,3.0657213E0],"split_indices":[8,6,9,1,9,3,2,5,4,5,1,0,9,0,5,0,4,0,0,0,3,0,4,4,0,3,3,6,1,3,1,3,0,6,0,0,0,0,4,0,0,1,6,0,0,0,0,0,0,0,0,0,4,0,0,0,0,0,0,0,0,0,0,0,0,0,0,0,0,0,0,0,0],"split_type":[0,0,0,0,0,0,0,0,0,0,0,0,0,0,0,0,0,0,0,0,0,0,0,0,0,0,0,0,0,0,0,0,0,0,0,0,0,0,0,0,0,0,0,0,0,0,0,0,0,0,0,0,0,0,0,0,0,0,0,0,0,0,0,0,0,0,0,0,0,0,0,0,0],"sum_hessian":[2.86E2,1.59E2,1.27E2,1.12E2,4.7E1,7.4E1,5.3E1,6.9E1,4.3E1,3.1E1,1.6E1,6E0,6.8E1,1.5E1,3.8E1,3.7E1,3.2E1,2.2E1,2.1E1,2.5E1,6E0,1.1E1,5E0,6.1E1,7E0,5E0,1E1,2.6E1,1.2E1,1.6E1,2.1E1,1.9E1,1.3E1,9E0,1.2E1,1E0,5E0,8E0,3E0,3E0,2E0,3E1,3.1E1,6E0,1E0,4E0,1E0,2E0,8E0,2.5E1,1E0,2E0,1E1,1.3E1,3E0,1.2E1,9E0,1.1E1,8E0,1.2E1,1E0,2E0,7E0,1E1,2E0,2E0,1E0,2.3E1,7E0,2.8E1,3E0,5E0,5E0],"tree_param":{"num_deleted":"0","num_feature":"10","num_nodes":"73","size_leaf_vector":"1"}},{"base_weights":[-1.0909091E-2,-9.948979E-2,2.0625E-1,-1.7419355E-1,1.7857143E-1,5.4347824E-2,4E-1,-1.0091743E-1,-3.4042552E-1,4E-1,5.357143E-2,-1.0526316E-1,1.6071428E-1,4.2647058E-1,-2.5E-2,-1.40625E-1,1.7857143E-1,2.5E-2,-3.5869566E-1,4.6153847E-2,-0E0,-2.3076923E-1,2.8125E-1,-4.375E-2,1.25E-1,4.375E-2,4.761905E-2,4.8214287E-2,1.4285715E-1,-1.8867925E-2,-2.840909E-1,3.5E-1,-2E-1,-1.1111111E-1,-4.0789473E-1,-2.5E-2,2.5E-2,8.3333336E-2,-4.375E-2,-3.3333335E-2,3.9285713E-1,-2.5E-1,4.2857144E-2,-1.0714286E-1,3.125E-1,3.75E-2,-1.25E-1,1.1666667E-2,-1.875E-2,-3.9393943E-2,4.166667E-3,4.4444446E-2,-2.5E-2,2.5E-2,-3.75E-2,2.0000001E-2,-4.0000003E-2,-4.3055557E-2,-0E0,3.3333335E-2,-1.25E-2,-2.5E-2,4.6153847E-2,-4.0000003E-2,2.5E-2,-3.125E-2,1.4285715E-2,-2.5E-2,4.2857144E-2,2.5E-2,-3.3333335E-2],"categories":[],"categories_nodes":[],"categories_segments":[],"categories_sizes":[],"default_left":[1,1,0,1,0,1,1,1,0,0,0,0,1,0,0,1,0,0,0,0,0,1,0,0,0,0,1,0,1,0,0,0,0,1,1,0,0,0,0,0,0,1,0,0,0,0,0,0,0,0,0,0,0,0,0,0,0,0,0,0,0,0,0,0,0,0,0,0,0,0,0],"id":9,"left_children":[1,3,5,7,9,11,13,15,17,19,21,23,25,27,-1,29,31,-1,33,-1,35,37,39,-1,41,-1,43,-1,45,47,49,51,53,55,57,-1,-1,59,-1,-1,61,63,-1,65,67,-1,69,-1,-1,-1,-1,-1,-1,-1,-1,-1,-1,-1,-1,-1,-1,-1,-1,-1,-1,-1,-1,-1,-1,-1,-1],"loss_changes":[5.3104486E0,4.1024604E0,2.3327444E0,1.8536744E0,1.1410714E0,7.9787105E-1,7.088237E-1,1.2347744E0,5.9667015E-1,3.6923075E-1,1.8775755E0,1.5082237E0,8.5565484E-1,4.6796227E-1,0E0,1.6715667E0,9.7857153E-1,0E0,5.150013E-1,0E0,2.5E-1,8.806089E-1,1.2284226E0,0E0,1.4732143E0,0E0,8.943452E-1,0E0,4.8214287E-1,1.2332153E0,1.5909092E0,6.7777777E-1,4.875E-1,8.888889E-1,3.5124254E-1,0E0,0E0,3.541667E-1,0E0,0E0,7.3351645E-1,5.5E-1,0E0,7.6339287E-1,6.2946427E-1,0E0,3.9583334E-1,0E0,0E0,0E0,0E0,0E0,0E0,0E0,0E0,0E0,0E0,0E0,0E0,0E0,0E0,0E0,0E0,0E0,0E0,0E0,0E0,0E0,0E0,0E0,0E0],"parents":[2147483647,0,0,1,1,2,2,3,3,4,4,5,5,6,6,7,7,8,8,9,9,10,10,11,11,12,12,13,13,15,15,16,16,18,18,20,20,21,21,22,22,24,24,26,26,28,28,29,29,30,30,31,31,32,32,33,33,34,34,37,37,40,40,41,41,43,43,44,44,46,46],"right_children":[2,4,6,8,10,12,14,16,18,20,22,24,26,28,-1,30,32,-1,34,-1,36,38,40,-1,42,-1,44,-1,46,48,50,52,54,56,58,-1,-1,60,-1,-1,62,64,-1,66,68,-1,70,-1,-1,-1,-1,-1,-1,-1,-1,-1,-1,-1,-1,-1,-1,-1,-1,-1,-1,-1,-1,-1,-1,-1,-1],"split_conditions":[2.2004075E-2,1.8583724E-2,6.31866E-2,2.2868635E-2,3.690653E-2,-9.147094E-3,1.0766178E-1,1.8429535E-2,-9.10059E-2,3.8333673E-2,1.2152797E-3,4.0672828E-2,-2.3860566E-2,1.0137024E-1,-4.906189E-1,5.068012E-2,5.6300893E-2,1.0609406E0,-6.291688E-2,1.8599914E0,3.081083E-2,-4.2847544E-2,-3.4194466E-2,-8.380417E-1,4.521344E-2,5.273787E0,1.9632837E-2,4.519937E0,-1.0082034E-2,1.2152797E-3,4.448548E-2,1.251981E-1,-3.4229066E-2,-4.0144287E-2,1.7765319E-2,-9.112198E-1,6.6479387E0,-1.641217E-2,-1.9792283E0,-1.2681245E0,3.9062154E-2,1.3714305E-1,6.002458E0,3.081083E-2,5.068012E-2,7.1539917E0,6.662945E-2,3.6888656E-1,-5.194748E-1,-2.9714544E0,9.810486E-2,5.3792443E0,-3.9051538E0,2.408542E0,-8.1302494E-1,4.789749E-1,-4.5082808E0,-3.042196E0,1.065142E0,5.125328E0,-3.708832E-1,-5.6286774E0,6.6948276E0,-3.083418E0,3.7612703E0,-6.043884E-1,2.0534914E0,-1.8702058E0,3.6990755E0,8.5919895E0,-7.0504457E-1],"split_indices":[8,2,3,6,2,0,5,3,4,4,3,8,5,1,0,1,3,0,8,0,0,4,5,0,4,0,9,0,5,3,9,5,2,5,8,0,0,0,0,0,2,2,0,0,1,0,3,0,0,0,0,0,0,0,0,0,0,0,0,0,0,0,0,0,0,0,0,0,0,0,0],"split_type":[0,0,0,0,0,0,0,0,0,0,0,0,0,0,0,0,0,0,0,0,0,0,0,0,0,0,0,0,0,0,0,0,0,0,0,0,0,0,0,0,0,0,0,0,0,0,0,0,0,0,0,0,0,0,0,0,0,0,0,0,0,0,0,0,0,0,0,0,0,0,0],"sum_hessian":[2.74E2,1.95E2,7.9E1,1.54E2,4.1E1,4.5E1,3.4E1,1.08E2,4.6E1,1.4E1,2.7E1,1.8E1,2.7E1,3.3E1,1E0,9.5E1,1.3E1,1E0,4.5E1,1.2E1,2E0,1.2E1,1.5E1,7E0,1.1E1,7E0,2E1,2.7E1,6E0,5.2E1,4.3E1,9E0,4E0,8E0,3.7E1,1E0,1E0,5E0,7E0,2E0,1.3E1,5E0,6E0,1.3E1,7E0,3E0,3E0,2.9E1,2.3E1,3.2E1,1.1E1,8E0,1E0,1E0,3E0,4E0,4E0,3.5E1,2E0,2E0,3E0,1E0,1.2E1,4E0,1E0,7E0,6E0,1E0,6E0,1E0,2E0],"tree_param":{"num_deleted":"0","num_feature":"10","num_nodes":"71","size_leaf_vector":"1"}},{"base_weights":[-4.3402776E-2,-8.0827065E-2,3.9130434E-1,-1.9921875E-1,2.877698E-2,-2.5E-2,4.318182E-1,1.5E-1,-2.2689076E-1,-8.928572E-2,2.0535715E-1,4.7058824E-2,2.5E-1,-2E-1,4.1666668E-2,-2.75E-1,2.5E-2,-2E-1,3.75E-2,7.8125E-2,3.6E-1,-2.5E-2,4.0000003E-2,2.5E-2,-3.75E-2,-3.2692307E-1,-8.695652E-2,2.7272728E-1,-2.5E-1,-2.2727273E-2,-3.5416666E-1,-1.5625E-1,1.6E-1,-2.5E-1,2.173913E-1,3.9583334E-1,-2.5E-2,-3.770492E-2,-1.388889E-2,3.75E-2,-1.75E-2,-2.5E-2,3.5E-2,-0E0,-4.1666668E-2,-1.388889E-2,4.0000003E-2,-6.25E-3,-4.7058824E-2,3.3333335E-2,-2.5E-2,-4.0000003E-2,2.857143E-2,1.25E-2,-4.2857144E-2,4.5454547E-2,-0E0,-2.5E-2,4.347826E-2],"categories":[],"categories_nodes":[],"categories_segments":[],"categories_sizes":[],"default_left":[1,1,0,0,0,0,0,0,1,0,0,0,0,0,0,0,0,1,1,1,1,0,0,0,0,1,1,0,0,1,0,0,0,0,0,0,0,0,0,0,0,0,0,0,0,0,0,0,0,0,0,0,0,0,0,0,0,0,0],"id":10,"left_children":[1,3,5,7,9,-1,11,13,15,17,19,-1,21,23,-1,25,27,29,31,33,35,-1,-1,-1,-1,37,39,41,43,45,47,49,51,53,55,57,-1,-1,-1,-1,-1,-1,-1,-1,-1,-1,-1,-1,-1,-1,-1,-1,-1,-1,-1,-1,-1,-1,-1],"loss_changes":[4.7169867E0,3.4574041E0,7.0553327E-1,1.2709723E0,2.916142E0,0E0,3.7433147E-2,1.0166667E0,1.4489493E0,1.1866071E0,1.0737054E0,0E0,5.5E-1,4.875E-1,0E0,9.479513E-1,1.4306817E0,1.2217805E0,9.74375E-1,1.516644E0,6.4541674E-1,0E0,0E0,0E0,0E0,6.8281555E-1,1.001087E0,5.318182E-1,4.1666663E-1,1.1358587E0,7.8553915E-1,8.177084E-1,1.8742858E0,7.2321427E-1,1.1857708E0,7.1240926E-1,0E0,0E0,0E0,0E0,0E0,0E0,0E0,0E0,0E0,0E0,0E0,0E0,0E0,0E0,0E0,0E0,0E0,0E0,0E0,0E0,0E0,0E0,0E0],"parents":[2147483647,0,0,1,1,2,2,3,3,4,4,6,6,7,7,8,8,9,9,10,10,12,12,13,13,15,15,16,16,17,17,18,18,19,19,20,20,25,25,26,26,27,27,28,28,29,29,30,30,31,31,32,32,33,33,34,34,35,35],"right_children":[2,4,6,8,10,-1,12,14,16,18,20,-1,22,24,-1,26,28,30,32,34,36,-1,-1,-1,-1,38,40,42,44,46,48,50,52,54,56,58,-1,-1,-1,-1,-1,-1,-1,-1,-1,-1,-1,-1,-1,-1,-1,-1,-1,-1,-1,-1,-1,-1,-1],"split_conditions":[6.816308E-2,-1.641217E-2,-6.994845E-2,-7.271173E-2,1.8583724E-2,-6.777102E0,6.713621E-2,-7.0859335E-2,2.4051148E-2,3.081083E-2,2.7917052E-2,5.4981217E0,-2.4992656E-2,-4.6640873E-2,6.164841E-1,1.0137024E-1,6.0618393E-2,-2.1311019E-2,-1.7646125E-2,-2.7931497E-2,7.0729926E-2,-1.7774979E0,7.4416823E0,9.548462E-1,-3.404686E0,8.100982E-3,-3.603757E-2,-4.3929376E-2,4.4718947E-2,-4.3208655E-3,-5.514555E-3,-7.1493514E-2,-4.1235074E-2,-5.423597E-2,-9.361912E-3,-5.3870335E-2,-4.3988566E0,-2.3685665E0,-2.5513284E0,5.2625628E0,-9.67984E-1,-3.5456047E0,5.9729843E0,-3.966839E-1,-6.883759E-1,-2.9333496E-1,4.88213E0,-1.3531586E0,-1.3755512E0,1.5798073E-1,-4.6752778E-1,-1.7244473E0,1.4170754E0,3.3875886E-1,-4.1920623E-1,3.8319077E0,1.6251373E-1,-4.1452193E0,4.276432E0],"split_indices":[2,0,3,5,2,0,0,7,5,0,9,0,6,9,0,1,2,6,9,5,6,0,0,0,0,3,6,2,5,4,0,9,3,5,9,3,0,0,0,0,0,0,0,0,0,0,0,0,0,0,0,0,0,0,0,0,0,0,0],"split_type":[0,0,0,0,0,0,0,0,0,0,0,0,0,0,0,0,0,0,0,0,0,0,0,0,0,0,0,0,0,0,0,0,0,0,0,0,0,0,0,0,0,0,0,0,0,0,0,0,0,0,0,0,0,0,0,0,0,0,0],"sum_hessian":[2.87E2,2.65E2,2.2E1,1.27E2,1.38E2,1E0,2.1E1,9E0,1.18E2,8.3E1,5.5E1,1.6E1,5E0,4E0,5E0,9.9E1,1.9E1,4.4E1,3.9E1,3.1E1,2.4E1,1E0,4E0,1E0,3E0,7.7E1,2.2E1,1E1,9E0,2.1E1,2.3E1,1.5E1,2.4E1,9E0,2.2E1,2.3E1,1E0,6E1,1.7E1,3E0,1.9E1,1E0,9E0,4E0,5E0,1.7E1,4E0,7E0,1.6E1,2E0,1.3E1,4E0,2E1,3E0,6E0,1E1,1.2E1,1E0,2.2E1],"tree_param":{"num_deleted":"0","num_feature":"10","num_nodes":"59","size_leaf_vector":"1"}},{"base_weights":[-4.2402826E-2,-1.1590909E-1,2.109375E-1,-1.548913E-1,8.108108E-2,2.542373E-1,-2.5E-1,1.25E-1,-1.734104E-1,1.5151516E-1,-4.0000003E-2,1.625E-1,4.25E-1,2.5E-2,-4.0000003E-2,-3.3333335E-2,2.5E-1,-2.0955883E-1,-3.9473683E-2,2.3214285E-1,-2.5E-1,2.580645E-1,-1.5E-1,-0E0,4.7222223E-2,-1.25E-1,4.2857144E-2,-2.5742576E-1,-6.944445E-2,-3.5E-1,6.896552E-2,-0E0,3.611111E-1,-4.0000003E-2,2.5E-2,1.0526316E-1,4.6153847E-2,2E-1,-4.1666668E-2,2.5E-2,-2.5E-2,-3.3333335E-2,2.5E-2,4.166667E-3,-2.9444445E-2,3.7037039E-3,-3.5E-2,2.5E-2,-4.4444446E-2,-1.5384616E-2,2.3529412E-2,-3.75E-2,1.875E-2,-1.25E-2,4.6666667E-2,-3.5714288E-3,4.1666668E-2,3.75E-2,-2.5E-2],"categories":[],"categories_nodes":[],"categories_segments":[],"categories_sizes":[],"default_left":[1,1,1,0,1,1,0,0,1,0,0,0,0,0,0,0,0,1,0,0,0,1,0,0,0,0,0,0,1,0,1,0,0,0,0,0,0,0,0,0,0,0,0,0,0,0,0,0,0,0,0,0,0,0,0,0,0,0,0],"id":11,"left_children":[1,3,5,7,9,11,13,15,17,19,-1,21,23,-1,-1,-1,25,27,29,31,33,35,37,39,-1,41,-1,43,45,47,49,51,53,-1,-1,55,-1,57,-1,-1,-1,-1,-1,-1,-1,-1,-1,-1,-1,-1,-1,-1,-1,-1,-1,-1,-1,-1,-1],"loss_changes":[5.294504E0,1.7019634E0,1.3409033E0,9.7541E-1,1.3143325E0,8.551905E-1,5.5E-1,7.708334E-1,8.293247E-1,1.1263528E0,0E0,1.233266E0,4.0138888E-1,0E0,0E0,0E0,7.2321427E-1,8.942542E-1,1.3037205E0,8.382938E-1,5.5E-1,9.15241E-1,1.0166667E0,2.5E-1,0E0,3.9583334E-1,0E0,1.1305418E0,1.0884259E0,6.7777777E-1,1.1109378E0,8.4375E-1,9.819443E-1,0E0,0E0,8.489975E-1,0E0,4.875E-1,0E0,0E0,0E0,0E0,0E0,0E0,0E0,0E0,0E0,0E0,0E0,0E0,0E0,0E0,0E0,0E0,0E0,0E0,0E0,0E0,0E0],"parents":[2147483647,0,0,1,1,2,2,3,3,4,4,5,5,6,6,7,7,8,8,9,9,11,11,12,12,16,16,17,17,18,18,19,19,20,20,21,21,22,22,23,23,25,25,27,27,28,28,29,29,30,30,31,31,32,32,35,35,37,37],"right_children":[2,4,6,8,10,12,14,16,18,20,-1,22,24,-1,-1,-1,26,28,30,32,34,36,38,40,-1,42,-1,44,46,48,50,52,54,-1,-1,56,-1,58,-1,-1,-1,-1,-1,-1,-1,-1,-1,-1,-1,-1,-1,-1,-1,-1,-1,-1,-1,-1,-1],"split_conditions":[1.8429535E-2,3.205916E-2,8.636769E-2,-8.54304E-2,3.023191E-2,1.1838358E-2,-3.7462503E-2,-8.057499E-2,3.081083E-2,7.803383E-2,-4.710104E0,5.62386E-2,-4.9105015E-2,7.3967986E0,-4.9581835E-1,-1.2476753E0,-9.996056E-2,5.6499788E-3,-3.665608E-2,2.5588986E-3,9.403057E-2,1.549073E-2,-1.3213519E-2,-7.4532785E-2,3.5916429E0,1.0137024E-1,2.7798874E0,-7.174256E-2,3.430886E-2,-2.3860566E-2,-1.7646125E-2,-2.0044709E-2,-8.361578E-3,-1.0966934E0,1.0884299E1,4.5340985E-2,5.6715226E0,5.846277E-2,-2.2961953E0,4.199632E0,-6.195389E-1,-1.5830697E0,2.2604676E-1,2.2513123E-1,-2.4316475E0,4.3275148E-1,-1.1815537E0,2.7731934E0,-1.8218895E0,-3.5718918E-1,8.649277E-1,-3.8703659E0,5.3390365E0,-6.8634036E-3,4.9485064E0,-3.9699706E-1,2.214441E0,5.340941E0,-2.434159E0],"split_indices":[3,9,5,0,6,5,2,2,0,0,0,0,0,0,0,0,0,2,3,4,2,9,5,0,0,1,0,4,7,5,9,0,2,0,0,0,0,2,0,0,0,0,0,0,0,0,0,0,0,0,0,0,0,0,0,0,0,0,0],"split_type":[0,0,0,0,0,0,0,0,0,0,0,0,0,0,0,0,0,0,0,0,0,0,0,0,0,0,0,0,0,0,0,0,0,0,0,0,0,0,0,0,0,0,0,0,0,0,0,0,0,0,0,0,0,0,0,0,0,0,0],"sum_hessian":[2.82E2,2.19E2,6.3E1,1.83E2,3.6E1,5.8E1,5E0,1.1E1,1.72E2,3.2E1,4E0,3.9E1,1.9E1,1E0,4E0,2E0,9E0,1.35E2,3.7E1,2.7E1,5E0,3E1,9E0,2E0,1.7E1,3E0,6E0,1E2,3.5E1,9E0,2.8E1,1E1,1.7E1,4E0,1E0,1.8E1,1.2E1,4E0,5E0,1E0,1E0,2E0,1E0,1.1E1,8.9E1,2.6E1,9E0,1E0,8E0,1.2E1,1.6E1,3E0,7E0,3E0,1.4E1,1.3E1,5E0,3E0,1E0],"tree_param":{"num_deleted":"0","num_feature":"10","num_nodes":"59","size_leaf_vector":"1"}},{"base_weights":[-2.6223777E-2,-1.1675127E-1,1.7222223E-1,-2.2297297E-1,-5.2419353E-2,1.1363637E-2,3.1914893E-1,-3.137255E-1,-2.0833334E-2,3.797468E-2,-2.0652173E-1,-9.090909E-2,2.9166666E-1,4.1666668E-2,4.027778E-1,-1.75E-1,-3.90625E-1,1.0526316E-1,-4.1666668E-2,2.5E-1,-6.481481E-2,-3.026316E-1,2.2222222E-1,4.0000003E-2,-1.724138E-1,3.6363637E-1,-2.5E-2,2.2222222E-1,-3.75E-2,4.5E-1,1.4285715E-1,-3.2142857E-1,1.4285715E-1,-4.4642857E-1,-0E0,3.75E-1,-3.125E-1,3.6842105E-1,-6.25E-2,-1.9736843E-1,2.3529412E-1,2.5E-2,-3.243243E-1,4.1666668E-2,-1.25E-1,-2.2222222E-1,3.3333335E-2,4.4444446E-2,-0E0,-2.5E-2,3.125E-1,2E-1,4.8076924E-2,-3.3333335E-2,4.0000003E-2,-4.4999998E-2,-0E0,4.0000003E-2,-3.3333335E-2,-4.8E-2,-1.25E-2,2.5E-2,-1.25E-2,4.4999998E-2,-0E0,-4.2857144E-2,2.5E-2,4.117647E-2,-0E0,2.0000001E-2,-3.75E-2,-2.65625E-2,1.4285715E-2,4.4999998E-2,-6.25E-3,-7.692308E-3,-4.4E-2,-3.3333335E-2,2.5E-2,-3.5714288E-3,-3.9285716E-2,2.5E-2,-2.5E-2,-0E0,4.1666668E-2,3.75E-2,-2.5E-2],"categories":[],"categories_nodes":[],"categories_segments":[],"categories_sizes":[],"default_left":[1,0,0,1,1,1,1,1,1,0,1,0,0,0,0,0,0,1,0,0,1,0,1,0,1,0,0,0,0,0,0,0,1,0,0,1,0,1,0,1,0,0,0,0,0,1,0,0,0,0,0,0,0,0,0,0,0,0,0,0,0,0,0,0,0,0,0,0,0,0,0,0,0,0,0,0,0,0,0,0,0,0,0,0,0,0,0],"id":12,"left_children":[1,3,5,7,9,11,13,15,17,19,21,23,25,27,29,31,33,35,-1,37,39,41,43,-1,45,47,-1,49,-1,51,53,55,57,59,61,63,65,67,69,71,73,-1,75,-1,77,79,-1,-1,81,-1,83,85,-1,-1,-1,-1,-1,-1,-1,-1,-1,-1,-1,-1,-1,-1,-1,-1,-1,-1,-1,-1,-1,-1,-1,-1,-1,-1,-1,-1,-1,-1,-1,-1,-1,-1,-1],"loss_changes":[5.158046E0,1.3345006E0,2.1234713E0,1.3509705E0,1.7351547E0,1.2878788E0,1.0738773E0,4.7570467E-1,1.2417763E0,1.7379278E0,1.9627512E0,1.3893417E0,5.587121E-1,9.861111E-1,3.775792E-1,9.767857E-1,6.975446E-1,2.2582238E0,0E0,9.851973E-1,2.1945877E0,5.366287E-1,6.597222E-1,0E0,8.045978E-1,3.232323E-1,0E0,4.6180555E-1,0E0,1.3461542E-1,9.904762E-1,5.7857156E-1,9.904762E-1,2.4214315E-1,1.875E-1,3.375001E-1,6.2946427E-1,3.0340552E-1,7.3125E-1,9.2040646E-1,1.1150737E0,0E0,1.0250311E0,0E0,3.9583334E-1,8.452381E-1,0E0,0E0,2.5E-1,0E0,2.6041663E-1,4.875E-1,0E0,0E0,0E0,0E0,0E0,0E0,0E0,0E0,0E0,0E0,0E0,0E0,0E0,0E0,0E0,0E0,0E0,0E0,0E0,0E0,0E0,0E0,0E0,0E0,0E0,0E0,0E0,0E0,0E0,0E0,0E0,0E0,0E0,0E0,0E0],"parents":[2147483647,0,0,1,1,2,2,3,3,4,4,5,5,6,6,7,7,8,8,9,9,10,10,11,11,12,12,13,13,14,14,15,15,16,16,17,17,19,19,20,20,21,21,22,22,24,24,25,25,27,27,29,29,30,30,31,31,32,32,33,33,34,34,35,35,36,36,37,37,38,38,39,39,40,40,42,42,44,44,45,45,48,48,50,50,51,51],"right_children":[2,4,6,8,10,12,14,16,18,20,22,24,26,28,30,32,34,36,-1,38,40,42,44,-1,46,48,-1,50,-1,52,54,56,58,60,62,64,66,68,70,72,74,-1,76,-1,78,80,-1,-1,82,-1,84,86,-1,-1,-1,-1,-1,-1,-1,-1,-1,-1,-1,-1,-1,-1,-1,-1,-1,-1,-1,-1,-1,-1,-1,-1,-1,-1,-1,-1,-1,-1,-1,-1,-1,-1,-1],"split_conditions":[1.5568459E-2,-2.479543E-2,4.9415193E-2,-1.0776975E-3,5.068012E-2,3.205916E-2,-4.183994E-2,-6.735141E-2,1.6222436E-2,-2.3677247E-2,3.6577087E-2,1.9907486E-2,1.7293394E-2,9.833287E-2,1.0137024E-1,1.0137024E-1,1.0137024E-1,5.068012E-2,-2.2725708E0,4.1276824E-2,3.4443367E-2,-2.3646863E-2,2.7178291E-2,4.187631E0,6.3503675E-2,2.7178291E-2,-5.62912E-1,-4.559945E-2,-5.575852E-1,6.31866E-2,2.3774944E-2,2.3545753E-2,7.441156E-2,-3.4521777E-2,-4.5472477E-2,5.62386E-2,3.6201265E-2,4.4718947E-2,-4.9105015E-2,2.1872386E-2,1.9186998E-2,8.062187E0,-2.3860566E-2,2.7155685E0,9.169122E-2,-2.1311019E-2,6.8924636E-1,4.405277E0,-1.9441826E-2,-6.1696305E0,-9.768886E-3,5.2858043E-2,3.2535844E0,-4.563698E-1,6.3254E0,-1.8811654E0,-1.938948E0,1.0341157E0,-3.2965112E0,-2.2656834E0,-1.5877243E0,1.9343872E-1,-1.8706666E-1,1.8502778E0,-9.23526E-1,-2.0216024E0,3.4777528E-1,3.6126907E0,-4.1029015E-1,2.9577203E0,-3.5851486E0,-7.750229E-1,1.254805E0,3.4131272E0,-1.4046326E-1,-1.8176536E-1,-1.3473119E0,-7.0829314E-1,6.6571183E0,-2.0837402E-2,-1.2333802E0,3.0067444E-2,-1.4900788E0,1.538369E0,6.8473697E0,2.476462E0,-5.0914305E-1],"split_indices":[8,8,3,9,1,9,0,9,5,0,5,8,3,9,1,1,1,1,0,6,0,8,0,0,0,0,0,4,0,3,9,0,6,8,0,0,9,5,0,3,6,0,5,0,5,6,0,0,3,0,5,3,0,0,0,0,0,0,0,0,0,0,0,0,0,0,0,0,0,0,0,0,0,0,0,0,0,0,0,0,0,0,0,0,0,0,0],"split_type":[0,0,0,0,0,0,0,0,0,0,0,0,0,0,0,0,0,0,0,0,0,0,0,0,0,0,0,0,0,0,0,0,0,0,0,0,0,0,0,0,0,0,0,0,0,0,0,0,0,0,0,0,0,0,0,0,0,0,0,0,0,0,0,0,0,0,0,0,0,0,0,0,0,0,0,0,0,0,0,0,0,0,0,0,0,0,0],"sum_hessian":[2.85E2,1.96E2,8.9E1,7.3E1,1.23E2,4.3E1,4.6E1,5E1,2.3E1,7.8E1,4.5E1,3.2E1,1.1E1,1.1E1,3.5E1,1.9E1,3.1E1,1.8E1,5E0,2.5E1,5.3E1,3.7E1,8E0,4E0,2.8E1,1E1,1E0,8E0,3E0,2.9E1,6E0,1.3E1,6E0,2.7E1,4E0,1.1E1,7E0,1.8E1,7E0,3.7E1,1.6E1,1E0,3.6E1,5E0,3E0,2.6E1,2E0,8E0,2E0,1E0,7E0,4E0,2.5E1,2E0,4E0,9E0,4E0,4E0,2E0,2.4E1,3E0,1E0,3E0,9E0,2E0,6E0,1E0,1.6E1,2E0,4E0,3E0,3.1E1,6E0,9E0,7E0,1.2E1,2.4E1,2E0,1E0,1.3E1,1.3E1,1E0,1E0,2E0,5E0,3E0,1E0],"tree_param":{"num_deleted":"0","num_feature":"10","num_nodes":"87","size_leaf_vector":"1"}},{"base_weights":[-3.057554E-2,-7.949791E-2,2.625E-1,-1.0307018E-1,3.75E-1,7.5E-2,4.2857143E-1,2.9166666E-1,-1.24423966E-1,1.25E-1,4.4444446E-2,-1.875E-1,2.3076923E-1,4.7368422E-2,-0E0,-3.3333335E-2,4.4999998E-2,-2.2891566E-1,-5.925926E-2,3.3333335E-2,-2.5E-2,-4.0000003E-2,1.25E-1,3.5E-1,-1.25E-1,2.5E-2,-2.5E-2,-1.25E-1,-3.90625E-1,-3.1496063E-2,-4.4444446E-2,3.3333335E-2,-2.5E-2,4.375E-2,-0E0,2.5E-2,-3.3333335E-2,-1.7857144E-2,9.09091E-3,-4.8076924E-2,-0E0,-4.237288E-4,-3.5E-2,2.5E-2,-2.5E-2],"categories":[],"categories_nodes":[],"categories_segments":[],"categories_sizes":[],"default_left":[1,1,0,0,0,0,1,0,0,0,0,0,0,0,0,0,0,1,1,0,0,0,0,0,0,0,0,1,1,1,0,0,0,0,0,0,0,0,0,0,0,0,0,0,0],"id":13,"left_children":[1,3,5,7,9,11,13,15,17,19,-1,21,23,-1,25,-1,-1,27,29,-1,-1,-1,31,33,35,-1,-1,37,39,41,-1,-1,-1,-1,43,-1,-1,-1,-1,-1,-1,-1,-1,-1,-1],"loss_changes":[4.0068183E0,2.5991888E0,1.213393E0,1.9581313E0,1.5277779E-1,8.610577E-1,4.0601492E-1,1.3375E0,1.4640245E0,3.9583334E-1,0E0,5.8125E-1,5.951923E-1,0E0,2.5E-1,0E0,0E0,1.3459148E0,1.429688E0,0E0,0E0,0E0,3.9583334E-1,3.0624998E-1,3.9583334E-1,0E0,0E0,6.1769485E-1,1.1268029E0,1.1011343E0,0E0,0E0,0E0,0E0,2.5E-1,0E0,0E0,0E0,0E0,0E0,0E0,0E0,0E0,0E0,0E0],"parents":[2147483647,0,0,1,1,2,2,3,3,4,4,5,5,6,6,7,7,8,8,9,9,11,11,12,12,14,14,17,17,18,18,22,22,23,23,24,24,27,27,28,28,29,29,34,34],"right_children":[2,4,6,8,10,12,14,16,18,20,-1,22,24,-1,26,-1,-1,28,30,-1,-1,-1,32,34,36,-1,-1,38,40,42,-1,-1,-1,-1,44,-1,-1,-1,-1,-1,-1,-1,-1,-1,-1],"split_conditions":[4.560437E-2,7.355214E-2,4.768465E-2,-7.563562E-2,-1.5998974E-2,3.4507647E-2,8.142084E-3,-8.141314E-2,-1.2672827E-2,9.295276E-2,6.5665374E0,4.108558E-2,7.0729926E-2,2.7747467E0,1.0137024E-1,-2.8086598E0,1.06939696E-1,-3.7648328E-2,5.9685014E-2,5.6349435E0,-1.3410705E0,-1.5190133E0,1.4986684E-2,8.0590054E-2,-4.1471593E-2,1.2335587E0,-9.0396196E-1,-1.090325E-2,1.9980218E-2,5.954058E-2,-3.2441983E0,5.395439E0,-3.1345215E-1,3.7070389E0,-8.361578E-3,6.574463E0,-3.98571E-1,-1.8261613E0,1.0325912E0,-2.4356751E0,-7.3078156E-2,-1.2716675E-2,-1.3329163E0,1.3133194E0,-6.4429015E-1],"split_indices":[8,2,2,9,3,3,6,3,2,2,0,4,6,0,1,0,0,7,6,0,0,0,3,8,4,0,0,8,5,2,0,0,0,0,2,0,0,0,0,0,0,0,0,0,0],"split_type":[0,0,0,0,0,0,0,0,0,0,0,0,0,0,0,0,0,0,0,0,0,0,0,0,0,0,0,0,0,0,0,0,0,0,0,0,0,0,0,0,0,0,0,0,0],"sum_hessian":[2.77E2,2.38E2,3.9E1,2.27E2,1.1E1,1.9E1,2E1,1.1E1,2.16E2,3E0,8E0,7E0,1.2E1,1.8E1,2E0,2E0,9E0,8.2E1,1.34E2,2E0,1E0,4E0,3E0,9E0,3E0,1E0,1E0,5.1E1,3.1E1,1.26E2,8E0,2E0,1E0,7E0,2E0,1E0,2E0,4.1E1,1E1,2.5E1,6E0,1.17E2,9E0,1E0,1E0],"tree_param":{"num_deleted":"0","num_feature":"10","num_nodes":"45","size_leaf_vector":"1"}},{"base_weights":[-5.357143E-3,-5.7613168E-2,3.2894737E-1,-1.0344828E-1,1.7073171E-1,9.375E-2,4.782609E-2,2.9166666E-1,-1.2760417E-1,5E-2,4.5833334E-2,-1.875E-1,3.3333334E-1,-3.3333335E-2,4.4999998E-2,-3.478261E-1,-9.7058825E-2,3.0769232E-1,-1.388889E-1,3.3333335E-2,-4.1666668E-2,4.375E-2,-2.5E-2,3.3333335E-2,-4.2857143E-1,-4.8780486E-2,-2.1875E-1,3.75E-1,-2.5E-2,3.3333335E-2,-2.1875E-1,-4.7058824E-2,-2.0000001E-2,-8.333334E-3,3.5E-2,-0E0,-3.2812502E-2,-0E0,4.4999998E-2,2.0000001E-2,-3.75E-2],"categories":[],"categories_nodes":[],"categories_segments":[],"categories_sizes":[],"default_left":[1,1,0,0,1,0,0,0,0,0,0,0,0,0,0,0,0,1,0,0,0,0,0,0,0,0,1,0,0,0,1,0,0,0,0,0,0,0,0,0,0],"id":14,"left_children":[1,3,5,7,9,11,-1,13,15,17,-1,19,21,-1,-1,23,25,27,29,-1,-1,-1,-1,-1,31,33,35,37,-1,-1,39,-1,-1,-1,-1,-1,-1,-1,-1,-1,-1],"loss_changes":[4.910391E0,2.5609515E0,1.2896523E0,1.9747214E0,1.4007113E0,1.140625E0,0E0,1.3375E0,1.2577775E0,1.5029914E0,0E0,1.09375E0,6.5625E-1,0E0,0E0,1.4078677E0,9.880873E-1,5.817307E-1,7.5173616E-1,0E0,0E0,0E0,0E0,0E0,1.0756302E-1,1.7239838E0,1.1484375E0,3.375001E-1,0E0,0E0,1.121875E0,0E0,0E0,0E0,0E0,0E0,0E0,0E0,0E0,0E0,0E0],"parents":[2147483647,0,0,1,1,2,2,3,3,4,4,5,5,7,7,8,8,9,9,11,11,12,12,15,15,16,16,17,17,18,18,24,24,25,25,26,26,27,27,30,30],"right_children":[2,4,6,8,10,12,-1,14,16,18,-1,20,22,-1,-1,24,26,28,30,-1,-1,-1,-1,-1,32,34,36,38,-1,-1,40,-1,-1,-1,-1,-1,-1,-1,-1,-1,-1],"split_conditions":[4.768465E-2,3.839393E-2,2.5315236E-2,-7.563562E-2,3.8075905E-2,-1.0007289E-3,4.5134416E0,-8.141314E-2,-5.2551873E-2,-2.4992656E-2,1.181987E0,5.6307144E-2,7.142887E-2,-2.5277936E0,9.624634E-2,-2.8674295E-2,4.3837484E-2,4.229559E-2,3.0644094E-3,3.7277527E0,-1.7106705E0,2.9929428E0,-1.1996247E0,2.3346558E0,1.4986684E-2,3.5581768E-2,-6.11758E-2,-1.8080395E-2,-2.0212708E-1,5.7344346E0,-2.3860566E-2,-2.354758E0,-1.1715736E0,-1.3815537E-1,1.8318497E0,-2.0675889E-1,-4.6142274E-1,-1.442363E0,5.7919283E0,1.8203309E0,-5.7986146E-1],"split_indices":[2,8,3,9,0,5,0,3,2,6,0,2,8,0,0,6,4,2,9,0,0,0,0,0,3,4,8,4,0,0,5,0,0,0,0,0,0,0,0,0,0],"split_type":[0,0,0,0,0,0,0,0,0,0,0,0,0,0,0,0,0,0,0,0,0,0,0,0,0,0,0,0,0,0,0,0,0,0,0,0,0,0,0,0,0],"sum_hessian":[2.79E2,2.42E2,3.7E1,2.02E2,4E1,1.5E1,2.2E1,1.1E1,1.91E2,2.9E1,1.1E1,7E0,8E0,2E0,9E0,2.2E1,1.69E2,1.2E1,1.7E1,2E0,5E0,7E0,1E0,2E0,2E1,1.22E2,4.7E1,1.1E1,1E0,2E0,1.5E1,1.6E1,4E0,1.13E2,9E0,1.6E1,3.1E1,2E0,9E0,4E0,1.1E1],"tree_param":{"num_deleted":"0","num_feature":"10","num_nodes":"41","size_leaf_vector":"1"}},{"base_weights":[-7.3260074E-3,-5.5309735E-2,2.1875E-1,-9.090909E-2,1.125E-1,-2.7777778E-2,3.548387E-1,2.3529412E-1,-1.2280702E-1,-4.0000003E-2,1.8055555E-1,-1.7857143E-1,4.0000003E-2,1.25E-1,4.75E-2,3.9285713E-1,-3.75E-2,-1.4545454E-1,4.2857144E-2,-2.7777778E-2,3.6842105E-1,-4.2857144E-2,6.25E-2,3.3333334E-1,-3.75E-2,-2.5E-2,4.6153847E-2,-1.8359375E-1,-1.3157895E-2,3.75E-2,-1.3333334E-1,4.6875E-2,-1.25E-1,-3.75E-2,4.0000003E-2,-0E0,4.2857144E-2,1.5000001E-2,-2.1008404E-2,1.875E-2,-3.3333335E-2,6.25E-3,-3.125E-2,-3.3333335E-2,2.5E-2,2.5E-2,-2.5E-2],"categories":[],"categories_nodes":[],"categories_segments":[],"categories_sizes":[],"default_left":[1,1,1,0,0,1,0,1,1,0,0,0,0,0,0,0,0,0,0,1,1,0,0,0,0,0,0,0,1,0,0,0,0,0,0,0,0,0,0,0,0,0,0,0,0,0,0],"id":15,"left_children":[1,3,5,7,9,11,13,15,17,-1,19,21,-1,23,-1,25,-1,27,-1,29,31,-1,33,35,-1,-1,-1,37,39,-1,41,-1,43,-1,-1,45,-1,-1,-1,-1,-1,-1,-1,-1,-1,-1,-1],"loss_changes":[2.9735947E0,1.3603327E0,1.6202397E0,1.9746692E0,1.4673611E0,1.2325398E0,7.967739E-1,1.782038E0,2.197676E0,0E0,1.419225E0,8.7053573E-1,0E0,1.375E0,0E0,7.3351645E-1,0E0,8.3012295E-1,0E0,8.1527776E-1,9.991777E-1,0E0,1.33125E0,2.8571427E-1,0E0,0E0,0E0,1.1626477E0,2.5038376E0,0E0,5.4583335E-1,0E0,3.9583334E-1,0E0,0E0,2.5E-1,0E0,0E0,0E0,0E0,0E0,0E0,0E0,0E0,0E0,0E0,0E0],"parents":[2147483647,0,0,1,1,2,2,3,3,4,4,5,5,6,6,7,7,8,8,10,10,11,11,13,13,15,15,17,17,19,19,20,20,22,22,23,23,27,27,28,28,30,30,32,32,35,35],"right_children":[2,4,6,8,10,12,14,16,18,-1,20,22,-1,24,-1,26,-1,28,-1,30,32,-1,34,36,-1,-1,-1,38,40,-1,42,-1,44,-1,-1,46,-1,-1,-1,-1,-1,-1,-1,-1,-1,-1,-1],"split_conditions":[3.8968213E-2,1.7293394E-2,-2.7309787E-2,-6.735141E-2,-2.9526427E-2,3.908664E-2,-1.3526668E-2,5.068012E-2,7.762233E-2,-2.7317245E0,-2.4992656E-2,7.1948E-2,2.8154373E0,5.20932E-2,2.1118882E0,-1.2948301E-1,-3.390625E0,1.0137024E-1,6.7685065E0,-3.482076E-2,2.8658465E-2,-1.502623E0,1.9632837E-2,-1.8820165E-3,-1.1913605E-1,-1.1594032E0,9.794121E-2,-8.54304E-2,-1.090325E-2,1.9145432E0,5.6300893E-2,4.3611846E0,2.3545753E-2,-7.555794E-1,3.8059692E0,-2.3677247E-2,3.533487E0,5.833878E-1,-8.9169884E-1,4.7386932E-1,-1.1138963E0,4.586612E0,-4.5441285E-1,-5.9488297E-1,7.9193544E0,2.1994064E0,-5.070984E-1],"split_indices":[8,3,0,9,8,3,5,1,9,0,6,7,0,4,0,9,0,1,0,5,8,0,9,0,0,0,0,0,8,0,3,0,0,0,0,0,0,0,0,0,0,0,0,0,0,0,0],"split_type":[0,0,0,0,0,0,0,0,0,0,0,0,0,0,0,0,0,0,0,0,0,0,0,0,0,0,0,0,0,0,0,0,0,0,0,0,0,0,0,0,0,0,0,0,0,0,0],"sum_hessian":[2.72E2,2.25E2,4.7E1,1.86E2,3.9E1,1.7E1,3E1,1.6E1,1.7E2,4E0,3.5E1,1.3E1,4E0,1.1E1,1.9E1,1.3E1,3E0,1.64E2,6E0,1.7E1,1.8E1,6E0,7E0,8E0,3E0,1E0,1.2E1,1.27E2,3.7E1,3E0,1.4E1,1.5E1,3E0,3E0,4E0,2E0,6E0,9E0,1.18E2,2.3E1,1.4E1,7E0,7E0,2E0,1E0,1E0,1E0],"tree_param":{"num_deleted":"0","num_feature":"10","num_nodes":"47","size_leaf_vector":"1"}},{"base_weights":[-2.640845E-2,-1.4130434E-1,8.163265E-2,-5.612245E-2,-3.4146342E-1,-2.3529412E-2,2.2222222E-1,5.8333334E-2,-2.3076923E-1,-3.846154E-1,3.3333335E-2,7.692308E-2,-3.3333334E-1,-0E0,4E-1,1.3E-1,-2.7272728E-1,4.1666668E-2,-3.392857E-1,-4.8214287E-2,-1.25E-1,2.7777778E-2,2.9166666E-1,2.5E-2,-3.75E-1,8E-2,-4.0000003E-2,4.5E-1,8.3333336E-2,-3.448276E-2,3.409091E-1,-4.375E-2,1.25E-1,1.5E-1,-3.3333335E-2,-4.75E-2,-0E0,2E-1,-3.125E-1,4.0000003E-2,-1E-2,-1.25E-1,4.4444446E-2,-4.6153847E-2,-1.875E-1,-2.3076923E-1,3.846154E-1,4.8E-2,2.5E-1,3.75E-2,-3.3333335E-2,4.2857144E-2,-1.7391305E-2,1.818182E-2,4.5833334E-2,-2.5E-2,3.3333335E-2,-8.333334E-3,4.0000003E-2,3.75E-2,-2.5E-2,3.75E-2,-2.5E-2,-4.2857144E-2,2.5E-2,-2.1052632E-2,1.09375E-2,2.5E-2,-3.3333335E-2,1.25E-2,-4.0000003E-2,2.5E-2,-2.9166667E-2,4.4444446E-2,2.0000001E-2,4.0000003E-2,-2.5E-2],"categories":[],"categories_nodes":[],"categories_segments":[],"categories_sizes":[],"default_left":[1,1,0,1,1,0,1,1,0,0,0,1,0,1,1,0,1,1,1,0,0,0,1,0,0,1,0,0,0,0,0,0,0,0,0,0,0,0,1,0,0,0,0,0,0,0,0,0,1,0,0,0,0,0,0,0,0,0,0,0,0,0,0,0,0,0,0,0,0,0,0,0,0,0,0,0,0],"id":16,"left_children":[1,3,5,7,9,11,13,15,17,19,-1,21,23,25,27,29,31,33,35,-1,37,39,41,-1,43,45,-1,47,49,51,53,-1,55,57,-1,-1,59,61,63,-1,65,67,-1,-1,69,71,73,-1,75,-1,-1,-1,-1,-1,-1,-1,-1,-1,-1,-1,-1,-1,-1,-1,-1,-1,-1,-1,-1,-1,-1,-1,-1,-1,-1,-1,-1],"loss_changes":[3.5369632E0,2.3337266E0,2.1785781E0,1.9724163E0,1.3220763E0,2.6708899E0,2.4888887E0,1.4590151E0,1.1671245E0,9.2719793E-1,0E0,6.778846E-1,6.0416675E-1,9.6000004E-1,5.166664E-1,1.7463009E0,7.755682E-1,5.375E-1,1.2892854E0,0E0,7.9375E-1,7.633333E-1,8.194444E-1,0E0,2.3798084E-1,2.4553845E0,0E0,6.000042E-2,8.541667E-1,1.9468837E0,3.2765126E-1,0E0,3.9583334E-1,6.166667E-1,0E0,0E0,9.375E-1,4.875E-1,6.2946427E-1,0E0,1.2199178E0,3.9583334E-1,0E0,0E0,5.8125E-1,4.5352566E-1,5.470097E-2,0E0,5.5E-1,0E0,0E0,0E0,0E0,0E0,0E0,0E0,0E0,0E0,0E0,0E0,0E0,0E0,0E0,0E0,0E0,0E0,0E0,0E0,0E0,0E0,0E0,0E0,0E0,0E0,0E0,0E0,0E0],"parents":[2147483647,0,0,1,1,2,2,3,3,4,4,5,5,6,6,7,7,8,8,9,9,11,11,12,12,13,13,14,14,15,15,16,16,17,17,18,18,20,20,21,21,22,22,24,24,25,25,27,27,28,28,29,29,30,30,32,32,33,33,36,36,37,37,38,38,40,40,41,41,44,44,45,45,46,46,48,48],"right_children":[2,4,6,8,10,12,14,16,18,20,-1,22,24,26,28,30,32,34,36,-1,38,40,42,-1,44,46,-1,48,50,52,54,-1,56,58,-1,-1,60,62,64,-1,66,68,-1,-1,70,72,74,-1,76,-1,-1,-1,-1,-1,-1,-1,-1,-1,-1,-1,-1,-1,-1,-1,-1,-1,-1,-1,-1,-1,-1,-1,-1,-1,-1,-1,-1],"split_conditions":[-1.8113693E-2,5.068012E-2,4.768465E-2,2.2868635E-2,4.9840275E-2,1.277706E-1,-9.147094E-3,8.706873E-3,-4.6640873E-2,3.6153916E-2,5.846355E0,3.205916E-2,-5.578531E-2,7.290231E-2,5.2860808E-2,-1.0776975E-3,3.0439656E-2,1.9913213E-2,7.2065163E-3,-2.0943978E0,-7.2837663E-3,-5.7983026E-2,-2.592262E-3,7.037988E0,4.0672828E-2,6.0618393E-2,-3.4631196E-1,1.0137024E-1,5.3830603E-3,-6.735141E-2,-5.696818E-3,-2.0396447E0,5.068012E-2,-3.980883E-2,-2.4711301E0,-2.0735939E0,-5.6153104E-2,4.5340985E-2,8.590655E-2,1.4605862E0,-5.696818E-3,-5.4707497E-2,5.0495124E0,-2.821869E-1,5.0280675E-2,-5.1103264E-2,3.6153916E-2,2.716726E0,4.034337E-2,1.7378342E0,-3.507021E0,1.3019562E-1,-1.032518E0,9.3052214E-1,4.8304553E0,-9.904923E-1,2.6894608E0,-9.139252E-3,8.132168E-1,1.186277E0,-3.0775888E0,4.172531E-1,-1.1460457E0,-3.7978685E0,8.461098E0,-4.3930587E-1,3.657875E-1,1.7832947E-1,-1.23251E0,2.1763764E-1,-2.3064576E-1,4.992931E0,-6.800217E-1,2.1912286E0,1.7633431E0,5.4142427E0,-1.0722198E-1],"split_indices":[8,1,2,6,2,4,0,5,9,7,0,9,2,5,5,9,2,0,9,0,2,4,7,0,8,2,0,1,0,9,4,0,1,8,0,0,8,0,9,0,4,2,0,0,8,4,7,0,9,0,0,0,0,0,0,0,0,0,0,0,0,0,0,0,0,0,0,0,0,0,0,0,0,0,0,0,0],"split_type":[0,0,0,0,0,0,0,0,0,0,0,0,0,0,0,0,0,0,0,0,0,0,0,0,0,0,0,0,0,0,0,0,0,0,0,0,0,0,0,0,0,0,0,0,0,0,0,0,0,0,0,0,0,0,0,0,0,0,0,0,0,0,0,0,0,0,0,0,0,0,0,0,0,0,0,0,0],"sum_hessian":[2.83E2,1.37E2,1.46E2,9.7E1,4E1,8.4E1,6.2E1,5.9E1,3.8E1,3.8E1,2E0,6.4E1,2E1,2.8E1,3.4E1,4.9E1,1E1,1.1E1,2.7E1,2.7E1,1.1E1,5.3E1,1.1E1,1E0,1.9E1,2.4E1,4E0,2.9E1,5E0,2.8E1,2.1E1,7E0,3E0,9E0,2E0,1.9E1,8E0,4E0,7E0,4E0,4.9E1,3E0,8E0,1.2E1,7E0,1.2E1,1.2E1,2.4E1,5E0,3E0,2E0,6E0,2.2E1,1E1,1.1E1,1E0,2E0,5E0,4E0,3E0,5E0,3E0,1E0,6E0,1E0,1.8E1,3.1E1,1E0,2E0,3E0,4E0,1E0,1.1E1,8E0,4E0,4E0,1E0],"tree_param":{"num_deleted":"0","num_feature":"10","num_nodes":"77","size_leaf_vector":"1"}},{"base_weights":[-3.1578947E-2,-7.2289154E-2,2.4324325E-1,-9.375E-2,4.4999998E-2,-1.875E-1,3.5E-1,5.8333334E-2,-1.436464E-1,2.5E-2,-2.857143E-1,4.107143E-1,-3.3333335E-2,1.6216215E-1,-1.04166664E-1,-2.3557693E-1,-1.923077E-2,-4.1666668E-2,2.5E-2,4.8E-2,-1.25E-1,4.6666667E-2,-4.347826E-2,-4.375E-2,5.882353E-2,-2.857143E-1,-8.928572E-2,2.5E-1,-7.692308E-2,-3.3333335E-2,2.5E-2,-1.25E-2,3.75E-2,4.1666668E-2,-1.25E-2,-1.9E-2,-4.464286E-2,3.125E-2,-2.3809524E-2,4.4999998E-2,-2.0000001E-2,6.8965517E-3,-1.891892E-2],"categories":[],"categories_nodes":[],"categories_segments":[],"categories_sizes":[],"default_left":[1,1,0,0,0,0,1,0,0,0,1,0,0,1,1,1,0,0,0,0,1,0,1,0,0,0,0,1,1,0,0,0,0,0,0,0,0,0,0,0,0,0,0],"id":17,"left_children":[1,3,5,7,-1,9,11,13,15,-1,17,19,-1,21,23,25,27,-1,-1,-1,29,-1,31,-1,33,35,37,39,41,-1,-1,-1,-1,-1,-1,-1,-1,-1,-1,-1,-1,-1,-1],"loss_changes":[3.2061837E0,2.8331704E0,1.7670608E0,1.8295982E0,0E0,4.151786E-1,1.3815477E0,1.029223E0,2.0656743E0,0E0,5.9523803E-1,1.0992861E0,0E0,2.337172E0,1.329657E0,7.372937E-1,1.2307693E0,0E0,0E0,0E0,3.9583334E-1,0E0,8.3152175E-1,0E0,1.170343E0,1.0996428E0,1.7485119E0,1.3500001E0,1.0776399E0,0E0,0E0,0E0,0E0,0E0,0E0,0E0,0E0,0E0,0E0,0E0,0E0,0E0,0E0],"parents":[2147483647,0,0,1,1,2,2,3,3,5,5,6,6,7,7,8,8,10,10,11,11,13,13,14,14,15,15,16,16,20,20,22,22,24,24,25,25,26,26,27,27,28,28],"right_children":[2,4,6,8,-1,10,12,14,16,-1,18,20,-1,22,24,26,28,-1,-1,-1,30,-1,32,-1,34,36,38,40,42,-1,-1,-1,-1,-1,-1,-1,-1,-1,-1,-1,-1,-1,-1],"split_conditions":[4.448548E-2,9.726401E-2,-8.361578E-3,-2.4992656E-2,4.255832E0,-5.4707497E-2,8.636769E-2,4.229559E-2,9.961227E-3,1.6049652E-1,7.916528E-2,7.803383E-2,-5.881409E-1,5.068012E-2,-1.8820165E-3,3.081083E-2,3.0439656E-2,-2.2328713E0,1.7596437E-2,2.6710076E0,1.4272476E-2,4.3518486E0,4.7965344E-2,-2.447464E-1,-4.3400846E-2,-2.7762195E-2,-1.3526668E-2,1.9907486E-2,-4.6975404E-2,-6.334576E-1,4.4262404E0,-4.8256227E-1,5.5190034E0,4.6290116E0,-1.8038788E-1,-1.0425491E0,-2.346206E0,3.6924514E-1,-2.1462937E-1,6.0092835E0,-2.188942E-1,1.3125916E-1,-5.9530985E-1],"split_indices":[9,2,2,6,0,2,5,2,2,0,5,0,0,1,0,0,2,0,0,0,2,0,4,0,6,2,5,8,4,0,0,0,0,0,0,0,0,0,0,0,0,0,0],"split_type":[0,0,0,0,0,0,0,0,0,0,0,0,0,0,0,0,0,0,0,0,0,0,0,0,0,0,0,0,0,0,0,0,0,0,0,0,0,0,0,0,0,0,0],"sum_hessian":[2.84E2,2.48E2,3.6E1,2.39E2,9E0,7E0,2.9E1,5.9E1,1.8E2,1E0,6E0,2.7E1,2E0,3.6E1,2.3E1,1.03E2,7.7E1,5E0,1E0,2.4E1,3E0,1.4E1,2.2E1,7E0,1.6E1,7.6E1,2.7E1,1.3E1,6.4E1,2E0,1E0,1.9E1,3E0,5E0,1.1E1,4.9E1,2.7E1,7E0,2E1,9E0,4E0,2.8E1,3.6E1],"tree_param":{"num_deleted":"0","num_feature":"10","num_nodes":"43","size_leaf_vector":"1"}},{"base_weights":[-4.020979E-2,-7.509881E-2,2.2058824E-1,2.7272728E-1,-9.053498E-2,2.7777778E-2,4.117647E-1,-3.3333335E-2,4.4444446E-2,-2E-1,-3.1446543E-2,-4.0000003E-2,1.7857143E-1,4.6875E-2,-2.5E-2,-8.510638E-2,-3.3333334E-1,1.5503876E-2,-2.2580644E-1,-1.25E-1,2.7272728E-1,-1.5476191E-1,4.1666668E-2,-4.6153847E-2,-2.5925925E-1,-1.4473684E-1,8.152174E-2,3.125E-1,-3.9583334E-1,2.5E-2,-3.3333335E-2,3.5E-1,-2.5E-2,3.75E-2,-2.0512821E-2,-0E0,-4.117647E-2,4.3478264E-3,-4.0625002E-2,5.232558E-3,4.2857144E-2,4.2857144E-2,-2.5E-2,1.25E-2,-4.761905E-2,4.375E-2,-0E0],"categories":[],"categories_nodes":[],"categories_segments":[],"categories_sizes":[],"default_left":[1,0,1,0,0,1,1,0,0,0,0,0,1,0,0,0,0,0,1,0,1,0,0,0,1,0,1,1,0,0,0,0,0,0,0,0,0,0,0,0,0,0,0,0,0,0,0],"id":18,"left_children":[1,3,5,7,9,11,13,-1,-1,15,17,-1,19,-1,-1,21,23,25,27,29,31,33,-1,-1,35,37,39,41,43,-1,-1,45,-1,-1,-1,-1,-1,-1,-1,-1,-1,-1,-1,-1,-1,-1,-1],"loss_changes":[2.6188767E0,1.3830738E0,1.2418299E0,1.2929294E0,1.5654633E0,1.2325398E0,7.582722E-1,0E0,0E0,1.2737589E0,1.4544203E0,0E0,4.3425325E-1,0E0,0E0,1.7071934E0,2.5071192E-1,1.3764579E0,2.961022E0,3.9583334E-1,5.318182E-1,1.1975732E0,0E0,0E0,1.067538E0,1.8880506E0,9.097664E-1,6.2946427E-1,1.063988E0,0E0,0E0,3.0624998E-1,0E0,0E0,0E0,0E0,0E0,0E0,0E0,0E0,0E0,0E0,0E0,0E0,0E0,0E0,0E0],"parents":[2147483647,0,0,1,1,2,2,3,3,4,4,5,5,6,6,9,9,10,10,12,12,15,15,16,16,17,17,18,18,19,19,20,20,21,21,24,24,25,25,26,26,27,27,28,28,31,31],"right_children":[2,4,6,8,10,12,14,-1,-1,16,18,-1,20,-1,-1,22,24,26,28,30,32,34,-1,-1,36,38,40,42,44,-1,-1,46,-1,-1,-1,-1,-1,-1,-1,-1,-1,-1,-1,-1,-1,-1,-1],"split_conditions":[4.448548E-2,-7.563562E-2,9.438663E-3,-8.141314E-2,-2.592262E-3,-1.8113693E-2,4.1276824E-2,-1.6877247E0,9.758301E-2,-1.5689598E-3,1.2739015E-1,-1.9791409E0,-2.3677247E-2,1.8709488E0,-8.5502094E-1,-7.0727714E-3,-2.3677247E-2,-1.5998974E-2,-2.3584206E-2,-6.0002632E-2,6.336665E-2,-9.588471E-2,1.6475632E0,-2.093392E0,-2.6365755E-2,2.4574144E-2,5.2321736E-2,1.0794366E-1,-3.665608E-2,2.1406648E0,-5.7682496E-1,5.017634E-2,-2.5274658E-1,2.2976075E-1,-6.262642E-1,-3.2434008E-1,-4.736393E-1,4.495659E-2,-1.0837449E0,1.7524414E-1,3.008632E0,3.4005744E0,-4.5150757E-2,3.3117678E-2,-1.1992264E0,3.037874E0,3.2878265E-1],"split_indices":[9,9,4,3,7,8,6,0,0,4,5,0,0,0,0,4,0,3,4,0,6,5,0,0,5,4,6,3,3,0,0,7,0,0,0,0,0,0,0,0,0,0,0,0,0,0,0],"split_type":[0,0,0,0,0,0,0,0,0,0,0,0,0,0,0,0,0,0,0,0,0,0,0,0,0,0,0,0,0,0,0,0,0,0,0,0,0,0,0,0,0,0,0,0,0,0,0],"sum_hessian":[2.85E2,2.52E2,3.3E1,1E1,2.42E2,1.7E1,1.6E1,2E0,8E0,8.4E1,1.58E2,4E0,1.3E1,1.5E1,1E0,4.6E1,3.8E1,1.28E2,3E1,3E0,1E1,4.1E1,5E0,1.2E1,2.6E1,3.7E1,9.1E1,7E0,2.3E1,1E0,2E0,9E0,1E0,3E0,3.8E1,1E1,1.6E1,2.2E1,1.5E1,8.5E1,6E0,6E0,1E0,3E0,2E1,7E0,2E0],"tree_param":{"num_deleted":"0","num_feature":"10","num_nodes":"47","size_leaf_vector":"1"}},{"base_weights":[-1.8050542E-2,-4.0076334E-2,3.4375E-1,2.9166666E-1,-5.5776894E-2,4E-1,-2.5E-2,3.6363637E-1,-2.5E-2,-7.725322E-2,2.1052632E-1,4.6428572E-2,-2.5E-2,-2.5E-2,4.4999998E-2,-4.5454544E-3,-1.4112903E-1,-3.3333335E-2,2.9411766E-1,-9.836066E-2,1.1E-1,2.0833333E-1,-1.7699115E-1,3.4375E-1,-2.5E-2,-3.773585E-3,-4.4444446E-2,2.7083335E-2,-3.7037039E-3,-3.75E-2,4.4444446E-2,-2.0618556E-2,-0E0,-2.5E-2,4.0000003E-2],"categories":[],"categories_nodes":[],"categories_segments":[],"categories_sizes":[],"default_left":[1,0,0,1,1,1,0,0,0,1,0,0,0,0,0,1,0,0,1,1,1,1,1,0,0,0,0,0,0,0,0,0,0,0,0],"id":19,"left_children":[1,3,5,7,9,11,-1,13,-1,15,17,-1,-1,-1,-1,19,21,-1,23,25,27,29,31,33,-1,-1,-1,-1,-1,-1,-1,-1,-1,-1,-1],"loss_changes":[2.221174E0,1.3809084E0,6.343751E-1,5.587121E-1,1.4517866E0,7.42857E-1,0E0,6.954546E-1,0E0,1.081473E0,9.618163E-1,0E0,0E0,0E0,0E0,1.1928912E0,1.5908985E0,0E0,5.450368E-1,1.2630856E0,1.1924536E0,1.8194444E0,5.8388805E-1,6.343751E-1,0E0,0E0,0E0,0E0,0E0,0E0,0E0,0E0,0E0,0E0,0E0],"parents":[2147483647,0,0,1,1,2,2,3,3,4,4,5,5,7,7,9,9,10,10,15,15,16,16,18,18,19,19,20,20,21,21,22,22,23,23],"right_children":[2,4,6,8,10,12,-1,14,-1,16,18,-1,-1,-1,-1,20,22,-1,24,26,28,30,32,34,-1,-1,-1,-1,-1,-1,-1,-1,-1,-1,-1],"split_conditions":[7.3480226E-2,-7.563562E-2,6.310082E-2,5.068012E-2,6.605066E-2,4.1276824E-2,-2.2751923E-1,-8.141314E-2,-2.268383E0,-1.7629381E-2,-2.2208253E-2,3.796521E0,-7.6951903E-1,-7.6952213E-1,8.937836E-2,9.015599E-3,-8.54304E-2,-1.3742447E-1,9.6196525E-2,5.7558034E-2,5.068012E-2,-6.6238746E-2,2.1872386E-2,-1.107952E-2,-2.2587891E-1,-9.121628E-2,-3.1947252E-1,2.548868E0,-4.3297198E-2,-4.70208E-1,2.1988046E0,-8.031418E-1,3.806839E-2,-1.8076149E0,1.620179E0],"split_indices":[9,9,4,1,8,6,0,3,0,6,4,0,0,0,0,0,0,0,0,5,1,4,3,7,0,0,0,0,0,0,0,0,0,0,0],"split_type":[0,0,0,0,0,0,0,0,0,0,0,0,0,0,0,0,0,0,0,0,0,0,0,0,0,0,0,0,0,0,0,0,0,0,0],"sum_hessian":[2.76E2,2.61E2,1.5E1,1.1E1,2.5E2,1.4E1,1E0,1E1,1E0,2.32E2,1.8E1,1.3E1,1E0,1E0,9E0,1.09E2,1.23E2,2E0,1.6E1,6E1,4.9E1,1.1E1,1.12E2,1.5E1,1E0,5.2E1,8E0,2.3E1,2.6E1,3E0,8E0,9.6E1,1.6E1,1E0,1.4E1],"tree_param":{"num_deleted":"0","num_feature":"10","num_nodes":"35","size_leaf_vector":"1"}},{"base_weights":[-2.3381295E-2,-4.699248E-2,4.6153847E-2,3.5E-1,-6.225681E-2,-2.5E-2,4.4444446E-2,-1.1141305E-1,6.081081E-2,-2.038835E-1,6.0975607E-3,2.1666667E-1,-4.4444446E-2,-3.6585367E-1,-9.52381E-2,-7.7586204E-2,2E-1,3.125E-1,-1.4285715E-1,3.125E-1,-1.18421055E-1,-2.3529412E-2,-4.4E-2,6.944445E-3,-3.0357143E-2,2.2222223E-3,-3.9285716E-2,3.529412E-2,-1.1111111E-2,3.809524E-2,-1.25E-2,-4.0000003E-2,3.3333335E-2,4.2857144E-2,-2.5E-2,-1.7142858E-2,3.75E-2],"categories":[],"categories_nodes":[],"categories_segments":[],"categories_sizes":[],"default_left":[1,0,0,0,1,0,0,1,0,0,1,1,1,0,1,0,1,0,0,1,1,0,0,0,0,0,0,0,0,0,0,0,0,0,0,0,0],"id":20,"left_children":[1,3,-1,5,7,-1,-1,9,11,13,15,17,19,21,23,25,27,29,31,33,35,-1,-1,-1,-1,-1,-1,-1,-1,-1,-1,-1,-1,-1,-1,-1,-1],"loss_changes":[3.2046585E0,1.6337029E0,0E0,6.7777777E-1,1.5615072E0,0E0,0E0,2.0006347E0,1.2235736E0,1.7776804E0,1.3460891E0,1.0782738E0,1.2252558E0,2.9337168E-1,2.1825397E0,1.8337988E0,1.2287583E0,7.663691E-1,9.904762E-1,6.2946427E-1,1.0581768E0,0E0,0E0,0E0,0E0,0E0,0E0,0E0,0E0,0E0,0E0,0E0,0E0,0E0,0E0,0E0,0E0],"parents":[2147483647,0,0,1,1,3,3,4,4,7,7,8,8,9,9,10,10,11,11,12,12,13,13,14,14,15,15,16,16,17,17,18,18,19,19,20,20],"right_children":[2,4,-1,6,8,-1,-1,10,12,14,16,18,20,22,24,26,28,30,32,34,36,-1,-1,-1,-1,-1,-1,-1,-1,-1,-1,-1,-1,-1,-1,-1,-1],"split_conditions":[9.403057E-2,-7.563562E-2,1.9586304E0,-8.141314E-2,6.727791E-3,-6.9256973E-1,7.888756E-2,-9.824677E-3,3.690653E-2,-5.2198046E-3,-2.1295324E-2,4.597154E-2,-6.11758E-2,-2.5191387E-2,-3.0995632E-2,7.803383E-2,2.2868635E-2,7.351515E-2,2.6128408E-2,1.1951489E-1,7.00723E-2,-9.70208E-1,-1.7002605E0,1.217865E-1,-4.3493804E-1,3.542633E-2,-1.238189E0,3.53556E0,-1.3916909E0,1.8570808E0,-4.289116E-1,-2.2818997E0,3.9733827E0,3.2547958E0,-6.8004304E-1,-2.1470872E-1,2.7755706E0],"split_indices":[2,9,0,3,2,0,0,4,2,9,2,5,8,3,2,0,6,3,2,4,3,0,0,0,0,0,0,0,0,0,0,0,0,0,0,0,0],"split_type":[0,0,0,0,0,0,0,0,0,0,0,0,0,0,0,0,0,0,0,0,0,0,0,0,0,0,0,0,0,0,0,0,0,0,0,0,0],"sum_hessian":[2.77E2,2.65E2,1.2E1,9E0,2.56E2,1E0,8E0,1.83E2,7.3E1,1.02E2,8.1E1,2.9E1,4.4E1,4E1,6.2E1,5.7E1,2.4E1,2.3E1,6E0,7E0,3.7E1,1.6E1,2.4E1,3.5E1,2.7E1,4.4E1,1.3E1,1.6E1,8E0,2E1,3E0,4E0,2E0,6E0,1E0,3.4E1,3E0],"tree_param":{"num_deleted":"0","num_feature":"10","num_nodes":"37","size_leaf_vector":"1"}},{"base_weights":[-4E-2,-2.4528302E-1,8.96861E-3,3.75E-2,-2.9E-1,-1.9512195E-2,3.1578946E-1,-3.7142858E-1,-9.375E-2,1.6E-1,-4.4198897E-2,6.25E-2,4.5833334E-2,-8.3333336E-2,-4.1666666E-1,2.2222222E-1,-4.375E-2,-3.5714287E-2,3.75E-1,-8.759124E-2,8.888889E-2,-3.75E-2,4.0000003E-2,3.3333335E-2,-3.75E-2,-4.4642857E-1,-0E0,4.1666668E-2,-1.25E-1,-3.125E-1,2.857143E-1,-0E0,4.4999998E-2,4.0000003E-2,-1.0526316E-1,-6.25E-2,2.5E-1,-4.7916666E-2,-2.0000001E-2,-2.5E-2,2.5E-2,-3.3333335E-2,2.5E-2,-4.1666668E-2,-0E0,4.1666668E-2,-2.5E-2,2.5E-2,-2.5E-2,-3.5E-2,-8.467742E-3,-1.9444445E-2,2.857143E-2,-3.3333335E-2,3.25E-2],"categories":[],"categories_nodes":[],"categories_segments":[],"categories_sizes":[],"default_left":[0,0,1,0,1,0,1,0,1,1,1,0,0,0,1,1,0,1,0,0,1,0,0,0,0,0,0,0,0,1,0,0,0,0,0,1,0,0,0,0,0,0,0,0,0,0,0,0,0,0,0,0,0,0,0],"id":21,"left_children":[1,3,5,-1,7,9,11,13,15,17,19,21,-1,23,25,27,-1,29,31,33,35,-1,-1,-1,-1,37,39,-1,41,43,45,47,-1,-1,49,51,53,-1,-1,-1,-1,-1,-1,-1,-1,-1,-1,-1,-1,-1,-1,-1,-1,-1,-1],"loss_changes":[2.7666163E0,1.5788207E0,1.9548485E0,0E0,7.641964E-1,9.155424E-1,6.5734637E-1,4.2142868E-1,1.8350694E0,1.0653572E0,1.0530592E0,1.33125E0,0E0,8.541667E-1,3.7202358E-1,6.597222E-1,0E0,1.3348213E0,3.375001E-1,1.2225894E0,1.1131945E0,0E0,0E0,0E0,0E0,1.3005924E-1,2.5E-1,0E0,3.9583334E-1,2.6041663E-1,5.9523803E-1,2.5E-1,0E0,0E0,6.4042866E-1,1.1582341E0,1.0708332E0,0E0,0E0,0E0,0E0,0E0,0E0,0E0,0E0,0E0,0E0,0E0,0E0,0E0,0E0,0E0,0E0,0E0,0E0],"parents":[2147483647,0,0,1,1,2,2,4,4,5,5,6,6,7,7,8,8,9,9,10,10,11,11,13,13,14,14,15,15,17,17,18,18,19,19,20,20,25,25,26,26,28,28,29,29,30,30,31,31,34,34,35,35,36,36],"right_children":[2,4,6,-1,8,10,12,14,16,18,20,22,-1,24,26,28,-1,30,32,34,36,-1,-1,-1,-1,38,40,-1,42,44,46,48,-1,-1,50,52,54,-1,-1,-1,-1,-1,-1,-1,-1,-1,-1,-1,-1,-1,-1,-1,-1,-1,-1],"split_conditions":[-3.3245593E-2,-8.806194E-2,7.1396515E-2,6.944504E-2,-1.0776975E-3,-4.6640873E-2,-4.183994E-2,-8.54304E-2,-7.889995E-3,-6.584468E-3,3.839393E-2,2.9894229E-2,2.7360566E0,-6.6490196E-2,5.4151524E-2,5.068012E-2,-1.0738823E0,-1.0007289E-3,-2.7129022E-2,-8.54304E-2,7.141131E-3,-8.289795E-2,3.8758638E0,3.160057E-1,-2.5316086E-1,1.5908924E-1,-4.9105015E-2,3.032039E0,-3.0942325E-2,1.8429535E-2,4.8973523E-2,-4.5472477E-2,1.758995E-1,3.1514382E0,-4.9105015E-2,4.8627585E-2,-4.9291342E-2,-2.0309227E0,-2.211284E0,-2.4945222E-1,1.2338394E0,-2.799664E0,3.9595947E-1,-1.26185E0,1.8382256E0,4.1818085E-1,-3.335373E-1,2.2532426E-1,-2.7235534E0,-3.2678673E0,-1.7908631E-1,-6.401672E-2,1.9542145E0,-1.5929288E0,1.0102799E0],"split_indices":[8,9,2,0,9,9,0,0,5,6,8,3,0,8,2,1,0,5,8,0,5,0,0,0,0,6,0,0,0,3,0,0,0,0,0,9,3,0,0,0,0,0,0,0,0,0,0,0,0,0,0,0,0,0,0],"split_type":[0,0,0,0,0,0,0,0,0,0,0,0,0,0,0,0,0,0,0,0,0,0,0,0,0,0,0,0,0,0,0,0,0,0,0,0,0,0,0,0,0,0,0,0,0,0,0,0,0,0,0,0,0,0,0],"sum_hessian":[2.74E2,5.2E1,2.22E2,3E0,4.9E1,2.04E2,1.8E1,3.4E1,1.5E1,2.4E1,1.8E2,7E0,1.1E1,5E0,2.9E1,8E0,7E0,1.3E1,1.1E1,1.36E2,4.4E1,3E0,4E0,2E0,3E0,2.7E1,2E0,5E0,3E0,7E0,6E0,2E0,9E0,4E0,1.32E2,2.3E1,2.1E1,2.3E1,4E0,1E0,1E0,2E0,1E0,5E0,2E0,5E0,1E0,1E0,1E0,9E0,1.23E2,1.7E1,6E0,2E0,1.9E1],"tree_param":{"num_deleted":"0","num_feature":"10","num_nodes":"55","size_leaf_vector":"1"}},{"base_weights":[-3.8321167E-2,-7.2961375E-2,1.5476191E-1,1.0204082E-1,-1.1891892E-1,-2.2727273E-2,3.3333334E-1,3.125E-1,-9.615385E-2,4.1666668E-2,-1.3611111E-1,-3.3333334E-1,1.7857143E-1,3.75E-1,-2.5E-2,3.8636363E-1,-3.3333335E-2,-1.904762E-1,2.5E-1,-3.6E-1,-9.9358976E-2,-4.375E-2,2.5E-2,-8.3333336E-2,3.3333334E-1,4.2105263E-1,-2.5E-2,-2.5E-2,4.2857143E-1,-3.529412E-1,4.0000003E-2,-2.5E-2,4.0000003E-2,2.5E-2,-3.9583334E-1,-3.0927835E-2,-2.0833333E-1,3.3333335E-2,-3.75E-2,4.2857144E-2,-0E0,4.7222223E-2,-2.5E-2,-2.5E-2,4.75E-2,-4.6153847E-2,-0E0,-4.7222223E-2,-1.4285715E-2,-1.3970588E-2,2.1666666E-2,4.761905E-3,-3.375E-2,2.5E-2,-2.5E-2],"categories":[],"categories_nodes":[],"categories_segments":[],"categories_sizes":[],"default_left":[1,1,1,1,0,0,1,1,0,0,0,1,0,0,0,0,0,1,0,0,1,0,0,1,1,1,0,0,0,1,0,0,0,0,0,1,0,0,0,0,0,0,0,0,0,0,0,0,0,0,0,0,0,0,0],"id":22,"left_children":[1,3,5,7,9,11,13,15,17,-1,19,21,23,25,-1,27,-1,29,31,33,35,-1,-1,37,39,41,-1,-1,43,45,-1,-1,-1,-1,47,49,51,-1,-1,-1,53,-1,-1,-1,-1,-1,-1,-1,-1,-1,-1,-1,-1,-1,-1],"loss_changes":[1.8439234E0,1.8860769E0,1.3387446E0,2.0739305E0,1.7601728E0,1.4350649E0,6.0416675E-1,1.2736742E0,8.9652014E-1,0E0,1.4453418E0,6.5625E-1,5.952381E-1,6.809211E-1,0E0,6.980519E-1,0E0,2.1557424E0,5.5E-1,6.4541674E-1,1.1568861E0,0E0,0E0,8.541667E-1,2.8571427E-1,7.7046776E-1,0E0,0E0,7.803569E-1,6.515837E-1,0E0,0E0,0E0,0E0,3.9632916E-1,2.6427557E0,1.9997022E0,0E0,0E0,0E0,2.5E-1,0E0,0E0,0E0,0E0,0E0,0E0,0E0,0E0,0E0,0E0,0E0,0E0,0E0,0E0],"parents":[2147483647,0,0,1,1,2,2,3,3,4,4,5,5,6,6,7,7,8,8,10,10,11,11,12,12,13,13,15,15,17,17,18,18,19,19,20,20,23,23,24,24,25,25,28,28,29,29,34,34,35,35,36,36,40,40],"right_children":[2,4,6,8,10,12,14,16,18,-1,20,22,24,26,-1,28,-1,30,32,34,36,-1,-1,38,40,42,-1,-1,44,46,-1,-1,-1,-1,48,50,52,-1,-1,-1,54,-1,-1,-1,-1,-1,-1,-1,-1,-1,-1,-1,-1,-1,-1],"split_conditions":[3.908664E-2,-7.563562E-2,1.549073E-2,-6.348684E-2,-6.917231E-2,3.2432325E-2,8.636769E-2,3.430886E-2,3.6153916E-2,4.192296E0,-4.177375E-2,1.2852055E-1,2.6559623E-2,1.0329702E-1,-7.394379E-1,-6.994845E-2,-2.4489823E-1,-1.2948301E-1,-8.141314E-2,-3.971921E-2,-4.1322135E-3,-1.7815125E0,3.4196E0,-5.514555E-3,6.447678E-2,6.336665E-2,-7.774841E-1,-1.2095314E0,-8.412613E-2,1.966707E-2,9.924393E-2,-1.7691964E0,2.7225082E0,3.9400957E0,7.2065163E-3,-3.0123536E-2,-1.3504018E-2,1.9397415E0,-5.0219726E-2,4.638962E0,4.5340985E-2,1.3706299E0,-1.698761E-1,-3.1085382E0,6.517143E-1,-1.4691734E0,-5.038887E-1,-1.4092308E0,-5.401379E-1,-3.1254426E-1,6.329018E-1,1.0738755E-2,-4.5874938E-1,4.9682755E0,-1.6117707E-1],"split_indices":[3,9,9,4,6,8,5,7,7,0,2,2,7,8,0,3,0,9,3,6,5,0,0,0,4,6,0,0,4,5,0,0,0,0,9,5,9,0,0,0,0,0,0,0,0,0,0,0,0,0,0,0,0,0,0],"split_type":[0,0,0,0,0,0,0,0,0,0,0,0,0,0,0,0,0,0,0,0,0,0,0,0,0,0,0,0,0,0,0,0,0,0,0,0,0,0,0,0,0,0,0,0,0,0,0,0,0,0,0,0,0,0,0],"sum_hessian":[2.73E2,2.32E2,4.1E1,4.8E1,1.84E2,2.1E1,2E1,2.3E1,2.5E1,5E0,1.79E2,8E0,1.3E1,1.9E1,1E0,2.1E1,2E0,2E1,5E0,2.4E1,1.55E2,7E0,1E0,5E0,8E0,1.8E1,1E0,1E0,2E1,1.6E1,4E0,1E0,4E0,1E0,2.3E1,9.6E1,5.9E1,2E0,3E0,6E0,2E0,1.7E1,1E0,1E0,1.9E1,1.2E1,4E0,1.7E1,6E0,6.7E1,2.9E1,2E1,3.9E1,1E0,1E0],"tree_param":{"num_deleted":"0","num_feature":"10","num_nodes":"55","size_leaf_vector":"1"}},{"base_weights":[-5.3380784E-2,-8.143939E-2,3.611111E-1,-1.6860466E-1,-3.9106146E-2,4.6153847E-2,8.3333336E-2,-1.0714286E-1,-4.117647E-1,-2.6086956E-1,-6.369427E-3,-3.3333335E-2,3.75E-2,-1.7708333E-1,4.347826E-2,2.5E-2,-4.6875E-2,-7.692308E-2,-4.5454547E-2,-7.065217E-2,8.3333336E-2,-2.5714287E-1,3.5714287E-2,4.0000003E-2,-5.263158E-2,3.75E-2,-2.5E-1,2.3529412E-1,-1.3815789E-1,-1.0869565E-2,2.857143E-1,-6.6666673E-3,-3.809524E-2,2.5E-2,-4.0000003E-2,-3.125E-2,1.25E-2,-4.375E-2,3.3333335E-2,3.9285716E-2,-3.75E-2,-1.7857144E-2,2.857143E-2,2.3529412E-2,-1.5000001E-2,4.1666668E-2,-3.75E-2],"categories":[],"categories_nodes":[],"categories_segments":[],"categories_sizes":[],"default_left":[1,0,0,1,0,0,0,0,0,0,1,0,0,1,0,0,0,0,0,1,1,0,0,0,1,0,1,0,1,1,1,0,0,0,0,0,0,0,0,0,0,0,0,0,0,0,0],"id":23,"left_children":[1,3,5,7,9,-1,11,13,15,17,19,-1,-1,21,23,-1,-1,25,-1,27,29,31,33,-1,35,-1,37,39,41,43,45,-1,-1,-1,-1,-1,-1,-1,-1,-1,-1,-1,-1,-1,-1,-1,-1],"loss_changes":[3.2974577E0,9.675634E-1,4.6367526E-1,1.2411568E0,1.2978438E0,0E0,8.541667E-1,7.451152E-1,7.582722E-1,7.84433E-1,9.112031E-1,0E0,0E0,8.2693446E-1,8.091533E-1,0E0,0E0,1.1105769E0,0E0,1.9325951E0,1.2613871E0,7.9999995E-1,1.4071428E0,0E0,9.1611844E-1,0E0,1.2395834E0,1.782038E0,1.3529136E0,1.6107417E0,1.9732143E0,0E0,0E0,0E0,0E0,0E0,0E0,0E0,0E0,0E0,0E0,0E0,0E0,0E0,0E0,0E0,0E0],"parents":[2147483647,0,0,1,1,2,2,3,3,4,4,6,6,7,7,8,8,9,9,10,10,13,13,14,14,17,17,19,19,20,20,21,21,22,22,24,24,26,26,27,27,28,28,29,29,30,30],"right_children":[2,4,6,8,10,-1,12,14,16,18,20,-1,-1,22,24,-1,-1,26,-1,28,30,32,34,-1,36,-1,38,40,42,44,46,-1,-1,-1,-1,-1,-1,-1,-1,-1,-1,-1,-1,-1,-1,-1,-1],"split_conditions":[7.355214E-2,-1.4400621E-2,6.713621E-2,-7.889995E-3,-4.1235074E-2,1.4435669E0,2.9894229E-2,2.3545753E-2,-7.1493514E-2,2.4574144E-2,-7.2837663E-3,-7.5870895E-1,5.426964E0,-2.4960158E-2,-6.348684E-2,3.752884E-1,-8.255707E-1,3.6153916E-2,-5.3085977E-1,-5.4925088E-2,2.3774944E-2,-4.835136E-2,1.1348623E-2,2.0417428E0,-3.8540315E-2,1.5807129E0,-1.5998872E-2,7.41549E-2,5.9871137E-2,-3.1839922E-2,8.5530706E-2,-4.479599E-2,-9.634186E-1,8.6490935E-1,-7.610893E-1,-9.0023345E-1,1.3080445E-1,-1.5922768E0,5.085827E0,1.7231445E0,-5.5916137E-1,-2.8128967E-1,1.2497323E0,5.831062E-1,-2.4627991E-1,3.1069381E0,-3.334076E-1],"split_indices":[2,7,0,5,3,0,3,0,9,4,2,0,0,4,4,0,0,7,0,9,9,4,9,0,2,0,8,5,0,4,8,0,0,0,0,0,0,0,0,0,0,0,0,0,0,0,0],"split_type":[0,0,0,0,0,0,0,0,0,0,0,0,0,0,0,0,0,0,0,0,0,0,0,0,0,0,0,0,0,0,0,0,0,0,0,0,0,0,0,0,0,0,0,0,0,0,0],"sum_hessian":[2.8E2,2.63E2,1.7E1,8.5E1,1.78E2,1.2E1,5E0,6.9E1,1.6E1,2.2E1,1.56E2,2E0,3E0,4.7E1,2.2E1,1E0,1.5E1,1.2E1,1E1,9.1E1,6.5E1,3.4E1,1.3E1,4E0,1.8E1,3E0,9E0,1.6E1,7.5E1,4.5E1,2E1,1.4E1,2E1,9E0,4E0,7E0,1.1E1,7E0,2E0,1.3E1,3E0,6.9E1,6E0,1.6E1,2.9E1,1.7E1,3E0],"tree_param":{"num_deleted":"0","num_feature":"10","num_nodes":"47","size_leaf_vector":"1"}},{"base_weights":[-2.4734983E-2,-5.0373133E-2,4.0625E-1,2E-1,-6.496063E-2,4.6666667E-2,-2.5E-2,-4.0000003E-2,4.5454547E-2,-2.4324325E-1,-3.440367E-2,-6.666667E-2,-3.478261E-1,1.7361112E-2,-1.3333334E-1,-3.5E-1,4.1666668E-2,-0E0,-3.809524E-1,-7.638889E-2,1.0958904E-1,-2.6666668E-1,6.451613E-2,2.5E-2,-4.4444446E-2,2.5E-2,-2.5E-2,-4.2105265E-2,-0E0,2.0408162E-3,-2.7083335E-2,-1.9444445E-2,2.0535715E-2,-3.214286E-2,3.75E-2,-2.727273E-2,2.3809524E-2],"categories":[],"categories_nodes":[],"categories_segments":[],"categories_sizes":[],"default_left":[1,0,1,1,0,0,0,0,0,1,0,1,0,1,0,0,0,0,0,1,0,1,0,0,0,0,0,0,0,0,0,0,0,0,0,0,0],"id":24,"left_children":[1,3,5,7,9,-1,-1,-1,-1,11,13,15,17,19,21,23,-1,25,27,29,31,33,35,-1,-1,-1,-1,-1,-1,-1,-1,-1,-1,-1,-1,-1,-1],"loss_changes":[3.1475174E0,9.918131E-1,7.5104165E-1,2.4727273E0,1.3753663E0,0E0,0E0,0E0,0E0,6.6008615E-1,1.1187086E0,2.2E0,2.6501036E-1,1.2534484E0,1.995699E0,6.7777777E-1,0E0,2.5E-1,3.2080197E-1,1.3606858E0,2.1654503E0,1.7017858E0,1.8796257E0,0E0,0E0,0E0,0E0,0E0,0E0,0E0,0E0,0E0,0E0,0E0,0E0,0E0,0E0],"parents":[2147483647,0,0,1,1,2,2,3,3,4,4,9,9,10,10,11,11,12,12,13,13,14,14,15,15,17,17,18,18,19,19,20,20,21,21,22,22],"right_children":[2,4,6,8,10,-1,-1,-1,-1,12,14,16,18,20,22,24,-1,26,28,30,32,34,36,-1,-1,-1,-1,-1,-1,-1,-1,-1,-1,-1,-1,-1,-1],"split_conditions":[7.355214E-2,-8.54304E-2,4.108558E-2,-6.899065E-2,-4.3983772E-2,1.2992096E0,-1.3601533E-1,-4.947609E-1,1.3138275E0,-3.9493382E-2,4.597154E-2,1.750522E-3,-4.7082484E-2,-2.6327528E-2,5.0782032E-2,4.4604456E-3,8.3769226E-1,-4.42235E-2,1.747503E-2,3.0644094E-3,1.750522E-3,5.2321736E-2,1.4942475E-2,4.6311952E-2,-2.6098278E0,1.5277557E-1,-3.6614625E0,-8.352909E-1,1.0316773E-1,2.4289703E-2,-3.8824615E-1,-1.2401787E0,1.0852738E-1,-4.295624E-1,6.562195E-1,-1.5022026E0,2.0738504E0],"split_indices":[2,0,4,4,8,0,0,0,0,7,5,0,6,3,8,6,0,4,5,9,0,6,4,0,0,0,0,0,0,0,0,0,0,0,0,0,0],"split_type":[0,0,0,0,0,0,0,0,0,0,0,0,0,0,0,0,0,0,0,0,0,0,0,0,0,0,0,0,0,0,0,0,0,0,0,0,0],"sum_hessian":[2.82E2,2.67E2,1.5E1,1.4E1,2.53E2,1.4E1,1E0,4E0,1E1,3.6E1,2.17E2,1.4E1,2.2E1,1.43E2,7.4E1,9E0,5E0,2E0,2E1,7.1E1,7.2E1,4.4E1,3E1,1E0,8E0,1E0,1E0,1.8E1,2E0,4.8E1,2.3E1,1.7E1,5.5E1,4.1E1,3E0,1E1,2E1],"tree_param":{"num_deleted":"0","num_feature":"10","num_nodes":"37","size_leaf_vector":"1"}},{"base_weights":[-3.057554E-2,-6.9327734E-2,1.9512194E-1,-9.947644E-2,5.2083332E-2,-2.5E-2,3.8636363E-1,-1.12299465E-1,4.0000003E-2,-2.5641026E-2,3.5E-1,5.882353E-2,-3.75E-2,4.2857143E-1,-2.5E-2,-0E0,-1.68E-1,-8.571429E-2,4.0000003E-2,4.4444446E-2,-2.5E-2,-2.5E-1,2.0833333E-1,4.7368422E-2,-0E0,1.5151516E-1,-1.6129032E-1,-2.8448275E-1,-6.6176474E-2,2.857143E-1,-1.724138E-1,-4.0000003E-2,2.5E-2,-8.3333336E-2,4.2857144E-2,2.5E-2,-2.5E-2,3.0555556E-2,-3.125E-3,5.882353E-3,-4.0000003E-2,-4.107143E-2,-1.6129032E-2,2.3076924E-2,-1.3392857E-2,-2.5E-2,4.1666668E-2,1.4285715E-2,-2.6086956E-2,3.3333335E-2,-3.75E-2],"categories":[],"categories_nodes":[],"categories_segments":[],"categories_sizes":[],"default_left":[1,1,0,1,0,0,1,1,0,0,1,0,0,1,0,0,1,0,0,0,0,1,1,0,0,0,1,1,0,0,0,0,0,0,0,0,0,0,0,0,0,0,0,0,0,0,0,0,0,0,0],"id":25,"left_children":[1,3,5,7,9,11,13,15,-1,17,19,21,-1,23,-1,25,27,29,-1,-1,-1,31,33,-1,35,37,39,41,43,45,47,-1,-1,49,-1,-1,-1,-1,-1,-1,-1,-1,-1,-1,-1,-1,-1,-1,-1,-1,-1],"loss_changes":[2.444991E0,8.76353E-1,1.7356155E0,1.2682364E0,1.1204327E0,6.0882354E-1,6.980519E-1,1.1697114E0,0E0,1.0315018E0,6.7777777E-1,8.370098E-1,0E0,4.0601492E-1,0E0,1.5640273E0,1.4637592E0,1.1763546E0,0E0,0E0,0E0,5.5E-1,8.065476E-1,0E0,2.5E-1,9.3860483E-1,1.6523721E0,8.357005E-1,1.3989779E0,5.9523803E-1,8.460056E-1,0E0,0E0,8.541667E-1,0E0,0E0,0E0,0E0,0E0,0E0,0E0,0E0,0E0,0E0,0E0,0E0,0E0,0E0,0E0,0E0,0E0],"parents":[2147483647,0,0,1,1,2,2,3,3,4,4,5,5,6,6,7,7,9,9,10,10,11,11,13,13,15,15,16,16,17,17,21,21,22,22,24,24,25,25,26,26,27,27,28,28,29,29,30,30,33,33],"right_children":[2,4,6,8,10,12,14,16,-1,18,20,22,-1,24,-1,26,28,30,-1,-1,-1,32,34,-1,36,38,40,42,44,46,48,-1,-1,50,-1,-1,-1,-1,-1,-1,-1,-1,-1,-1,-1,-1,-1,-1,-1,-1,-1],"split_conditions":[4.768465E-2,1.7293394E-2,5.2858043E-2,1.081111E-1,7.0729926E-2,2.1872386E-2,1.3359728E-1,-4.6640873E-2,2.7729003E0,1.0137024E-1,4.229559E-2,-3.3008382E-3,-8.0979156E-1,6.310082E-2,-2.612427E-1,5.068012E-2,-1.2779632E-2,2.5315236E-2,3.3465652E0,3.2038682E0,-1.4393158E-1,5.068012E-2,-3.0942325E-2,3.2993133E0,1.750522E-3,2.3514205E-3,-4.009893E-2,-4.2570855E-2,-3.7648328E-2,-3.7462503E-2,-1.4959488E-3,-1.9828736E0,1.0213517E0,6.1696205E-2,2.3297334E0,1.5995331E-1,-3.420868E-1,5.524033E-1,-1.2957306E-1,1.392479E-2,-1.3186063E0,-1.7323967E0,-4.5911178E-1,1.9606094E-1,-1.7869568E-1,-4.065863E0,1.539978E0,6.804428E-2,-3.3034745E-1,1.8129753E0,-1.6242675E-1],"split_indices":[2,3,3,7,6,3,8,9,0,1,2,8,0,4,0,1,0,3,0,0,0,1,0,0,0,3,3,8,7,2,8,0,0,2,0,0,0,0,0,0,0,0,0,0,0,0,0,0,0,0,0],"split_type":[0,0,0,0,0,0,0,0,0,0,0,0,0,0,0,0,0,0,0,0,0,0,0,0,0,0,0,0,0,0,0,0,0,0,0,0,0,0,0,0,0,0,0,0,0,0,0,0,0,0,0],"sum_hessian":[2.77E2,2.37E2,4E1,1.9E2,4.7E1,1.9E1,2.1E1,1.86E2,4E0,3.8E1,9E0,1.6E1,3E0,2E1,1E0,6.2E1,1.24E2,3.4E1,4E0,8E0,1E0,5E0,1.1E1,1.8E1,2E0,3.2E1,3E1,5.7E1,6.7E1,6E0,2.8E1,4E0,1E0,5E0,6E0,1E0,1E0,1.7E1,1.5E1,1.6E1,1.4E1,2.7E1,3E1,1.2E1,5.5E1,1E0,5E0,6E0,2.2E1,2E0,3E0],"tree_param":{"num_deleted":"0","num_feature":"10","num_nodes":"51","size_leaf_vector":"1"}},{"base_weights":[-1.9366197E-2,-4.819277E-2,1.8055555E-1,-1.4457831E-1,-0E0,2.7586207E-1,-1.875E-1,1.1363637E-1,-2.3387097E-1,-2.7083334E-1,4.5138888E-2,3.2692307E-1,-1.25E-1,1.25E-1,-4.0000003E-2,2.6666668E-1,-1.875E-1,-1.125E-1,-4.347826E-1,-4.117647E-1,6.25E-2,6.47482E-2,-4.1666668E-2,1.25E-1,4.6666667E-2,-3.3333335E-2,2.5E-2,3.3333335E-2,-2.5E-2,3.2142857E-1,-2.5E-2,-2.857143E-1,2.5E-2,1.7857144E-2,-3.846154E-1,2.5E-2,-4.7727272E-2,-4.6875E-2,2.5E-2,-2E-1,3.75E-2,2.0652173E-1,-5.319149E-3,4.2857144E-2,-2.5E-1,4.4999998E-2,-0E0,-4.1666668E-2,2.5E-2,-3.125E-2,1.4285715E-2,-4.5833334E-2,2.5E-2,2.5E-2,-3.75E-2,3.6538463E-2,-0E0,3.3333335E-2,-4.0697674E-3,2.5E-2,-4.0000003E-2],"categories":[],"categories_nodes":[],"categories_segments":[],"categories_sizes":[],"default_left":[1,0,0,0,0,1,0,1,1,0,1,1,0,0,0,1,0,0,0,0,0,0,0,1,0,0,0,0,0,0,0,0,0,0,1,0,0,0,0,0,0,0,0,0,0,0,0,0,0,0,0,0,0,0,0,0,0,0,0,0,0],"id":26,"left_children":[1,3,5,7,9,11,13,15,17,19,21,23,25,27,-1,29,31,33,35,37,39,41,-1,43,-1,-1,-1,-1,-1,45,-1,47,-1,49,51,-1,-1,-1,-1,53,-1,55,57,-1,59,-1,-1,-1,-1,-1,-1,-1,-1,-1,-1,-1,-1,-1,-1,-1,-1],"loss_changes":[1.6454103E0,1.1566266E0,1.3145354E0,1.9402802E0,2.0538194E0,6.344497E-1,5.8125E-1,1.0638258E0,1.4629469E0,1.1531862E0,1.3309976E0,6.753204E-1,3.9583334E-1,3.9583334E-1,0E0,5.047618E-1,4.151786E-1,1.4257554E0,7.885375E-1,7.582722E-1,7.3125E-1,1.3818822E0,0E0,1.4732143E0,0E0,0E0,0E0,0E0,0E0,5.7857156E-1,0E0,5.9523803E-1,0E0,1.2008929E0,7.227564E-1,0E0,0E0,0E0,0E0,4.875E-1,0E0,1.5091972E0,1.1397823E0,0E0,5.5E-1,0E0,0E0,0E0,0E0,0E0,0E0,0E0,0E0,0E0,0E0,0E0,0E0,0E0,0E0,0E0,0E0],"parents":[2147483647,0,0,1,1,2,2,3,3,4,4,5,5,6,6,7,7,8,8,9,9,10,10,11,11,12,12,13,13,15,15,16,16,17,17,18,18,19,19,20,20,21,21,23,23,29,29,31,31,33,33,34,34,39,39,41,41,42,42,44,44],"right_children":[2,4,6,8,10,12,14,16,18,20,22,24,26,28,-1,30,32,34,36,38,40,42,-1,44,-1,-1,-1,-1,-1,46,-1,48,-1,50,52,-1,-1,-1,-1,54,-1,56,58,-1,60,-1,-1,-1,-1,-1,-1,-1,-1,-1,-1,-1,-1,-1,-1,-1,-1],"split_conditions":[5.2858043E-2,-2.1295324E-2,7.916528E-2,-4.835136E-2,-3.4194466E-2,9.8648064E-2,3.205916E-2,5.068012E-2,5.068012E-2,1.0137024E-1,8.449153E-2,1.4272476E-2,5.068012E-2,5.954058E-2,-3.6735612E-1,2.3545753E-2,7.076875E-2,7.838428E-3,-8.141314E-2,2.7123368E-1,-1.8820165E-3,-1.0776975E-3,-3.1434327E-1,-1.3504018E-2,1.4831132E0,-4.694229E-1,3.6869507E0,3.0532098E0,-2.912796E-1,-2.2275713E-3,-2.8977814E-1,-1.8542396E-3,2.218628E-2,-3.665608E-2,4.2897034E-2,1.478653E-1,-7.732987E-1,-1.0277328E0,9.1921693E-1,1.1039039E-2,2.7303452E0,1.9070333E-2,-2.2208253E-2,1.0968964E0,-3.0942325E-2,4.9716264E-1,2.718544E-2,-1.5591568E0,3.498474E-1,-1.4765618E0,1.4040528E-1,-2.0538368E0,5.540752E0,5.1917224E0,-2.6255113E-1,2.2543488E-1,3.3592226E-3,1.8365945E0,-1.1284866E-1,4.7507524E0,-1.8781941E0],"split_indices":[3,2,5,4,5,8,9,1,1,1,8,2,1,2,0,0,0,8,3,9,0,9,0,9,0,0,0,0,0,3,0,7,0,3,8,0,0,0,0,2,0,4,4,0,0,0,0,0,0,0,0,0,0,0,0,0,0,0,0,0,0],"split_type":[0,0,0,0,0,0,0,0,0,0,0,0,0,0,0,0,0,0,0,0,0,0,0,0,0,0,0,0,0,0,0,0,0,0,0,0,0,0,0,0,0,0,0,0,0,0,0,0,0,0,0,0,0,0,0,0,0,0,0,0,0],"sum_hessian":[2.83E2,2.48E2,3.5E1,8.2E1,1.66E2,2.8E1,7E0,2.1E1,6.1E1,2.3E1,1.43E2,2.5E1,3E0,3E0,4E0,1.4E1,7E0,3.9E1,2.2E1,1.6E1,7E0,1.38E2,5E0,1.1E1,1.4E1,2E0,1E0,2E0,1E0,1.3E1,1E0,6E0,1E0,2.7E1,1.2E1,1E0,2.1E1,1.5E1,1E0,4E0,3E0,4.5E1,9.3E1,6E0,5E0,9E0,4E0,5E0,1E0,7E0,2E1,1.1E1,1E0,1E0,3E0,2.5E1,2E1,8E0,8.5E1,1E0,4E0],"tree_param":{"num_deleted":"0","num_feature":"10","num_nodes":"61","size_leaf_vector":"1"}},{"base_weights":[-2.4561403E-2,-9.124087E-3,-3.75E-1,5.8479533E-2,-1.20192304E-1,-4.4999998E-2,-0E0,7.530121E-2,-4.1666668E-2,-2.820513E-1,-2.2727273E-2,-2.5E-2,2.5E-2,3.75E-1,5.1612902E-2,-3.75E-1,-4.1666668E-2,3.3898305E-2,-4.375E-2,1.25E-1,4.4444446E-2,2.3214285E-1,1.171875E-2,-1.1111111E-1,-4.75E-2,-3.75E-2,1.1111111E-1,-7.317073E-2,2.631579E-1,-2.5E-2,3.3333335E-2,-8.333334E-3,3.0434782E-2,4.1666668E-2,-8.130081E-4,-2.857143E-2,3.3333335E-2,4.0000003E-2,-2.0000001E-2,3.3333335E-2,-1.0256411E-2,-8.333334E-3,3.9285716E-2],"categories":[],"categories_nodes":[],"categories_segments":[],"categories_sizes":[],"default_left":[1,1,0,1,1,0,0,0,0,0,1,0,0,0,0,0,0,1,0,0,0,1,0,1,0,0,1,0,0,0,0,0,0,0,0,0,0,0,0,0,0,0,0],"id":27,"left_children":[1,3,5,7,9,-1,11,13,-1,15,17,-1,-1,19,21,23,25,27,-1,29,-1,31,33,35,-1,-1,37,39,41,-1,-1,-1,-1,-1,-1,-1,-1,-1,-1,-1,-1,-1,-1],"loss_changes":[1.5383804E0,2.064389E0,3.375001E-1,1.3981364E0,1.6342512E0,0E0,2.5E-1,1.1591382E0,0E0,8.5576916E-1,1.5649557E0,0E0,0E0,1.5277779E-1,1.1136035E0,6.86111E-1,6.527778E-1,1.4675051E0,0E0,3.9583334E-1,0E0,6.6317296E-1,1.0322186E0,7.936508E-1,0E0,0E0,8.888889E-1,5.2407753E-1,8.865917E-1,0E0,0E0,0E0,0E0,0E0,0E0,0E0,0E0,0E0,0E0,0E0,0E0,0E0,0E0],"parents":[2147483647,0,0,1,1,2,2,3,3,4,4,6,6,7,7,9,9,10,10,13,13,14,14,15,15,16,16,17,17,19,19,21,21,22,22,23,23,26,26,27,27,28,28],"right_children":[2,4,6,8,10,-1,12,14,-1,16,18,-1,-1,20,22,24,26,28,-1,30,-1,32,34,36,-1,-1,38,40,42,-1,-1,-1,-1,-1,-1,-1,-1,-1,-1,-1,-1,-1,-1],"split_conditions":[8.0590054E-2,5.068012E-2,2.7123368E-1,1.0386467E-1,-2.479543E-2,-2.70475E-1,5.068012E-2,-4.3400846E-2,-1.3735634E0,3.8333673E-2,4.108558E-2,-7.475861E-1,3.3182557E0,-1.25561245E-2,-3.8719688E-2,-4.42235E-2,-8.179786E-2,-9.824677E-3,-9.488525E-2,3.4443367E-2,3.512365E0,-9.996056E-2,-8.906294E-2,3.4443367E-2,-1.3645142E0,-7.4940264E-1,4.1708443E-2,-7.0366606E-2,-3.971921E-2,-3.8680878E-1,3.8392434E0,-1.4465332E-2,2.3073426E-1,2.1194596E0,-1.6410828E-3,-9.603661E-1,2.2384377E-1,2.1347146E0,-1.8396835E-1,1.2511643E0,-1.5587616E-1,-6.0749818E-2,1.3851502E0],"split_indices":[8,1,9,6,8,0,1,6,0,4,4,0,0,3,4,4,0,4,0,0,0,0,0,0,0,0,0,4,6,0,0,0,0,0,0,0,0,0,0,0,0,0,0],"split_type":[0,0,0,0,0,0,0,0,0,0,0,0,0,0,0,0,0,0,0,0,0,0,0,0,0,0,0,0,0,0,0,0,0,0,0,0,0,0,0,0,0,0,0],"sum_hessian":[2.84E2,2.73E2,1.1E1,1.7E2,1.03E2,9E0,2E0,1.65E2,5E0,3.8E1,6.5E1,1E0,1E0,1.1E1,1.54E2,2.7E1,1.1E1,5.8E1,7E0,3E0,8E0,2.7E1,1.27E2,8E0,1.9E1,3E0,8E0,4E1,1.8E1,1E0,2E0,5E0,2.2E1,5E0,1.22E2,6E0,2E0,4E0,4E0,2E0,3.8E1,5E0,1.3E1],"tree_param":{"num_deleted":"0","num_feature":"10","num_nodes":"43","size_leaf_vector":"1"}},{"base_weights":[-3.1578947E-2,3.8235296E-2,-1.336207E-1,1.04761906E-1,-6.818182E-2,-2.96875E-1,-7.058824E-2,-3.125E-2,2.1551724E-1,-1.0483871E-1,4.0000003E-2,-4.2857143E-1,-4.1666668E-2,-3.8961038E-2,-3.3333334E-1,2.6666668E-1,-1.6176471E-1,3.1111112E-1,-1.0714286E-1,-1.6363636E-1,3.125E-1,-1.25E-1,-4.7222223E-2,-1.5E-1,3.3333335E-2,-2.2580644E-1,8.510638E-2,2.5E-2,-4.375E-2,4.4999998E-2,-8.3333336E-2,-2.7083334E-1,9.090909E-2,4.1935483E-1,6.666667E-2,3.75E-2,-2.7272728E-1,-2.1E-1,2.5E-1,-2.5E-2,4.2857144E-2,-3.3333335E-2,2.5E-2,-2.857143E-1,1.25E-1,-3.409091E-1,5E-2,-8.695652E-2,2.4E-1,-3.75E-2,3.3333335E-2,-4.6428572E-2,-0E0,4.0000003E-2,-1.4285715E-2,-0E0,4.4827588E-2,-3.75E-2,2.0833334E-2,2.5E-2,-3.5E-2,-9.722223E-3,-4.6666667E-2,4.0000003E-2,-2.5E-2,-4.1666668E-2,2.5E-2,3.3333335E-2,-2.5E-2,1.25E-2,-4.2105265E-2,4.0000003E-2,-2.5E-2,6.6666673E-3,-3.3333335E-2,-2.0000001E-2,3.3333335E-2],"categories":[],"categories_nodes":[],"categories_segments":[],"categories_sizes":[],"default_left":[1,0,0,1,1,1,1,0,0,1,0,0,0,0,0,0,0,1,0,1,0,0,0,1,0,1,0,0,0,0,0,0,0,0,0,0,0,1,1,0,0,0,0,1,0,0,0,1,0,0,0,0,0,0,0,0,0,0,0,0,0,0,0,0,0,0,0,0,0,0,0,0,0,0,0,0,0],"id":28,"left_children":[1,3,5,7,9,11,13,15,17,19,-1,21,23,25,27,29,31,33,35,37,39,41,-1,43,-1,45,47,-1,-1,-1,49,51,53,55,57,-1,59,61,63,-1,-1,-1,-1,65,67,69,71,73,75,-1,-1,-1,-1,-1,-1,-1,-1,-1,-1,-1,-1,-1,-1,-1,-1,-1,-1,-1,-1,-1,-1,-1,-1,-1,-1,-1,-1],"loss_changes":[2.0354397E0,1.2106698E0,1.1727211E0,1.5884595E0,1.1746335E0,1.0576637E0,6.933538E-1,1.9094976E0,1.8223042E0,1.5725257E0,0E0,2.1924591E-1,5.375E-1,1.8041875E0,6.5625E-1,1.0000001E0,9.6161985E-1,1.162724E0,1.2199675E0,1.1072726E0,6.2946427E-1,3.9583334E-1,0E0,4.089286E-1,0E0,1.0011731E0,1.2734876E0,0E0,0E0,0E0,8.541667E-1,1.2574404E0,8.51948E-1,3.7597322E-1,1.0166665E0,0E0,5.318182E-1,1.4019446E0,5.5E-1,0E0,0E0,0E0,0E0,5.9523803E-1,3.9583334E-1,8.7410283E-1,1.15E0,8.9275366E-1,1.0933332E0,0E0,0E0,0E0,0E0,0E0,0E0,0E0,0E0,0E0,0E0,0E0,0E0,0E0,0E0,0E0,0E0,0E0,0E0,0E0,0E0,0E0,0E0,0E0,0E0,0E0,0E0,0E0,0E0],"parents":[2147483647,0,0,1,1,2,2,3,3,4,4,5,5,6,6,7,7,8,8,9,9,11,11,12,12,13,13,14,14,15,15,16,16,17,17,18,18,19,19,20,20,21,21,23,23,25,25,26,26,30,30,31,31,32,32,33,33,34,34,36,36,37,37,38,38,43,43,44,44,45,45,46,46,47,47,48,48],"right_children":[2,4,6,8,10,12,14,16,18,20,-1,22,24,26,28,30,32,34,36,38,40,42,-1,44,-1,46,48,-1,-1,-1,50,52,54,56,58,-1,60,62,64,-1,-1,-1,-1,66,68,70,72,74,76,-1,-1,-1,-1,-1,-1,-1,-1,-1,-1,-1,-1,-1,-1,-1,-1,-1,-1,-1,-1,-1,-1,-1,-1,-1,-1,-1,-1],"split_conditions":[5.068012E-2,3.0439656E-2,-2.3677247E-2,-3.198764E-2,9.726401E-2,-2.592262E-3,6.3503675E-2,-3.7343733E-2,9.072941E-2,2.8758088E-2,4.493126E0,-5.2551873E-2,5.0782032E-2,-5.128142E-3,-4.1235074E-2,1.1543833E-2,3.908664E-2,1.1348623E-2,-1.7646125E-2,4.448548E-2,-1.8820165E-3,-4.9105015E-2,-6.8989414E-1,5.2858043E-2,1.7184414E0,4.1708443E-2,-2.4992656E-2,1.0500794E-1,-1.400528E-1,4.2437288E-1,