{"learner":{"attributes":{"best_iteration":"499","best_ntree_limit":"500"},"feature_names":["mean radius","mean texture","mean perimeter","mean area","mean smoothness","mean compactness","mean concavity","mean concave points","mean symmetry","mean fractal dimension","radius error","texture error","perimeter error","area error","smoothness error","compactness error","concavity error","concave points error","symmetry error","fractal dimension error","worst radius","worst texture","worst perimeter","worst area","worst smoothness","worst compactness","worst concavity","worst concave points","worst symmetry","worst fractal dimension"],"feature_types":["float","float","float","float","float","float","float","float","float","float","float","float","float","float","float","float","float","float","float","float","float","float","float","float","float","float","float","float","float","float"],"gradient_booster":{"model":{"gbtree_model_param":{"num_parallel_tree":"1","num_trees":"500","size_leaf_vector":"0"},"tree_info":[0,0,0,0,0,0,0,0,0,0,0,0,0,0,0,0,0,0,0,0,0,0,0,0,0,0,0,0,0,0,0,0,0,0,0,0,0,0,0,0,0,0,0,0,0,0,0,0,0,0,0,0,0,0,0,0,0,0,0,0,0,0,0,0,0,0,0,0,0,0,0,0,0,0,0,0,0,0,0,0,0,0,0,0,0,0,0,0,0,0,0,0,0,0,0,0,0,0,0,0,0,0,0,0,0,0,0,0,0,0,0,0,0,0,0,0,0,0,0,0,0,0,0,0,0,0,0,0,0,0,0,0,0,0,0,0,0,0,0,0,0,0,0,0,0,0,0,0,0,0,0,0,0,0,0,0,0,0,0,0,0,0,0,0,0,0,0,0,0,0,0,0,0,0,0,0,0,0,0,0,0,0,0,0,0,0,0,0,0,0,0,0,0,0,0,0,0,0,0,0,0,0,0,0,0,0,0,0,0,0,0,0,0,0,0,0,0,0,0,0,0,0,0,0,0,0,0,0,0,0,0,0,0,0,0,0,0,0,0,0,0,0,0,0,0,0,0,0,0,0,0,0,0,0,0,0,0,0,0,0,0,0,0,0,0,0,0,0,0,0,0,0,0,0,0,0,0,0,0,0,0,0,0,0,0,0,0,0,0,0,0,0,0,0,0,0,0,0,0,0,0,0,0,0,0,0,0,0,0,0,0,0,0,0,0,0,0,0,0,0,0,0,0,0,0,0,0,0,0,0,0,0,0,0,0,0,0,0,0,0,0,0,0,0,0,0,0,0,0,0,0,0,0,0,0,0,0,0,0,0,0,0,0,0,0,0,0,0,0,0,0,0,0,0,0,0,0,0,0,0,0,0,0,0,0,0,0,0,0,0,0,0,0,0,0,0,0,0,0,0,0,0,0,0,0,0,0,0,0,0,0,0,0,0,0,0,0,0,0,0,0,0,0,0,0,0,0,0,0,0,0,0,0,0,0,0,0,0,0,0,0,0,0,0,0,0,0,0,0,0,0,0,0,0,0,0,0,0,0,0,0,0,0,0,0,0,0,0,0,0,0,0,0,0,0,0,0,0,0,0,0,0,0,0,0,0,0,0,0,0,0,0,0,0,0,0,0,0,0,0],"trees":[{"base_weights":[4.0677965E-1,1.3415638E0,-1.5826087E0,1.6727272E0,-1.5555556E-1,9.52381E-2,-1.8775511E0,1.7934272E0,-1.2727273E-1,1.07692316E-1,-1E-1,-5E-2,-1.9148937E-1,1.8640777E0,-1.818182E-2,1.9009901E0,-0E0,1.9378239E-1,7.692308E-1,-0E0,1.1111112E-1],"categories":[],"categories_nodes":[],"categories_segments":[],"categories_sizes":[],"default_left":[1,1,0,1,0,1,0,1,0,0,0,0,0,1,0,1,0,0,0,0,0],"id":0,"left_children":[1,3,5,7,-1,9,11,13,-1,-1,-1,-1,-1,15,-1,17,-1,-1,19,-1,-1],"loss_changes":[1.6670207E2,6.0886795E1,1.4406273E1,2.1835922E1,0E0,6.721612E0,3.0286407E-1,7.7700806E0,0E0,0E0,0E0,0E0,0E0,3.5435944E0,0E0,6.145477E-1,0E0,0E0,8.547008E-1,0E0,0E0],"parents":[2147483647,0,0,1,1,2,2,3,3,5,5,6,6,7,7,13,13,15,15,18,18],"right_children":[2,4,6,8,-1,10,12,14,-1,-1,-1,-1,-1,16,-1,18,-1,-1,20,-1,-1],"split_conditions":[1.064E2,1.607E-1,5.55E-2,1.037E2,-1.5555556E-1,9.731E2,8.352E-2,4.538E1,-1.2727273E-1,1.07692316E-1,-1E-1,-5E-2,-1.9148937E-1,1.785E-1,-1.818182E-2,1.025E2,-0E0,1.9378239E-1,9.429E1,-0E0,1.1111112E-1],"split_indices":[22,27,7,2,0,23,4,13,0,0,0,0,0,24,0,22,0,0,2,0,0],"split_type":[0,0,0,0,0,0,0,0,0,0,0,0,0,0,0,0,0,0,0,0,0],"sum_hessian":[8.75E1,5.975E1,2.775E1,5.4E1,5.75E0,4.25E0,2.35E1,5.225E1,1.75E0,2.25E0,2E0,1E0,2.25E1,5.05E1,1.75E0,4.95E1,1E0,4.725E1,2.25E0,1E0,1.25E0],"tree_param":{"num_deleted":"0","num_feature":"30","num_nodes":"21","size_leaf_vector":"0"}},{"base_weights":[4.484897E-1,1.1981522E0,-1.6445003E0,1.596086E0,-5.7708263E-1,-1.7004235E-2,-1.7158568E-1,1.6742994E0,-5.2358877E-2,1.4078018E-1,-1.2304504E0,1.756527E-1,-2.2198219E-2,8.094853E-2,-1.661139E-1,6.191752E-2,-6.535203E-2],"categories":[],"categories_nodes":[],"categories_segments":[],"categories_sizes":[],"default_left":[1,1,0,1,0,0,0,1,0,0,0,0,0,0,0,0,0],"id":1,"left_children":[1,3,5,7,9,-1,-1,11,-1,-1,13,-1,15,-1,-1,-1,-1],"loss_changes":[1.455541E2,4.8927055E1,2.2916718E0,1.0123932E1,1.8822315E1,0E0,0E0,7.576309E0,0E0,0E0,1.0524128E1,0E0,1.8158892E0,0E0,0E0,0E0,0E0],"parents":[2147483647,0,0,1,1,2,2,3,3,4,4,7,7,10,10,12,12],"right_children":[2,4,6,8,10,-1,-1,12,-1,-1,14,-1,16,-1,-1,-1,-1],"split_conditions":[1.137E2,9.366E-2,2.492E-1,4.538E1,1.453E-1,-1.7004235E-2,-1.7158568E-1,1.294E-1,-5.2358877E-2,1.4078018E-1,7.112E2,1.756527E-1,1.909E-2,8.094853E-2,-1.661139E-1,6.191752E-2,-6.535203E-2],"split_indices":[22,6,26,13,27,0,0,27,0,0,23,0,18,0,0,0,0],"split_type":[0,0,0,0,0,0,0,0,0,0,0,0,0,0,0,0,0],"sum_hessian":[9.051079E1,6.695613E1,2.3554657E1,5.477808E1,1.2178054E1,1.243473E0,2.2311184E1,5.3031403E1,1.7466779E0,2.7299566E0,9.448097E0,5.0546097E1,2.485304E0,1.4937083E0,7.954389E0,1.242382E0,1.242922E0],"tree_param":{"num_deleted":"0","num_feature":"30","num_nodes":"17","size_leaf_vector":"0"}},{"base_weights":[4.1093457E-1,1.1516916E0,-1.5633932E0,1.3407433E0,-1.422229E-1,-7.4566543E-1,-1.629943E-1,1.4809636E0,-1.064324E-1,-1.040801E-1,-8.336403E-3,1.5358922E0,-5.74565E-2,1.6138014E0,5.512925E-1,1.6292228E-1,5.3100836E-2,1.2030943E-1,-9.964046E-2],"categories":[],"categories_nodes":[],"categories_segments":[],"categories_sizes":[],"default_left":[1,1,0,1,0,1,0,1,0,0,0,1,0,1,0,0,0,0,0],"id":2,"left_children":[1,3,5,7,-1,9,-1,11,-1,-1,-1,13,-1,15,17,-1,-1,-1,-1],"loss_changes":[1.3110568E2,3.3471756E1,1.20399475E-1,2.2128952E1,0E0,6.34624E-1,0E0,7.4316406E0,0E0,0E0,0E0,3.4649048E0,0E0,4.6081543E-3,6.9300766E0,0E0,0E0,0E0,0E0],"parents":[2147483647,0,0,1,1,2,2,3,3,5,5,7,7,11,11,13,13,14,14],"right_children":[2,4,6,8,-1,10,-1,12,-1,-1,-1,14,-1,16,18,-1,-1,-1,-1],"split_conditions":[1.137E2,8.765E2,1.177E2,1.607E-1,-1.422229E-1,1.805E-2,-1.629943E-1,5.835E-1,-1.064324E-1,-1.040801E-1,-8.336403E-3,9.233E1,-5.74565E-2,3.692E1,3.156E1,1.6292228E-1,5.3100836E-2,1.2030943E-1,-9.964046E-2],"split_indices":[22,23,22,27,0,15,0,10,0,0,0,2,0,21,21,0,0,0,0],"split_type":[0,0,0,0,0,0,0,0,0,0,0,0,0,0,0,0,0,0,0],"sum_hessian":[8.7413925E1,6.3867756E1,2.3546167E1,5.9944035E1,3.9237213E0,2.6905625E0,2.0855606E1,5.7004772E1,2.939262E0,1.4658549E0,1.2247076E0,5.5767338E1,1.2374365E0,5.108598E1,4.6813593E0,4.9871056E1,1.2149241E0,3.4507537E0,1.2306055E0],"tree_param":{"num_deleted":"0","num_feature":"30","num_nodes":"19","size_leaf_vector":"0"}},{"base_weights":[4.095445E-1,1.0987211E0,-1.3022758E0,1.3280488E0,-1.23933755E-1,5.599774E-2,-1.4825977E0,1.4205487E0,-6.75959E-2,-3.2970753E-2,-1.542798E-1,1.4862516E0,1.2316718E-2,1.5414147E-1,6.7502993E-1,6.1648544E-2,-6.0396947E-2,1.2725572E-1,-6.846685E-2],"categories":[],"categories_nodes":[],"categories_segments":[],"categories_sizes":[],"default_left":[1,1,0,1,0,0,0,1,0,0,0,1,0,0,0,0,0,0,0],"id":3,"left_children":[1,3,5,7,-1,-1,9,11,-1,-1,-1,13,15,-1,17,-1,-1,-1,-1],"loss_changes":[1.0262685E2,3.4727592E1,9.251896E0,1.1465233E1,0E0,0E0,1.09729E0,5.02359E0,0E0,0E0,0E0,1.2889328E0,1.652236E0,0E0,5.0095243E0,0E0,0E0,0E0,0E0],"parents":[2147483647,0,0,1,1,2,2,3,3,6,6,7,7,11,11,12,12,14,14],"right_children":[2,4,6,8,-1,-1,10,12,-1,-1,-1,14,16,-1,18,-1,-1,-1,-1],"split_conditions":[5.602E-2,8.765E2,7.5E2,1.459E-1,-1.23933755E-1,5.599774E-2,1.288E-1,3.905E1,-6.75959E-2,-3.2970753E-2,-1.542798E-1,1.574E1,1.976E1,1.5414147E-1,3.863E-2,6.1648544E-2,-6.0396947E-2,1.2725572E-1,-6.846685E-2],"split_indices":[7,23,23,27,0,0,27,13,0,0,0,20,1,0,16,0,0,0,0],"split_type":[0,0,0,0,0,0,0,0,0,0,0,0,0,0,0,0,0,0,0],"sum_hessian":[8.477775E1,6.0698692E1,2.407906E1,5.567028E1,5.028413E0,1.9398687E0,2.213919E1,5.3492355E1,2.1779253E0,1.4200866E0,2.0719105E1,5.1054916E1,2.4374356E0,4.6961422E1,4.0934954E0,1.230655E0,1.2067808E0,2.888303E0,1.2051923E0],"tree_param":{"num_deleted":"0","num_feature":"30","num_nodes":"19","size_leaf_vector":"0"}},{"base_weights":[3.904335E-1,9.386867E-1,-1.3378252E0,1.2487855E0,-1.2888108E-1,3.5480976E-2,-1.4639607E-1,1.3331869E0,-9.722086E-2,1.4285145E0,4.1912317E-1,1.458295E-1,1.4371949E-2,1.1652583E-1,-7.4142344E-2],"categories":[],"categories_nodes":[],"categories_segments":[],"categories_sizes":[],"default_left":[1,1,0,1,0,0,0,1,0,1,0,0,0,0,0],"id":4,"left_children":[1,3,5,7,-1,-1,-1,9,-1,11,13,-1,-1,-1,-1],"loss_changes":[7.889468E1,4.4983387E1,4.820553E0,1.1723785E1,0E0,0E0,0E0,4.107704E0,0E0,1.6459732E0,6.506508E0,0E0,0E0,0E0,0E0],"parents":[2147483647,0,0,1,1,2,2,3,3,7,7,9,9,10,10],"right_children":[2,4,6,8,-1,-1,-1,10,-1,12,14,-1,-1,-1,-1],"split_conditions":[1.706E1,1.459E-1,1.865E-2,8.765E2,-1.2888108E-1,3.5480976E-2,-1.4639607E-1,1.025E2,-9.722086E-2,4.115E0,2.864E1,1.458295E-1,1.4371949E-2,1.1652583E-1,-7.4142344E-2],"split_indices":[20,27,16,23,0,0,0,22,0,12,21,0,0,0,0],"split_type":[0,0,0,0,0,0,0,0,0,0,0,0,0,0,0],"sum_hessian":[8.0938736E1,6.179306E1,1.9145674E1,5.4627525E1,7.1655364E0,1.2020615E0,1.7943613E1,5.301269E1,1.6148332E0,4.7496468E1,5.5162234E0,4.62885E1,1.2079682E0,3.3551078E0,2.1611156E0],"tree_param":{"num_deleted":"0","num_feature":"30","num_nodes":"15","size_leaf_vector":"0"}},{"base_weights":[3.0423453E-1,1.2517579E0,-7.141213E-1,1.3426987E0,-6.170983E-2,1.0262796E0,-1.1495295E0,1.376694E0,1.40727535E-2,1.289958E-1,1.0609911E-2,6.451381E-1,-1.3111928E0,1.3948058E-1,3.9533716E-2,5.985486E-3,9.213157E-2,-2.6836824E-1,-1.3989024E-1,-9.366154E-2,5.8741238E-2],"categories":[],"categories_nodes":[],"categories_segments":[],"categories_sizes":[],"default_left":[0,1,0,1,0,0,0,1,0,0,0,0,0,0,0,0,0,0,0,0,0],"id":5,"left_children":[1,3,5,7,-1,9,11,13,-1,-1,-1,15,17,-1,-1,-1,-1,19,-1,-1,-1],"loss_changes":[7.835848E1,7.958229E0,3.0984182E1,1.4537277E0,0E0,1.9009953E0,1.0110409E1,1.4347076E-1,0E0,0E0,0E0,4.7972322E-1,2.3340683E0,0E0,0E0,0E0,0E0,2.5720983E0,0E0,0E0,0E0],"parents":[2147483647,0,0,1,1,2,2,3,3,5,5,6,6,7,7,11,11,12,12,17,17],"right_children":[2,4,6,8,-1,10,12,14,-1,-1,-1,16,18,-1,-1,-1,-1,20,-1,-1,-1],"split_conditions":[5.246E-2,9.314E2,7.259E2,4.352E1,-6.170983E-2,1.712E-1,2.247E-1,1.64E-1,1.40727535E-2,1.289958E-1,1.0609911E-2,5.89E-2,1.414E-1,1.3948058E-1,3.9533716E-2,5.985486E-3,9.213157E-2,1.448E-2,-1.3989024E-1,-9.366154E-2,5.8741238E-2],"split_indices":[7,23,23,13,0,27,26,24,0,0,0,9,27,0,0,0,0,17,0,0,0],"split_type":[0,0,0,0,0,0,0,0,0,0,0,0,0,0,0,0,0,0,0,0,0],"sum_hessian":[7.9281166E1,4.0950146E1,3.8331024E1,3.9318405E1,1.631741E0,7.39898E0,3.0932043E1,3.8095585E1,1.2228185E0,5.4386716E0,1.9603088E0,2.3089674E0,2.8623075E1,3.699157E1,1.1040145E0,1.1303097E0,1.1786578E0,2.5356085E0,2.6087467E1,1.370769E0,1.1648396E0],"tree_param":{"num_deleted":"0","num_feature":"30","num_nodes":"21","size_leaf_vector":"0"}},{"base_weights":[3.383119E-1,8.656696E-1,-1.2186059E0,1.0927448E0,-1.0963728E0,-2.2101838E-2,-1.3229746E-1,1.2042938E0,-7.042463E-1,-3.0175313E-2,-1.1965016E-1,1.2869833E0,4.282942E-1,-6.11186E-3,-9.6069396E-2,1.3038827E0,2.9686868E-2,1.1994004E-1,-5.1512223E-1,1.3395579E-1,1.9821664E-2,-9.8215066E-2,2.549771E-2],"categories":[],"categories_nodes":[],"categories_segments":[],"categories_sizes":[],"default_left":[1,1,0,1,0,0,0,1,1,0,0,1,0,0,0,1,0,0,0,0,0,0,0],"id":6,"left_children":[1,3,5,7,9,-1,-1,11,13,-1,-1,15,17,-1,-1,19,-1,-1,21,-1,-1,-1,-1],"loss_changes":[6.459971E1,2.721568E1,1.7896671E0,1.144009E1,1.6062498E-1,0E0,0E0,2.6649017E0,5.547148E-1,0E0,0E0,3.6244965E-1,5.219318E0,0E0,0E0,1.4601517E0,0E0,0E0,1.5251801E0,0E0,0E0,0E0,0E0],"parents":[2147483647,0,0,1,1,2,2,3,3,4,4,7,7,8,8,11,11,12,12,15,15,18,18],"right_children":[2,4,6,8,10,-1,-1,12,14,-1,-1,16,18,-1,-1,20,-1,-1,22,-1,-1,-1,-1],"split_conditions":[1.137E2,1.607E-1,4.846E-2,1.706E1,2.499E1,-2.2101838E-2,-1.3229746E-1,9.143E1,1.486E-2,-3.0175313E-2,-1.1965016E-1,5.19E-1,2.545E1,-6.11186E-3,-9.6069396E-2,1.553E1,2.9686868E-2,1.1994004E-1,9.577E1,1.3395579E-1,1.9821664E-2,-9.8215066E-2,2.549771E-2],"split_indices":[22,27,7,20,21,0,0,2,18,0,0,10,21,0,0,20,0,0,2,0,0,0,0],"split_type":[0,0,0,0,0,0,0,0,0,0,0,0,0,0,0,0,0,0,0,0,0,0,0],"sum_hessian":[7.63943E1,5.7396873E1,1.8997429E1,5.184025E1,5.556626E0,2.0945685E0,1.690286E1,4.9120876E1,2.7193735E0,1.0709828E0,4.485643E0,4.3795593E1,5.325282E0,1.1282471E0,1.5911264E0,4.2749046E1,1.0465455E0,2.780934E0,2.544348E0,4.12079E1,1.5411453E0,1.4124243E0,1.1319237E0],"tree_param":{"num_deleted":"0","num_feature":"30","num_nodes":"23","size_leaf_vector":"0"}},{"base_weights":[3.2017142E-1,8.52737E-1,-1.1667838E0,1.0646496E0,-1.0155544E0,-2.0664174E-2,-1.271876E-1,1.1931367E0,-5.8097583E-1,-1.12009905E-1,-2.6796905E-2,1.2463561E0,3.0170995E-1,2.7560672E-2,-1.0073008E-1,2.3220344E-2,1.2658285E0,8.6347915E-2,-5.747651E-2,1.3025405E-1,4.72454E-1,8.484583E-2,-1.733161E-2],"categories":[],"categories_nodes":[],"categories_segments":[],"categories_sizes":[],"default_left":[1,1,0,1,0,0,0,1,1,0,0,0,1,0,0,0,1,0,0,0,0,0,0],"id":7,"left_children":[1,3,5,7,9,-1,-1,11,13,-1,-1,15,17,-1,-1,-1,19,-1,-1,-1,21,-1,-1],"loss_changes":[5.7325134E1,2.2045765E1,1.6725674E0,1.0852135E1,1.6144562E-1,0E0,0E0,1.7537804E0,1.793923E0,0E0,0E0,5.363846E-1,2.3912697E0,0E0,0E0,0E0,5.7962036E-1,0E0,0E0,0E0,9.686604E-1,0E0,0E0],"parents":[2147483647,0,0,1,1,2,2,3,3,4,4,7,7,8,8,11,11,12,12,16,16,20,20],"right_children":[2,4,6,8,10,-1,-1,12,14,-1,-1,16,18,-1,-1,-1,20,-1,-1,-1,22,-1,-1],"split_conditions":[1.137E2,1.613E-1,4.846E-2,1.699E1,2.686E1,-2.0664174E-2,-1.271876E-1,3.294E1,7.869E-1,-1.12009905E-1,-2.6796905E-2,3.632E-3,8.115E1,2.7560672E-2,-1.0073008E-1,2.3220344E-2,8.264E2,8.6347915E-2,-5.747651E-2,1.3025405E-1,3.151E-1,8.484583E-2,-1.733161E-2],"split_indices":[22,27,7,20,1,0,0,21,11,0,0,14,2,0,0,0,23,0,0,0,26,0,0],"split_type":[0,0,0,0,0,0,0,0,0,0,0,0,0,0,0,0,0,0,0,0,0,0,0],"sum_hessian":[7.0132835E1,5.1952225E1,1.8180609E1,4.7046127E1,4.9061007E0,2.0862772E0,1.6094332E1,4.3893944E1,3.1521833E0,3.867034E0,1.0390667E0,4.104532E1,2.8486226E0,1.1649884E0,1.987195E0,1.0167387E0,4.002858E1,1.7450044E0,1.1036183E0,3.764486E1,2.3837202E0,1.3081626E0,1.0755576E0],"tree_param":{"num_deleted":"0","num_feature":"30","num_nodes":"23","size_leaf_vector":"0"}},{"base_weights":[2.6708382E-1,8.546005E-1,-1.0206627E0,1.0378124E0,-9.537545E-2,1.8158747E-1,-1.1869477E0,1.1072774E0,-4.4574898E-2,-5.738941E-2,9.261868E-2,-9.3230413E-4,-1.2562573E-1,1.165651E0,-4.109634E-2,6.863495E-3,1.2027953E0,2.2159314E-2,1.2229746E-1],"categories":[],"categories_nodes":[],"categories_segments":[],"categories_sizes":[],"default_left":[1,1,0,1,0,1,0,1,0,0,0,0,0,0,0,0,0,0,0],"id":8,"left_children":[1,3,5,7,-1,9,11,13,-1,-1,-1,-1,-1,15,-1,-1,17,-1,-1],"loss_changes":[5.225383E1,1.6621346E1,4.5603027E0,4.957859E0,0E0,2.504888E0,1.5574417E0,4.1719284E0,0E0,0E0,0E0,0E0,0E0,1.5631142E0,0E0,0E0,5.0125885E-1,0E0,0E0],"parents":[2147483647,0,0,1,1,2,2,3,3,5,5,6,6,7,7,13,13,16,16],"right_children":[2,4,6,8,-1,10,12,14,-1,-1,-1,-1,-1,16,-1,-1,18,-1,-1],"split_conditions":[1.064E2,1.726E1,4.846E-2,1.785E-1,-9.537545E-2,1.526E-2,8.089E2,1.607E-1,-4.4574898E-2,-5.738941E-2,9.261868E-2,-9.3230413E-4,-1.2562573E-1,1.987E-1,-4.109634E-2,6.863495E-3,3.632E-3,2.2159314E-2,1.2229746E-1],"split_indices":[22,20,7,24,0,18,23,27,0,0,0,0,0,28,0,0,14,0,0],"split_type":[0,0,0,0,0,0,0,0,0,0,0,0,0,0,0,0,0,0,0],"sum_hessian":[6.691361E1,4.6180676E1,2.0732939E1,4.231924E1,3.8614347E0,2.507993E0,1.8224947E1,4.066864E1,1.6505985E0,1.3586968E0,1.1492962E0,1.076076E0,1.714887E1,3.9386536E1,1.2821046E0,1.3831954E0,3.800334E1,1.0072585E0,3.6996082E1],"tree_param":{"num_deleted":"0","num_feature":"30","num_nodes":"19","size_leaf_vector":"0"}},{"base_weights":[2.8459978E-1,7.908854E-1,-1.0840185E0,9.5210195E-1,-1.0484772E-1,3.9374395E-3,-1.1629635E0,1.0685011E0,-3.681303E-1,-1.2017E-1,-3.126533E-2,1.1278987E0,-2.5912791E-2,7.094674E-2,-9.669181E-2,1.201695E-1,5.0678664E-1,1.00871466E-1,-7.031639E-2],"categories":[],"categories_nodes":[],"categories_segments":[],"categories_sizes":[],"default_left":[1,1,0,1,0,0,1,1,0,0,0,1,0,0,0,0,0,0,0],"id":9,"left_children":[1,3,5,7,-1,-1,9,11,13,-1,-1,15,-1,-1,-1,-1,17,-1,-1],"loss_changes":[4.5049007E1,1.4974913E1,1.6105423E0,7.1333275E0,0E0,0E0,1.6835213E-1,3.4908829E0,3.4588459E0,0E0,0E0,1.1791153E0,0E0,0E0,0E0,0E0,4.2754893E0,0E0,0E0],"parents":[2147483647,0,0,1,1,2,2,3,3,6,6,7,7,8,8,11,11,16,16],"right_children":[2,4,6,8,-1,-1,10,12,14,-1,-1,16,-1,-1,-1,-1,18,-1,-1],"split_conditions":[1.137E2,8.765E2,2.365E-1,1.64E-1,-1.0484772E-1,3.9374395E-3,1.24E-1,4.115E0,1.345E1,-1.2017E-1,-3.126533E-2,1.574E1,-2.5912791E-2,7.094674E-2,-9.669181E-2,1.201695E-1,2.864E1,1.00871466E-1,-7.031639E-2],"split_indices":[22,23,26,24,0,0,29,12,20,0,0,20,0,0,0,0,21,0,0],"split_type":[0,0,0,0,0,0,0,0,0,0,0,0,0,0,0,0,0,0,0],"sum_hessian":[6.277677E1,4.613312E1,1.664365E1,4.285899E1,3.2741334E0,1.1257279E0,1.5517922E1,3.956168E1,3.2973096E0,1.444655E1,1.0713719E0,3.80115E1,1.5501775E0,1.1117425E0,2.185567E0,3.3139362E1,4.8721404E0,3.5611665E0,1.3109738E0],"tree_param":{"num_deleted":"0","num_feature":"30","num_nodes":"19","size_leaf_vector":"0"}},{"base_weights":[2.499262E-1,7.089911E-1,-1.1443331E0,1.021185E0,-3.1821728E-1,-3.816108E-2,-1.19282365E-1,1.092463E0,-5.8007248E-2,5.407729E-1,-9.5216113E-1,1.1466906E0,-3.24886E-2,1.0497811E-1,-6.894792E-2,-8.483959E-3,-1.09654896E-1,1.1791732E-1,2.2864575E-2],"categories":[],"categories_nodes":[],"categories_segments":[],"categories_sizes":[],"default_left":[1,1,0,1,0,0,0,1,0,0,0,1,0,0,0,0,0,0,0],"id":10,"left_children":[1,3,5,7,9,-1,-1,11,-1,13,15,17,-1,-1,-1,-1,-1,-1,-1],"loss_changes":[4.0321873E1,1.54155655E1,1.24464035E-1,4.779785E0,6.9028535E0,0E0,0E0,3.0722313E0,0E0,4.242445E0,7.9757166E-1,7.458191E-1,0E0,0E0,0E0,0E0,0E0,0E0,0E0],"parents":[2147483647,0,0,1,1,2,2,3,3,4,4,7,7,9,9,10,10,11,11],"right_children":[2,4,6,8,10,-1,-1,12,-1,14,16,18,-1,-1,-1,-1,-1,-1,-1],"split_conditions":[8.765E2,1.025E2,2.398E-1,4.851E0,2.553E1,-3.816108E-2,-1.19282365E-1,4.706E-1,-5.8007248E-2,1.166E2,5.259E-2,5.843E-2,-3.24886E-2,1.0497811E-1,-6.894792E-2,-8.483959E-3,-1.09654896E-1,1.1791732E-1,2.2864575E-2],"split_indices":[23,22,28,12,21,0,0,25,0,22,7,7,0,0,0,0,0,0,0],"split_type":[0,0,0,0,0,0,0,0,0,0,0,0,0,0,0,0,0,0,0],"sum_hessian":[6.072987E1,4.6056946E1,1.4672923E1,3.5326283E1,1.0730663E1,1.4072733E0,1.326565E1,3.4125E1,1.2012848E0,4.618964E0,6.111699E0,3.305142E1,1.0735816E0,3.370951E0,1.248013E0,1.0988159E0,5.012883E0,3.1647223E1,1.404195E0],"tree_param":{"num_deleted":"0","num_feature":"30","num_nodes":"19","size_leaf_vector":"0"}},{"base_weights":[2.7817062E-1,7.267552E-1,-1.0462117E0,9.6826595E-1,-3.028471E-1,6.8729925E-3,-1.13924205E-1,1.0960163E0,-6.931172E-2,9.319842E-2,-8.2610756E-1,-1.9689198E-3,1.1432025E0,8.6532444E-2,-7.867753E-2,1.5876802E-2,-1.0947406E-1,1.17691234E-1,1.1924424E-2],"categories":[],"categories_nodes":[],"categories_segments":[],"categories_sizes":[],"default_left":[1,1,0,1,0,0,0,0,0,0,0,0,1,0,0,0,0,0,0],"id":11,"left_children":[1,3,5,7,9,-1,-1,11,13,-1,15,-1,17,-1,-1,-1,-1,-1,-1],"loss_changes":[3.4742462E1,1.1064541E1,1.6219292E0,4.7583733E0,6.5800138E0,0E0,0E0,1.6815033E0,3.908325E0,0E0,1.9850154E0,0E0,9.038315E-1,0E0,0E0,0E0,0E0,0E0,0E0],"parents":[2147483647,0,0,1,1,2,2,3,3,4,4,7,7,8,8,10,10,12,12],"right_children":[2,4,6,8,10,-1,-1,12,14,-1,16,-1,18,-1,-1,-1,-1,-1,-1],"split_conditions":[1.137E2,9.366E-2,2.434E-1,1.589E1,1.453E-1,6.8729925E-3,-1.13924205E-1,1.987E-1,2.275E1,9.319842E-2,1.533E1,-1.9689198E-3,1.318E-1,8.6532444E-2,-7.867753E-2,1.5876802E-2,-1.0947406E-1,1.17691234E-1,1.1924424E-2],"split_indices":[22,6,26,20,27,0,0,28,21,0,20,0,27,0,0,0,0,0,0],"split_type":[0,0,0,0,0,0,0,0,0,0,0,0,0,0,0,0,0,0,0],"sum_hessian":[5.619957E1,4.2317398E1,1.3882174E1,3.432537E1,7.9920273E0,1.0892338E0,1.2792939E1,3.0512268E1,3.8131018E0,2.146184E0,5.8458433E0,1.2617313E0,2.9250536E1,1.5664313E0,2.2466705E0,1.3404391E0,4.5054045E0,2.8173655E1,1.0768815E0],"tree_param":{"num_deleted":"0","num_feature":"30","num_nodes":"19","size_leaf_vector":"0"}},{"base_weights":[2.1101357E-1,9.7218984E-1,-5.4640955E-1,1.050904E0,-3.721423E-2,6.685811E-1,-9.254397E-1,-1.5390024E-2,1.1079398E0,9.942848E-2,-1.8828303E-2,4.776142E-1,-1.1121527E0,2.6213381E-2,1.1377623E0,7.492654E-2,-7.2965525E-2,7.200437E-2,-2.263956E-3,-1.9417873E-2,-1.15605846E-1,1.16300516E-1,2.951463E-2],"categories":[],"categories_nodes":[],"categories_segments":[],"categories_sizes":[],"default_left":[0,1,0,0,0,0,0,0,0,0,0,1,0,0,1,0,0,0,0,0,0,0,0],"id":12,"left_children":[1,3,5,7,-1,9,11,-1,13,-1,15,17,19,-1,21,-1,-1,-1,-1,-1,-1,-1,-1],"loss_changes":[3.1633167E1,3.2763672E0,1.3365936E1,1.9585094E0,0E0,1.6223278E0,6.1681423E0,0E0,3.3148575E-1,0E0,2.3397353E0,4.0763044E-1,5.530262E-1,0E0,1.6330719E-1,0E0,0E0,0E0,0E0,0E0,0E0,0E0,0E0],"parents":[2147483647,0,0,1,1,2,2,3,3,5,5,6,6,8,8,10,10,11,11,12,12,14,14],"right_children":[2,4,6,8,-1,10,12,-1,14,-1,16,18,20,-1,22,-1,-1,-1,-1,-1,-1,-1,-1],"split_conditions":[5.246E-2,9.314E2,1.039E2,2.027E-1,-3.721423E-2,3.53E-1,1.92E1,-1.5390024E-2,3.659E-3,9.942848E-2,1.712E-1,1.686E1,8.605E-2,2.6213381E-2,1.526E-1,7.492654E-2,-7.2965525E-2,7.200437E-2,-2.263956E-3,-1.9417873E-2,-1.15605846E-1,1.16300516E-1,2.951463E-2],"split_indices":[7,23,22,28,0,28,21,0,14,0,27,20,4,0,24,0,0,0,0,0,0,0,0],"split_type":[0,0,0,0,0,0,0,0,0,0,0,0,0,0,0,0,0,0,0,0,0,0,0],"sum_hessian":[5.2946575E1,2.6266436E1,2.668014E1,2.5019733E1,1.2467012E0,6.1624203E0,2.051772E1,1.0541401E0,2.3965593E1,3.878373E0,2.2840474E0,2.2267563E0,1.8290962E1,1.1496538E0,2.281594E1,1.0718113E0,1.212236E0,1.2039496E0,1.0228068E0,1.0824243E0,1.7208538E1,2.1783138E1,1.032802E0],"tree_param":{"num_deleted":"0","num_feature":"30","num_nodes":"23","size_leaf_vector":"0"}},{"base_weights":[2.2445428E-1,6.777136E-1,-9.9163E-1,8.811912E-1,-6.1926687E-1,2.4689248E-2,-1.1092957E-1,9.985427E-1,9.093709E-3,2.3678027E-2,-9.464379E-2,1.07727505E-1,2.7424106E-1,7.889219E-2,-5.36337E-1,8.956339E-2,-6.4551294E-2,1.9912275E-2,-9.280101E-2],"categories":[],"categories_nodes":[],"categories_segments":[],"categories_sizes":[],"default_left":[1,1,0,1,0,0,0,1,0,0,0,0,0,0,0,0,0,0,0],"id":13,"left_children":[1,3,5,7,9,-1,-1,11,13,-1,-1,-1,15,-1,17,-1,-1,-1,-1],"loss_changes":[2.8311615E1,1.0342724E1,2.317194E0,3.317194E0,1.7985492E0,0E0,0E0,1.3376541E0,2.49198E0,0E0,0E0,0E0,2.949552E0,0E0,1.180733E0,0E0,0E0,0E0,0E0],"parents":[2147483647,0,0,1,1,2,2,3,3,4,4,7,7,8,8,12,12,14,14],"right_children":[2,4,6,8,10,-1,-1,12,14,-1,-1,-1,16,-1,18,-1,-1,-1,-1],"split_conditions":[1.456E-1,1.137E2,9.767E1,3.635E1,1.071E2,2.4689248E-2,-1.1092957E-1,1.025E2,2.246E1,2.3678027E-2,-9.464379E-2,1.07727505E-1,3.863E-2,7.889219E-2,6.519E2,8.956339E-2,-6.4551294E-2,1.9912275E-2,-9.280101E-2],"split_indices":[27,22,22,13,2,0,0,22,21,0,0,0,16,0,3,0,0,0,0],"split_type":[0,0,0,0,0,0,0,0,0,0,0,0,0,0,0,0,0,0,0],"sum_hessian":[4.914423E1,3.612312E1,1.3021111E1,3.1501558E1,4.6215596E0,1.0344512E0,1.1986659E1,2.7637589E1,3.8639705E0,1.3542988E0,3.2672608E0,2.448835E1,3.1492395E0,1.4065458E0,2.4574249E0,1.8951118E0,1.2541277E0,1.024775E0,1.4326499E0],"tree_param":{"num_deleted":"0","num_feature":"30","num_nodes":"19","size_leaf_vector":"0"}},{"base_weights":[2.469405E-1,6.458491E-1,-9.375774E-1,8.837141E-1,-8.634363E-1,2.5131175E-2,-1.0771145E-1,9.5543426E-1,-4.3381926E-2,-9.819906E-2,-1.7560927E-2,1.0466697E0,3.7377146E-1,1.07071415E-1,2.3058293E-2,8.8690564E-2,-4.8725154E-2],"categories":[],"categories_nodes":[],"categories_segments":[],"categories_sizes":[],"default_left":[1,1,0,1,0,0,0,1,0,0,0,1,0,0,0,0,0],"id":14,"left_children":[1,3,5,7,9,-1,-1,11,-1,-1,-1,13,15,-1,-1,-1,-1],"loss_changes":[2.3114038E1,1.3768745E1,2.3292036E0,3.418354E0,2.709875E-1,0E0,0E0,1.2252579E0,0E0,0E0,0E0,2.5887108E-1,2.9440916E0,0E0,0E0,0E0,0E0],"parents":[2147483647,0,0,1,1,2,2,3,3,4,4,7,7,11,11,12,12],"right_children":[2,4,6,8,10,-1,-1,12,-1,-1,-1,14,16,-1,-1,-1,-1],"split_conditions":[1.459E-1,8.765E2,7.112E2,1.773E1,1.167E-1,2.5131175E-2,-1.0771145E-1,1.025E2,-4.3381926E-2,-9.819906E-2,-1.7560927E-2,3.717E0,4.497E-2,1.07071415E-1,2.3058293E-2,8.8690564E-2,-4.8725154E-2],"split_indices":[27,23,23,20,4,0,0,22,0,0,0,12,16,0,0,0,0],"split_type":[0,0,0,0,0,0,0,0,0,0,0,0,0,0,0,0,0],"sum_hessian":[4.6635597E1,3.5227E1,1.1408595E1,3.0789091E1,4.4379115E0,1.1142107E0,1.0294385E1,2.9460249E1,1.3288431E0,3.4206545E0,1.017257E0,2.4774803E1,4.6854453E0,2.3762674E1,1.0121284E0,2.9169834E0,1.7684621E0],"tree_param":{"num_deleted":"0","num_feature":"30","num_nodes":"17","size_leaf_vector":"0"}},{"base_weights":[1.8557596E-1,8.753303E-1,-4.913406E-1,9.6892494E-1,-3.7298784E-2,5.5399173E-1,-8.27683E-1,-2.3129012E-2,1.0466079E0,9.681829E-2,-3.6703803E-2,4.564565E-2,-1.0164725E0,1.11191146E-1,4.4239038E-1,-1.9930145E-2,-1.0626588E-1,6.8875186E-2,-7.465134E-3],"categories":[],"categories_nodes":[],"categories_segments":[],"categories_sizes":[],"default_left":[0,1,0,0,0,0,0,0,1,0,0,0,0,0,1,0,0,0,0],"id":15,"left_children":[1,3,5,7,-1,9,11,-1,13,-1,-1,-1,15,-1,17,-1,-1,-1,-1],"loss_changes":[2.0793978E1,2.9273376E0,8.422945E0,2.1728134E0,0E0,2.6875086E0,4.7160397E0,0E0,2.8266525E-1,0E0,0E0,0E0,3.770275E-1,0E0,5.0685394E-1,0E0,0E0,0E0,0E0],"parents":[2147483647,0,0,1,1,2,2,3,3,5,5,6,6,8,8,12,12,14,14],"right_children":[2,4,6,8,-1,10,12,-1,14,-1,-1,-1,16,-1,18,-1,-1,-1,-1],"split_conditions":[5.102E-2,4.441E1,1.039E2,3.35E-3,-3.7298784E-2,1.712E-1,2.024E1,-2.3129012E-2,2.972E1,9.681829E-2,-3.6703803E-2,4.564565E-2,1.168E-1,1.11191146E-1,1.927E-1,-1.9930145E-2,-1.0626588E-1,6.8875186E-2,-7.465134E-3],"split_indices":[7,13,22,14,0,27,21,0,21,0,0,0,24,0,26,0,0,0,0],"split_type":[0,0,0,0,0,0,0,0,0,0,0,0,0,0,0,0,0,0,0],"sum_hessian":[4.261453E1,2.0961933E1,2.1652594E1,1.9708103E1,1.2538302E0,5.113385E0,1.653921E1,1.0778441E0,1.8630259E1,3.4918766E0,1.6215088E0,1.9381526E0,1.4601056E1,1.605481E1,2.5754492E0,1.0654432E0,1.3535613E1,1.5193865E0,1.0560627E0],"tree_param":{"num_deleted":"0","num_feature":"30","num_nodes":"19","size_leaf_vector":"0"}},{"base_weights":[1.9066381E-1,5.7507277E-1,-9.802847E-1,7.9867935E-1,-5.9129274E-1,-2.2793649E-2,-1.0452858E-1,9.0921235E-1,-4.5485817E-2,3.076188E-2,-9.1486216E-2,1.010187E0,3.3728093E-1,1.0483577E0,2.3715282E-2,8.318225E-2,-4.8160903E-2,1.0755887E-1,2.873967E-2],"categories":[],"categories_nodes":[],"categories_segments":[],"categories_sizes":[],"default_left":[1,1,0,1,0,0,0,1,0,0,0,1,1,1,0,0,0,0,0],"id":16,"left_children":[1,3,5,7,9,-1,-1,11,-1,-1,-1,13,15,17,-1,-1,-1,-1,-1],"loss_changes":[1.9458881E1,8.878879E0,2.8718948E-1,4.220167E0,1.95678E0,0E0,0E0,1.1365662E0,0E0,0E0,0E0,3.7813377E-1,2.5630856E0,1.0425186E-1,0E0,0E0,0E0,0E0,0E0],"parents":[2147483647,0,0,1,1,2,2,3,3,4,4,7,7,11,11,12,12,13,13],"right_children":[2,4,6,8,10,-1,-1,12,-1,-1,-1,14,16,18,-1,-1,-1,-1,-1],"split_conditions":[8.765E2,1.459E-1,2.355E0,4.061E0,7.112E2,-2.2793649E-2,-1.0452858E-1,2.154E1,-4.5485817E-2,3.076188E-2,-9.1486216E-2,5.843E-2,1.449E1,3.046E-1,2.3715282E-2,8.318225E-2,-4.8160903E-2,1.0755887E-1,2.873967E-2],"split_indices":[23,27,12,12,23,0,0,1,0,0,0,7,20,25,0,0,0,0,0],"split_type":[0,0,0,0,0,0,0,0,0,0,0,0,0,0,0,0,0,0,0],"sum_hessian":[4.097773E1,3.1233133E1,9.7445965E0,2.6473146E1,4.759986E0,1.1333559E0,8.61124E0,2.4580406E1,1.8927407E0,1.2729332E0,3.4870527E0,2.024064E1,4.3397655E0,1.894883E1,1.2918106E0,2.695883E0,1.6438825E0,1.7894997E1,1.0538334E0],"tree_param":{"num_deleted":"0","num_feature":"30","num_nodes":"19","size_leaf_vector":"0"}},{"base_weights":[1.9644514E-1,8.19405E-1,-4.2639312E-1,9.3274784E-1,-3.981096E-2,4.7992283E-1,-7.577473E-1,-8.488114E-3,1.0021702E0,8.362472E-1,-5.9586067E-2,2.595018E-1,-1.02084495E-1,1.9296518E-2,1.0400591E0,9.692035E-2,1.6520945E-2,-5.0697245E-2,7.7595815E-2,1.0680368E-1,3.00648E-2],"categories":[],"categories_nodes":[],"categories_segments":[],"categories_sizes":[],"default_left":[0,1,0,0,0,1,0,0,0,1,0,0,0,0,1,0,0,0,0,0,0],"id":17,"left_children":[1,3,5,7,-1,9,11,-1,13,15,-1,17,-1,-1,19,-1,-1,-1,-1,-1,-1],"loss_changes":[1.5857021E1,3.1760073E0,6.5631666E0,1.4197426E0,0E0,2.8515453E0,4.414486E0,0E0,3.4394836E-1,2.884376E-1,0E0,1.9701966E0,0E0,0E0,2.5230408E-2,0E0,0E0,0E0,0E0,0E0,0E0],"parents":[2147483647,0,0,1,1,2,2,3,3,5,5,6,6,8,8,9,9,11,11,14,14],"right_children":[2,4,6,8,-1,10,12,-1,14,16,-1,18,-1,-1,20,-1,-1,-1,-1,-1,-1],"split_conditions":[5.246E-2,9.314E2,2.384E1,2.06E-1,-3.981096E-2,1.198E2,1.023E2,-8.488114E-3,3.899E-3,3.908E-1,-5.9586067E-2,1.278E1,-1.02084495E-1,1.9296518E-2,2.525E1,9.692035E-2,1.6520945E-2,-5.0697245E-2,7.7595815E-2,1.0680368E-1,3.00648E-2],"split_indices":[7,23,21,28,0,22,22,0,14,10,0,0,0,0,1,0,0,0,0,0,0],"split_type":[0,0,0,0,0,0,0,0,0,0,0,0,0,0,0,0,0,0,0,0,0],"sum_hessian":[3.8967793E1,1.932421E1,1.9643581E1,1.7892431E1,1.4317791E0,5.1390214E0,1.45045595E1,1.1284432E0,1.6763987E1,4.027637E0,1.1113846E0,2.9833407E0,1.1521218E1,1.0223454E0,1.5741642E1,2.9907324E0,1.0369047E0,1.2083654E0,1.7749753E0,1.473949E1,1.0021527E0],"tree_param":{"num_deleted":"0","num_feature":"30","num_nodes":"21","size_leaf_vector":"0"}},{"base_weights":[2.0013936E-1,5.668874E-1,-1.0170533E-1,7.3622376E-1,-8.55856E-2,8.302015E-1,-3.2755196E-2,1.04876116E-1,3.1528974E-1,8.143531E-1,-6.636016E-1,9.079662E-2,1.5805837E-2,1.53926015E-2,-1.04292825E-1],"categories":[],"categories_nodes":[],"categories_segments":[],"categories_sizes":[],"default_left":[1,1,0,1,0,0,0,0,1,1,0,0,0,0,0],"id":18,"left_children":[1,3,-1,5,-1,7,-1,-1,9,11,13,-1,-1,-1,-1],"loss_changes":[1.7446617E1,7.781393E0,0E0,2.9775E0,0E0,2.4996395E0,0E0,0E0,4.899995E0,2.4720573E-1,1.2658753E0,0E0,0E0,0E0,0E0],"parents":[2147483647,0,0,1,1,3,3,5,5,8,8,9,9,10,10],"right_children":[2,4,-1,6,-1,8,-1,-1,10,12,14,-1,-1,-1,-1],"split_conditions":[8.765E2,1.741E-1,-1.0170533E-1,4.911E1,-8.55856E-2,2.989E1,-3.2755196E-2,1.04876116E-1,1.449E1,7.16E-2,2.269E-2,9.079662E-2,1.5805837E-2,1.53926015E-2,-1.04292825E-1],"split_indices":[23,27,0,13,0,21,0,0,20,6,16,0,0,0,0],"split_type":[0,0,0,0,0,0,0,0,0,0,0,0,0,0,0],"sum_hessian":[3.6791103E1,2.8682997E1,8.108107E0,2.6063433E1,2.6195633E0,2.4149546E1,1.9138871E0,1.6225634E1,7.9239135E0,5.359561E0,2.5643525E0,4.3549085E0,1.0046521E0,1.0010643E0,1.5632882E0],"tree_param":{"num_deleted":"0","num_feature":"30","num_nodes":"15","size_leaf_vector":"0"}},{"base_weights":[1.88901E-1,5.150031E-1,-9.705561E-2,6.9040036E-1,-6.976822E-1,8.8811195E-1,7.3539927E-3,-7.956707E-2,-2.0891733E-2,9.5217496E-1,-9.514472E-3,-7.8223094E-2,4.326209E-1,1.914114E-2,9.87704E-2,8.6499654E-2,-2.9206393E-2],"categories":[],"categories_nodes":[],"categories_segments":[],"categories_sizes":[],"default_left":[1,1,0,1,0,1,0,0,0,0,0,0,0,0,0,0,0],"id":19,"left_children":[1,3,-1,5,7,9,11,-1,-1,13,-1,-1,15,-1,-1,-1,-1],"loss_changes":[1.35190115E1,6.3368897E0,0E0,3.309126E0,2.4183512E-2,1.289444E0,2.527643E0,0E0,0E0,2.963581E-1,0E0,0E0,1.7821417E0,0E0,0E0,0E0,0E0],"parents":[2147483647,0,0,1,1,3,3,4,4,5,5,6,6,9,9,12,12],"right_children":[2,4,-1,6,8,10,12,-1,-1,14,-1,-1,16,-1,-1,-1,-1],"split_conditions":[1.177E2,1.607E-1,-9.705561E-2,1.553E1,7.049E-1,9.377E1,6.407E2,-7.956707E-2,-2.0891733E-2,2.027E-1,-9.514472E-3,-7.8223094E-2,1.83E1,1.914114E-2,9.87704E-2,8.6499654E-2,-2.9206393E-2],"split_indices":[22,27,0,20,10,2,3,0,0,28,0,0,1,0,0,0,0],"split_type":[0,0,0,0,0,0,0,0,0,0,0,0,0,0,0,0,0],"sum_hessian":[3.3433025E1,2.6527796E1,6.9052277E0,2.3552023E1,2.9757729E0,1.8032263E1,5.51976E0,1.9557577E0,1.0200152E0,1.6958933E1,1.0733299E0,1.6383951E0,3.8813648E0,1.0416718E0,1.5917261E1,2.309693E0,1.5716717E0],"tree_param":{"num_deleted":"0","num_feature":"30","num_nodes":"17","size_leaf_vector":"0"}},{"base_weights":[1.6807581E-1,5.283863E-1,-9.871296E-2,6.831514E-1,-6.4326173E-1,8.1592125E-1,-7.239752E-2,-8.259114E-2,-9.0618385E-3,9.359353E-1,2.1760012E-1,1.045581E-1,2.5161926E-3,8.309184E-2,-6.193316E-2],"categories":[],"categories_nodes":[],"categories_segments":[],"categories_sizes":[],"default_left":[1,1,0,1,0,1,0,0,0,1,0,0,0,0,0],"id":20,"left_children":[1,3,-1,5,7,9,-1,-1,-1,11,13,-1,-1,-1,-1],"loss_changes":[1.4369057E1,5.155919E0,0E0,4.973688E0,2.8348625E-1,1.3694782E0,0E0,0E0,0E0,1.7656946E0,3.062214E0,0E0,0E0,0E0,0E0],"parents":[2147483647,0,0,1,1,3,3,4,4,5,5,9,9,10,10],"right_children":[2,4,-1,6,8,10,-1,-1,-1,12,14,-1,-1,-1,-1],"split_conditions":[8.765E2,4.115E0,-9.871296E-2,1.741E-1,6.724E-2,7.259E2,-7.239752E-2,-8.259114E-2,-9.0618385E-3,1.589E1,2.933E1,1.045581E-1,2.5161926E-3,8.309184E-2,-6.193316E-2],"split_indices":[23,12,0,27,9,23,0,0,0,20,21,0,0,0,0],"split_type":[0,0,0,0,0,0,0,0,0,0,0,0,0,0,0],"sum_hessian":[3.226859E1,2.5010406E1,7.2581835E0,2.246049E1,2.5499158E0,2.0907871E1,1.5526178E0,1.5448614E0,1.0050544E0,1.6944746E1,3.9631255E0,1.4991897E1,1.9528501E0,2.2912457E0,1.6718799E0],"tree_param":{"num_deleted":"0","num_feature":"30","num_nodes":"15","size_leaf_vector":"0"}},{"base_weights":[1.9999076E-1,8.779023E-1,-4.2085865E-1,9.610594E-1,-2.062657E-4,8.195707E-2,-7.3286515E-1,2.4702042E-2,1.0187199E-1,2.151539E-2,-8.5883015E-1,-4.707562E-3,-1.0094725E0,-2.5258938E-2,-1.0774304E-1],"categories":[],"categories_nodes":[],"categories_segments":[],"categories_sizes":[],"default_left":[0,1,0,0,0,0,0,0,0,0,0,0,0,0,0],"id":21,"left_children":[1,3,5,7,-1,-1,9,-1,-1,-1,11,-1,13,-1,-1],"loss_changes":[1.297425E1,1.0732994E0,6.9122434E0,2.991724E-1,0E0,0E0,1.8038955E0,0E0,0E0,0E0,1.4405079E0,0E0,2.532692E-1,0E0,0E0],"parents":[2147483647,0,0,1,1,2,2,3,3,6,6,10,10,12,12],"right_children":[2,4,6,8,-1,-1,10,-1,-1,-1,12,-1,14,-1,-1],"split_conditions":[1.456E-1,8.26E2,2.177E-1,5.597E-2,-2.062657E-4,8.195707E-2,8.759E-2,2.4702042E-2,1.0187199E-1,2.151539E-2,2.321E1,-4.707562E-3,4.835E-2,-2.5258938E-2,-1.0774304E-1],"split_indices":[27,23,26,9,0,0,4,0,0,0,21,0,7,0,0],"split_type":[0,0,0,0,0,0,0,0,0,0,0,0,0,0,0],"sum_hessian":[2.8948553E1,1.3640416E1,1.5308138E1,1.2378487E1,1.261929E0,2.7496624E0,1.25584755E1,1.3197238E0,1.10587635E1,1.3899081E0,1.1168568E1,1.9536403E0,9.214927E0,1.1478262E0,8.067101E0],"tree_param":{"num_deleted":"0","num_feature":"30","num_nodes":"15","size_leaf_vector":"0"}},{"base_weights":[2.0453362E-1,5.166914E-1,-8.3031046E-1,8.66807E-1,-4.2994075E-2,-9.254467E-2,-1.5321453E-2,9.911978E-2,3.5285044E-1,5.936622E-1,-4.8222712E-1,8.124983E-2,-4.7372617E-2,8.233825E-2,-7.7754543E-3,3.1171402E-2,-7.161237E-1,6.086977E-3,-9.22444E-2],"categories":[],"categories_nodes":[],"categories_segments":[],"categories_sizes":[],"default_left":[1,0,0,1,0,0,0,0,0,0,0,0,0,0,0,0,0,0,0],"id":22,"left_children":[1,3,5,7,9,-1,-1,-1,11,13,15,-1,-1,-1,-1,-1,17,-1,-1],"loss_changes":[9.731428E0,4.4932537E0,3.127985E-1,5.476122E-1,2.9998152E0,0E0,0E0,0E0,2.0140254E0,7.441716E-1,1.3920066E0,0E0,0E0,0E0,0E0,0E0,8.841367E-1,0E0,0E0],"parents":[2147483647,0,0,1,1,2,2,3,3,4,4,8,8,9,9,10,10,16,16],"right_children":[2,4,6,8,10,-1,-1,-1,12,14,16,-1,-1,-1,-1,-1,18,-1,-1],"split_conditions":[8.765E2,1.456E-1,6.643E-1,5.621E2,2.321E1,-9.254467E-2,-1.5321453E-2,9.911978E-2,5.096E1,3.783E1,9.514E-2,8.124983E-2,-4.7372617E-2,8.233825E-2,-7.7754543E-3,3.1171402E-2,4.816E2,6.086977E-3,-9.22444E-2],"split_indices":[23,27,25,3,21,0,0,0,13,13,4,0,0,0,0,0,3,0,0],"split_type":[0,0,0,0,0,0,0,0,0,0,0,0,0,0,0,0,0,0,0],"sum_hessian":[2.7796959E1,2.173989E1,6.0570693E0,1.3036232E1,8.703657E0,4.9892597E0,1.0678096E0,9.7483225E0,3.28791E0,3.4097414E0,5.2939153E0,2.123881E0,1.1640291E0,2.3718832E0,1.0378581E0,1.1289831E0,4.1649323E0,1.0218105E0,3.1431217E0],"tree_param":{"num_deleted":"0","num_feature":"30","num_nodes":"19","size_leaf_vector":"0"}},{"base_weights":[1.7359164E-1,4.6483272E-1,-9.0935975E-2,6.3173646E-1,-6.1794978E-2,7.756117E-1,-4.2560548E-2,8.798491E-1,-3.1490423E-2,5.6424685E-2,-5.6579735E-2,9.612556E-1,2.8253332E-1,1.0010933E-1,2.9928511E-2,6.416351E-2,-2.242494E-2],"categories":[],"categories_nodes":[],"categories_segments":[],"categories_sizes":[],"default_left":[1,1,0,1,0,1,1,1,0,0,0,1,0,0,0,0,0],"id":23,"left_children":[1,3,-1,5,-1,7,9,11,-1,-1,-1,13,15,-1,-1,-1,-1],"loss_changes":[9.2129345E0,4.4792128E0,0E0,1.9828024E0,0E0,2.165821E0,1.742363E0,4.7868633E-1,0E0,0E0,0E0,4.750538E-2,7.3842144E-1,0E0,0E0,0E0,0E0],"parents":[2147483647,0,0,1,1,3,3,5,5,6,6,7,7,11,11,12,12],"right_children":[2,4,-1,6,-1,8,10,12,-1,-1,-1,14,16,-1,-1,-1,-1],"split_conditions":[1.177E2,1.607E-1,-9.0935975E-2,2.158E1,-6.1794978E-2,3.833E0,1.449E1,5.246E-2,-3.1490423E-2,5.6424685E-2,-5.6579735E-2,8.309E2,1.635E1,1.0010933E-1,2.9928511E-2,6.416351E-2,-2.242494E-2],"split_indices":[22,27,0,1,0,12,20,7,0,0,0,23,20,0,0,0,0],"split_type":[0,0,0,0,0,0,0,0,0,0,0,0,0,0,0,0,0],"sum_hessian":[2.6870121E1,2.1625175E1,5.244945E0,1.909792E1,2.5272555E0,1.5615728E1,3.4821913E0,1.44296465E1,1.1860822E0,1.576045E0,1.9061463E0,1.2162729E1,2.2669172E0,1.0989108E1,1.1736214E0,1.1710361E0,1.0958811E0],"tree_param":{"num_deleted":"0","num_feature":"30","num_nodes":"17","size_leaf_vector":"0"}},{"base_weights":[1.3287538E-1,7.3139113E-1,-4.3029177E-1,8.5242236E-1,-3.4011055E-2,4.140772E-1,-6.8846995E-1,9.364549E-2,-4.2639286E-4,7.257729E-2,-1.8619504E-2,3.7943423E-2,-8.931705E-1,-1.4947757E-2,-9.7179726E-2],"categories":[],"categories_nodes":[],"categories_segments":[],"categories_sizes":[],"default_left":[0,1,0,1,0,0,0,0,0,0,0,0,0,0,0],"id":24,"left_children":[1,3,5,7,-1,9,11,-1,-1,-1,-1,-1,13,-1,-1],"loss_changes":[9.2008915E0,1.9954104E0,3.3833547E0,8.751764E-1,0E0,8.746554E-1,2.8003268E0,0E0,0E0,0E0,0E0,0E0,4.2467928E-1,0E0,0E0],"parents":[2147483647,0,0,1,1,2,2,3,3,5,5,6,6,12,12],"right_children":[2,4,6,8,-1,10,12,-1,-1,-1,-1,-1,14,-1,-1],"split_conditions":[5.246E-2,4.441E1,7.259E2,1.131E2,-3.4011055E-2,1.607E-1,1.92E1,9.364549E-2,-4.2639286E-4,7.257729E-2,-1.8619504E-2,3.7943423E-2,2.596E-1,-1.4947757E-2,-9.7179726E-2],"split_indices":[7,13,23,22,0,27,21,0,0,0,0,0,26,0,0],"split_type":[0,0,0,0,0,0,0,0,0,0,0,0,0,0,0],"sum_hessian":[2.5363447E1,1.2151024E1,1.3212423E1,1.1101515E1,1.049509E0,2.9524913E0,1.02599325E1,1.0025043E1,1.0764718E0,1.8057628E0,1.1467285E0,1.5130224E0,8.74691E0,1.113734E0,7.633176E0],"tree_param":{"num_deleted":"0","num_feature":"30","num_nodes":"15","size_leaf_vector":"0"}},{"base_weights":[1.313247E-1,4.1467315E-1,-8.835339E-2,7.5244665E-1,-9.260761E-2,9.078474E-1,-1.4430595E-2,4.816504E-1,-5.6858325E-1,9.824542E-2,1.2012581E-2,7.958602E-2,-2.7627258E-2,-9.221505E-2,1.5499946E-3],"categories":[],"categories_nodes":[],"categories_segments":[],"categories_sizes":[],"default_left":[1,1,0,1,0,1,0,1,1,0,0,0,0,0,0],"id":25,"left_children":[1,3,-1,5,7,9,-1,11,13,-1,-1,-1,-1,-1,-1],"loss_changes":[7.5016575E0,3.5099847E0,0E0,1.8259044E0,2.710827E0,4.992447E-1,0E0,1.3110846E0,1.1157628E0,0E0,0E0,0E0,0E0,0E0,0E0],"parents":[2147483647,0,0,1,1,3,3,4,4,5,5,7,7,8,8],"right_children":[2,4,-1,6,8,10,-1,12,14,-1,-1,-1,-1,-1,-1],"split_conditions":[1.177E2,2.085E-1,-8.835339E-2,3.635E1,2.799E1,8.007E-2,-1.4430595E-2,1.706E1,4.015E-3,9.824542E-2,1.2012581E-2,7.958602E-2,-2.7627258E-2,-9.221505E-2,1.5499946E-3],"split_indices":[22,26,0,13,21,6,0,20,19,0,0,0,0,0,0],"split_type":[0,0,0,0,0,0,0,0,0,0,0,0,0,0,0],"sum_hessian":[2.3813309E1,1.9078102E1,4.7352066E0,1.1162346E1,7.915756E0,9.503147E0,1.6591988E0,3.5820906E0,4.3336654E0,8.455133E0,1.0480136E0,2.496903E0,1.0851877E0,2.3389888E0,1.9946766E0],"tree_param":{"num_deleted":"0","num_feature":"30","num_nodes":"15","size_leaf_vector":"0"}},{"base_weights":[1.4727634E-1,6.04895E-1,-4.265091E-1,7.6235986E-1,-3.05074E-2,6.4607814E-2,-6.847081E-1,9.44264E-2,1.05482586E-1,-2.1148954E-2,-9.0640925E-2,6.415705E-2,-4.3423045E-2,4.247054E-2,-4.5398906E-2],"categories":[],"categories_nodes":[],"categories_segments":[],"categories_sizes":[],"default_left":[0,1,0,0,0,0,0,0,1,1,0,0,0,0,0],"id":26,"left_children":[1,3,5,7,-1,-1,9,-1,11,13,-1,-1,-1,-1,-1],"loss_changes":[6.43932E0,2.1683755E0,3.4974089E0,1.3106875E0,0E0,0E0,1.3602295E0,0E0,1.3448926E0,8.4357435E-1,0E0,0E0,0E0,0E0,0E0],"parents":[2147483647,0,0,1,1,2,2,3,3,6,6,8,8,9,9],"right_children":[2,4,6,8,-1,-1,10,-1,12,14,-1,-1,-1,-1,-1],"split_conditions":[6.937E2,7.501E2,1.615E1,7.951E-2,-3.05074E-2,6.4607814E-2,8.732E2,9.44264E-2,4.711E-2,2.425E1,-9.0640925E-2,6.415705E-2,-4.3423045E-2,4.247054E-2,-4.5398906E-2],"split_indices":[3,23,1,7,0,0,23,0,6,13,0,0,0,0,0],"split_type":[0,0,0,0,0,0,0,0,0,0,0,0,0,0,0],"sum_hessian":[2.2541191E1,1.2509837E1,1.0031354E1,1.0802706E1,1.7071319E0,1.654816E0,8.376537E0,8.11733E0,2.6853762E0,2.3721132E0,6.0044246E0,1.2525321E0,1.432844E0,1.1777477E0,1.1943655E0],"tree_param":{"num_deleted":"0","num_feature":"30","num_nodes":"15","size_leaf_vector":"0"}},{"base_weights":[1.5160863E-1,7.92603E-1,-2.823091E-1,9.3628086E-2,-1.5332418E-2,8.210521E-2,-5.269347E-1,1.2355268E-2,-8.636505E-2,4.3856254E-1,-5.120366E-1,6.6253334E-2,-7.110875E-3,-7.1107425E-2,-5.9906016E-3],"categories":[],"categories_nodes":[],"categories_segments":[],"categories_sizes":[],"default_left":[0,1,0,0,0,0,0,0,0,1,1,0,0,0,0],"id":27,"left_children":[1,3,5,-1,-1,-1,7,9,-1,11,13,-1,-1,-1,-1],"loss_changes":[6.5311537E0,1.4233913E0,4.2816324E0,0E0,0E0,0E0,2.240833E0,1.499984E0,0E0,4.679494E-1,2.2917044E-1,0E0,0E0,0E0,0E0],"parents":[2147483647,0,0,1,1,2,2,6,6,7,7,9,9,10,10],"right_children":[2,4,6,-1,-1,-1,8,10,-1,12,14,-1,-1,-1,-1],"split_conditions":[1.216E-1,6.869E2,2.177E-1,9.3628086E-2,-1.5332418E-2,8.210521E-2,1.131E2,3.186E1,-8.636505E-2,2.895E-1,1.426E0,6.6253334E-2,-7.110875E-3,-7.1107425E-2,-5.9906016E-3],"split_indices":[27,3,26,0,0,0,22,21,0,10,11,0,0,0,0],"split_type":[0,0,0,0,0,0,0,0,0,0,0,0,0,0,0],"sum_hessian":[2.1677145E1,8.416885E0,1.326026E1,7.3158684E0,1.1010165E0,1.9787824E0,1.1281477E1,4.7066045E0,6.574873E0,2.6866577E0,2.0199468E0,1.6580976E0,1.0285599E0,1.004865E0,1.0150818E0],"tree_param":{"num_deleted":"0","num_feature":"30","num_nodes":"15","size_leaf_vector":"0"}},{"base_weights":[1.01894565E-1,6.147361E-1,-3.8040712E-1,7.401988E-1,-3.1144282E-2,1.5755537E-1,-7.860388E-1,9.341776E-2,2.29548E-2,6.851201E-1,-6.422495E-2,-1.500617E-2,-8.7908424E-2,5.2915763E-2,-4.70555E-2,7.727424E-2,2.1068135E-2],"categories":[],"categories_nodes":[],"categories_segments":[],"categories_sizes":[],"default_left":[0,1,0,1,0,0,0,0,1,0,0,0,0,0,0,0,0],"id":28,"left_children":[1,3,5,7,-1,9,11,-1,13,15,-1,-1,-1,-1,-1,-1,-1],"loss_changes":[5.604193E0,1.4977136E0,2.7002838E0,1.3559813E0,0E0,2.9331326E0,2.7629042E-1,0E0,1.0316052E0,5.3145885E-3,0E0,0E0,0E0,0E0,0E0,0E0,0E0],"parents":[2147483647,0,0,1,1,2,2,3,3,5,5,6,6,8,8,9,9],"right_children":[2,4,6,8,-1,10,12,-1,14,16,-1,-1,-1,-1,-1,-1,-1],"split_conditions":[5.246E-2,4.441E1,1.704E1,2.803E1,-3.1144282E-2,3.53E-1,7.106E2,9.341776E-2,2.085E-1,1.585E1,-6.422495E-2,-1.500617E-2,-8.7908424E-2,5.2915763E-2,-4.70555E-2,7.727424E-2,2.1068135E-2],"split_indices":[7,13,20,21,0,28,3,0,26,20,0,0,0,0,0,0,0],"split_type":[0,0,0,0,0,0,0,0,0,0,0,0,0,0,0,0,0],"sum_hessian":[2.0712013E1,9.905112E0,1.0806902E1,8.900262E0,1.0048499E0,4.9085703E0,5.8983316E0,6.767527E0,2.1327345E0,3.0440528E0,1.8645176E0,1.086276E0,4.8120556E0,1.01717E0,1.1155647E0,2.0387697E0,1.0052832E0],"tree_param":{"num_deleted":"0","num_feature":"30","num_nodes":"17","size_leaf_vector":"0"}},{"base_weights":[1.1110541E-1,4.0539232E-1,-7.394295E-1,5.374254E-1,-6.1398298E-2,-1.5519442E-2,-8.411377E-2,8.281562E-1,4.6099164E-2,9.282045E-2,7.464867E-3,6.900203E-2,-4.0111816E-1,-8.5748166E-2,2.5032846E-2,3.559896E-2,-2.9975502E-2],"categories":[],"categories_nodes":[],"categories_segments":[],"categories_sizes":[],"default_left":[1,1,0,0,0,0,0,1,0,0,0,0,0,0,1,0,0],"id":29,"left_children":[1,3,5,7,-1,-1,-1,9,11,-1,-1,-1,13,-1,15,-1,-1],"loss_changes":[5.1882396E0,2.3698092E0,1.8882537E-1,1.9546528E0,0E0,0E0,0E0,5.870185E-1,2.0752547E0,0E0,0E0,0E0,8.612223E-1,0E0,4.511669E-1,0E0,0E0],"parents":[2147483647,0,0,1,1,2,2,3,3,7,7,8,8,12,12,14,14],"right_children":[2,4,6,8,-1,-1,-1,10,12,-1,-1,-1,14,-1,16,-1,-1],"split_conditions":[1.459E-1,1.071E2,1.392E-1,2.951E1,-6.1398298E-2,-1.5519442E-2,-8.411377E-2,4.751E-1,6.533E2,9.282045E-2,7.464867E-3,6.900203E-2,1.203E-2,-8.5748166E-2,1.043E2,3.559896E-2,-2.9975502E-2],"split_indices":[27,2,24,21,0,0,0,10,23,0,0,0,15,0,22,0,0],"split_type":[0,0,0,0,0,0,0,0,0,0,0,0,0,0,0,0,0],"sum_hessian":[1.8530386E1,1.4155812E1,4.3745737E0,1.2951126E1,1.2046856E0,1.0231646E0,3.3514092E0,7.705829E0,5.245297E0,6.597932E0,1.1078972E0,1.9273307E0,3.3179662E0,1.1134366E0,2.2045298E0,1.0443131E0,1.1602166E0],"tree_param":{"num_deleted":"0","num_feature":"30","num_nodes":"17","size_leaf_vector":"0"}},{"base_weights":[8.1380144E-2,3.380048E-1,-7.0346034E-1,5.967679E-1,-3.942931E-1,-1.462165E-2,-8.06281E-2,-4.4881932E-2,7.5552887E-1,4.085954E-2,-8.071939E-2,5.3609908E-2,-5.809903E-2,8.435003E-1,7.279514E-3,9.1341294E-2,2.074788E-2],"categories":[],"categories_nodes":[],"categories_segments":[],"categories_sizes":[],"default_left":[1,1,0,0,0,0,0,1,1,0,0,0,0,1,0,0,0],"id":30,"left_children":[1,3,5,7,9,-1,-1,11,13,-1,-1,-1,-1,15,-1,-1,-1],"loss_changes":[4.0667543E0,3.0780466E0,1.6910386E-1,1.2036543E0,1.8279626E0,0E0,0E0,1.3148773E0,4.9484062E-1,0E0,0E0,0E0,0E0,1.7109251E-1,0E0,0E0,0E0],"parents":[2147483647,0,0,1,1,2,2,3,3,4,4,7,7,8,8,13,13],"right_children":[2,4,6,8,10,-1,-1,12,14,-1,-1,-1,-1,16,-1,-1,-1],"split_conditions":[1.726E1,1.416E-1,2.417E1,1.114E-2,1.453E-1,-1.462165E-2,-8.06281E-2,2.398E-2,8.309E2,4.085954E-2,-8.071939E-2,5.3609908E-2,-5.809903E-2,6.139E-2,7.279514E-3,9.1341294E-2,2.074788E-2],"split_indices":[20,24,21,15,27,0,0,6,23,0,0,0,0,7,0,0,0],"split_type":[0,0,0,0,0,0,0,0,0,0,0,0,0,0,0,0,0],"sum_hessian":[1.8010933E1,1.4001952E1,4.008981E0,1.0482836E1,3.519116E0,1.0017859E0,3.0071952E0,2.2215395E0,8.261296E0,1.1986873E0,2.3204286E0,1.0661592E0,1.1553801E0,7.1097217E0,1.1515745E0,6.012664E0,1.0970583E0],"tree_param":{"num_deleted":"0","num_feature":"30","num_nodes":"17","size_leaf_vector":"0"}},{"base_weights":[8.915762E-2,7.5218016E-1,-2.3632015E-1,8.55931E-2,1.0671719E-2,2.9183576E-1,-5.985687E-1,7.3278344E-1,-4.668117E-2,5.26192E-3,-7.862938E-1,8.81504E-2,1.29611315E-2,-1.8388288E-2,-8.7454975E-2],"categories":[],"categories_nodes":[],"categories_segments":[],"categories_sizes":[],"default_left":[0,1,0,0,0,0,0,0,0,0,0,0,0,0,0],"id":31,"left_children":[1,3,5,-1,-1,7,9,11,-1,-1,13,-1,-1,-1,-1],"loss_changes":[4.1584244E0,3.3140445E-1,2.6874228E0,0E0,0E0,2.354367E0,1.0337589E0,2.6191187E-1,0E0,0E0,1.7754507E-1,0E0,0E0,0E0,0E0],"parents":[2147483647,0,0,1,1,2,2,5,5,6,6,7,7,10,10],"right_children":[2,4,6,-1,-1,8,10,12,-1,-1,14,-1,-1,-1,-1],"split_conditions":[1.096E-1,2.18E1,2.572E1,8.55931E-2,1.0671719E-2,1.177E2,1.023E2,1.44E0,-4.668117E-2,5.26192E-3,4.497E-2,8.81504E-2,1.29611315E-2,-1.8388288E-2,-8.7454975E-2],"split_indices":[27,1,21,0,0,22,22,11,0,0,7,0,0,0,0],"split_type":[0,0,0,0,0,0,0,0,0,0,0,0,0,0,0],"sum_hessian":[1.744618E1,5.3127365E0,1.2133445E1,4.2961125E0,1.0166239E0,5.015401E0,7.118044E0,3.1933982E0,1.8220026E0,1.7538668E0,5.3641768E0,2.1915855E0,1.0018125E0,1.0794775E0,4.2846994E0],"tree_param":{"num_deleted":"0","num_feature":"30","num_nodes":"15","size_leaf_vector":"0"}},{"base_weights":[1.2934677E-1,3.8483843E-1,-6.7379814E-1,7.7142864E-1,-6.283018E-2,-7.752893E-2,-1.5083859E-2,8.986505E-2,1.8846927E-2,5.287918E-1,-4.113344E-1,6.4977095E-2,1.3469539E-2,1.7829482E-2,-7.821677E-2],"categories":[],"categories_nodes":[],"categories_segments":[],"categories_sizes":[],"default_left":[1,0,0,1,0,0,0,0,0,1,1,0,0,0,0],"id":32,"left_children":[1,3,5,7,9,-1,-1,-1,-1,11,13,-1,-1,-1,-1],"loss_changes":[3.9305222E0,2.5076811E0,1.315248E-1,4.0173197E-1,1.7658241E0,0E0,0E0,0E0,0E0,6.606072E-2,1.2957332E0,0E0,0E0,0E0,0E0],"parents":[2147483647,0,0,1,1,2,2,3,3,4,4,9,9,10,10],"right_children":[2,4,6,8,10,-1,-1,-1,-1,12,14,-1,-1,-1,-1],"split_conditions":[8.765E2,1.416E-1,6.24E-3,1.025E2,2.321E1,-7.752893E-2,-1.5083859E-2,8.986505E-2,1.8846927E-2,3.535E-3,1.449E1,6.4977095E-2,1.3469539E-2,1.7829482E-2,-7.821677E-2],"split_indices":[23,24,19,22,21,0,0,0,0,19,20,0,0,0,0],"split_type":[0,0,0,0,0,0,0,0,0,0,0,0,0,0,0],"sum_hessian":[1.6891207E1,1.3209815E1,3.6813917E0,6.70039E0,6.5094256E0,2.678977E0,1.0024147E0,5.055561E0,1.6448289E0,2.2212706E0,4.2881546E0,1.2031637E0,1.0181068E0,1.8561152E0,2.4320395E0],"tree_param":{"num_deleted":"0","num_feature":"30","num_nodes":"15","size_leaf_vector":"0"}},{"base_weights":[1.0489152E-1,7.1096957E-1,-2.0098326E-1,8.187191E-2,1.03995865E-2,1.7080683E-1,-6.509331E-1,-7.03588E-2,4.348084E-1,-4.1343677E-3,-7.875987E-2,8.454237E-2,-1.01675585E-1,3.0034859E-2,-5.3331163E-2],"categories":[],"categories_nodes":[],"categories_segments":[],"categories_sizes":[],"default_left":[0,1,0,0,0,0,0,0,0,0,0,0,1,0,0],"id":33,"left_children":[1,3,5,-1,-1,7,9,-1,11,-1,-1,-1,13,-1,-1],"loss_changes":[3.2402172E0,2.9576755E-1,2.0991182E0,0E0,0E0,1.9908332E0,4.326744E-1,0E0,1.4571115E0,0E0,0E0,0E0,7.8335595E-1,0E0,0E0],"parents":[2147483647,0,0,1,1,2,2,5,5,6,6,8,8,12,12],"right_children":[2,4,6,-1,-1,8,10,-1,12,-1,-1,-1,14,-1,-1],"split_conditions":[1.096E-1,3.116E1,1.177E2,8.187191E-2,1.03995865E-2,1.203E-2,9.958E1,-7.03588E-2,2.799E1,-4.1343677E-3,-7.875987E-2,8.454237E-2,1.368E-1,3.0034859E-2,-5.3331163E-2],"split_indices":[27,13,22,0,0,15,2,0,21,0,0,0,24,0,0],"split_type":[0,0,0,0,0,0,0,0,0,0,0,0,0,0,0],"sum_hessian":[1.5707613E1,4.8242273E0,1.0883386E1,3.8006794E0,1.023548E0,6.2989764E0,4.584409E0,1.0746286E0,5.2243476E0,1.078104E0,3.506305E0,2.633134E0,2.591214E0,1.4991106E0,1.0921035E0],"tree_param":{"num_deleted":"0","num_feature":"30","num_nodes":"15","size_leaf_vector":"0"}},{"base_weights":[9.699011E-2,7.357463E-1,-2.235348E-1,8.568936E-2,9.421424E-3,2.4525195E-1,-6.330267E-1,6.508348E-1,-3.9991476E-2,1.0982901E-2,-7.973781E-1,7.536171E-2,2.0020934E-2,-1.4350727E-2,-9.445337E-2],"categories":[],"categories_nodes":[],"categories_segments":[],"categories_sizes":[],"default_left":[0,1,0,0,0,1,0,1,0,0,0,0,0,0,0],"id":34,"left_children":[1,3,5,-1,-1,7,9,11,-1,-1,13,-1,-1,-1,-1],"loss_changes":[3.4232593E0,3.5071945E-1,2.337041E0,0E0,0E0,1.8354958E0,8.6231804E-1,3.79436E-2,0E0,0E0,3.7607408E-1,0E0,0E0,0E0,0E0],"parents":[2147483647,0,0,1,1,2,2,5,5,6,6,7,7,10,10],"right_children":[2,4,6,-1,-1,8,10,12,-1,-1,14,-1,-1,-1,-1],"split_conditions":[2.085E-1,3.021E0,1.712E-1,8.568936E-2,9.421424E-3,1.574E1,1.24E-1,2.895E-1,-3.9991476E-2,1.0982901E-2,5.954E-3,7.536171E-2,2.0020934E-2,-1.4350727E-2,-9.445337E-2],"split_indices":[26,12,27,0,0,20,24,10,0,0,14,0,0,0,0],"split_type":[0,0,0,0,0,0,0,0,0,0,0,0,0,0,0],"sum_hessian":[1.4916957E1,4.551361E0,1.0365596E1,3.5460286E0,1.0053322E0,5.0198965E0,5.3457E0,3.076853E0,1.9430432E0,1.0285366E0,4.3171635E0,1.9578996E0,1.1189536E0,1.1559638E0,3.1611996E0],"tree_param":{"num_deleted":"0","num_feature":"30","num_nodes":"15","size_leaf_vector":"0"}},{"base_weights":[1.4481014E-1,4.113203E-1,-6.4817995E-1,7.3059094E-1,-2.8994018E-2,-7.457053E-2,-1.6393853E-2,1.918446E-2,8.734269E-2,4.521802E-1,-4.377391E-1,6.2140018E-2,3.0860153E-3,9.78935E-3,-7.155828E-2],"categories":[],"categories_nodes":[],"categories_segments":[],"categories_sizes":[],"default_left":[1,0,0,0,0,0,0,0,0,0,0,0,0,0,0],"id":35,"left_children":[1,3,5,7,9,-1,-1,-1,-1,11,13,-1,-1,-1,-1],"loss_changes":[3.5700366E0,1.7518291E0,8.176851E-2,3.8452983E-1,1.4048175E0,0E0,0E0,0E0,0E0,2.1683687E-1,6.3944405E-1,0E0,0E0,0E0,0E0],"parents":[2147483647,0,0,1,1,2,2,3,3,4,4,9,9,10,10],"right_children":[2,4,6,8,10,-1,-1,-1,-1,12,14,-1,-1,-1,-1],"split_conditions":[8.765E2,5.598E-2,4.48E-1,6.053E-2,1.712E-1,-7.457053E-2,-1.6393853E-2,1.918446E-2,8.734269E-2,1.622E1,3.135E-1,6.2140018E-2,3.0860153E-3,9.78935E-3,-7.155828E-2],"split_indices":[23,7,25,5,27,0,0,0,0,20,28,0,0,0,0],"split_type":[0,0,0,0,0,0,0,0,0,0,0,0,0,0,0],"sum_hessian":[1.4630871E1,1.131081E1,3.3200614E0,6.1744704E0,5.136339E0,2.3140671E0,1.0059942E0,1.7849891E0,4.3894815E0,2.3103423E0,2.8259969E0,1.3095021E0,1.0008402E0,1.1864336E0,1.6395632E0],"tree_param":{"num_deleted":"0","num_feature":"30","num_nodes":"15","size_leaf_vector":"0"}},{"base_weights":[4.491769E-2,2.9177648E-1,-6.485065E-2,5.1919496E-1,-2.8380683E-1,7.3970723E-1,-2.6557532E-3,3.192984E-2,-6.201162E-2,8.600331E-2,7.7990564E-3,3.9471693E-2,-3.6679015E-2],"categories":[],"categories_nodes":[],"categories_segments":[],"categories_sizes":[],"default_left":[1,1,0,0,0,1,1,0,0,0,0,0,0],"id":36,"left_children":[1,3,-1,5,7,9,11,-1,-1,-1,-1,-1,-1],"loss_changes":[2.713665E0,1.6612468E0,0E0,9.966011E-1,9.935051E-1,4.1698885E-1,6.6046005E-1,0E0,0E0,0E0,0E0,0E0,0E0],"parents":[2147483647,0,0,1,1,3,3,4,4,5,5,6,6],"right_children":[2,4,-1,6,8,10,12,-1,-1,-1,-1,-1,-1],"split_conditions":[1.726E1,1.416E-1,-6.485065E-2,6.937E2,2.58E1,2.787E1,2.472E1,3.192984E-2,-6.201162E-2,8.600331E-2,7.7990564E-3,3.9471693E-2,-3.6679015E-2],"split_indices":[20,24,0,3,21,21,13,0,0,0,0,0,0],"split_type":[0,0,0,0,0,0,0,0,0,0,0,0,0],"sum_hessian":[1.3747505E1,1.0565436E1,3.1820686E0,7.643417E0,2.9220197E0,5.079545E0,2.563872E0,1.0641878E0,1.857832E0,4.044413E0,1.0351319E0,1.1858215E0,1.3780506E0],"tree_param":{"num_deleted":"0","num_feature":"30","num_nodes":"13","size_leaf_vector":"0"}},{"base_weights":[9.337758E-2,3.087632E-1,-7.181921E-2,6.6104096E-1,-1.0556727E-1,7.992761E-2,-4.0603774E-3,5.800274E-2,-5.6400985E-1,-1.5086979E-2,-6.993723E-2],"categories":[],"categories_nodes":[],"categories_segments":[],"categories_sizes":[],"default_left":[1,0,0,1,0,0,0,0,0,0,0],"id":37,"left_children":[1,3,-1,5,7,-1,-1,-1,9,-1,-1],"loss_changes":[2.6853082E0,1.7975075E0,0E0,6.663234E-1,2.3078108E0,0E0,0E0,0E0,1.3403368E-1,0E0,0E0],"parents":[2147483647,0,0,1,1,3,3,4,4,8,8],"right_children":[2,4,-1,6,8,-1,-1,-1,10,-1,-1],"split_conditions":[1.177E2,2.648E1,-7.181921E-2,4.384E-1,1.491E1,7.992761E-2,-4.0603774E-3,5.800274E-2,2.817E-1,-1.5086979E-2,-6.993723E-2],"split_indices":[22,21,0,10,20,0,0,0,25,0,0],"split_type":[0,0,0,0,0,0,0,0,0,0,0],"sum_hessian":[1.3093539E1,1.0837011E1,2.2565281E0,5.535283E0,5.3017282E0,4.5079913E0,1.0272917E0,2.01825E0,3.2834783E0,1.332158E0,1.9513204E0],"tree_param":{"num_deleted":"0","num_feature":"30","num_nodes":"11","size_leaf_vector":"0"}},{"base_weights":[6.8163946E-2,6.914757E-1,-2.2095516E-1,7.700219E-2,2.0743746E-2,3.136517E-1,-5.9723514E-1,6.940114E-2,-2.113571E-2,-1.354533E-2,-7.684147E-2],"categories":[],"categories_nodes":[],"categories_segments":[],"categories_sizes":[],"default_left":[0,0,0,0,0,1,0,0,0,0,0],"id":38,"left_children":[1,3,5,-1,-1,7,9,-1,-1,-1,-1],"loss_changes":[2.6189883E0,1.4340639E-2,2.2203777E0,0E0,0E0,1.1113174E0,3.9201522E-1,0E0,0E0,0E0,0E0],"parents":[2147483647,0,0,1,1,2,2,5,5,6,6],"right_children":[2,4,6,-1,-1,8,10,-1,-1,-1,-1],"split_conditions":[6.536E2,1.592E-1,2.636E1,7.700219E-2,2.0743746E-2,7.486E-2,1.341E-1,6.940114E-2,-2.113571E-2,-1.354533E-2,-7.684147E-2],"split_indices":[23,24,21,0,0,6,24,0,0,0,0],"split_type":[0,0,0,0,0,0,0,0,0,0,0],"sum_hessian":[1.2685061E1,3.5785038E0,9.106558E0,2.570546E0,1.0079579E0,3.8306005E0,5.2759576E0,2.0346372E0,1.7959633E0,1.9112846E0,3.364673E0],"tree_param":{"num_deleted":"0","num_feature":"30","num_nodes":"11","size_leaf_vector":"0"}},{"base_weights":[7.250729E-2,2.9942322E-1,-5.787751E-1,5.6428385E-1,-2.1885908E-1,-6.668154E-2,-1.7202882E-2,7.429278E-1,-3.76585E-3,4.0274225E-2,-6.557167E-2,8.301128E-2,1.8069802E-2],"categories":[],"categories_nodes":[],"categories_segments":[],"categories_sizes":[],"default_left":[1,1,0,0,1,0,0,1,0,0,0,0,0],"id":39,"left_children":[1,3,5,7,9,-1,-1,11,-1,-1,-1,-1,-1],"loss_changes":[2.090467E0,1.5346141E0,1.7531753E-2,7.8958464E-1,1.4038239E0,0E0,0E0,1.20082855E-1,0E0,0E0,0E0,0E0,0E0],"parents":[2147483647,0,0,1,1,2,2,3,3,4,4,7,7],"right_children":[2,4,6,8,10,-1,-1,12,-1,-1,-1,-1,-1],"split_conditions":[8.765E2,1.977E1,1.074E-1,1.024E3,1.449E1,-6.668154E-2,-1.7202882E-2,1.611E1,-3.76585E-3,4.0274225E-2,-6.557167E-2,8.301128E-2,1.8069802E-2],"split_indices":[23,1,4,3,20,0,0,20,0,0,0,0,0],"split_type":[0,0,0,0,0,0,0,0,0,0,0,0,0],"sum_hessian":[1.1972568E1,9.27966E0,2.6929076E0,6.082519E0,3.1971412E0,1.6881242E0,1.0047834E0,4.509867E0,1.5726519E0,1.351787E0,1.8453542E0,3.4919112E0,1.017956E0],"tree_param":{"num_deleted":"0","num_feature":"30","num_nodes":"13","size_leaf_vector":"0"}},{"base_weights":[5.048083E-2,4.7113004E-1,-3.1265932E-1,7.063405E-1,-9.854687E-3,3.382497E-2,-6.004063E-1,8.0268204E-2,1.97898E-2,-2.7111126E-3,-7.8062765E-2],"categories":[],"categories_nodes":[],"categories_segments":[],"categories_sizes":[],"default_left":[0,0,0,1,0,0,0,0,0,0,0],"id":40,"left_children":[1,3,5,7,-1,-1,9,-1,-1,-1,-1],"loss_changes":[2.1642947E0,9.427868E-1,1.6429466E0,7.307482E-2,0E0,0E0,5.668597E-1,0E0,0E0,0E0,0E0],"parents":[2147483647,0,0,1,1,2,2,3,3,6,6],"right_children":[2,4,6,8,-1,-1,10,-1,-1,-1,-1],"split_conditions":[5.246E-2,1.864E-2,2.384E1,2.803E1,-9.854687E-3,3.382497E-2,1.023E2,8.0268204E-2,1.97898E-2,-2.7111126E-3,-7.8062765E-2],"split_indices":[7,17,21,21,0,0,22,0,0,0,0],"split_type":[0,0,0,0,0,0,0,0,0,0,0],"sum_hessian":[1.2204127E1,5.516557E0,6.68757E0,3.7346737E0,1.7818834E0,1.9962854E0,4.6912847E0,2.6532235E0,1.0814502E0,1.3971851E0,3.2940998E0],"tree_param":{"num_deleted":"0","num_feature":"30","num_nodes":"11","size_leaf_vector":"0"}},{"base_weights":[8.664629E-2,3.5513985E-1,-6.731419E-2,7.380024E-1,-4.384733E-2,8.159973E-2,2.3043377E-2,4.7945075E-2,-4.2839953E-1,8.260821E-3,-6.695413E-2],"categories":[],"categories_nodes":[],"categories_segments":[],"categories_sizes":[],"default_left":[1,0,0,0,0,0,0,0,0,0,0],"id":41,"left_children":[1,3,-1,5,7,-1,-1,-1,9,-1,-1],"loss_changes":[2.6419718E0,1.461875E0,0E0,3.23987E-3,1.3175166E0,0E0,0E0,0E0,5.129251E-1,0E0,0E0],"parents":[2147483647,0,0,1,1,3,3,4,4,8,8],"right_children":[2,4,-1,6,8,-1,-1,-1,10,-1,-1],"split_conditions":[4.314E1,1.301E-2,-6.731419E-2,8.259E-2,7.391E2,8.159973E-2,2.3043377E-2,4.7945075E-2,2.489E1,8.260821E-3,-6.695413E-2],"split_indices":[13,17,0,6,23,0,0,0,21,0,0],"split_type":[0,0,0,0,0,0,0,0,0,0,0],"sum_hessian":[1.0779083E1,8.358087E0,2.420996E0,3.8316243E0,4.5264626E0,2.7945454E0,1.0370789E0,1.8128128E0,2.7136497E0,1.0807793E0,1.6328704E0],"tree_param":{"num_deleted":"0","num_feature":"30","num_nodes":"11","size_leaf_vector":"0"}},{"base_weights":[7.734131E-2,6.338123E-1,-2.0199223E-1,7.731939E-2,1.18537955E-2,1.746172E-1,-5.4691595E-1,5.3667605E-2,-4.3044142E-2,-2.1746787E-3,-7.2051644E-2],"categories":[],"categories_nodes":[],"categories_segments":[],"categories_sizes":[],"default_left":[0,0,0,0,0,1,1,0,0,0,0],"id":42,"left_children":[1,3,5,-1,-1,7,9,-1,-1,-1,-1],"loss_changes":[2.0267208E0,2.1889603E-1,1.2504411E0,0E0,0E0,1.3281419E0,4.294827E-1,0E0,0E0,0E0,0E0],"parents":[2147483647,0,0,1,1,2,2,5,5,6,6],"right_children":[2,4,6,-1,-1,8,10,-1,-1,-1,-1],"split_conditions":[2.079E-1,3.147E1,8.732E2,7.731939E-2,1.18537955E-2,1.38E0,2.024E1,5.3667605E-2,-4.3044142E-2,-2.1746787E-3,-7.2051644E-2],"split_indices":[26,21,23,0,0,11,21,0,0,0,0],"split_type":[0,0,0,0,0,0,0,0,0,0,0],"sum_hessian":[1.1214894E1,3.3240037E0,7.890891E0,2.222319E0,1.1016846E0,4.0082173E0,3.8826733E0,2.5783725E0,1.4298451E0,1.2441603E0,2.638513E0],"tree_param":{"num_deleted":"0","num_feature":"30","num_nodes":"11","size_leaf_vector":"0"}},{"base_weights":[1.8996023E-2,5.867799E-1,-2.4824698E-1,7.356291E-2,8.606295E-3,4.419368E-2,-4.4738814E-1,1.9589901E-2,-6.272841E-1,-7.7166535E-2,-8.777252E-3],"categories":[],"categories_nodes":[],"categories_segments":[],"categories_sizes":[],"default_left":[0,0,0,0,0,0,0,0,0,0,0],"id":43,"left_children":[1,3,5,-1,-1,-1,7,-1,9,-1,-1],"loss_changes":[1.8788055E0,2.3129845E-1,1.3617623E0,0E0,0E0,0E0,9.410237E-1,0E0,3.8115573E-1,0E0,0E0],"parents":[2147483647,0,0,1,1,2,2,6,6,8,8],"right_children":[2,4,6,-1,-1,-1,8,-1,10,-1,-1],"split_conditions":[2.085E-1,3.147E1,1.615E1,7.356291E-2,8.606295E-3,4.419368E-2,6.438E2,1.9589901E-2,1.69781E0,-7.7166535E-2,-8.777252E-3],"split_indices":[26,21,1,0,0,0,23,0,26,0,0],"split_type":[0,0,0,0,0,0,0,0,0,0,0],"sum_hessian":[1.04220495E1,2.9528186E0,7.469231E0,1.9145303E0,1.0382884E0,1.3995285E0,6.0697026E0,1.3070139E0,4.7626886E0,3.4177458E0,1.3449427E0],"tree_param":{"num_deleted":"0","num_feature":"30","num_nodes":"11","size_leaf_vector":"0"}},{"base_weights":[3.6297493E-2,2.5698093E-1,-6.852131E-2,5.6484205E-1,-2.584444E-1,-1.0680986E-2,7.254471E-1,3.0288888E-2,-5.624029E-2,7.944391E-2,2.2310326E-2],"categories":[],"categories_nodes":[],"categories_segments":[],"categories_sizes":[],"default_left":[1,0,0,0,0,0,1,0,0,0,0],"id":44,"left_children":[1,3,-1,5,7,-1,9,-1,-1,-1,-1],"loss_changes":[1.9740819E0,1.6335225E0,0E0,7.444397E-1,8.855252E-1,0E0,1.3947487E-4,0E0,0E0,0E0,0E0],"parents":[2147483647,0,0,1,1,3,3,4,4,6,6],"right_children":[2,4,-1,6,8,-1,10,-1,-1,-1,-1],"split_conditions":[8.765E2,1.712E-1,-6.852131E-2,5.597E-2,1.416E-1,-1.0680986E-2,1.427E-1,3.0288888E-2,-5.624029E-2,7.944391E-2,2.2310326E-2],"split_indices":[23,27,0,9,24,0,24,0,0,0,0],"split_type":[0,0,0,0,0,0,0,0,0,0,0],"sum_hessian":[1.0292136E1,8.374512E0,1.9176241E0,5.182909E0,3.1916027E0,1.0648116E0,4.1180973E0,1.1223779E0,2.0692248E0,3.1095648E0,1.0085325E0],"tree_param":{"num_deleted":"0","num_feature":"30","num_nodes":"11","size_leaf_vector":"0"}},{"base_weights":[5.759473E-2,4.5681685E-1,-2.7924436E-1,-1.1595923E-2,6.764574E-2,-5.1948035E-1,3.6160097E-2,1.3730799E-2,-7.2355546E-2],"categories":[],"categories_nodes":[],"categories_segments":[],"categories_sizes":[],"default_left":[0,0,0,0,0,0,0,0,0],"id":45,"left_children":[1,3,5,-1,-1,7,-1,-1,-1],"loss_changes":[1.6626543E0,7.8337705E-1,1.2366028E0,0E0,0E0,8.184632E-1,0E0,0E0,0E0],"parents":[2147483647,0,0,1,1,2,2,5,5],"right_children":[2,4,6,-1,-1,8,-1,-1,-1],"split_conditions":[1.456E-1,7.182E-2,1.298E-2,-1.1595923E-2,6.764574E-2,2.288E1,3.6160097E-2,1.3730799E-2,-7.2355546E-2],"split_indices":[27,29,19,0,0,21,0,0,0],"split_type":[0,0,0,0,0,0,0,0,0],"sum_hessian":[1.0415554E1,4.603405E0,5.8121486E0,1.406805E0,3.1966E0,4.3651514E0,1.4469973E0,1.112355E0,3.2527964E0],"tree_param":{"num_deleted":"0","num_feature":"30","num_nodes":"9","size_leaf_vector":"0"}},{"base_weights":[3.4119267E-2,2.3862128E-1,-6.630158E-2,6.060281E-1,-1.5320499E-1,7.770463E-2,5.894505E-3,3.8267147E-2,-4.116356E-1,5.368948E-3,-6.446108E-2],"categories":[],"categories_nodes":[],"categories_segments":[],"categories_sizes":[],"default_left":[1,0,0,1,1,0,0,0,1,0,0],"id":46,"left_children":[1,3,-1,5,7,-1,-1,-1,9,-1,-1],"loss_changes":[1.7213813E0,1.4191515E0,0E0,4.1792965E-1,8.854868E-1,0E0,0E0,0E0,4.7129107E-1,0E0,0E0],"parents":[2147483647,0,0,1,1,3,3,4,4,8,8],"right_children":[2,4,-1,6,8,-1,-1,-1,10,-1,-1],"split_conditions":[8.765E2,1.416E-1,-6.630158E-2,1.025E2,1.336E1,7.770463E-2,5.894505E-3,3.8267147E-2,2.55E-3,5.368948E-3,-6.446108E-2],"split_indices":[23,24,0,22,20,0,0,0,19,0,0],"split_type":[0,0,0,0,0,0,0,0,0,0,0],"sum_hessian":[9.964586E0,8.213034E0,1.7515521E0,3.956467E0,4.256567E0,2.6939833E0,1.2624835E0,1.228475E0,3.028092E0,1.2670137E0,1.7610784E0],"tree_param":{"num_deleted":"0","num_feature":"30","num_nodes":"11","size_leaf_vector":"0"}},{"base_weights":[9.336822E-2,3.0128908E-1,-4.7820947E-1,-2.6460344E-1,5.2354413E-1,-5.7739116E-2,-1.3099002E-2,1.8043712E-2,-5.8060717E-2,7.134705E-2,-1.1654063E-2],"categories":[],"categories_nodes":[],"categories_segments":[],"categories_sizes":[],"default_left":[1,0,0,1,1,0,0,0,0,0,0],"id":47,"left_children":[1,3,5,7,9,-1,-1,-1,-1,-1,-1],"loss_changes":[1.4122567E0,1.1998205E0,3.570068E-2,5.3282726E-1,8.6050415E-1,0E0,0E0,0E0,0E0,0E0,0E0],"parents":[2147483647,0,0,1,1,2,2,3,3,4,4],"right_children":[2,4,6,8,10,-1,-1,-1,-1,-1,-1],"split_conditions":[1.456E-1,6.307E-2,5.444E-3,5.063E2,5.246E-2,-5.7739116E-2,-1.3099002E-2,1.8043712E-2,-5.8060717E-2,7.134705E-2,-1.1654063E-2],"split_indices":[27,5,19,3,7,0,0,0,0,0,0],"split_type":[0,0,0,0,0,0,0,0,0,0,0],"sum_hessian":[9.67104E0,7.438165E0,2.2328742E0,2.0438068E0,5.3943586E0,1.2211564E0,1.0117179E0,1.0267696E0,1.017037E0,4.0715847E0,1.3227737E0],"tree_param":{"num_deleted":"0","num_feature":"30","num_nodes":"11","size_leaf_vector":"0"}},{"base_weights":[6.131254E-2,4.1931945E-1,-2.9562104E-1,6.135174E-1,-1.5843855E-2,2.2321664E-2,-5.929918E-1,6.981016E-2,1.74098E-2,-5.296594E-3,-7.569766E-2],"categories":[],"categories_nodes":[],"categories_segments":[],"categories_sizes":[],"default_left":[1,1,1,1,0,0,1,0,0,0,0],"id":48,"left_children":[1,3,5,7,-1,-1,9,-1,-1,-1,-1],"loss_changes":[1.4774282E0,7.3690236E-1,1.041172E0,4.4691563E-2,0E0,0E0,3.1570554E-1,0E0,0E0,0E0,0E0],"parents":[2147483647,0,0,1,1,2,2,3,3,6,6],"right_children":[2,4,6,8,-1,-1,10,-1,-1,-1,-1],"split_conditions":[2.085E-1,2.844E0,1.615E1,7.407E2,-1.5843855E-2,2.2321664E-2,1.021E-1,6.981016E-2,1.74098E-2,-5.296594E-3,-7.569766E-2],"split_indices":[26,12,1,23,0,0,24,0,0,0,0],"split_type":[0,0,0,0,0,0,0,0,0,0,0],"sum_hessian":[9.59179E0,4.701435E0,4.890355E0,3.4723902E0,1.2290447E0,1.8725646E0,3.0177908E0,2.418215E0,1.0541751E0,1.011096E0,2.0066948E0],"tree_param":{"num_deleted":"0","num_feature":"30","num_nodes":"11","size_leaf_vector":"0"}},{"base_weights":[2.3888752E-2,4.2703754E-1,-3.3199516E-1,7.322972E-2,-2.1436563E-2,2.1018153E-2,-5.9073526E-1,-8.801645E-3,-7.467213E-2],"categories":[],"categories_nodes":[],"categories_segments":[],"categories_sizes":[],"default_left":[0,0,1,0,0,0,1,0,0],"id":49,"left_children":[1,3,5,-1,-1,-1,7,-1,-1],"loss_changes":[1.5864286E0,1.1669731E0,9.533249E-1,0E0,0E0,0E0,2.6861656E-1,0E0,0E0],"parents":[2147483647,0,0,1,1,2,2,6,6],"right_children":[2,4,6,-1,-1,-1,8,-1,-1],"split_conditions":[2.636E1,4.89E1,9.188E1,7.322972E-2,-2.1436563E-2,2.1018153E-2,2.085E-1,-8.801645E-3,-7.467213E-2],"split_indices":[21,13,22,0,0,0,26,0,0],"split_type":[0,0,0,0,0,0,0,0,0],"sum_hessian":[9.06909E0,4.158437E0,4.910653E0,2.721497E0,1.4369396E0,1.6470395E0,3.2636135E0,1.1432747E0,2.120339E0],"tree_param":{"num_deleted":"0","num_feature":"30","num_nodes":"9","size_leaf_vector":"0"}},{"base_weights":[7.167353E-3,3.8103977E-1,-3.451019E-1,-1.7335048E-2,6.280907E-2,2.2209654E-2,-5.618978E-1,-2.6011833E-3,-7.2392635E-2],"categories":[],"categories_nodes":[],"categories_segments":[],"categories_sizes":[],"default_left":[0,0,0,0,0,0,0,0,0],"id":50,"left_children":[1,3,5,-1,-1,-1,7,-1,-1],"loss_changes":[1.4209442E0,8.244919E-1,8.091814E-1,0E0,0E0,0E0,3.5539055E-1,0E0,0E0],"parents":[2147483647,0,0,1,1,2,2,6,6],"right_children":[2,4,6,-1,-1,-1,8,-1,-1],"split_conditions":[5.246E-2,1.114E-2,2.384E1,-1.7335048E-2,6.280907E-2,2.2209654E-2,1.376E-1,-2.6011833E-3,-7.2392635E-2],"split_indices":[7,15,21,0,0,0,24,0,0],"split_type":[0,0,0,0,0,0,0,0,0],"sum_hessian":[8.790508E0,4.2248716E0,4.5656366E0,1.3943119E0,2.8305595E0,1.2557627E0,3.309874E0,1.0378553E0,2.2720187E0],"tree_param":{"num_deleted":"0","num_feature":"30","num_nodes":"9","size_leaf_vector":"0"}},{"base_weights":[6.412115E-2,4.0904528E-1,-2.519754E-1,-1.2678737E-2,6.824323E-2,1.2458121E-1,-5.9475105E-2,4.771514E-2,-3.2244638E-2],"categories":[],"categories_nodes":[],"categories_segments":[],"categories_sizes":[],"default_left":[0,0,0,0,0,0,0,0,0],"id":51,"left_children":[1,3,5,-1,-1,7,-1,-1,-1],"loss_changes":[1.18013E0,8.343684E-1,8.193103E-1,0E0,0E0,7.177807E-1,0E0,0E0,0E0],"parents":[2147483647,0,0,1,1,2,2,5,5],"right_children":[2,4,6,-1,-1,8,-1,-1,-1],"split_conditions":[5.102E-2,6.307E-2,1.704E1,-1.2678737E-2,6.824323E-2,3.53E-1,-5.9475105E-2,4.771514E-2,-3.2244638E-2],"split_indices":[7,5,20,0,0,28,0,0,0],"split_type":[0,0,0,0,0,0,0,0,0],"sum_hessian":[8.878633E0,4.1051006E0,4.773532E0,1.5680302E0,2.5370703E0,2.5780091E0,2.195523E0,1.4036025E0,1.1744066E0],"tree_param":{"num_deleted":"0","num_feature":"30","num_nodes":"9","size_leaf_vector":"0"}},{"base_weights":[6.139305E-4,1.9150138E-1,-6.103393E-2,5.6457436E-1,-1.8477787E-1,1.3947131E-2,6.597558E-2,3.0696606E-2,-5.208072E-1,-1.42528955E-2,-6.437265E-2],"categories":[],"categories_nodes":[],"categories_segments":[],"categories_sizes":[],"default_left":[1,0,0,0,1,0,0,0,0,0,0],"id":52,"left_children":[1,3,-1,5,7,-1,-1,-1,9,-1,-1],"loss_changes":[1.189617E0,1.1950301E0,0E0,7.58214E-2,9.2355347E-1,0E0,0E0,0E0,5.3153574E-2,0E0,0E0],"parents":[2147483647,0,0,1,1,3,3,4,4,8,8],"right_children":[2,4,-1,6,8,-1,-1,-1,10,-1,-1],"split_conditions":[8.765E2,1.416E-1,-6.103393E-2,7.484E-2,1.987E1,1.3947131E-2,6.597558E-2,3.0696606E-2,2.951E1,-1.42528955E-2,-6.437265E-2],"split_indices":[23,24,0,29,13,0,0,0,21,0,0],"split_type":[0,0,0,0,0,0,0,0,0,0,0],"sum_hessian":[8.198301E0,6.769712E0,1.4285891E0,3.1480615E0,3.6216502E0,1.0269182E0,2.1211433E0,1.5052963E0,2.116354E0,1.0486661E0,1.0676879E0],"tree_param":{"num_deleted":"0","num_feature":"30","num_nodes":"11","size_leaf_vector":"0"}},{"base_weights":[3.0625455E-2,5.242927E-1,-2.0324466E-1,6.1615594E-2,1.5868513E-2,1.9370353E-1,-5.6137633E-1,5.682944E-2,-1.4018359E-2,-6.783077E-3,-7.107682E-2],"categories":[],"categories_nodes":[],"categories_segments":[],"categories_sizes":[],"default_left":[0,0,0,0,0,0,0,0,0,0,0],"id":53,"left_children":[1,3,5,-1,-1,7,9,-1,-1,-1,-1],"loss_changes":[1.1835227E0,1.2316704E-2,1.1109892E0,0E0,0E0,5.908725E-1,2.4397397E-1,0E0,0E0,0E0,0E0],"parents":[2147483647,0,0,1,1,2,2,5,5,6,6],"right_children":[2,4,6,-1,-1,8,10,-1,-1,-1,-1],"split_conditions":[2.085E-1,3.849E1,1.712E-1,6.1615594E-2,1.5868513E-2,7.393E2,6.292E-3,5.682944E-2,-1.4018359E-2,-6.783077E-3,-7.107682E-2],"split_indices":[26,13,27,0,0,23,14,0,0,0,0],"split_type":[0,0,0,0,0,0,0,0,0,0,0],"sum_hessian":[8.328069E0,2.2779086E0,6.05016E0,1.272808E0,1.0051007E0,3.0873315E0,2.9628282E0,1.124118E0,1.9632136E0,1.0262976E0,1.9365307E0],"tree_param":{"num_deleted":"0","num_feature":"30","num_nodes":"11","size_leaf_vector":"0"}},{"base_weights":[4.5305356E-2,2.0112514E-1,-5.4594476E-2,-3.0224724E-2,3.85926E-1,5.518895E-1,-2.3095405E-2,6.849693E-2,3.1242562E-3],"categories":[],"categories_nodes":[],"categories_segments":[],"categories_sizes":[],"default_left":[1,0,0,0,1,1,0,0,0],"id":54,"left_children":[1,3,-1,-1,5,7,-1,-1,-1],"loss_changes":[9.3554974E-1,8.4449184E-1,0E0,0E0,7.583641E-1,3.3549857E-1,0E0,0E0,0E0],"parents":[2147483647,0,0,1,1,4,4,5,5],"right_children":[2,4,-1,-1,6,8,-1,-1,-1],"split_conditions":[1.177E2,1.203E-2,-5.4594476E-2,-3.0224724E-2,1.555E-1,1.639E1,-2.3095405E-2,6.849693E-2,3.1242562E-3],"split_indices":[22,15,0,0,27,20,0,0,0],"split_type":[0,0,0,0,0,0,0,0,0],"sum_hessian":[7.9629893E0,6.8243194E0,1.1386704E0,1.661927E0,5.162392E0,4.1509795E0,1.0114129E0,3.054598E0,1.0963812E0],"tree_param":{"num_deleted":"0","num_feature":"30","num_nodes":"9","size_leaf_vector":"0"}},{"base_weights":[5.07349E-2,5.985964E-2,-1.9200996E-1,2.0838319E-1,-4.563772E-1,5.5013884E-2,-2.3611737E-2,1.3703065E-3,-6.2314164E-2],"categories":[],"categories_nodes":[],"categories_segments":[],"categories_sizes":[],"default_left":[0,0,0,0,0,0,0,0,0],"id":55,"left_children":[1,-1,3,5,7,-1,-1,-1,-1],"loss_changes":[1.262103E0,0E0,8.0796325E-1,6.410452E-1,3.5109884E-1,0E0,0E0,0E0,0E0],"parents":[2147483647,0,0,2,2,3,3,4,4],"right_children":[2,-1,4,6,8,-1,-1,-1,-1],"split_conditions":[1.096E-1,5.985964E-2,2.553E1,3.444E1,1.023E2,5.5013884E-2,-2.3611737E-2,1.3703065E-3,-6.2314164E-2],"split_indices":[27,0,21,13,22,0,0,0,0],"split_type":[0,0,0,0,0,0,0,0,0],"sum_hessian":[7.625925E0,1.8913363E0,5.7345886E0,2.3647943E0,3.3697944E0,1.2025523E0,1.162242E0,1.1227592E0,2.2470353E0],"tree_param":{"num_deleted":"0","num_feature":"30","num_nodes":"9","size_leaf_vector":"0"}},{"base_weights":[4.1607276E-2,1.9160612E-1,-5.273455E-2,-1.855649E-1,5.3421026E-1,1.9181458E-2,-4.436247E-2,7.047706E-2,-3.5065485E-4],"categories":[],"categories_nodes":[],"categories_segments":[],"categories_sizes":[],"default_left":[1,1,0,0,1,0,0,0,0],"id":56,"left_children":[1,3,-1,5,7,-1,-1,-1,-1],"loss_changes":[8.280895E-1,1.0650885E0,0E0,5.0388765E-1,3.853687E-1,0E0,0E0,0E0,0E0],"parents":[2147483647,0,0,1,1,3,3,4,4],"right_children":[2,4,-1,6,8,-1,-1,-1,-1],"split_conditions":[1.855E1,1.651E-2,-5.273455E-2,1.38E-1,1.405E-1,1.9181458E-2,-4.436247E-2,7.047706E-2,-3.5065485E-4],"split_indices":[20,18,0,24,24,0,0,0,0],"split_type":[0,0,0,0,0,0,0,0,0],"sum_hessian":[7.519189E0,6.475276E0,1.043913E0,3.30033E0,3.174946E0,1.4445561E0,1.8557738E0,2.1745274E0,1.0004185E0],"tree_param":{"num_deleted":"0","num_feature":"30","num_nodes":"9","size_leaf_vector":"0"}},{"base_weights":[1.8113331E-1,5.8599394E-2,-1.208517E-1,2.896515E-2,-3.7993032E-1,8.733928E-3,-5.9396356E-2],"categories":[],"categories_nodes":[],"categories_segments":[],"categories_sizes":[],"default_left":[0,0,0,0,1,0,0],"id":57,"left_children":[1,-1,3,-1,5,-1,-1],"loss_changes":[1.0224843E0,0E0,6.72374E-1,0E0,4.1933173E-1,0E0,0E0],"parents":[2147483647,0,0,2,2,4,4],"right_children":[2,-1,4,-1,6,-1,-1],"split_conditions":[1.025E2,5.8599394E-2,3.444E1,2.896515E-2,2.14E1,8.733928E-3,-5.9396356E-2],"split_indices":[22,0,13,0,21,0,0],"split_type":[0,0,0,0,0,0,0],"sum_hessian":[6.7838335E0,2.496453E0,4.28738E0,1.6132393E0,2.6741412E0,1.0260476E0,1.6480936E0],"tree_param":{"num_deleted":"0","num_feature":"30","num_nodes":"7","size_leaf_vector":"0"}},{"base_weights":[5.606684E-3,4.3279937E-1,-3.4143272E-1,6.127886E-2,-8.6974225E-4,-5.2966326E-1,1.9609096E-2,-5.658324E-3,-7.043835E-2],"categories":[],"categories_nodes":[],"categories_segments":[],"categories_sizes":[],"default_left":[0,1,0,0,0,0,0,0,0],"id":58,"left_children":[1,3,5,-1,-1,7,-1,-1,-1],"loss_changes":[1.3253919E0,3.2330668E-1,6.038695E-1,0E0,0E0,2.8501093E-1,0E0,0E0,0E0],"parents":[2147483647,0,0,1,1,2,2,5,5],"right_children":[2,4,6,-1,-1,8,-1,-1,-1],"split_conditions":[1.456E-1,9.143E1,1.008E-2,6.127886E-2,-8.6974225E-4,5.839E-2,1.9609096E-2,-5.658324E-3,-7.043835E-2],"split_indices":[27,2,19,0,0,7,0,0,0],"split_type":[0,0,0,0,0,0,0,0,0],"sum_hessian":[6.94333E0,3.001489E0,3.941841E0,1.8566079E0,1.1448809E0,2.9303215E0,1.0115193E0,1.1474061E0,1.7829154E0],"tree_param":{"num_deleted":"0","num_feature":"30","num_nodes":"9","size_leaf_vector":"0"}},{"base_weights":[6.833621E-3,4.455663E-2,-1.9971754E-1,-4.33349E-1,2.3120554E-2,-5.2035064E-3,-5.578363E-2],"categories":[],"categories_nodes":[],"categories_segments":[],"categories_sizes":[],"default_left":[0,0,1,1,0,0,0],"id":59,"left_children":[1,-1,3,5,-1,-1,-1],"loss_changes":[8.173918E-1,0E0,7.1991587E-1,1.769591E-1,0E0,0E0,0E0],"parents":[2147483647,0,0,2,2,3,3],"right_children":[2,-1,4,6,-1,-1,-1],"split_conditions":[2.085E-1,4.455663E-2,6.331E-2,1.449E1,2.3120554E-2,-5.2035064E-3,-5.578363E-2],"split_indices":[26,0,9,20,0,0,0],"split_type":[0,0,0,0,0,0,0],"sum_hessian":[7.0379434E0,1.8823967E0,5.155546E0,3.3394067E0,1.8161397E0,1.1708866E0,2.16852E0],"tree_param":{"num_deleted":"0","num_feature":"30","num_nodes":"7","size_leaf_vector":"0"}},{"base_weights":[-1.2188758E-2,3.3763003E-1,-3.052921E-1,-1.7034007E-2,5.8175664E-2,5.6771087E-3,-5.6497227E-2],"categories":[],"categories_nodes":[],"categories_segments":[],"categories_sizes":[],"default_left":[0,0,0,0,0,0,0],"id":60,"left_children":[1,3,5,-1,-1,-1,-1],"loss_changes":[8.9926606E-1,5.969864E-1,4.7869617E-1,0E0,0E0,0E0,0E0],"parents":[2147483647,0,0,1,1,2,2],"right_children":[2,4,6,-1,-1,-1,-1],"split_conditions":[1.456E-1,7.182E-2,7.499E-3,-1.7034007E-2,5.8175664E-2,5.6771087E-3,-5.6497227E-2],"split_indices":[27,29,14,0,0,0,0],"split_type":[0,0,0,0,0,0,0],"sum_hessian":[6.765206E0,3.0149496E0,3.7502563E0,1.0767444E0,1.9382051E0,1.8927041E0,1.8575522E0],"tree_param":{"num_deleted":"0","num_feature":"30","num_nodes":"7","size_leaf_vector":"0"}},{"base_weights":[4.0643293E-2,3.8731617E-1,-2.427217E-1,5.8361646E-2,-7.790927E-3,1.6871797E-2,-4.647439E-1,-1.0933676E-2,-5.9394546E-2],"categories":[],"categories_nodes":[],"categories_segments":[],"categories_sizes":[],"default_left":[0,1,1,0,0,0,1,0,0],"id":61,"left_children":[1,3,5,-1,-1,-1,7,-1,-1],"loss_changes":[8.80318E-1,4.0942025E-1,5.3689724E-1,0E0,0E0,0E0,9.698391E-2,0E0,0E0],"parents":[2147483647,0,0,1,1,2,2,6,6],"right_children":[2,4,6,-1,-1,-1,8,-1,-1],"split_conditions":[1.977E1,9.968E-2,1.449E1,5.8361646E-2,-7.790927E-3,1.6871797E-2,4.989E-3,-1.0933676E-2,-5.9394546E-2],"split_indices":[1,4,20,0,0,0,14,0,0],"split_type":[0,0,0,0,0,0,0,0,0],"sum_hessian":[7.0043592E0,2.9852796E0,4.01908E0,1.9204651E0,1.0648144E0,1.4927958E0,2.5262842E0,1.1657614E0,1.3605227E0],"tree_param":{"num_deleted":"0","num_feature":"30","num_nodes":"9","size_leaf_vector":"0"}},{"base_weights":[4.4614397E-2,3.45439E-1,-2.2391511E-1,5.501887E-2,-1.4278731E-2,1.523999E-2,-4.3408912E-1,-3.5297943E-3,-5.9013397E-2],"categories":[],"categories_nodes":[],"categories_segments":[],"categories_sizes":[],"default_left":[0,1,1,0,0,0,0,0,0],"id":62,"left_children":[1,3,5,-1,-1,-1,7,-1,-1],"loss_changes":[7.2362584E-1,4.9506983E-1,4.484711E-1,0E0,0E0,0E0,1.883493E-1,0E0,0E0],"parents":[2147483647,0,0,1,1,2,2,6,6],"right_children":[2,4,6,-1,-1,-1,8,-1,-1],"split_conditions":[2.636E1,3.577E1,1.449E1,5.501887E-2,-1.4278731E-2,1.523999E-2,1.356E-1,-3.5297943E-3,-5.9013397E-2],"split_indices":[21,13,20,0,0,0,24,0,0],"split_type":[0,0,0,0,0,0,0,0,0],"sum_hessian":[7.0004272E0,3.1665914E0,3.8338358E0,2.1415617E0,1.0250297E0,1.4724005E0,2.3614354E0,1.0090055E0,1.3524297E0],"tree_param":{"num_deleted":"0","num_feature":"30","num_nodes":"9","size_leaf_vector":"0"}},{"base_weights":[9.033946E-3,5.115817E-2,-2.1486439E-1,1.3744804E-1,-4.719214E-1,4.69688E-2,-2.338105E-2,-1.4429738E-2,-5.7754792E-2],"categories":[],"categories_nodes":[],"categories_segments":[],"categories_sizes":[],"default_left":[0,0,0,1,0,0,0,0,0],"id":63,"left_children":[1,-1,3,5,7,-1,-1,-1,-1],"loss_changes":[9.437391E-1,0E0,5.929167E-1,5.0872964E-1,4.112512E-2,0E0,0E0,0E0,0E0],"parents":[2147483647,0,0,2,2,3,3,4,4],"right_children":[2,-1,4,6,8,-1,-1,-1,-1],"split_conditions":[2.085E-1,5.115817E-2,1.712E-1,1.553E1,1.006E-1,4.69688E-2,-2.338105E-2,-1.4429738E-2,-5.7754792E-2],"split_indices":[26,0,27,20,4,0,0,0,0],"split_type":[0,0,0,0,0,0,0,0,0],"sum_hessian":[6.4104285E0,1.5797467E0,4.830682E0,2.234063E0,2.596619E0,1.0390719E0,1.1949909E0,1.2099133E0,1.3867055E0],"tree_param":{"num_deleted":"0","num_feature":"30","num_nodes":"9","size_leaf_vector":"0"}},{"base_weights":[2.0679446E-2,2.0950803E-1,-4.393691E-2,4.3299648E-1,-1.5690502E-2,5.888474E-2,7.031467E-3],"categories":[],"categories_nodes":[],"categories_segments":[],"categories_sizes":[],"default_left":[1,0,0,1,0,0,0],"id":64,"left_children":[1,3,-1,5,-1,-1,-1],"loss_changes":[7.0561427E-1,5.334554E-1,0E0,1.7321831E-1,0E0,0E0,0E0],"parents":[2147483647,0,0,1,1,3,3],"right_children":[2,4,-1,6,-1,-1,-1],"split_conditions":[1.456E-1,2.239E1,-4.393691E-2,2.363E0,-1.5690502E-2,5.888474E-2,7.031467E-3],"split_indices":[27,1,0,12,0,0,0],"split_type":[0,0,0,0,0,0,0],"sum_hessian":[6.0629754E0,4.6847134E0,1.3782619E0,2.7970037E0,1.8877097E0,1.5201681E0,1.2768357E0],"tree_param":{"num_deleted":"0","num_feature":"30","num_nodes":"7","size_leaf_vector":"0"}},{"base_weights":[7.536016E-2,4.9460936E-2,-1.7029244E-1,3.0588442E-2,-3.5173604E-1,5.8704405E-3,-5.011579E-1,-6.357306E-2,-1.3860493E-2],"categories":[],"categories_nodes":[],"categories_segments":[],"categories_sizes":[],"default_left":[1,0,0,0,1,0,1,0,0],"id":65,"left_children":[1,-1,3,-1,5,-1,7,-1,-1],"loss_changes":[8.402777E-1,0E0,5.7178915E-1,0E0,2.9653585E-1,0E0,7.278794E-2,0E0,0E0],"parents":[2147483647,0,0,2,2,4,4,6,6],"right_children":[2,-1,4,-1,6,-1,8,-1,-1],"split_conditions":[1.547E-1,4.9460936E-2,2.299E1,3.0588442E-2,1.953E1,5.8704405E-3,1.382E-2,-6.357306E-2,-1.3860493E-2],"split_indices":[8,0,21,0,13,0,15,0,0],"split_type":[0,0,0,0,0,0,0,0,0],"sum_hessian":[6.3410244E0,1.9683092E0,4.372715E0,1.0172439E0,3.3554711E0,1.0575781E0,2.297893E0,1.1263354E0,1.1715578E0],"tree_param":{"num_deleted":"0","num_feature":"30","num_nodes":"9","size_leaf_vector":"0"}},{"base_weights":[4.7464937E-2,1.9786192E-1,-3.84923E-2,-2.8629396E-2,3.9512247E-1,5.7247013E-2,-9.948617E-3],"categories":[],"categories_nodes":[],"categories_segments":[],"categories_sizes":[],"default_left":[1,0,0,0,1,0,0],"id":66,"left_children":[1,3,-1,-1,5,-1,-1],"loss_changes":[5.474764E-1,6.897586E-1,0E0,0E0,4.7010952E-1,0E0,0E0],"parents":[2147483647,0,0,1,1,4,4],"right_children":[2,4,-1,-1,6,-1,-1],"split_conditions":[8.765E2,6.053E-2,-3.84923E-2,-2.8629396E-2,1.429E-1,5.7247013E-2,-9.948617E-3],"split_indices":[23,5,0,0,24,0,0],"split_type":[0,0,0,0,0,0,0],"sum_hessian":[6.2476697E0,5.0377812E0,1.2098885E0,1.327708E0,3.710073E0,2.6150105E0,1.0950626E0],"tree_param":{"num_deleted":"0","num_feature":"30","num_nodes":"7","size_leaf_vector":"0"}},{"base_weights":[-2.656081E-2,2.9243532E-1,-2.892837E-1,5.582943E-2,-8.787749E-3,1.1640081E-2,-5.273633E-2],"categories":[],"categories_nodes":[],"categories_segments":[],"categories_sizes":[],"default_left":[0,0,0,0,0,0,0],"id":67,"left_children":[1,3,5,-1,-1,-1,-1],"loss_changes":[6.8984216E-1,4.2912304E-1,4.9243945E-1,0E0,0E0,0E0,0E0],"parents":[2147483647,0,0,1,1,2,2],"right_children":[2,4,6,-1,-1,-1,-1],"split_conditions":[2.636E1,1.384E-2,1.023E2,5.582943E-2,-8.787749E-3,1.1640081E-2,-5.273633E-2],"split_indices":[21,17,22,0,0,0,0],"split_type":[0,0,0,0,0,0,0],"sum_hessian":[6.2218456E0,2.758907E0,3.4629385E0,1.3483509E0,1.4105563E0,1.4696906E0,1.9932481E0],"tree_param":{"num_deleted":"0","num_feature":"30","num_nodes":"7","size_leaf_vector":"0"}},{"base_weights":[2.8436145E-2,4.115851E-2,-1.5127356E-1,-3.8179237E-1,2.5579432E-2,-2.5043644E-3,-4.9504124E-2],"categories":[],"categories_nodes":[],"categories_segments":[],"categories_sizes":[],"default_left":[0,0,1,0,0,0,0],"id":68,"left_children":[1,-1,3,5,-1,-1,-1],"loss_changes":[5.491012E-1,0E0,6.179129E-1,1.4682055E-1,0E0,0E0,0E0],"parents":[2147483647,0,0,2,2,3,3],"right_children":[2,-1,4,6,-1,-1,-1],"split_conditions":[2.079E-1,4.115851E-2,6.331E-2,2.498E-3,2.5579432E-2,-2.5043644E-3,-4.9504124E-2],"split_indices":[26,0,9,19,0,0,0],"split_type":[0,0,0,0,0,0,0],"sum_hessian":[6.07044E0,1.5262119E0,4.544228E0,2.9409096E0,1.6033183E0,1.0028714E0,1.9380381E0],"tree_param":{"num_deleted":"0","num_feature":"30","num_nodes":"7","size_leaf_vector":"0"}},{"base_weights":[-2.3534251E-2,3.5778303E-2,-2.2286874E-1,1.6014246E-2,-4.0239444E-1,-5.6206096E-2,-4.2470642E-3],"categories":[],"categories_nodes":[],"categories_segments":[],"categories_sizes":[],"default_left":[0,0,0,0,0,0,0],"id":69,"left_children":[1,-1,3,-1,5,-1,-1],"loss_changes":[5.965769E-1,0E0,4.1384858E-1,0E0,1.913178E-1,0E0,0E0],"parents":[2147483647,0,0,2,2,4,4],"right_children":[2,-1,4,-1,6,-1,-1],"split_conditions":[2.339E1,3.5778303E-2,5.621E2,1.6014246E-2,8.797E-2,-5.6206096E-2,-4.2470642E-3],"split_indices":[21,0,3,0,29,0,0],"split_type":[0,0,0,0,0,0,0],"sum_hessian":[5.7996373E0,1.7181026E0,4.081535E0,1.337021E0,2.7445138E0,1.512112E0,1.2324018E0],"tree_param":{"num_deleted":"0","num_feature":"30","num_nodes":"7","size_leaf_vector":"0"}},{"base_weights":[2.8312488E-2,3.318366E-1,-2.8576145E-1,5.7056215E-2,-1.1884791E-2,1.4450635E-2,-5.4427158E-2],"categories":[],"categories_nodes":[],"categories_segments":[],"categories_sizes":[],"default_left":[0,1,0,0,0,0,0],"id":70,"left_children":[1,3,5,-1,-1,-1,-1],"loss_changes":[7.0148736E-1,4.6578363E-1,4.8629045E-1,0E0,0E0,0E0,0E0],"parents":[2147483647,0,0,1,1,2,2],"right_children":[2,4,6,-1,-1,-1,-1],"split_conditions":[1.712E-1,1.574E1,9.934E-2,5.7056215E-2,-1.1884791E-2,1.4450635E-2,-5.4427158E-2],"split_indices":[27,20,4,0,0,0,0],"split_type":[0,0,0,0,0,0,0],"sum_hessian":[5.363868E0,2.698986E0,2.6648822E0,1.5905101E0,1.1084759E0,1.165692E0,1.4991903E0],"tree_param":{"num_deleted":"0","num_feature":"30","num_nodes":"7","size_leaf_vector":"0"}},{"base_weights":[2.8042307E-2,-2.1840025E-1,3.079386E-1,9.181568E-3,-4.094337E-2,4.8726287E-2,-7.1749906E-3],"categories":[],"categories_nodes":[],"categories_segments":[],"categories_sizes":[],"default_left":[1,0,1,0,0,0,0],"id":71,"left_children":[1,3,5,-1,-1,-1,-1],"loss_changes":[5.432185E-1,2.8971773E-1,2.8319103E-1,0E0,0E0,0E0,0E0],"parents":[2147483647,0,0,1,1,2,2],"right_children":[2,4,6,-1,-1,-1,-1],"split_conditions":[1.677E-2,1.564E-1,3.677E-1,9.181568E-3,-4.094337E-2,4.8726287E-2,-7.1749906E-3],"split_indices":[18,27,10,0,0,0,0],"split_type":[0,0,0,0,0,0,0],"sum_hessian":[5.900202E0,3.2544446E0,2.6457572E0,1.4382571E0,1.8161875E0,1.6045953E0,1.0411619E0],"tree_param":{"num_deleted":"0","num_feature":"30","num_nodes":"7","size_leaf_vector":"0"}},{"base_weights":[-3.88468E-3,2.8237066E-1,-2.5208637E-1,4.996535E-2,-1.2059871E-2,1.0415684E-2,-4.674293E-2],"categories":[],"categories_nodes":[],"categories_segments":[],"categories_sizes":[],"default_left":[0,1,0,0,0,0,0],"id":72,"left_children":[1,3,5,-1,-1,-1,-1],"loss_changes":[5.3769857E-1,3.685481E-1,3.5900736E-1,0E0,0E0,0E0,0E0],"parents":[2147483647,0,0,1,1,2,2],"right_children":[2,4,6,-1,-1,-1,-1],"split_conditions":[2.757E1,2.363E0,1.023E2,4.996535E-2,-1.2059871E-2,1.0415684E-2,-4.674293E-2],"split_indices":[21,12,22,0,0,0,0],"split_type":[0,0,0,0,0,0,0],"sum_hessian":[5.5661216E0,2.5209732E0,3.0451486E0,1.4819629E0,1.0390103E0,1.3417704E0,1.7033781E0],"tree_param":{"num_deleted":"0","num_feature":"30","num_nodes":"7","size_leaf_vector":"0"}},{"base_weights":[4.082943E-2,2.9223442E-1,-2.1263175E-1,4.8575945E-2,-8.761024E-3,1.62083E-2,-4.1165855E-2],"categories":[],"categories_nodes":[],"categories_segments":[],"categories_sizes":[],"default_left":[1,0,1,0,0,0,0],"id":73,"left_children":[1,3,5,-1,-1,-1,-1],"loss_changes":[4.8206094E-1,3.1671637E-1,3.5462523E-1,0E0,0E0,0E0,0E0],"parents":[2147483647,0,0,1,1,2,2],"right_children":[2,4,6,-1,-1,-1,-1],"split_conditions":[2.085E-1,4.106E0,1.615E1,4.8575945E-2,-8.761024E-3,1.62083E-2,-4.1165855E-2],"split_indices":[26,12,1,0,0,0,0],"split_type":[0,0,0,0,0,0,0],"sum_hessian":[5.5899773E0,2.729573E0,2.8604045E0,1.6235579E0,1.106015E0,1.0566448E0,1.8037598E0],"tree_param":{"num_deleted":"0","num_feature":"30","num_nodes":"7","size_leaf_vector":"0"}},{"base_weights":[6.6845454E-2,4.0806435E-2,-2.0866661E-1,-3.8105667E-2,1.615141E-2],"categories":[],"categories_nodes":[],"categories_segments":[],"categories_sizes":[],"default_left":[0,0,0,0,0],"id":74,"left_children":[1,-1,3,-1,-1],"loss_changes":[6.704294E-1,0E0,3.235829E-1,0E0,0E0],"parents":[2147483647,0,0,2,2],"right_children":[2,-1,4,-1,-1],"split_conditions":[1.977E1,4.0806435E-2,9.113E-3,-3.8105667E-2,1.615141E-2],"split_indices":[1,0,14,0,0],"split_type":[0,0,0,0,0],"sum_hessian":[5.2257257E0,2.1195598E0,3.106166E0,2.099204E0,1.0069618E0],"tree_param":{"num_deleted":"0","num_feature":"30","num_nodes":"5","size_leaf_vector":"0"}},{"base_weights":[-3.7080158E-2,2.5907606E-1,-3.6732602E-1,4.9280085E-2,-1.53235E-2,5.003145E-4,-5.3441357E-2],"categories":[],"categories_nodes":[],"categories_segments":[],"categories_sizes":[],"default_left":[0,1,1,0,0,0,0],"id":75,"left_children":[1,3,5,-1,-1,-1,-1],"loss_changes":[6.9903964E-1,4.4571579E-1,2.1000877E-1,0E0,0E0,0E0,0E0],"parents":[2147483647,0,0,1,1,2,2],"right_children":[2,4,6,-1,-1,-1,-1],"split_conditions":[6.937E2,2.028E1,2.892E1,4.9280085E-2,-1.53235E-2,5.003145E-4,-5.3441357E-2],"split_indices":[3,1,13,0,0,0,0],"split_type":[0,0,0,0,0,0,0],"sum_hessian":[5.1743073E0,2.8415668E0,2.3327403E0,1.6889461E0,1.1526207E0,1.023061E0,1.3096793E0],"tree_param":{"num_deleted":"0","num_feature":"30","num_nodes":"7","size_leaf_vector":"0"}},{"base_weights":[1.172522E-3,2.6762667E-1,-2.4569315E-1,4.785379E-2,-6.3652056E-3,-4.359508E-2,7.997972E-3],"categories":[],"categories_nodes":[],"categories_segments":[],"categories_sizes":[],"default_left":[1,0,1,0,0,0,0],"id":76,"left_children":[1,3,5,-1,-1,-1,-1],"loss_changes":[4.933173E-1,2.8231764E-1,2.7623397E-1,0E0,0E0,0E0,0E0],"parents":[2147483647,0,0,1,1,2,2],"right_children":[2,4,6,-1,-1,-1,-1],"split_conditions":[2.085E-1,1.367E-2,6.259E-2,4.785379E-2,-6.3652056E-3,-4.359508E-2,7.997972E-3],"split_indices":[26,17,9,0,0,0,0],"split_type":[0,0,0,0,0,0,0],"sum_hessian":[5.500057E0,2.6046417E0,2.8954153E0,1.3198388E0,1.284803E0,1.6139388E0,1.2814765E0],"tree_param":{"num_deleted":"0","num_feature":"30","num_nodes":"7","size_leaf_vector":"0"}},{"base_weights":[6.575479E-3,-2.2670436E-1,2.7113417E-1,1.1994895E-2,-4.0359017E-2,4.240387E-2,-2.7300727E-3],"categories":[],"categories_nodes":[],"categories_segments":[],"categories_sizes":[],"default_left":[1,0,0,0,0,0,0],"id":77,"left_children":[1,3,5,-1,-1,-1,-1],"loss_changes":[4.5448872E-1,2.8931534E-1,1.6852453E-1,0E0,0E0,0E0,0E0],"parents":[2147483647,0,0,1,1,2,2],"right_children":[2,4,6,-1,-1,-1,-1],"split_conditions":[1.694E-2,1.365E-1,8.765E2,1.1994895E-2,-4.0359017E-2,4.240387E-2,-2.7300727E-3],"split_indices":[18,24,23,0,0,0,0],"split_type":[0,0,0,0,0,0,0],"sum_hessian":[5.3682046E0,2.9287798E0,2.4394248E0,1.0982875E0,1.8304925E0,1.3347065E0,1.1047182E0],"tree_param":{"num_deleted":"0","num_feature":"30","num_nodes":"7","size_leaf_vector":"0"}},{"base_weights":[-1.077595E-2,2.502438E-1,-2.3276007E-1,4.619289E-2,-5.604701E-3,-4.1074358E-2,1.1482532E-2],"categories":[],"categories_nodes":[],"categories_segments":[],"categories_sizes":[],"default_left":[0,0,1,0,0,0,0],"id":78,"left_children":[1,3,5,-1,-1,-1,-1],"loss_changes":[4.224715E-1,2.4444859E-1,2.8936994E-1,0E0,0E0,0E0,0E0],"parents":[2147483647,0,0,1,1,2,2],"right_children":[2,4,6,-1,-1,-1,-1],"split_conditions":[2.757E1,1.384E-2,1.879E-2,4.619289E-2,-5.604701E-3,-4.1074358E-2,1.1482532E-2],"split_indices":[21,17,18,0,0,0,0],"split_type":[0,0,0,0,0,0,0],"sum_hessian":[5.285997E0,2.370887E0,2.9151096E0,1.1014855E0,1.2694016E0,1.807739E0,1.1073706E0],"tree_param":{"num_deleted":"0","num_feature":"30","num_nodes":"7","size_leaf_vector":"0"}},{"base_weights":[4.656716E-2,3.1489995E-1,-1.9508065E-1,5.177004E-2,-4.3909247E-3,1.4757196E-2,-4.2208806E-2],"categories":[],"categories_nodes":[],"categories_segments":[],"categories_sizes":[],"default_left":[0,0,0,0,0,0,0],"id":79,"left_children":[1,3,5,-1,-1,-1,-1],"loss_changes":[4.6696287E-1,2.6620737E-1,3.6628467E-1,0E0,0E0,0E0,0E0],"parents":[2147483647,0,0,1,1,2,2],"right_children":[2,4,6,-1,-1,-1,-1],"split_conditions":[5.246E-2,1.321E-2,1.622E1,5.177004E-2,-4.3909247E-3,1.4757196E-2,-4.2208806E-2],"split_indices":[7,17,20,0,0,0,0],"split_type":[0,0,0,0,0,0,0],"sum_hessian":[5.254153E0,2.3459764E0,2.9081767E0,1.2159098E0,1.1300665E0,1.2983412E0,1.6098355E0],"tree_param":{"num_deleted":"0","num_feature":"30","num_nodes":"7","size_leaf_vector":"0"}},{"base_weights":[1.6925616E-2,2.6786122E-1,-2.2386432E-1,4.787448E-2,-6.8971845E-3,-4.3434482E-2,5.967283E-3],"categories":[],"categories_nodes":[],"categories_segments":[],"categories_sizes":[],"default_left":[1,1,1,0,0,0,0],"id":80,"left_children":[1,3,5,-1,-1,-1,-1],"loss_changes":[4.319569E-1,2.795026E-1,2.4592514E-1,0E0,0E0,0E0,0E0],"parents":[2147483647,0,0,1,1,2,2],"right_children":[2,4,6,-1,-1,-1,-1],"split_conditions":[2.085E-1,2.644E1,2.156E-1,4.787448E-2,-6.8971845E-3,-4.3434482E-2,5.967283E-3],"split_indices":[26,13,25,0,0,0,0],"split_type":[0,0,0,0,0,0,0],"sum_hessian":[5.156492E0,2.469996E0,2.6864963E0,1.2598934E0,1.2101026E0,1.2366235E0,1.4498727E0],"tree_param":{"num_deleted":"0","num_feature":"30","num_nodes":"7","size_leaf_vector":"0"}},{"base_weights":[4.15192E-2,1.9048762E-1,-3.5270266E-2,-2.3973467E-2,3.6772224E-1,5.3717554E-2,-5.248117E-3],"categories":[],"categories_nodes":[],"categories_segments":[],"categories_sizes":[],"default_left":[1,0,0,0,1,0,0],"id":81,"left_children":[1,3,-1,-1,5,-1,-1],"loss_changes":[4.2617878E-1,4.7595042E-1,0E0,0E0,3.1276917E-1,0E0,0E0],"parents":[2147483647,0,0,1,1,4,4],"right_children":[2,4,-1,-1,6,-1,-1],"split_conditions":[8.765E2,1.203E-2,-3.5270266E-2,-2.3973467E-2,1.357E-1,5.3717554E-2,-5.248117E-3],"split_indices":[23,15,0,0,27,0,0],"split_type":[0,0,0,0,0,0,0],"sum_hessian":[5.1129575E0,4.085813E0,1.0271448E0,1.0892087E0,2.9966042E0,1.9370782E0,1.059526E0],"tree_param":{"num_deleted":"0","num_feature":"30","num_nodes":"7","size_leaf_vector":"0"}},{"base_weights":[-2.0425944E-2,3.1693693E-2,-2.1921043E-1,1.7366609E-2,-3.90475E-1,-1.0149207E-2,-4.7274154E-2],"categories":[],"categories_nodes":[],"categories_segments":[],"categories_sizes":[],"default_left":[1,0,0,0,0,0,0],"id":82,"left_children":[1,-1,3,-1,5,-1,-1],"loss_changes":[4.6581358E-1,0E0,3.578077E-1,0E0,3.069514E-2,0E0,0E0],"parents":[2147483647,0,0,2,2,4,4],"right_children":[2,-1,4,-1,6,-1,-1],"split_conditions":[1.55E-1,3.1693693E-2,1.36E-1,1.7366609E-2,2.729E1,-1.0149207E-2,-4.7274154E-2],"split_indices":[8,0,24,0,21,0,0],"split_type":[0,0,0,0,0,0,0],"sum_hessian":[4.909975E0,1.6000723E0,3.309903E0,1.0005788E0,2.3093243E0,1.0067049E0,1.3026192E0],"tree_param":{"num_deleted":"0","num_feature":"30","num_nodes":"7","size_leaf_vector":"0"}},{"base_weights":[-2.4886658E-2,2.82172E-2,-2.1574338E-1,1.4839016E-2,-3.897801E-1,-9.387331E-3,-4.8885684E-2],"categories":[],"categories_nodes":[],"categories_segments":[],"categories_sizes":[],"default_left":[1,0,0,0,0,0,0],"id":83,"left_children":[1,-1,3,-1,5,-1,-1],"loss_changes":[4.0042746E-1,0E0,3.201881E-1,0E0,4.4312328E-2,0E0,0E0],"parents":[2147483647,0,0,2,2,4,4],"right_children":[2,-1,4,-1,6,-1,-1],"split_conditions":[1.547E-1,2.82172E-2,1.357E-1,1.4839016E-2,5.843E-2,-9.387331E-3,-4.8885684E-2],"split_indices":[8,0,24,0,7,0,0],"split_type":[0,0,0,0,0,0,0],"sum_hessian":[4.793965E0,1.6541868E0,3.139778E0,1.0630153E0,2.0767627E0,1.0094317E0,1.0673308E0],"tree_param":{"num_deleted":"0","num_feature":"30","num_nodes":"7","size_leaf_vector":"0"}},{"base_weights":[6.729947E-2,2.3051944E-1,-3.4931507E-2,-1.3103637E-2,3.7295035E-1,5.366345E-2,9.302448E-3],"categories":[],"categories_nodes":[],"categories_segments":[],"categories_sizes":[],"default_left":[1,1,0,0,0,0,0],"id":84,"left_children":[1,3,-1,-1,5,-1,-1],"loss_changes":[4.695536E-1,2.9157615E-1,0E0,0E0,1.1691278E-1,0E0,0E0],"parents":[2147483647,0,0,1,1,4,4],"right_children":[2,4,-1,-1,6,-1,-1],"split_conditions":[8.765E2,5.597E-2,-3.4931507E-2,-1.3103637E-2,3.186E-1,5.366345E-2,9.302448E-3],"split_indices":[23,9,0,0,26,0,0],"split_type":[0,0,0,0,0,0,0],"sum_hessian":[4.72104E0,3.7130404E0,1.0079995E0,1.0719453E0,2.6410952E0,1.0878973E0,1.5531977E0],"tree_param":{"num_deleted":"0","num_feature":"30","num_nodes":"7","size_leaf_vector":"0"}},{"base_weights":[3.7143145E-2,2.1360417E-1,-3.27313E-2,-2.119942E-2,4.057292E-1,5.613769E-2,3.581201E-3],"categories":[],"categories_nodes":[],"categories_segments":[],"categories_sizes":[],"default_left":[1,0,0,0,0,0,0],"id":85,"left_children":[1,3,-1,-1,5,-1,-1],"loss_changes":[4.289753E-1,4.4308007E-1,0E0,0E0,1.7288429E-1,0E0,0E0],"parents":[2147483647,0,0,1,1,4,4],"right_children":[2,4,-1,-1,6,-1,-1],"split_conditions":[1.407E-1,6.307E-2,-3.27313E-2,-2.119942E-2,7.019E2,5.613769E-2,3.581201E-3],"split_indices":[24,5,0,0,3,0,0],"split_type":[0,0,0,0,0,0,0],"sum_hessian":[4.5830674E0,3.3668354E0,1.216232E0,1.0149918E0,2.3518436E0,1.2910445E0,1.060799E0],"tree_param":{"num_deleted":"0","num_feature":"30","num_nodes":"7","size_leaf_vector":"0"}},{"base_weights":[6.555438E-2,3.635443E-1,-2.4406667E-1,4.7825925E-2,6.877491E-3,4.439678E-3,-4.1522875E-2],"categories":[],"categories_nodes":[],"categories_segments":[],"categories_sizes":[],"default_left":[0,0,1,0,0,0,0],"id":86,"left_children":[1,3,5,-1,-1,-1,-1],"loss_changes":[5.659442E-1,6.981334E-2,1.7322002E-1,0E0,0E0,0E0,0E0],"parents":[2147483647,0,0,1,1,2,2],"right_children":[2,4,6,-1,-1,-1,-1],"split_conditions":[6.937E2,7.335E2,2.363E0,4.7825925E-2,6.877491E-3,4.439678E-3,-4.1522875E-2],"split_indices":[3,23,12,0,0,0,0],"split_type":[0,0,0,0,0,0,0],"sum_hessian":[4.1722817E0,2.0373282E0,2.1349535E0,1.0184813E0,1.018847E0,1.0708466E0,1.0641068E0],"tree_param":{"num_deleted":"0","num_feature":"30","num_nodes":"7","size_leaf_vector":"0"}},{"base_weights":[1.24749E-2,-1.9021483E-1,2.4932933E-1,1.1239803E-2,-3.5822473E-2,3.989865E-2,-2.3777355E-3],"categories":[],"categories_nodes":[],"categories_segments":[],"categories_sizes":[],"default_left":[1,0,0,0,0,0,0],"id":87,"left_children":[1,3,5,-1,-1,-1,-1],"loss_changes":[3.2364494E-1,2.2673444E-1,1.3561691E-1,0E0,0E0,0E0,0E0],"parents":[2147483647,0,0,1,1,2,2],"right_children":[2,4,6,-1,-1,-1,-1],"split_conditions":[1.694E-2,1.38E-1,1.104E2,1.1239803E-2,-3.5822473E-2,3.989865E-2,-2.3777355E-3],"split_indices":[18,24,22,0,0,0,0],"split_type":[0,0,0,0,0,0,0],"sum_hessian":[4.753604E0,2.667654E0,2.08595E0,1.0705053E0,1.5971488E0,1.0497754E0,1.0361745E0],"tree_param":{"num_deleted":"0","num_feature":"30","num_nodes":"7","size_leaf_vector":"0"}},{"base_weights":[-3.4014054E-2,2.605606E-1,-3.0691743E-1,4.4071212E-2,-3.733851E-3,-4.8133854E-2,3.9771884E-3],"categories":[],"categories_nodes":[],"categories_segments":[],"categories_sizes":[],"default_left":[1,0,1,0,0,0,0],"id":88,"left_children":[1,3,5,-1,-1,-1,-1],"loss_changes":[5.128943E-1,1.8446799E-1,2.1595013E-1,0E0,0E0,0E0,0E0],"parents":[2147483647,0,0,1,1,2,2],"right_children":[2,4,6,-1,-1,-1,-1],"split_conditions":[2.085E-1,1.367E-2,6.314E-2,4.4071212E-2,-3.733851E-3,-4.8133854E-2,3.9771884E-3],"split_indices":[26,17,9,0,0,0,0],"split_type":[0,0,0,0,0,0,0],"sum_hessian":[4.3852654E0,2.130649E0,2.2546163E0,1.0289818E0,1.1016672E0,1.2415836E0,1.0130326E0],"tree_param":{"num_deleted":"0","num_feature":"30","num_nodes":"7","size_leaf_vector":"0"}},{"base_weights":[3.2493986E-2,2.879529E-2,-1.7017637E-1,1.0278153E-2,-4.1992977E-2],"categories":[],"categories_nodes":[],"categories_segments":[],"categories_sizes":[],"default_left":[0,0,0,0,0],"id":89,"left_children":[1,-1,3,-1,-1],"loss_changes":[3.384427E-1,0E0,2.9852384E-1,0E0,0E0],"parents":[2147483647,0,0,2,2],"right_children":[2,-1,4,-1,-1],"split_conditions":[1.977E1,2.879529E-2,8.732E2,1.0278153E-2,-4.1992977E-2],"split_indices":[1,0,23,0,0],"split_type":[0,0,0,0,0],"sum_hessian":[4.590455E0,1.844603E0,2.7458522E0,1.5931505E0,1.1527016E0],"tree_param":{"num_deleted":"0","num_feature":"30","num_nodes":"5","size_leaf_vector":"0"}},{"base_weights":[3.3460297E-2,2.9141387E-2,-1.914348E-1,1.2959309E-2,-3.86694E-2],"categories":[],"categories_nodes":[],"categories_segments":[],"categories_sizes":[],"default_left":[0,0,0,0,0],"id":90,"left_children":[1,-1,3,-1,-1],"loss_changes":[3.7146637E-1,0E0,2.7017012E-1,0E0,0E0],"parents":[2147483647,0,0,2,2],"right_children":[2,-1,4,-1,-1],"split_conditions":[2.63E1,2.9141387E-2,1.023E2,1.2959309E-2,-3.86694E-2],"split_indices":[21,0,22,0,0],"split_type":[0,0,0,0,0],"sum_hessian":[4.44158E0,1.9309793E0,2.5106008E0,1.0766956E0,1.4339052E0],"tree_param":{"num_deleted":"0","num_feature":"30","num_nodes":"5","size_leaf_vector":"0"}},{"base_weights":[-1.7032076E-2,2.8846776E-2,-2.1746293E-1,1.1859878E-2,-4.0190175E-2],"categories":[],"categories_nodes":[],"categories_segments":[],"categories_sizes":[],"default_left":[1,0,0,0,0],"id":91,"left_children":[1,-1,3,-1,-1],"loss_changes":[3.824045E-1,0E0,2.7840495E-1,0E0,0E0],"parents":[2147483647,0,0,2,2],"right_children":[2,-1,4,-1,-1],"split_conditions":[1.547E-1,2.8846776E-2,1.453E-1,1.1859878E-2,-4.0190175E-2],"split_indices":[8,0,27,0,0],"split_type":[0,0,0,0,0],"sum_hessian":[4.2207274E0,1.4980849E0,2.7226427E0,1.0912592E0,1.6313833E0],"tree_param":{"num_deleted":"0","num_feature":"30","num_nodes":"5","size_leaf_vector":"0"}},{"base_weights":[2.1031475E-2,2.8632915E-2,-1.8077473E-1,6.792079E-3,-3.5516288E-2],"categories":[],"categories_nodes":[],"categories_segments":[],"categories_sizes":[],"default_left":[0,0,0,0,0],"id":92,"left_children":[1,-1,3,-1,-1],"loss_changes":[3.426231E-1,0E0,1.8452887E-1,0E0,0E0],"parents":[2147483647,0,0,2,2],"right_children":[2,-1,4,-1,-1],"split_conditions":[2.573E1,2.8632915E-2,1.58E1,6.792079E-3,-3.5516288E-2],"split_indices":[21,0,20,0,0],"split_type":[0,0,0,0,0],"sum_hessian":[4.4327416E0,1.7341578E0,2.6985836E0,1.363958E0,1.3346257E0],"tree_param":{"num_deleted":"0","num_feature":"30","num_nodes":"5","size_leaf_vector":"0"}},{"base_weights":[4.1381657E-2,3.285877E-2,-1.9112375E-1,-3.4932133E-2,7.589893E-3],"categories":[],"categories_nodes":[],"categories_segments":[],"categories_sizes":[],"default_left":[0,0,1,0,0],"id":93,"left_children":[1,-1,3,-1,-1],"loss_changes":[4.0906003E-1,0E0,1.7426774E-1,0E0,0E0],"parents":[2147483647,0,0,2,2],"right_children":[2,-1,4,-1,-1],"split_conditions":[1.407E-1,3.285877E-2,1.321E1,-3.4932133E-2,7.589893E-3],"split_indices":[24,0,0,0,0],"split_type":[0,0,0,0,0],"sum_hessian":[4.1853085E0,1.6875222E0,2.497786E0,1.3749745E0,1.1228117E0],"tree_param":{"num_deleted":"0","num_feature":"30","num_nodes":"5","size_leaf_vector":"0"}},{"base_weights":[-8.786459E-3,2.066972E-2,-2.0491129E-1,6.473586E-3,-3.5446614E-2],"categories":[],