{"learner":{"attributes":{},"feature_names":["mean radius","mean texture","mean perimeter","mean area","mean smoothness","mean compactness","mean concavity","mean concave points","mean symmetry","mean fractal dimension","radius error","texture error","perimeter error","area error","smoothness error","compactness error","concavity error","concave points error","symmetry error","fractal dimension error","worst radius","worst texture","worst perimeter","worst area","worst smoothness","worst compactness","worst concavity","worst concave points","worst symmetry","worst fractal dimension"],"feature_types":["float","float","float","float","float","float","float","float","float","float","float","float","float","float","float","float","float","float","float","float","float","float","float","float","float","float","float","float","float","float"],"gradient_booster":{"model":{"cats":{"enc":[],"feature_segments":[],"sorted_idx":[]},"gbtree_model_param":{"num_parallel_tree":"1","num_trees":"500"},"iteration_indptr":[0,1,2,3,4,5,6,7,8,9,10,11,12,13,14,15,16,17,18,19,20,21,22,23,24,25,26,27,28,29,30,31,32,33,34,35,36,37,38,39,40,41,42,43,44,45,46,47,48,49,50,51,52,53,54,55,56,57,58,59,60,61,62,63,64,65,66,67,68,69,70,71,72,73,74,75,76,77,78,79,80,81,82,83,84,85,86,87,88,89,90,91,92,93,94,95,96,97,98,99,100,101,102,103,104,105,106,107,108,109,110,111,112,113,114,115,116,117,118,119,120,121,122,123,124,125,126,127,128,129,130,131,132,133,134,135,136,137,138,139,140,141,142,143,144,145,146,147,148,149,150,151,152,153,154,155,156,157,158,159,160,161,162,163,164,165,166,167,168,169,170,171,172,173,174,175,176,177,178,179,180,181,182,183,184,185,186,187,188,189,190,191,192,193,194,195,196,197,198,199,200,201,202,203,204,205,206,207,208,209,210,211,212,213,214,215,216,217,218,219,220,221,222,223,224,225,226,227,228,229,230,231,232,233,234,235,236,237,238,239,240,241,242,243,244,245,246,247,248,249,250,251,252,253,254,255,256,257,258,259,260,261,262,263,264,265,266,267,268,269,270,271,272,273,274,275,276,277,278,279,280,281,282,283,284,285,286,287,288,289,290,291,292,293,294,295,296,297,298,299,300,301,302,303,304,305,306,307,308,309,310,311,312,313,314,315,316,317,318,319,320,321,322,323,324,325,326,327,328,329,330,331,332,333,334,335,336,337,338,339,340,341,342,343,344,345,346,347,348,349,350,351,352,353,354,355,356,357,358,359,360,361,362,363,364,365,366,367,368,369,370,371,372,373,374,375,376,377,378,379,380,381,382,383,384,385,386,387,388,389,390,391,392,393,394,395,396,397,398,399,400,401,402,403,404,405,406,407,408,409,410,411,412,413,414,415,416,417,418,419,420,421,422,423,424,425,426,427,428,429,430,431,432,433,434,435,436,437,438,439,440,441,442,443,444,445,446,447,448,449,450,451,452,453,454,455,456,457,458,459,460,461,462,463,464,465,466,467,468,469,470,471,472,473,474,475,476,477,478,479,480,481,482,483,484,485,486,487,488,489,490,491,492,493,494,495,496,497,498,499,500],"tree_info":[0,0,0,0,0,0,0,0,0,0,0,0,0,0,0,0,0,0,0,0,0,0,0,0,0,0,0,0,0,0,0,0,0,0,0,0,0,0,0,0,0,0,0,0,0,0,0,0,0,0,0,0,0,0,0,0,0,0,0,0,0,0,0,0,0,0,0,0,0,0,0,0,0,0,0,0,0,0,0,0,0,0,0,0,0,0,0,0,0,0,0,0,0,0,0,0,0,0,0,0,0,0,0,0,0,0,0,0,0,0,0,0,0,0,0,0,0,0,0,0,0,0,0,0,0,0,0,0,0,0,0,0,0,0,0,0,0,0,0,0,0,0,0,0,0,0,0,0,0,0,0,0,0,0,0,0,0,0,0,0,0,0,0,0,0,0,0,0,0,0,0,0,0,0,0,0,0,0,0,0,0,0,0,0,0,0,0,0,0,0,0,0,0,0,0,0,0,0,0,0,0,0,0,0,0,0,0,0,0,0,0,0,0,0,0,0,0,0,0,0,0,0,0,0,0,0,0,0,0,0,0,0,0,0,0,0,0,0,0,0,0,0,0,0,0,0,0,0,0,0,0,0,0,0,0,0,0,0,0,0,0,0,0,0,0,0,0,0,0,0,0,0,0,0,0,0,0,0,0,0,0,0,0,0,0,0,0,0,0,0,0,0,0,0,0,0,0,0,0,0,0,0,0,0,0,0,0,0,0,0,0,0,0,0,0,0,0,0,0,0,0,0,0,0,0,0,0,0,0,0,0,0,0,0,0,0,0,0,0,0,0,0,0,0,0,0,0,0,0,0,0,0,0,0,0,0,0,0,0,0,0,0,0,0,0,0,0,0,0,0,0,0,0,0,0,0,0,0,0,0,0,0,0,0,0,0,0,0,0,0,0,0,0,0,0,0,0,0,0,0,0,0,0,0,0,0,0,0,0,0,0,0,0,0,0,0,0,0,0,0,0,0,0,0,0,0,0,0,0,0,0,0,0,0,0,0,0,0,0,0,0,0,0,0,0,0,0,0,0,0,0,0,0,0,0,0,0,0,0,0,0,0,0,0,0,0,0,0,0,0,0,0,0,0,0,0,0,0,0,0,0,0,0,0,0,0,0,0,0,0,0,0,0,0,0,0,0,0,0,0],"trees":[{"base_weights":[-2.9091412E-1,6.223143E-1,-2.6926248E0,1.0564003E0,-2.3584788E0,-2.6540626E-2,-2.8652114E-1,1.2217712E0,-2.0076309E-1,-6.359487E-2,-2.5531328E-1,1.3723239E0,-1.19116694E-1,1.415506E0,-1.6169233E-2,8.535113E-2,-1.339944E-1,1.4371668E-1,3.12564E-2],"categories":[],"categories_nodes":[],"categories_segments":[],"categories_sizes":[],"default_left":[1,1,0,1,0,0,0,1,0,0,0,1,0,1,0,0,0,0,0],"id":0,"left_children":[1,3,5,7,9,-1,-1,11,-1,-1,-1,13,15,17,-1,-1,-1,-1,-1],"loss_changes":[1.7406877E2,7.722641E1,8.3888855E0,2.834893E1,9.418297E-1,0E0,0E0,1.007785E1,0E0,0E0,0E0,3.159027E0,8.122883E0,5.8109283E-1,0E0,0E0,0E0,0E0,0E0],"parents":[2147483647,0,0,1,1,2,2,3,3,4,4,7,7,11,11,12,12,13,13],"right_children":[2,4,6,8,10,-1,-1,12,-1,-1,-1,14,16,18,-1,-1,-1,-1,-1],"split_conditions":[1.699E1,1.565E-1,4.846E-2,8.765E2,8.66E1,-2.6540626E-2,-2.8652114E-1,1.025E2,-2.0076309E-1,-6.359487E-2,-2.5531328E-1,4.115E0,2.864E1,3.713E1,-1.6169233E-2,8.535113E-2,-1.339944E-1,1.4371668E-1,3.12564E-2],"split_indices":[20,27,7,23,2,0,0,22,0,0,0,12,21,21,0,0,0,0,0],"split_type":[0,0,0,0,0,0,0,0,0,0,0,0,0,0,0,0,0,0,0],"sum_hessian":[7.759951E1,5.67585E1,2.0841011E1,5.0107113E1,6.6513867E0,1.5519903E0,1.928902E1,4.81117E1,1.9954159E0,1.1085644E0,5.5428224E0,4.3234013E1,4.8776836E0,4.212545E1,1.1085644E0,2.8822675E0,1.9954159E0,4.1016884E1,1.1085644E0],"tree_param":{"num_deleted":"0","num_feature":"30","num_nodes":"19","size_leaf_vector":"1"}},{"base_weights":[-1.7626227E-1,6.779906E-1,-2.2553954E0,1.1064703E0,-1.9757335E0,-1.43350875E-2,-2.3520005E-1,1.228635E0,-1.3643257E-1,-5.428906E-2,-2.1271877E-1,1.2832413E0,-4.1797854E-2,1.3216921E0,-1.9914038E-2,1.3580152E0,5.522718E-1,2.887174E-2,1.3783006E-1,9.089809E-2,-1.7065894E-2],"categories":[],"categories_nodes":[],"categories_segments":[],"categories_sizes":[],"default_left":[1,1,0,1,0,0,0,1,0,0,0,1,0,1,0,0,0,0,0,0,0],"id":1,"left_children":[1,3,5,7,9,-1,-1,11,-1,-1,-1,13,-1,15,-1,17,19,-1,-1,-1,-1],"loss_changes":[1.4668637E2,6.892751E1,4.5661163E0,1.7123833E1,6.938324E-1,0E0,0E0,4.968521E0,0E0,0E0,0E0,2.9966278E0,0E0,5.6004333E-1,0E0,5.581207E-1,1.1346743E0,0E0,0E0,0E0,0E0],"parents":[2147483647,0,0,1,1,2,2,3,3,4,4,7,7,11,11,13,13,15,15,16,16],"right_children":[2,4,6,8,10,-1,-1,12,-1,-1,-1,14,-1,16,-1,18,20,-1,-1,-1,-1],"split_conditions":[1.456E-1,1.137E2,1.492E1,1.726E1,7.486E-2,-1.43350875E-2,-2.3520005E-1,1.357E-1,-1.3643257E-1,-5.428906E-2,-2.1271877E-1,3.814E0,-4.1797854E-2,5.246E-2,-1.9914038E-2,3.535E-3,2.061E1,2.887174E-2,1.3783006E-1,9.089809E-2,-1.7065894E-2],"split_indices":[27,22,20,20,6,0,0,6,0,0,0,12,0,7,0,14,21,0,0,0,0],"split_type":[0,0,0,0,0,0,0,0,0,0,0,0,0,0,0,0,0,0,0,0,0],"sum_hessian":[8.072781E1,5.769613E1,2.3031687E1,5.0177364E1,7.5187645E0,1.1160359E0,2.1915651E1,4.8292362E1,1.8850038E0,1.1570393E0,6.361725E0,4.6955853E1,1.3365097E0,4.587434E1,1.0815129E0,4.3075813E1,2.7985258E0,1.0855674E0,4.1990246E1,1.7015768E0,1.096949E0],"tree_param":{"num_deleted":"0","num_feature":"30","num_nodes":"21","size_leaf_vector":"1"}},{"base_weights":[-1.6478534E-1,7.00203E-1,-2.0825532E-1,1.0858E0,-9.945341E-1,1.1978538E0,-7.188331E-1,1.0161626E-1,-1.6705087E0,1.317176E-1,9.635337E-2,-1.4091715E-1,3.2994654E-2,-2.7156133E-2,-1.9091795E-1,-1.0069945E-1,6.411041E-1,9.610528E-2,-1.3717181E-2],"categories":[],"categories_nodes":[],"categories_segments":[],"categories_sizes":[],"default_left":[1,1,0,1,0,1,1,0,0,0,1,0,0,0,0,0,0,0,0],"id":2,"left_children":[1,3,-1,5,7,9,11,-1,13,-1,15,-1,-1,-1,-1,-1,17,-1,-1],"loss_changes":[1.3302444E2,3.728757E1,0E0,1.0085182E1,1.6365536E1,5.5672417E0,2.8482037E0,0E0,2.3044949E0,0E0,3.8391638E0,0E0,0E0,0E0,0E0,0E0,1.1697222E0,0E0,0E0],"parents":[2147483647,0,0,1,1,3,3,4,4,5,5,6,6,8,8,10,10,16,16],"right_children":[2,4,-1,6,8,10,12,-1,14,-1,16,-1,-1,-1,-1,-1,18,-1,-1],"split_conditions":[1.137E2,9.366E-2,-2.0825532E-1,4.314E1,1.453E-1,1.096E-1,9.976E-2,1.0161626E-1,2.553E1,1.317176E-1,7.259E-2,-1.4091715E-1,3.2994654E-2,-2.7156133E-2,-1.9091795E-1,-1.0069945E-1,9.564E-2,9.610528E-2,-1.3717181E-2],"split_indices":[22,6,0,13,27,27,25,0,21,0,29,0,0,0,0,0,29,0,0],"split_type":[0,0,0,0,0,0,0,0,0,0,0,0,0,0,0,0,0,0,0],"sum_hessian":[7.8311874E1,5.4407047E1,2.3904823E1,4.4615227E1,9.7918215E0,4.2323498E1,2.2917275E0,2.3370314E0,7.45479E0,3.801017E1,4.313331E0,1.1748055E0,1.1169219E0,1.3980505E0,6.0567393E0,1.1452268E0,3.1681044E0,2.0787027E0,1.0894015E0],"tree_param":{"num_deleted":"0","num_feature":"30","num_nodes":"19","size_leaf_vector":"1"}},{"base_weights":[-1.1538203E-1,1.0927708E0,-1.2271734E0,1.2017025E0,-6.194646E-2,8.6383265E-1,-1.7203038E0,-1.5966566E-2,1.2493119E0,1.16432466E-1,-1.6049184E-2,5.6544363E-2,-1.8700765E0,1.2996139E-1,1.5710501E-2,4.595087E-3,-1.9548386E-1],"categories":[],"categories_nodes":[],"categories_segments":[],"categories_sizes":[],"default_left":[0,1,0,0,0,0,0,0,1,0,0,0,0,0,0,0,0],"id":3,"left_children":[1,3,5,7,-1,9,11,-1,13,-1,-1,-1,15,-1,-1,-1,-1],"loss_changes":[1.0486273E2,7.7319756E0,4.3357212E1,2.5044289E0,0E0,2.7769184E0,1.2420471E1,0E0,1.6898575E0,0E0,0E0,0E0,5.186615E0,0E0,0E0,0E0,0E0],"parents":[2147483647,0,0,1,1,2,2,3,3,5,5,6,6,8,8,12,12],"right_children":[2,4,6,8,-1,10,12,-1,14,-1,-1,-1,16,-1,-1,-1,-1],"split_conditions":[5.246E-2,6.937E2,7.259E2,3.35E-3,-6.194646E-2,1.607E-1,1.039E2,-1.5966566E-2,3.444E1,1.16432466E-1,-1.6049184E-2,5.6544363E-2,1.842E1,1.2996139E-1,1.5710501E-2,4.595087E-3,-1.9548386E-1],"split_indices":[7,3,23,14,0,27,22,0,13,0,0,0,21,0,0,0,0],"split_type":[0,0,0,0,0,0,0,0,0,0,0,0,0,0,0,0,0],"sum_hessian":[7.607017E1,3.646345E1,3.9606712E1,3.456275E1,1.9007001E0,7.4146905E0,3.219202E1,1.0883456E0,3.3474407E1,5.627231E0,1.7874595E0,1.8089842E0,3.0383038E1,3.1819069E1,1.6553359E0,1.3065538E0,2.9076485E1],"tree_param":{"num_deleted":"0","num_feature":"30","num_nodes":"17","size_leaf_vector":"1"}},{"base_weights":[-1.0007782E-1,6.062239E-1,-1.7368291E-1,9.517907E-1,-1.3808868E0,1.1157247E0,-3.88089E-1,-2.5555143E-2,-1.5416156E-1,1.2123239E0,-8.991499E-3,-1.1690127E-1,6.6461086E-2,2.4654886E-2,1.2353025E-1,8.330753E-2,-8.1548706E-2],"categories":[],"categories_nodes":[],"categories_segments":[],"categories_sizes":[],"default_left":[1,1,0,1,0,1,1,0,0,0,0,0,0,0,0,0,0],"id":4,"left_children":[1,3,-1,5,7,9,11,-1,-1,13,15,-1,-1,-1,-1,-1,-1],"loss_changes":[8.632729E1,3.720679E1,0E0,1.0343315E1,1.0804005E0,4.406517E0,5.430206E0,0E0,0E0,5.2243423E-1,3.5266762E0,0E0,0E0,0E0,0E0,0E0,0E0],"parents":[2147483647,0,0,1,1,3,3,4,4,5,5,6,6,9,9,10,10],"right_children":[2,4,-1,6,8,10,12,-1,-1,14,16,-1,-1,-1,-1,-1,-1],"split_conditions":[1.456E-1,1.137E2,-1.7368291E-1,3.635E1,1.875E1,9.143E1,4.589E-2,-2.5555143E-2,-1.5416156E-1,1.309E-3,3.863E-2,-1.1690127E-1,6.6461086E-2,2.4654886E-2,1.2353025E-1,8.330753E-2,-8.1548706E-2],"split_indices":[27,22,0,13,1,2,27,0,0,19,16,0,0,0,0,0,0],"split_type":[0,0,0,0,0,0,0,0,0,0,0,0,0,0,0,0,0],"sum_hessian":[7.2764206E1,5.126962E1,2.1494589E1,4.4118286E1,7.151336E0,3.9457912E1,4.6603703E0,1.21744E0,5.933896E0,3.626528E1,3.1926334E0,2.6121273E0,2.0482428E0,1.1153979E0,3.5149883E1,1.5457498E0,1.6468837E0],"tree_param":{"num_deleted":"0","num_feature":"30","num_nodes":"17","size_leaf_vector":"1"}},{"base_weights":[-1.6703416E-1,1.0541409E0,-9.3378365E-1,-1.7454518E-2,1.110833E0,1.007505E0,-1.3075142E0,1.1577388E0,4.4847275E-3,1.0912061E-1,2.3918884E-2,-2.2279019E-2,-1.5617014E0,1.1860861E-1,2.5143687E-2,1.005668E-1,-8.695749E-1,-1.4669678E-2,-1.6480047E0,2.8576618E-2,-1.3387097E-1,-4.637897E-2,-1.6883479E-1],"categories":[],"categories_nodes":[],"categories_segments":[],"categories_sizes":[],"default_left":[0,0,0,0,1,1,0,1,0,0,0,0,0,0,0,0,0,0,0,0,0,0,0],"id":5,"left_children":[1,3,5,-1,7,9,11,13,-1,-1,-1,15,17,-1,-1,-1,19,-1,21,-1,-1,-1,-1],"loss_changes":[6.962733E1,2.1962318E0,3.437524E1,0E0,1.328785E0,2.4836063E-1,1.2589798E1,3.802681E-1,0E0,0E0,0E0,7.315625E0,3.6964264E0,0E0,0E0,0E0,2.8704672E0,0E0,6.643982E-1,0E0,0E0,0E0,0E0],"parents":[2147483647,0,0,1,1,2,2,4,4,5,5,6,6,7,7,11,11,12,12,16,16,18,18],"right_children":[2,4,6,-1,8,10,12,14,-1,-1,-1,16,18,-1,-1,-1,20,-1,22,-1,-1,-1,-1],"split_conditions":[7.393E2,2.112E-1,1.025E2,-1.7454518E-2,1.556E-1,9.209E-2,1.425E-1,3.427E1,4.4847275E-3,1.0912061E-1,2.3918884E-2,2.387E1,1.615E1,1.1860861E-1,2.5143687E-2,1.005668E-1,8.732E2,-1.4669678E-2,1.584E-1,2.8576618E-2,-1.3387097E-1,-4.637897E-2,-1.6883479E-1],"split_indices":[23,28,22,0,27,29,27,21,0,0,0,21,1,0,0,0,23,0,8,0,0,0,0],"split_type":[0,0,0,0,0,0,0,0,0,0,0,0,0,0,0,0,0,0,0,0,0,0,0],"sum_hessian":[7.2310265E1,2.7745754E1,4.4564507E1,1.1320511E0,2.6613703E1,6.920608E0,3.7643898E1,2.5409554E1,1.204149E0,5.8617654E0,1.0588425E0,6.395299E0,3.1248602E1,2.4339552E1,1.0700018E0,2.8051503E0,3.5901484E0,1.951535E0,2.9297066E1,1.149683E0,2.4404655E0,1.3768837E0,2.7920183E1],"tree_param":{"num_deleted":"0","num_feature":"30","num_nodes":"23","size_leaf_vector":"1"}},{"base_weights":[-1.00206725E-1,9.411367E-1,-9.692437E-1,1.0691286E0,-5.8778014E-2,6.829509E-1,-1.3471192E0,-1.7960949E-2,1.1195163E0,1.0603789E-1,-1.8216245E-1,7.221157E-2,-1.4528527E0,1.1691003E0,2.6869355E-2,-1.073869E-1,7.420346E-2,-8.4864564E-4,-1.5065403E0,1.1905056E-1,3.3061784E-2,-8.035294E-3,-1.5543057E-1],"categories":[],"categories_nodes":[],"categories_segments":[],"categories_sizes":[],"default_left":[0,1,0,0,0,0,0,0,1,0,0,0,0,1,0,0,0,0,0,0,0,0,0],"id":6,"left_children":[1,3,5,7,-1,9,11,-1,13,-1,15,-1,17,19,-1,-1,-1,-1,21,-1,-1,-1,-1],"loss_changes":[6.475153E1,7.0074253E0,2.5234718E1,2.1160355E0,0E0,2.776863E0,8.0574875E0,0E0,9.258423E-1,0E0,3.480962E0,0E0,2.376175E0,9.952927E-2,0E0,0E0,0E0,0E0,1.8981857E0,0E0,0E0,0E0,0E0],"parents":[2147483647,0,0,1,1,2,2,3,3,5,5,6,6,8,8,10,10,12,12,13,13,18,18],"right_children":[2,4,6,8,-1,10,12,-1,14,-1,16,-1,18,20,-1,-1,-1,-1,22,-1,-1,-1,-1],"split_conditions":[5.246E-2,6.937E2,1.023E2,3.35E-3,-5.8778014E-2,3.53E-1,6.95E-2,-1.7960949E-2,3.444E1,1.0603789E-1,1.278E1,7.221157E-2,1.534E1,1.114E2,2.6869355E-2,-1.073869E-1,7.420346E-2,-8.4864564E-4,7.407E2,1.1905056E-1,3.3061784E-2,-8.035294E-3,-1.5543057E-1],"split_indices":[7,3,22,14,0,28,6,0,13,0,0,0,1,22,0,0,0,0,23,0,0,0,0],"split_type":[0,0,0,0,0,0,0,0,0,0,0,0,0,0,0,0,0,0,0,0,0,0,0],"sum_hessian":[6.954336E1,3.1597713E1,3.794565E1,2.943437E1,2.163344E0,6.9128923E0,3.1032755E1,1.0421673E0,2.8392202E1,4.655917E0,2.256975E0,1.2252218E0,2.9807533E1,2.6475206E1,1.9169965E0,1.0662558E0,1.1907192E0,1.1097513E0,2.869778E1,2.5406769E1,1.0684365E0,1.0169109E0,2.768087E1],"tree_param":{"num_deleted":"0","num_feature":"30","num_nodes":"23","size_leaf_vector":"1"}},{"base_weights":[-9.25253E-2,8.9960104E-1,-9.5233226E-1,1.1295809E0,-1.0926034E-1,5.4068625E-1,-1.301993E0,1.155488E0,2.2031851E-2,8.9945257E-1,-6.940222E-2,3.4324475E-2,-1.4254892E0,2.5835648E-2,1.1839908E-1,1.0257534E-1,1.4642539E-2,-8.585838E-3,-1.4740156E-1],"categories":[],"categories_nodes":[],"categories_segments":[],"categories_sizes":[],"default_left":[0,1,0,1,0,1,0,0,0,1,0,0,0,0,0,0,0,0,0],"id":7,"left_children":[1,3,5,7,-1,9,11,13,-1,15,-1,-1,17,-1,-1,-1,-1,-1,-1],"loss_changes":[5.6564453E1,1.5361214E1,1.9221794E1,4.081688E-1,0E0,3.918845E0,6.388405E0,3.8757324E-1,0E0,4.3933105E-1,0E0,0E0,1.6416855E0,0E0,0E0,0E0,0E0,0E0,0E0],"parents":[2147483647,0,0,1,1,2,2,3,3,5,5,6,6,7,7,9,9,12,12],"right_children":[2,4,6,8,-1,10,12,14,-1,16,-1,-1,18,-1,-1,-1,-1,-1,-1],"split_conditions":[5.598E-2,8.765E2,1.031E2,2.686E1,-1.0926034E-1,1.708E-1,1.842E1,3.632E-3,2.2031851E-2,2.125E1,-6.940222E-2,3.4324475E-2,7.594E2,2.5835648E-2,1.1839908E-1,1.0257534E-1,1.4642539E-2,-8.585838E-3,-1.4740156E-1],"split_indices":[7,23,22,1,0,27,21,14,0,1,0,0,23,0,0,0,0,0,0],"split_type":[0,0,0,0,0,0,0,0,0,0,0,0,0,0,0,0,0,0,0],"sum_hessian":[6.430517E1,2.9833817E1,3.4471355E1,2.7134422E1,2.6993947E0,6.437504E0,2.803385E1,2.6119417E1,1.0150058E0,5.198511E0,1.2389928E0,1.8331333E0,2.6200718E1,1.1141922E0,2.5005224E1,4.141679E0,1.0568323E0,1.0127157E0,2.5188002E1],"tree_param":{"num_deleted":"0","num_feature":"30","num_nodes":"19","size_leaf_vector":"1"}},{"base_weights":[-1.2845409E-1,9.508739E-1,-7.8630304E-1,1.1072208E0,-7.7925906E-2,6.89889E-1,-1.1693115E0,2.7333183E-2,1.1428877E-1,1.0430671E-1,-3.2249257E-1,4.0014866E-1,-1.291195E0,1.8634295E-2,-6.683932E-2,6.885793E-2,-9.252854E-3,-8.424228E-2,-1.3979415E0,5.360183E-2,-7.2713695E-2,-3.2989167E-2,-1.4303601E-1],"categories":[],"categories_nodes":[],"categories_segments":[],"categories_sizes":[],"default_left":[0,1,0,0,0,1,0,0,0,0,1,0,0,0,0,0,0,0,0,0,0,0,0],"id":8,"left_children":[1,3,5,7,-1,9,11,-1,-1,-1,13,15,17,-1,-1,-1,-1,19,21,-1,-1,-1,-1],"loss_changes":[4.5065678E1,7.378937E0,2.3042269E1,3.569851E-1,0E0,3.4580474E0,6.560871E0,0E0,0E0,0E0,6.564205E-1,4.9576113E-1,3.690239E0,0E0,0E0,0E0,0E0,1.7717813E0,4.6614075E-1,0E0,0E0,0E0,0E0],"parents":[2147483647,0,0,1,1,2,2,3,3,5,5,6,6,10,10,11,11,12,12,17,17,18,18],"right_children":[2,4,6,8,-1,10,12,-1,-1,-1,14,16,18,-1,-1,-1,-1,20,22,-1,-1,-1,-1],"split_conditions":[1.216E-1,6.937E2,1.023E2,1.309E-3,-7.7925906E-2,1.38E0,7.499E2,2.7333183E-2,1.1428877E-1,1.0430671E-1,1.374E1,1.574E1,8.259E-2,1.8634295E-2,-6.683932E-2,6.885793E-2,-9.252854E-3,1.2E-2,1.908E1,5.360183E-2,-7.2713695E-2,-3.2989167E-2,-1.4303601E-1],"split_indices":[27,3,22,19,0,11,23,0,0,0,20,20,6,0,0,0,0,17,21,0,0,0,0],"split_type":[0,0,0,0,0,0,0,0,0,0,0,0,0,0,0,0,0,0,0,0,0,0,0],"sum_hessian":[6.1416668E1,2.3089108E1,3.832756E1,2.1505735E1,1.5833712E0,7.7306895E0,3.059687E1,1.23746E0,2.0268276E1,5.7088113E0,2.021878E0,2.0403814E0,2.855649E1,1.0049025E0,1.0169755E0,1.0361532E0,1.0042284E0,2.4657812E0,2.6090708E1,1.3395929E0,1.1261882E0,1.0978365E0,2.4992872E1],"tree_param":{"num_deleted":"0","num_feature":"30","num_nodes":"23","size_leaf_vector":"1"}},{"base_weights":[-9.078108E-2,5.1808923E-1,-1.2444311E0,7.8001684E-1,-1.1209518E-1,-1.7762443E-2,-1.2980369E0,9.8610836E-1,-2.4049678E-1,-1.3298653E-1,-3.6937136E-2,1.0402129E0,-2.4554485E-2,7.679491E-2,-6.8028575E-1,1.1037546E-1,-1.5304565E-2,2.5170181E-2,-1.1180311E-1],"categories":[],"categories_nodes":[],"categories_segments":[],"categories_sizes":[],"default_left":[1,1,0,1,0,0,1,1,0,0,0,1,0,0,1,0,0,0,0],"id":9,"left_children":[1,3,5,7,-1,-1,9,11,13,-1,-1,15,-1,-1,17,-1,-1,-1,-1],"loss_changes":[4.179557E1,1.7639793E1,9.436054E-1,7.442871E0,0E0,0E0,8.194733E-2,2.167965E0,3.4319701E0,0E0,0E0,2.2679539E0,0E0,0E0,2.3614328E0,0E0,0E0,0E0,0E0],"parents":[2147483647,0,0,1,1,2,2,3,3,6,6,7,7,8,8,11,11,14,14],"right_children":[2,4,6,8,-1,-1,10,12,14,-1,-1,16,-1,-1,18,-1,-1,-1,-1],"split_conditions":[1.137E2,1.613E-1,2.365E-1,1.589E1,-1.1209518E-1,-1.7762443E-2,6.063E-2,4.115E0,3.037E-1,-1.3298653E-1,-3.6937136E-2,7.624E2,-2.4554485E-2,7.679491E-2,6.164E-2,1.1037546E-1,-1.5304565E-2,2.5170181E-2,-1.1180311E-1],"split_indices":[22,27,26,20,0,0,15,12,10,0,0,23,0,0,29,0,0,0,0],"split_type":[0,0,0,0,0,0,0,0,0,0,0,0,0,0,0,0,0,0,0],"sum_hessian":[5.758411E1,3.805203E1,1.9532084E1,3.3260864E1,4.791165E0,1.1408851E0,1.8391197E1,2.7700497E1,5.5603676E0,1.736406E1,1.0271385E0,2.6683754E1,1.0167413E0,1.4619372E0,4.09843E0,2.5405886E1,1.277869E0,1.4456191E0,2.6528113E0],"tree_param":{"num_deleted":"0","num_feature":"30","num_nodes":"19","size_leaf_vector":"1"}},{"base_weights":[-1.0767795E-1,9.5612437E-1,-7.0214057E-1,1.0542053E-1,-1.2738365E-4,4.7798407E-1,-1.104837E0,8.706283E-1,-7.963004E-2,6.58639E-2,-1.1958957E0,1.007293E-1,2.1255394E-2,2.653513E-2,-1.2697941E0,-2.7134035E-2,-1.3018496E-1],"categories":[],"categories_nodes":[],"categories_segments":[],"categories_sizes":[],"default_left":[0,1,0,0,0,1,0,1,0,0,0,0,0,0,0,0,0],"id":10,"left_children":[1,3,5,-1,-1,7,9,11,-1,-1,13,-1,-1,-1,15,-1,-1],"loss_changes":[3.6773808E1,1.9628658E0,1.8206705E1,0E0,0E0,5.7778997E0,5.28994E0,5.275302E-1,0E0,0E0,3.2542496E0,0E0,0E0,0E0,4.7533798E-1,0E0,0E0],"parents":[2147483647,0,0,1,1,2,2,5,5,6,6,7,7,10,10,14,14],"right_children":[2,4,6,-1,-1,8,10,12,-1,-1,14,-1,-1,-1,16,-1,-1],"split_conditions":[1.025E2,1.843E-2,5.102E-2,1.0542053E-1,-1.2738365E-4,9.314E2,1.407E1,2.085E-1,-7.963004E-2,6.58639E-2,7.298E2,1.007293E-1,2.1255394E-2,2.653513E-2,1.06E2,-2.7134035E-2,-1.3018496E-1],"split_indices":[22,17,7,0,0,23,1,26,0,0,23,0,0,0,22,0,0],"split_type":[0,0,0,0,0,0,0,0,0,0,0,0,0,0,0,0,0],"sum_hessian":[5.608887E1,1.9888906E1,3.6199963E1,1.7949E1,1.9399062E0,9.162315E0,2.7037647E1,7.246292E0,1.9160233E0,1.0215137E0,2.6016134E1,5.560795E0,1.6854976E0,1.1276451E0,2.4888489E1,1.0686063E0,2.3819883E1],"tree_param":{"num_deleted":"0","num_feature":"30","num_nodes":"17","size_leaf_vector":"1"}},{"base_weights":[-6.0694017E-2,5.7133335E-1,-1.0168282E0,8.212749E-1,-1.1652712E-1,3.7090283E-2,-1.1517018E0,1.0066687E0,-4.0871593E-1,-1.9168692E-2,-1.2017345E0,1.0629748E0,-1.1309761E-3,7.174199E-2,-1.0424669E-1,-2.962952E-2,-1.246291E-1,1.1907097E-2,1.0991025E-1],"categories":[],"categories_nodes":[],"categories_segments":[],"categories_sizes":[],"default_left":[1,1,0,1,0,0,0,1,0,0,0,0,0,0,0,0,0,0,0],"id":11,"left_children":[1,3,5,7,-1,-1,9,11,13,-1,15,17,-1,-1,-1,-1,-1,-1,-1],"loss_changes":[3.227777E1,1.4941346E1,4.4014187E0,6.9676685E0,0E0,0E0,7.1089363E-1,1.4606915E0,3.9432259E0,0E0,3.7449074E-1,6.8618584E-1,0E0,0E0,0E0,0E0,0E0,0E0,0E0],"parents":[2147483647,0,0,1,1,2,2,3,3,6,6,7,7,8,8,10,10,11,11],"right_children":[2,4,6,8,-1,-1,10,12,14,-1,16,18,-1,-1,-1,-1,-1,-1,-1],"split_conditions":[1.06E2,1.607E-1,1.615E1,9.377E1,-1.1652712E-1,3.7090283E-2,6.877E-2,1.553E1,6.85E2,-1.9168692E-2,1.623E1,1.999E-1,-1.1309761E-3,7.174199E-2,-1.0424669E-1,-2.962952E-2,-1.246291E-1,1.1907097E-2,1.0991025E-1],"split_indices":[22,27,1,2,0,0,6,20,3,0,20,28,0,0,0,0,0,0,0],"split_type":[0,0,0,0,0,0,0,0,0,0,0,0,0,0,0,0,0,0,0],"sum_hessian":[5.1451874E1,3.1218296E1,2.0233578E1,2.7751263E1,3.467032E0,1.6372901E0,1.8596289E1,2.4274052E1,3.4772108E0,1.1604844E0,1.7435804E1,2.29599E1,1.314153E0,1.2046324E0,2.2725782E0,1.1765633E0,1.6259241E1,1.0047501E0,2.1955149E1],"tree_param":{"num_deleted":"0","num_feature":"30","num_nodes":"19","size_leaf_vector":"1"}},{"base_weights":[-1.2479803E-1,8.2483035E-1,-6.747008E-1,1.0230224E0,9.342441E-2,4.5892742E-1,-1.0151875E0,1.0752636E-1,1.7544325E-2,6.7252314E-1,-1.0822176E-1,1.00791745E-1,-6.38701E-1,4.6333665E-1,-1.1755952E0,7.593602E-2,2.0624427E-2,-1.9115765E-3,-9.571237E-2,-3.2181826E-3,7.0675425E-2,-1.1277775E-2,-1.2197446E-1],"categories":[],"categories_nodes":[],"categories_segments":[],"categories_sizes":[],"default_left":[0,0,0,1,1,1,0,0,0,1,0,0,1,1,0,0,0,0,0,0,0,0,0],"id":12,"left_children":[1,3,5,7,9,11,13,-1,-1,15,-1,-1,17,19,21,-1,-1,-1,-1,-1,-1,-1,-1],"loss_changes":[2.6722216E1,2.6332407E0,1.2926115E1,4.6272373E-1,4.2094765E0,5.551817E0,6.50626E0,0E0,0E0,7.088542E-3,0E0,0E0,6.3822293E-1,4.060074E-1,9.3974495E-1,0E0,0E0,0E0,0E0,0E0,0E0,0E0,0E0],"parents":[2147483647,0,0,1,1,2,2,3,3,4,4,5,5,6,6,9,9,12,12,13,13,14,14],"right_children":[2,4,6,8,10,12,14,-1,-1,16,-1,-1,18,20,22,-1,-1,-1,-1,-1,-1,-1,-1],"split_conditions":[7.393E2,1.712E-1,5.102E-2,2.449E1,1.38E0,2.803E1,1.842E1,1.0752636E-1,1.7544325E-2,2.101E-2,-1.0822176E-1,1.00791745E-1,2.683E-1,1.024E-1,1.142E-1,7.593602E-2,2.0624427E-2,-1.9115765E-3,-9.571237E-2,-3.2181826E-3,7.0675425E-2,-1.1277775E-2,-1.2197446E-1],"split_indices":[23,27,7,1,11,21,21,0,0,16,0,0,28,4,24,0,0,0,0,0,0,0,0],"split_type":[0,0,0,0,0,0,0,0,0,0,0,0,0,0,0,0,0,0,0,0,0,0,0],"sum_hessian":[4.910635E1,1.7824764E1,3.1281586E1,1.3710789E1,4.113976E0,7.144981E0,2.4136604E1,1.2661745E1,1.049044E0,3.043003E0,1.0709727E0,4.8172946E0,2.3276865E0,2.1774955E0,2.1959108E1,2.0353901E0,1.0076131E0,1.1500186E0,1.177668E0,1.0031673E0,1.1743282E0,1.017564E0,2.0941545E1],"tree_param":{"num_deleted":"0","num_feature":"30","num_nodes":"23","size_leaf_vector":"1"}},{"base_weights":[-9.45856E-2,5.706273E-1,-8.683396E-1,7.880433E-1,-1.0121248E-1,4.6657446E-1,-1.0515621E0,9.9867284E-1,-2.5111547E-1,7.550645E-2,-8.624863E-3,-1.18012436E-1,-1.19651094E-1,1.04068436E-1,4.2115252E-2,5.0364126E-2,-8.6993836E-2,-7.772105E-2,7.674771E-2],"categories":[],"categories_nodes":[],"categories_segments":[],"categories_sizes":[],"default_left":[1,1,0,1,0,0,0,1,0,0,0,1,0,0,0,0,0,0,0],"id":13,"left_children":[1,3,5,7,-1,9,11,13,15,-1,-1,17,-1,-1,-1,-1,-1,-1,-1],"loss_changes":[2.4458038E1,9.619674E0,5.8515663E0,5.307478E0,0E0,5.9747666E-1,2.508358E0,3.265381E-2,2.629889E0,0E0,0E0,2.7801642E0,0E0,0E0,0E0,0E0,0E0,0E0,0E0],"parents":[2147483647,0,0,1,1,2,2,3,3,5,5,6,6,7,7,8,8,11,11],"right_children":[2,4,6,8,-1,10,12,14,16,-1,-1,18,-1,-1,-1,-1,-1,-1,-1],"split_conditions":[1.025E2,1.741E-1,1.971E1,3.444E1,-1.0121248E-1,1.625E1,5.102E-2,2.244E1,6.737E2,7.550645E-2,-8.624863E-3,5.862E-2,-1.19651094E-1,1.04068436E-1,4.2115252E-2,5.0364126E-2,-8.6993836E-2,-7.772105E-2,7.674771E-2],"split_indices":[22,27,21,13,0,0,7,1,3,0,0,6,0,0,0,0,0,0,0],"split_type":[0,0,0,0,0,0,0,0,0,0,0,0,0,0,0,0,0,0,0],"sum_hessian":[4.555532E1,2.463694E1,2.091838E1,2.2102865E1,2.5340734E0,2.3379753E0,1.8580406E1,1.8410217E1,3.6926494E0,1.2958852E0,1.0420899E0,2.7410047E0,1.5839401E1,1.6414186E1,1.99603E0,1.7474616E0,1.9451878E0,1.6413739E0,1.0996307E0],"tree_param":{"num_deleted":"0","num_feature":"30","num_nodes":"19","size_leaf_vector":"1"}},{"base_weights":[-6.3598216E-2,7.762513E-1,-6.895434E-1,9.240008E-1,-7.551153E-2,7.876161E-2,-9.474918E-1,1.0147407E0,-5.9012254E-3,4.244819E-2,-1.090903E0,2.3765314E-2,1.05466664E-1,7.793031E-2,-7.816508E-2,4.2043454E-3,-1.1567117E0,-2.510657E-2,-1.19875036E-1],"categories":[],"categories_nodes":[],"categories_segments":[],"categories_sizes":[],"default_left":[0,1,0,1,0,0,0,0,0,1,0,0,0,0,0,0,0,0,0],"id":14,"left_children":[1,3,5,7,-1,-1,9,11,-1,13,15,-1,-1,-1,-1,-1,17,-1,-1],"loss_changes":[2.3787344E1,5.0777483E0,1.0604388E1,1.6748028E0,0E0,0E0,3.2377453E0,2.653103E-1,0E0,2.9209676E0,1.5153923E0,0E0,0E0,0E0,0E0,0E0,4.0823555E-1,0E0,0E0],"parents":[2147483647,0,0,1,1,2,2,3,3,6,6,7,7,9,9,10,10,16,16],"right_children":[2,4,6,8,-1,-1,10,12,-1,14,16,-1,-1,-1,-1,-1,18,-1,-1],"split_conditions":[1.456E-1,1.051E2,2.177E-1,8.26E2,-7.551153E-2,7.876161E-2,7.112E2,3.978E-3,-5.9012254E-3,2.367E-1,1.031E2,2.3765314E-2,1.05466664E-1,7.793031E-2,-7.816508E-2,4.2043454E-3,9.536E-3,-2.510657E-2,-1.19875036E-1],"split_indices":[27,2,26,23,0,0,23,14,0,10,22,0,0,0,0,0,17,0,0],"split_type":[0,0,0,0,0,0,0,0,0,0,0,0,0,0,0,0,0,0,0],"sum_hessian":[4.323073E1,1.8358479E1,2.487225E1,1.710479E1,1.253689E0,3.3923476E0,2.1479902E1,1.5629762E1,1.4750276E0,2.8070934E0,1.867281E1,1.1035452E0,1.45262165E1,1.5106908E0,1.2964025E0,1.0449151E0,1.7627893E1,1.0912474E0,1.6536648E1],"tree_param":{"num_deleted":"0","num_feature":"30","num_nodes":"19","size_leaf_vector":"1"}},{"base_weights":[-1.12048596E-1,6.8999326E-1,-6.968669E-1,8.5333353E-1,-6.066839E-2,4.6404392E-1,-9.44842E-1,9.875385E-1,-3.245869E-2,8.847267E-2,-5.7229906E-2,3.6775067E-1,-1.1195786E0,1.0357759E-1,3.019828E-2,5.7638235E-2,-6.511199E-2,6.588061E-2,-9.126891E-3,-3.487378E-2,-1.15692936E-1],"categories":[],"categories_nodes":[],"categories_segments":[],"categories_sizes":[],"default_left":[0,1,0,1,0,0,0,1,0,0,0,1,0,0,0,0,0,0,0,0,0],"id":15,"left_children":[1,3,5,7,-1,9,11,13,15,-1,-1,17,19,-1,-1,-1,-1,-1,-1,-1,-1],"loss_changes":[1.9637554E1,4.2718067E0,7.381134E0,1.9528027E0,0E0,2.6492972E0,5.0450954E0,1.522789E-1,1.5407233E0,0E0,0E0,4.7777346E-1,1.1694908E-1,0E0,0E0,0E0,0E0,0E0,0E0,0E0,0E0],"parents":[2147483647,0,0,1,1,2,2,3,3,5,5,6,6,7,7,8,8,11,11,12,12],"right_children":[2,4,6,8,-1,10,12,14,16,-1,-1,18,20,-1,-1,-1,-1,-1,-1,-1,-1],"split_conditions":[5.102E-2,9.314E2,7.259E2,1.809E0,-6.066839E-2,1.712E-1,1.92E1,3.025E1,1.518E-1,8.847267E-2,-5.7229906E-2,6.133E-3,1.288E-1,1.0357759E-1,3.019828E-2,5.7638235E-2,-6.511199E-2,6.588061E-2,-9.126891E-3,-3.487378E-2,-1.15692936E-1],"split_indices":[7,23,23,11,0,27,21,21,24,0,0,14,27,0,0,0,0,0,0,0,0],"split_type":[0,0,0,0,0,0,0,0,0,0,0,0,0,0,0,0,0,0,0,0,0],"sum_hessian":[3.9841637E1,1.6724789E1,2.3116848E1,1.5157351E1,1.5674388E0,3.9153872E0,1.9201462E1,1.3063288E1,2.094063E0,2.8889678E0,1.0264195E0,2.1260822E0,1.7075378E1,1.1727273E1,1.3360144E0,1.0898508E0,1.0042123E0,1.0347323E0,1.0913498E0,1.2668606E0,1.5808518E1],"tree_param":{"num_deleted":"0","num_feature":"30","num_nodes":"21","size_leaf_vector":"1"}},{"base_weights":[-9.378872E-2,6.784942E-1,-6.497707E-1,8.4679085E-1,-7.448552E-2,7.5737074E-2,-9.1040367E-1,1.0048447E-1,2.5641683E-1,2.8451944E-2,-9.935161E-1,6.43395E-1,-5.7107102E-2,-1.042738E0,-6.813638E-3,7.697109E-2,1.5540808E-2,-1.3958799E-2,-1.1025798E0,-4.5681883E-2,-1.1556967E-1],"categories":[],"categories_nodes":[],"categories_segments":[],"categories_sizes":[],"default_left":[0,1,0,1,0,0,0,0,0,0,1,1,0,0,0,0,0,0,0,0,0],"id":16,"left_children":[1,3,5,7,-1,-1,9,-1,11,-1,13,15,-1,17,-1,-1,-1,-1,19,-1,-1],"loss_changes":[1.7324255E1,4.690544E0,9.261434E0,1.200222E0,0E0,0E0,2.2862473E0,0E0,1.8539119E0,0E0,7.982502E-1,1.0433018E-1,0E0,8.216934E-1,0E0,0E0,0E0,0E0,4.778099E-2,0E0,0E0],"parents":[2147483647,0,0,1,1,2,2,3,3,6,6,8,8,10,10,11,11,13,13,18,18],"right_children":[2,4,6,8,-1,-1,10,-1,12,-1,14,16,-1,18,-1,-1,-1,-1,20,-1,-1],"split_conditions":[1.456E-1,9.67E2,2.177E-1,1.499E1,-7.448552E-2,7.5737074E-2,4.558E2,1.0048447E-1,2.933E1,2.8451944E-2,8.958E-2,1.694E1,-5.7107102E-2,1.607E1,-6.813638E-3,7.697109E-2,1.5540808E-2,-1.3958799E-2,2.321E1,-4.5681883E-2,-1.1556967E-1],"split_indices":[27,23,26,20,0,0,3,0,21,0,16,1,0,1,0,0,0,0,21,0,0],"split_type":[0,0,0,0,0,0,0,0,0,0,0,0,0,0,0,0,0,0,0,0,0],"sum_hessian":[3.8320816E1,1.5948E1,2.2372816E1,1.46239395E1,1.3240608E0,3.198488E0,1.9174328E1,1.0981853E1,3.6420875E0,1.089342E0,1.8084986E1,2.633154E0,1.0089334E0,1.7051193E1,1.0337923E0,1.6331042E0,1.0000496E0,1.2666832E0,1.578451E1,1.9293205E0,1.3855189E1],"tree_param":{"num_deleted":"0","num_feature":"30","num_nodes":"21","size_leaf_vector":"1"}},{"base_weights":[-7.840133E-2,3.7224144E-1,-9.673148E-1,6.8388075E-1,-9.103232E-1,1.2747317E-2,-1.08999744E-1,8.0393064E-1,-5.1092513E-2,-1.0071309E-1,-2.441874E-2,9.5045906E-1,8.025278E-2,1.0208614E-1,3.6129963E-1,6.697502E-2,-6.5673895E-2,6.0775824E-2,-1.0048468E-2],"categories":[],"categories_nodes":[],"categories_segments":[],"categories_sizes":[],"default_left":[1,1,0,1,1,0,0,1,0,0,0,1,1,0,1,0,0,0,0],"id":17,"left_children":[1,3,5,7,9,-1,-1,11,-1,-1,-1,13,15,-1,17,-1,-1,-1,-1],"loss_changes":[1.5431882E1,1.0890558E1,1.8763046E0,3.457139E0,1.0557842E-1,0E0,0E0,2.0114326E0,0E0,0E0,0E0,3.0645752E-1,2.354653E0,0E0,4.3500745E-1,0E0,0E0,0E0,0E0],"parents":[2147483647,0,0,1,1,2,2,3,3,4,4,7,7,11,11,12,12,14,14],"right_children":[2,4,6,8,10,-1,-1,12,-1,-1,-1,14,16,-1,18,-1,-1,-1,-1],"split_conditions":[1.456E-1,8.765E2,7.112E2,4.911E1,6.248E-3,1.2747317E-2,-1.08999744E-1,1.574E1,-5.1092513E-2,-1.0071309E-1,-2.441874E-2,1.419E-1,1.705E1,1.0208614E-1,7.334E1,6.697502E-2,-6.5673895E-2,6.0775824E-2,-1.0048468E-2],"split_indices":[27,23,23,13,14,0,0,20,0,0,0,24,1,0,2,0,0,0,0],"split_type":[0,0,0,0,0,0,0,0,0,0,0,0,0,0,0,0,0,0,0],"sum_hessian":[3.662474E1,2.4689442E1,1.1935298E1,2.023862E1,4.4508204E0,1.1987665E0,1.0736531E1,1.8688055E1,1.5505651E0,3.4391227E0,1.0116978E0,1.5280687E1,3.407368E0,1.2995082E1,2.2856057E0,1.9438106E0,1.4635574E0,1.2841399E0,1.0014657E0],"tree_param":{"num_deleted":"0","num_feature":"30","num_nodes":"19","size_leaf_vector":"1"}},{"base_weights":[-5.9235025E-2,3.657471E-1,-1.07321694E-1,6.466785E-1,-6.9494325E-1,7.7241415E-1,-5.060192E-2,1.4999405E-2,-9.070688E-2,8.50012E-1,-2.92567E-2,9.521702E-1,2.3465604E-1,1.0052849E-1,3.5226017E-2,7.593182E-2,-4.7057223E-2],"categories":[],"categories_nodes":[],"categories_segments":[],"categories_sizes":[],"default_left":[1,1,0,1,0,1,0,0,0,1,0,1,0,0,0,0,0],"id":18,"left_children":[1,3,-1,5,7,9,-1,-1,-1,11,-1,13,15,-1,-1,-1,-1],"loss_changes":[1.5541981E1,8.053499E0,0E0,3.3900223E0,1.1801836E0,1.8232937E0,0E0,0E0,0E0,9.0910625E-1,0E0,1.2778091E-1,1.7974138E0,0E0,0E0,0E0,0E0],"parents":[2147483647,0,0,1,1,3,3,4,4,5,5,9,9,11,11,12,12],"right_children":[2,4,-1,6,8,10,-1,-1,-1,12,-1,14,16,-1,-1,-1,-1],"split_conditions":[8.765E2,1.459E-1,-1.07321694E-1,4.911E1,2.544E1,1.321E-1,-5.060192E-2,1.4999405E-2,-9.070688E-2,1.589E1,-2.92567E-2,2.244E1,2.275E1,1.0052849E-1,3.5226017E-2,7.593182E-2,-4.7057223E-2],"split_indices":[23,27,0,13,21,6,0,0,0,20,0,1,21,0,0,0,0],"split_type":[0,0,0,0,0,0,0,0,0,0,0,0,0,0,0,0,0],"sum_hessian":[3.415573E1,2.4518702E1,9.637031E0,1.9693151E1,4.825548E0,1.8053764E1,1.639388E0,1.0271417E0,3.7984066E0,1.7015793E1,1.0379715E0,1.4123701E1,2.892092E0,1.2354164E1,1.7695363E0,1.6143675E0,1.2777245E0],"tree_param":{"num_deleted":"0","num_feature":"30","num_nodes":"17","size_leaf_vector":"1"}},{"base_weights":[-8.138245E-2,6.741234E-1,-6.021979E-1,8.7997466E-1,-4.08716E-2,2.4876784E-1,-8.865188E-1,9.635544E-2,2.6183976E-2,8.095952E-2,-3.084652E-1,-1.0217235E-1,-1.0591381E0,2.4609443E-2,-7.019567E-2,6.751653E-2,-6.510247E-2,-3.188525E-2,-1.1024036E-1],"categories":[],"categories_nodes":[],"categories_segments":[],"categories_sizes":[],"default_left":[0,1,0,1,0,0,1,0,0,0,0,0,0,0,0,0,0,0,0],"id":19,"left_children":[1,3,5,7,-1,9,11,-1,-1,-1,13,15,17,-1,-1,-1,-1,-1,-1],"loss_changes":[1.3121747E1,3.4042602E0,4.976617E0,3.5703087E-1,0E0,2.0322647E0,1.9164019E0,0E0,0E0,0E0,9.55095E-1,2.062555E0,3.7631035E-2,0E0,0E0,0E0,0E0,0E0,0E0],"parents":[2147483647,0,0,1,1,2,2,3,3,5,5,6,6,10,10,11,11,12,12],"right_children":[2,4,6,8,-1,10,12,-1,-1,-1,14,16,18,-1,-1,-1,-1,-1,-1],"split_conditions":[1.456E-1,6.937E2,5.55E-2,1.025E2,-4.08716E-2,2.569E0,1.938E-1,9.635544E-2,2.6183976E-2,8.095952E-2,1.106E2,1.566E1,1.618E1,2.4609443E-2,-7.019567E-2,6.751653E-2,-6.510247E-2,-3.188525E-2,-1.1024036E-1],"split_indices":[27,3,7,22,0,12,10,0,0,0,22,20,1,0,0,0,0,0,0],"split_type":[0,0,0,0,0,0,0,0,0,0,0,0,0,0,0,0,0,0,0],"sum_hessian":[3.1316303E1,1.2658808E1,1.8657495E1,1.0794151E1,1.864657E0,4.703895E0,1.3953601E1,9.016232E0,1.7779194E0,2.1186724E0,2.5852225E0,2.8041255E0,1.1149476E1,1.228478E0,1.3567445E0,1.0652606E0,1.738865E0,1.0777946E0,1.0071681E1],"tree_param":{"num_deleted":"0","num_feature":"30","num_nodes":"19","size_leaf_vector":"1"}},{"base_weights":[-8.120456E-2,3.372344E-1,-1.0457557E-1,5.7465595E-1,-7.859567E-2,7.20316E-1,-5.858291E-2,8.793425E-1,-9.5687084E-2,1.0037922E-1,1.6352357E-1,6.197391E-2,-7.448746E-2,7.122221E-2,-5.454067E-2],"categories":[],"categories_nodes":[],"categories_segments":[],"categories_sizes":[],"default_left":[1,1,0,1,0,1,0,1,0,0,0,0,0,0,0],"id":20,"left_children":[1,3,-1,5,-1,7,-1,9,11,-1,13,-1,-1,-1,-1],"loss_changes":[1.3020625E1,6.49083E0,0E0,3.6797404E0,0E0,2.3643675E0,0E0,1.1546469E0,2.211571E0,0E0,1.7060283E0,0E0,0E0,0E0,0E0],"parents":[2147483647,0,0,1,1,3,3,5,5,7,7,8,8,10,10],"right_children":[2,4,-1,6,-1,8,-1,10,12,-1,14,-1,-1,-1,-1],"split_conditions":[8.765E2,1.607E-1,-1.0457557E-1,4.115E0,-7.859567E-2,3.025E1,-5.858291E-2,1.639E1,1.535E1,1.0037922E-1,1.694E1,6.197391E-2,-7.448746E-2,7.122221E-2,-5.454067E-2],"split_indices":[23,27,0,12,0,21,0,20,20,0,1,0,0,0,0],"split_type":[0,0,0,0,0,0,0,0,0,0,0,0,0,0,0],"sum_hessian":[3.0386963E1,2.1646645E1,8.740318E0,1.8272543E1,3.3741016E0,1.6571806E1,1.7007374E0,1.3803997E1,2.7678094E0,1.1416812E1,2.387185E0,1.3383096E0,1.4294997E0,1.3430481E0,1.0441369E0],"tree_param":{"num_deleted":"0","num_feature":"30","num_nodes":"15","size_leaf_vector":"1"}},{"base_weights":[-3.087912E-2,7.6325005E-1,-5.545909E-1,8.7718445E-1,-6.1218133E-3,6.1390426E-2,-7.2495663E-1,2.5631184E-2,9.530182E-2,1.9352505E-2,-9.081495E-1,4.5686375E-2,-6.0637284E-2,-4.738513E-3,-1.0376163E-1],"categories":[],"categories_nodes":[],"categories_segments":[],"categories_sizes":[],"default_left":[0,1,0,0,0,0,0,0,0,0,0,0,0,0,0],"id":21,"left_children":[1,3,5,7,-1,-1,9,-1,-1,11,13,-1,-1,-1,-1],"loss_changes":[1.2148346E1,1.1456523E0,3.9423099E0,2.3966789E-1,0E0,0E0,2.1707E0,0E0,0E0,1.3989149E0,1.3653316E0,0E0,0E0,0E0,0E0],"parents":[2147483647,0,0,1,1,2,2,3,3,6,6,9,9,10,10],"right_children":[2,4,6,8,-1,-1,10,-1,-1,12,14,-1,-1,-1,-1],"split_conditions":[1.456E-1,8.26E2,1.791E1,4.444E-3,-6.1218133E-3,6.1390426E-2,4.846E-2,2.5631184E-2,9.530182E-2,1.806E-2,1.249E-1,4.5686375E-2,-6.0637284E-2,-4.738513E-3,-1.0376163E-1],"split_indices":[27,23,13,14,0,0,7,0,0,17,24,0,0,0,0],"split_type":[0,0,0,0,0,0,0,0,0,0,0,0,0,0,0],"sum_hessian":[2.7192358E1,1.0624515E1,1.6567842E1,9.278381E0,1.3461324E0,1.7769239E0,1.4790919E1,1.4866519E0,7.79173E0,3.0980327E0,1.1692886E1,1.9820416E0,1.1159912E0,1.7073714E0,9.985516E0],"tree_param":{"num_deleted":"0","num_feature":"30","num_nodes":"15","size_leaf_vector":"1"}},{"base_weights":[-1.3226901E-2,6.240215E-1,-4.8168832E-1,8.1588674E-1,-3.458799E-2,1.3845147E-1,-8.445257E-1,9.342926E-2,1.6170625E-2,6.943921E-1,-6.183163E-1,-6.6358927E-3,-9.726301E-2,8.126681E-2,1.68896E-2,-2.4716614E-3,-8.762964E-2],"categories":[],"categories_nodes":[],"categories_segments":[],"categories_sizes":[],"default_left":[0,1,0,1,0,1,0,0,0,1,1,0,0,0,0,0,0],"id":22,"left_children":[1,3,5,7,-1,9,11,-1,-1,13,15,-1,-1,-1,-1,-1,-1],"loss_changes":[8.363399E0,2.4926844E0,3.7463741E0,6.401248E-1,0E0,3.2957613E0,9.639268E-1,0E0,0E0,1.3614154E-1,5.0120914E-1,0E0,0E0,0E0,0E0,0E0,0E0],"parents":[2147483647,0,0,1,1,2,2,3,3,5,5,6,6,9,9,10,10],"right_children":[2,4,6,8,-1,10,12,-1,-1,14,16,-1,-1,-1,-1,-1,-1],"split_conditions":[1.456E-1,6.937E2,6.737E2,1.589E1,-3.458799E-2,1.419E-1,2.355E0,9.342926E-2,1.6170625E-2,2.373E1,2.028E1,-6.6358927E-3,-9.726301E-2,8.126681E-2,1.68896E-2,-2.4716614E-3,-8.762964E-2],"split_indices":[27,3,3,20,0,24,12,0,0,21,1,0,0,0,0,0,0],"split_type":[0,0,0,0,0,0,0,0,0,0,0,0,0,0,0,0,0],"sum_hessian":[2.6008728E1,1.0878556E1,1.5130173E1,9.214537E0,1.6640197E0,5.8131337E0,9.317039E0,7.439761E0,1.7747757E0,3.39875E0,2.4143836E0,1.531569E0,7.7854695E0,2.3282433E0,1.0705069E0,1.063388E0,1.3509955E0],"tree_param":{"num_deleted":"0","num_feature":"30","num_nodes":"17","size_leaf_vector":"1"}},{"base_weights":[-4.41249E-2,2.926564E-1,-9.587856E-2,7.6421964E-1,-2.0620956E-1,9.1319877E-1,-4.097979E-3,6.975427E-2,-6.899865E-1,9.6678965E-2,2.5033806E-2,-7.350534E-3,-8.855601E-1,-2.3098566E-2,-1.0154375E-1],"categories":[],"categories_nodes":[],"categories_segments":[],"categories_sizes":[],"default_left":[1,0,0,1,0,1,0,0,0,0,0,0,1,0,0],"id":23,"left_children":[1,3,-1,5,7,9,-1,-1,11,-1,-1,-1,13,-1,-1],"loss_changes":[8.412573E0,4.8768344E0,0E0,1.2999926E0,5.0876637E0,7.501173E-2,0E0,0E0,8.228915E-1,0E0,0E0,0E0,2.3309183E-1,0E0,0E0],"parents":[2147483647,0,0,1,1,3,3,4,4,5,5,8,8,12,12],"right_children":[2,4,-1,6,8,10,-1,-1,12,-1,-1,-1,14,-1,-1],"split_conditions":[1.177E2,2.648E1,-9.587856E-2,3.674E1,1.445E1,3.639E-1,-4.097979E-3,6.975427E-2,1.318E-1,9.6678965E-2,2.5033806E-2,-7.350534E-3,1.256E-1,-2.3098566E-2,-1.0154375E-1],"split_indices":[22,21,0,13,20,10,0,0,27,0,0,0,24,0,0],"split_type":[0,0,0,0,0,0,0,0,0,0,0,0,0,0,0],"sum_hessian":[2.5399046E1,1.9060822E1,6.338224E0,9.525106E0,9.535716E0,7.924734E0,1.6003724E0,3.170668E0,6.3650484E0,6.907746E0,1.0169879E0,1.8643005E0,4.5007477E0,1.2051835E0,3.2955642E0],"tree_param":{"num_deleted":"0","num_feature":"30","num_nodes":"15","size_leaf_vector":"1"}},{"base_weights":[-8.2030244E-2,2.9637802E-1,-9.0393126E-1,8.015464E-1,-2.44755E-1,-9.753367E-2,-2.0136358E-2,9.2319794E-2,-4.2562094E-3,5.266549E-1,-6.36025E-1,7.172574E-2,7.485925E-4,1.653974E-2,-9.001753E-1,-2.1482237E-2,-1.0197314E-1],"categories":[],"categories_nodes":[],"categories_segments":[],"categories_sizes":[],"default_left":[1,0,0,1,0,0,0,0,0,1,0,0,0,0,1,0,0],"id":24,"left_children":[1,3,5,7,9,-1,-1,-1,-1,11,13,-1,-1,-1,15,-1,-1],"loss_changes":[8.124357E0,5.1304336E0,2.155056E-1,1.0219283E0,3.196592E0,0E0,0E0,0E0,0E0,3.644842E-1,1.5764241E0,0E0,0E0,0E0,2.0922232E-1,0E0,0E0],"parents":[2147483647,0,0,1,1,2,2,3,3,4,4,9,9,10,10,14,14],"right_children":[2,4,6,8,10,-1,-1,-1,-1,12,14,-1,-1,-1,16,-1,-1],"split_conditions":[8.765E2,1.416E-1,7.09E-1,5.603E-2,2.321E1,-9.753367E-2,-2.0136358E-2,9.2319794E-2,-4.2562094E-3,3.925E-3,1.318E-1,7.172574E-2,7.485925E-4,1.653974E-2,2.367E-1,-2.1482237E-2,-1.0197314E-1],"split_indices":[23,24,25,7,21,0,0,0,0,19,27,0,0,0,10,0,0],"split_type":[0,0,0,0,0,0,0,0,0,0,0,0,0,0,0,0,0],"sum_hessian":[2.4260756E1,1.7050158E1,7.2105975E0,8.569222E0,8.480935E0,6.192933E0,1.0176646E0,7.4079113E0,1.1613116E0,2.737598E0,5.7433367E0,1.7233542E0,1.0142438E0,1.5164212E0,4.2269154E0,1.0432632E0,3.1836522E0],"tree_param":{"num_deleted":"0","num_feature":"30","num_nodes":"17","size_leaf_vector":"1"}},{"base_weights":[-6.888543E-2,4.802357E-1,-5.972648E-1,7.922788E-1,-2.5791228E-1,4.2509686E-2,-7.722491E-1,9.506311E-2,-5.0060395E-3,5.7833225E-2,-6.8602604E-1,9.316071E-3,-9.0748733E-1,-1.7066412E-2,-8.4768385E-2,-2.8669972E-2,-9.825057E-2],"categories":[],"categories_nodes":[],"categories_segments":[],"categories_sizes":[],"default_left":[0,1,0,1,0,0,0,0,0,0,0,0,0,0,0,0,0],"id":25,"left_children":[1,3,5,7,9,-1,11,-1,-1,-1,13,-1,15,-1,-1,-1,-1],"loss_changes":[7.2341456E0,3.0365305E0,2.5910316E0,1.2331386E0,1.9748236E0,0E0,1.3900719E0,0E0,0E0,0E0,1.3632727E-1,0E0,1.7193127E-1,0E0,0E0,0E0,0E0],"parents":[2147483647,0,0,1,1,2,2,3,3,4,4,6,6,10,10,12,12],"right_children":[2,4,6,8,10,-1,12,-1,-1,-1,14,-1,16,-1,-1,-1,-1],"split_conditions":[6.937E2,1.411E-1,1.615E1,2.972E1,6.391E2,4.2509686E-2,1.038E-2,9.506311E-2,-5.0060395E-3,5.7833225E-2,3.088E1,9.316071E-3,1.357E-1,-1.7066412E-2,-8.4768385E-2,-2.8669972E-2,-9.825057E-2],"split_indices":[3,24,1,21,23,0,17,0,0,0,21,0,27,0,0,0,0],"split_type":[0,0,0,0,0,0,0,0,0,0,0,0,0,0,0,0,0],"sum_hessian":[2.2944353E1,1.12960205E1,1.1648333E1,7.888091E0,3.407929E0,1.4934385E0,1.0154895E1,6.53164E0,1.356451E0,1.0351201E0,2.3728087E0,1.4144905E0,8.740404E0,1.057436E0,1.3153727E0,1.4622017E0,7.2782025E0],"tree_param":{"num_deleted":"0","num_feature":"30","num_nodes":"17","size_leaf_vector":"1"}},{"base_weights":[-4.204074E-2,3.0324966E-1,-9.382466E-2,7.489046E-1,-2.065385E-1,-1.8367983E-2,8.852038E-2,4.919777E-1,-5.563706E-1,2.347023E-3,6.779797E-2,7.9272045E-3,-8.086559E-2],"categories":[],"categories_nodes":[],"categories_segments":[],"categories_sizes":[],"default_left":[1,0,0,0,0,0,0,1,0,0,0,0,0],"id":26,"left_children":[1,3,-1,5,7,-1,-1,9,11,-1,-1,-1,-1],"loss_changes":[7.2478123E0,4.01677E0,0E0,1.3429947E0,2.4028616E0,0E0,0E0,2.8370613E-1,1.0703481E0,0E0,0E0,0E0,0E0],"parents":[2147483647,0,0,1,1,3,3,4,4,7,7,8,8],"right_children":[2,4,-1,6,8,-1,-1,10,12,-1,-1,-1,-1],"split_conditions":[8.969E2,5.246E-2,-9.382466E-2,2.267E-1,3.114E-1,-1.8367983E-2,8.852038E-2,8.677E-2,1.566E1,2.347023E-3,6.779797E-2,7.9272045E-3,-8.086559E-2],"split_indices":[23,7,0,28,26,0,0,4,20,0,0,0,0],"split_type":[0,0,0,0,0,0,0,0,0,0,0,0,0],"sum_hessian":[2.1502054E1,1.5999423E1,5.5026317E0,8.286417E0,7.713006E0,1.0123187E0,7.274098E0,2.4382274E0,5.274779E0,1.0129528E0,1.4252745E0,1.6935638E0,3.581215E0],"tree_param":{"num_deleted":"0","num_feature":"30","num_nodes":"13","size_leaf_vector":"1"}},{"base_weights":[-3.4372855E-2,5.775373E-1,-4.7298536E-1,7.640428E-1,-2.5827063E-2,5.522565E-2,-6.6655606E-1,9.032368E-2,-9.589384E-3,5.75643E-2,-8.484702E-1,6.513908E-2,-5.8588322E-2,-1.8429337E-2,-9.517076E-2],"categories":[],"categories_nodes":[],"categories_segments":[],"categories_sizes":[],"default_left":[0,1,0,1,0,0,0,0,0,1,0,0,0,0,0],"id":27,"left_children":[1,3,5,7,-1,-1,9,-1,-1,11,13,-1,-1,-1,-1],"loss_changes":[6.121623E0,1.6857431E0,2.9961712E0,1.0512581E0,0E0,0E0,1.5758867E0,0E0,0E0,1.6288015E0,4.642377E-1,0E0,0E0,0E0,0E0],"parents":[2147483647,0,0,1,1,2,2,3,3,6,6,9,9,10,10],"right_children":[2,4,6,8,-1,-1,10,-1,-1,12,14,-1,-1,-1,-1],"split_conditions":[5.246E-2,3.444E1,2.177E-1,1.138E2,-2.5827063E-2,5.522565E-2,2.384E1,9.032368E-2,-9.589384E-3,1.739E1,1.023E2,6.513908E-2,-5.8588322E-2,-1.8429337E-2,-9.517076E-2],"split_indices":[7,13,26,22,0,0,21,0,0,20,22,0,0,0,0],"split_type":[0,0,0,0,0,0,0,0,0,0,0,0,0,0,0],"sum_hessian":[2.079077E1,8.548285E0,1.2242485E1,7.0589795E0,1.4893055E0,1.6500491E0,1.0592436E1,6.0322194E0,1.02676E0,2.2640018E0,8.328434E0,1.17098E0,1.0930219E0,1.4950683E0,6.833366E0],"tree_param":{"num_deleted":"0","num_feature":"30","num_nodes":"15","size_leaf_vector":"1"}},{"base_weights":[-8.0451146E-2,6.6815186E-1,-3.905344E-1,8.475074E-2,-1.581115E-2,4.1293094E-1,-5.8707434E-1,6.644175E-2,-8.814524E-3,-2.4739835E-2,-8.033034E-1,6.605205E-2,-5.25899E-1,-2.123891E-1,-9.476768E-2,-8.588405E-3,-7.1313426E-2,2.1679733E-2,-5.225131E-2],"categories":[],"categories_nodes":[],"categories_segments":[],"categories_sizes":[],"default_left":[0,1,0,0,0,0,0,0,0,0,0,0,0,0,0,0,0,0,0],"id":28,"left_children":[1,3,5,-1,-1,7,9,-1,-1,11,13,-1,15,17,-1,-1,-1,-1,-1],"loss_changes":[5.1141186E0,1.0961564E0,2.676609E0,0E0,0E0,5.143156E-1,1.5362844E0,0E0,0E0,1.9223678E0,5.8461237E-1,0E0,2.0285416E-1,5.255738E-1,0E0,0E0,0E0,0E0,0E0],"parents":[2147483647,0,0,1,1,2,2,5,5,6,6,9,9,10,10,12,12,13,13],"right_children":[2,4,6,-1,-1,8,10,-1,-1,12,14,-1,16,18,-1,-1,-1,-1,-1],"split_conditions":[1.096E-1,6.442E2,1.658E1,8.475074E-2,-1.581115E-2,1.457E-1,1.58E1,6.644175E-2,-8.814524E-3,1.405E-1,3.444E1,6.605205E-2,3.805E1,4.846E-2,-9.476768E-2,-8.588405E-3,-7.1313426E-2,2.1679733E-2,-5.225131E-2],"split_indices":[27,3,1,0,0,6,20,0,0,24,13,0,21,7,0,0,0,0,0],"split_type":[0,0,0,0,0,0,0,0,0,0,0,0,0,0,0,0,0,0,0],"sum_hessian":[1.990724E1,5.4924994E0,1.4414741E1,4.491768E0,1.0007313E0,2.616667E0,1.1798074E1,1.5251994E0,1.0914676E0,3.5861633E0,8.21191E0,1.380521E0,2.2056422E0,2.0976055E0,6.114305E0,1.0938112E0,1.111831E0,1.0061327E0,1.0914726E0],"tree_param":{"num_deleted":"0","num_feature":"30","num_nodes":"19","size_leaf_vector":"1"}},{"base_weights":[-6.481331E-2,2.581702E-1,-8.060652E-1,4.970562E-1,-4.2034516E-1,-2.260027E-2,-8.8312946E-2,7.9018E-1,-2.2369837E-2,-6.491107E-2,1.0699564E-2,8.9650504E-2,8.154334E-3,6.586554E-2,-6.207123E-1,-9.047984E-2,-2.3293595E-3],"categories":[],"categories_nodes":[],"categories_segments":[],"categories_sizes":[],"default_left":[1,1,1,1,0,0,0,1,0,0,0,0,0,0,1,0,0],"id":29,"left_children":[1,3,5,7,9,-1,-1,11,13,-1,-1,-1,-1,-1,15,-1,-1],"loss_changes":[4.735648E0,2.4666898E0,6.78134E-2,1.6559997E0,5.723763E-1,0E0,0E0,4.4724226E-1,2.3868575E0,0E0,0E0,0E0,0E0,0E0,5.048456E-1,0E0,0E0],"parents":[2147483647,0,0,1,1,2,2,3,3,4,4,7,7,8,8,14,14],"right_children":[2,4,6,8,10,-1,-1,12,14,-1,-1,-1,-1,-1,16,-1,-1],"split_conditions":[1.459E-1,3.674E1,1.491E1,1.932E-1,1.956E-1,-2.260027E-2,-8.8312946E-2,6.824E-2,2.799E1,-6.491107E-2,1.0699564E-2,8.9650504E-2,8.154334E-3,6.586554E-2,1.503E-2,-9.047984E-2,-2.3293595E-3],"split_indices":[27,13,20,26,8,0,0,6,21,0,0,0,0,0,15,0,0],"split_type":[0,0,0,0,0,0,0,0,0,0,0,0,0,0,0,0,0],"sum_hessian":[1.7911098E1,1.2929205E1,4.9818935E0,9.760311E0,3.1688933E0,1.0454494E0,3.936444E0,5.9061065E0,3.854205E0,2.0490727E0,1.1198206E0,4.9050345E0,1.001072E0,1.7554153E0,2.0987897E0,1.0737052E0,1.0250845E0],"tree_param":{"num_deleted":"0","num_feature":"30","num_nodes":"17","size_leaf_vector":"1"}},{"base_weights":[-7.491674E-2,4.68806E-1,-4.7424877E-1,-1.2922081E-1,7.971684E-2,5.6775045E-2,-6.395825E-1,5.3334482E-2,-5.8845747E-2,7.596875E-3,-7.9802644E-1,-7.469149E-3,-9.257104E-2],"categories":[],"categories_nodes":[],"categories_segments":[],"categories_sizes":[],"default_left":[0,0,0,0,0,0,0,0,0,0,0,0,0],"id":30,"left_children":[1,3,5,7,-1,-1,9,-1,-1,-1,11,-1,-1],"loss_changes":[4.205282E0,1.727095E0,2.270826E0,1.467672E0,0E0,0E0,1.1974621E0,0E0,0E0,0E0,6.9709635E-1,0E0,0E0],"parents":[2147483647,0,0,1,1,2,2,3,3,6,6,10,10],"right_children":[2,4,6,8,-1,-1,10,-1,-1,-1,12,-1,-1],"split_conditions":[5.246E-2,6.307E-2,1.546E1,1.968E-2,7.971684E-2,5.6775045E-2,1.24E-1,5.3334482E-2,-5.8845747E-2,7.596875E-3,1.456E-1,-7.469149E-3,-9.257104E-2],"split_indices":[7,5,1,7,0,0,24,0,0,0,27,0,0],"split_type":[0,0,0,0,0,0,0,0,0,0,0,0,0],"sum_hessian":[1.734397E1,7.2705517E0,1.0073418E1,2.7920415E0,4.4785104E0,1.0461568E0,9.027261E0,1.0769275E0,1.7151141E0,1.73089E0,7.2963715E0,1.3325261E0,5.9638453E0],"tree_param":{"num_deleted":"0","num_feature":"30","num_nodes":"13","size_leaf_vector":"1"}},{"base_weights":[-7.53948E-2,2.1338266E-1,-7.698485E-1,6.524618E-1,-2.4452122E-1,-8.5214086E-2,-2.0369848E-2,8.0497794E-2,-9.80204E-3,5.6767344E-2,-4.921821E-1,1.8028973E-2,-6.758961E-1,-1.40707595E-2,-8.153001E-2],"categories":[],"categories_nodes":[],"categories_segments":[],"categories_sizes":[],"default_left":[1,0,0,1,0,0,0,0,0,0,0,0,0,0,0],"id":31,"left_children":[1,3,5,7,9,-1,-1,-1,-1,-1,11,-1,13,-1,-1],"loss_changes":[3.7914612E0,2.8853974E0,8.402395E-2,9.0230155E-1,1.7606543E0,0E0,0E0,0E0,0E0,0E0,8.852037E-1,0E0,2.6306224E-1,0E0,0E0],"parents":[2147483647,0,0,1,1,2,2,3,3,4,4,10,10,12,12],"right_children":[2,4,6,8,10,-1,-1,-1,-1,-1,12,-1,14,-1,-1],"split_conditions":[8.765E2,1.416E-1,5.646E-1,2.768E1,2.899E-2,-8.5214086E-2,-2.0369848E-2,8.0497794E-2,-9.80204E-3,5.6767344E-2,2.321E1,1.8028973E-2,1.456E-1,-1.40707595E-2,-8.153001E-2],"split_indices":[23,24,25,21,7,0,0,0,0,0,21,0,27,0,0],"split_type":[0,0,0,0,0,0,0,0,0,0,0,0,0,0,0],"sum_hessian":[1.7086876E1,1.25576935E1,4.529183E0,6.1937165E0,6.3639774E0,3.5133522E0,1.015831E0,5.08725E0,1.1064662E0,1.1851574E0,5.17882E0,1.1152321E0,4.0635877E0,1.254968E0,2.8086197E0],"tree_param":{"num_deleted":"0","num_feature":"30","num_nodes":"15","size_leaf_vector":"1"}},{"base_weights":[-3.3418346E-2,2.5733837E-1,-7.506341E-1,6.684965E-1,-1.4762011E-1,-8.348705E-2,-1.953149E-2,8.392674E-2,6.906724E-3,3.8513762E-1,-5.1864284E-1,6.427865E-2,-1.380078E-2,9.262376E-3,-8.411181E-2],"categories":[],"categories_nodes":[],"categories_segments":[],"categories_sizes":[],"default_left":[1,0,0,1,1,0,0,0,0,0,0,0,0,0,0],"id":32,"left_children":[1,3,5,7,9,-1,-1,-1,-1,11,13,-1,-1,-1,-1],"loss_changes":[3.842932E0,2.2961857E0,8.504152E-2,6.3092804E-1,1.6759675E0,0E0,0E0,0E0,0E0,5.7930464E-1,1.029697E0,0E0,0E0,0E0,0E0],"parents":[2147483647,0,0,1,1,2,2,3,3,4,4,9,9,10,10],"right_children":[2,4,6,8,10,-1,-1,-1,-1,12,14,-1,-1,-1,-1],"split_conditions":[8.765E2,1.416E-1,5.954E-1,1.589E1,1.449E1,-8.348705E-2,-1.953149E-2,8.392674E-2,6.906724E-3,5.61E2,2.572E1,6.427865E-2,-1.380078E-2,9.262376E-3,-8.411181E-2],"split_indices":[23,24,25,20,20,0,0,0,0,3,21,0,0,0,0],"split_type":[0,0,0,0,0,0,0,0,0,0,0,0,0,0,0],"sum_hessian":[1.6501905E1,1.2198055E1,4.3038507E0,5.7297792E0,6.4682765E0,3.2998843E0,1.0039665E0,4.14796E0,1.5818192E0,2.639759E0,3.8285174E0,1.6154537E0,1.0243053E0,1.568371E0,2.2601464E0],"tree_param":{"num_deleted":"0","num_feature":"30","num_nodes":"15","size_leaf_vector":"1"}},{"base_weights":[-5.1218368E-2,4.125295E-1,-4.828504E-1,7.408015E-1,-2.725721E-1,1.08270794E-1,-7.695908E-1,8.5438535E-2,1.0536416E-2,2.1182442E-2,-6.298357E-2,-4.5474306E-2,5.432402E-2,-1.6557317E-2,-8.601152E-2],"categories":[],"categories_nodes":[],"categories_segments":[],"categories_sizes":[],"default_left":[0,1,0,0,1,0,0,0,0,0,0,0,0,0,0],"id":33,"left_children":[1,3,5,7,9,11,13,-1,-1,-1,-1,-1,-1,-1,-1],"loss_changes":[3.466399E0,2.0928082E0,1.5943353E0,3.3964467E-1,7.3125994E-1,1.1748121E0,1.92554E-1,0E0,0E0,0E0,0E0,0E0,0E0,0E0,0E0],"parents":[2147483647,0,0,1,1,2,2,3,3,4,4,5,5,6,6],"right_children":[2,4,6,8,10,12,14,-1,-1,-1,-1,-1,-1,-1,-1],"split_conditions":[6.937E2,1.411E-1,5.102E-2,1.0559E-1,6.536E2,7.2E-2,1.139E2,8.5438535E-2,1.0536416E-2,2.1182442E-2,-6.298357E-2,-4.5474306E-2,5.432402E-2,-1.6557317E-2,-8.601152E-2],"split_indices":[3,24,7,17,23,5,22,0,0,0,0,0,0,0,0],"split_type":[0,0,0,0,0,0,0,0,0,0,0,0,0,0,0],"sum_hessian":[1.5322297E1,7.40769E0,7.9146075E0,4.95308E0,2.4546099E0,2.7884889E0,5.126118E0,3.909668E0,1.0434121E0,1.2147207E0,1.2398891E0,1.1955448E0,1.5929441E0,1.0368506E0,4.0892677E0],"tree_param":{"num_deleted":"0","num_feature":"30","num_nodes":"15","size_leaf_vector":"1"}},{"base_weights":[-4.0701766E-2,6.3973737E-1,-2.973037E-1,7.5127155E-2,1.2024957E-2,4.7679085E-2,-4.7680753E-1,-6.918193E-1,8.604831E-2,-4.167249E-3,-8.4344774E-1,5.048747E-2,-5.084551E-2,-2.7229208E-2,-9.236836E-2],"categories":[],"categories_nodes":[],"categories_segments":[],"categories_sizes":[],"default_left":[0,0,0,0,0,0,1,0,0,0,1,0,0,0,0],"id":34,"left_children":[1,3,5,-1,-1,-1,7,9,11,-1,13,-1,-1,-1,-1],"loss_changes":[2.9080462E0,1.7502284E-1,1.8928366E0,0E0,0E0,0E0,1.2975492E0,7.054684E-1,1.1822213E0,0E0,2.528572E-2,0E0,0E0,0E0,0E0],"parents":[2147483647,0,0,1,1,2,2,6,6,7,7,8,8,10,10],"right_children":[2,4,6,-1,-1,-1,8,10,12,-1,14,-1,-1,-1,-1],"split_conditions":[1.096E-1,5.449E-1,1.615E1,7.5127155E-2,1.2024957E-2,4.7679085E-2,6.402E-2,2.099E-2,6.781E2,-4.167249E-3,1.449E1,5.048747E-2,-5.084551E-2,-2.7229208E-2,-9.236836E-2],"split_indices":[27,10,1,0,0,0,9,16,3,0,20,0,0,0,0],"split_type":[0,0,0,0,0,0,0,0,0,0,0,0,0,0,0],"sum_hessian":[1.4565973E1,3.5799088E0,1.0986065E1,2.579839E0,1.0000697E0,1.7562463E0,9.229818E0,6.5127964E0,2.717022E0,1.472764E0,5.0400324E0,1.6824803E0,1.0345415E0,1.1620033E0,3.878029E0],"tree_param":{"num_deleted":"0","num_feature":"30","num_nodes":"15","size_leaf_vector":"1"}},{"base_weights":[1.0210582E-2,3.104014E-1,-7.112916E-1,5.02335E-1,-3.7873444E-1,-7.9678476E-2,-1.9620163E-2,-8.476566E-2,6.8809706E-1,2.545836E-3,-5.876726E-2,5.3467173E-2,-6.7104094E-2,8.122288E-2,1.0765752E-2],"categories":[],"categories_nodes":[],"categories_segments":[],"categories_sizes":[],"default_left":[1,1,0,0,0,0,0,0,1,0,0,0,0,0,0],"id":35,"left_children":[1,3,5,7,9,-1,-1,11,13,-1,-1,-1,-1,-1,-1],"loss_changes":[3.530309E0,1.7095962E0,5.475521E-2,1.0850694E0,2.7443385E-1,0E0,0E0,1.503878E0,4.357381E-1,0E0,0E0,0E0,0E0,0E0,0E0],"parents":[2147483647,0,0,1,1,2,2,3,3,4,4,7,7,8,8],"right_children":[2,4,6,8,10,-1,-1,12,14,-1,-1,-1,-1,-1,-1],"split_conditions":[8.765E2,1.226E-1,1.15E-1,6.053E-2,1.134E-1,-7.9678476E-2,-1.9620163E-2,5.761E-2,1.435E-2,2.545836E-3,-5.876726E-2,5.3467173E-2,-6.7104094E-2,8.122288E-2,1.0765752E-2],"split_indices":[23,6,4,5,4,0,0,5,17,0,0,0,0,0,0],"split_type":[0,0,0,0,0,0,0,0,0,0,0,0,0,0,0],"sum_hessian":[1.4280246E1,1.0486838E1,3.7934077E0,8.414385E0,2.0724535E0,2.7843797E0,1.009028E0,2.1531246E0,6.26126E0,1.0054858E0,1.0669677E0,1.0897515E0,1.0633732E0,4.829169E0,1.4320909E0],"tree_param":{"num_deleted":"0","num_feature":"30","num_nodes":"15","size_leaf_vector":"1"}},{"base_weights":[-9.695945E-2,3.2782304E-1,-5.005631E-1,6.1394346E-1,-2.7772054E-1,3.4099165E-2,-6.8565375E-1,7.813219E-2,-8.512879E-4,1.013169E-2,-5.2726515E-2,-8.458668E-3,-8.204697E-2],"categories":[],"categories_nodes":[],"categories_segments":[],"categories_sizes":[],"default_left":[0,1,0,1,1,0,0,0,0,0,0,0,0],"id":36,"left_children":[1,3,5,7,9,-1,11,-1,-1,-1,-1,-1,-1],"loss_changes":[2.6561463E0,1.502218E0,1.456453E0,5.829387E-1,3.5183635E-1,0E0,4.7890234E-1,0E0,0E0,0E0,0E0,0E0,0E0],"parents":[2147483647,0,0,1,1,2,2,3,3,4,4,6,6],"right_children":[2,4,6,8,10,-1,12,-1,-1,-1,-1,-1,-1],"split_conditions":[6.937E2,2.028E1,1.615E1,1.044E2,2.185E-2,3.4099165E-2,2.862E1,7.813219E-2,-8.512879E-4,1.013169E-2,-5.2726515E-2,-8.458668E-3,-8.204697E-2],"split_indices":[3,1,1,22,16,0,13,0,0,0,0,0,0],"split_type":[0,0,0,0,0,0,0,0,0,0,0,0,0],"sum_hessian":[1.353567E1,6.686286E0,6.849385E0,4.531346E0,2.1549404E0,1.082999E0,5.7663856E0,3.3699443E0,1.1614014E0,1.0913156E0,1.0636246E0,1.3545675E0,4.411818E0],"tree_param":{"num_deleted":"0","num_feature":"30","num_nodes":"13","size_leaf_vector":"1"}},{"base_weights":[-4.773127E-2,5.236372E-1,-3.6883995E-1,7.888599E-2,-6.6555436E-3,4.875087E-2,-6.1303526E-1,1.2100616E-2,-7.4306923E-1,-1.2977319E-2,-8.279405E-2],"categories":[],"categories_nodes":[],"categories_segments":[],"categories_sizes":[],"default_left":[0,0,0,0,0,0,0,0,0,0,0],"id":37,"left_children":[1,3,5,-1,-1,-1,7,-1,9,-1,-1],"loss_changes":[2.7681546E0,9.076381E-1,2.3005192E0,0E0,0E0,0E0,8.431208E-1,0E0,2.4877262E-1,0E0,0E0],"parents":[2147483647,0,0,1,1,2,2,6,6,8,8],"right_children":[2,4,6,-1,-1,-1,8,-1,10,-1,-1],"split_conditions":[7.259E2,1.782E-1,2.079E-1,7.888599E-2,-6.6555436E-3,4.875087E-2,1.615E1,1.2100616E-2,2.46E1,-1.2977319E-2,-8.279405E-2],"split_indices":[23,24,26,0,0,0,1,0,13,0,0],"split_type":[0,0,0,0,0,0,0,0,0,0,0],"sum_hessian":[1.3034978E1,4.46299E0,8.571988E0,2.8469868E0,1.6160027E0,1.6809198E0,6.8910685E0,1.0474789E0,5.8435893E0,1.0178034E0,4.825786E0],"tree_param":{"num_deleted":"0","num_feature":"30","num_nodes":"11","size_leaf_vector":"1"}},{"base_weights":[-6.1666496E-2,6.713479E-2,-3.1958744E-1,2.5396606E-1,-6.870446E-1,6.82005E-2,-3.5069913E-2,-2.2859793E-2,-8.0621086E-2],"categories":[],"categories_nodes":[],"categories_segments":[],"categories_sizes":[],"default_left":[0,0,0,0,0,0,0,0,0],"id":38,"left_children":[1,-1,3,5,7,-1,-1,-1,-1],"loss_changes":[2.7716138E0,0E0,2.425849E0,1.5077775E0,1.8614793E-1,0E0,0E0,0E0,0E0],"parents":[2147483647,0,0,2,2,3,3,4,4],"right_children":[2,-1,4,6,8,-1,-1,-1,-1],"split_conditions":[1.449E1,6.713479E-2,2.636E1,1.177E2,1.356E-1,6.82005E-2,-3.5069913E-2,-2.2859793E-2,-8.0621086E-2],"split_indices":[20,0,21,22,24,0,0,0,0],"split_type":[0,0,0,0,0,0,0,0,0],"sum_hessian":[1.2525139E1,2.842838E0,9.682301E0,3.901467E0,5.7808337E0,2.2094824E0,1.6919848E0,1.7947044E0,3.9861293E0],"tree_param":{"num_deleted":"0","num_feature":"30","num_nodes":"9","size_leaf_vector":"1"}},{"base_weights":[-3.829249E-2,5.7651144E-1,-2.924888E-1,7.092672E-2,8.792381E-3,2.4686308E-1,-6.2800217E-1,5.536218E-1,-3.0473435E-2,-1.0359271E-2,-7.6758035E-2,6.71123E-2,1.5743187E-2],"categories":[],"categories_nodes":[],"categories_segments":[],"categories_sizes":[],"default_left":[0,0,0,0,0,0,1,1,0,0,0,0,0],"id":39,"left_children":[1,3,5,-1,-1,7,9,11,-1,-1,-1,-1,-1],"loss_changes":[2.1491125E0,1.9991267E-1,1.8975103E0,0E0,0E0,9.150161E-1,3.756535E-1,4.281807E-2,0E0,0E0,0E0,0E0,0E0],"parents":[2147483647,0,0,1,1,2,2,5,5,6,6,7,7],"right_children":[2,4,6,-1,-1,8,10,12,-1,-1,-1,-1,-1],"split_conditions":[6.536E2,1.613E-1,1.977E1,7.092672E-2,8.792381E-3,7.925E1,1.449E1,1.084E-1,-3.0473435E-2,-1.0359271E-2,-7.6758035E-2,6.71123E-2,1.5743187E-2],"split_indices":[23,24,1,0,0,13,20,24,0,0,0,0,0],"split_type":[0,0,0,0,0,0,0,0,0,0,0,0,0],"sum_hessian":[1.1672625E1,3.0435238E0,8.629101E0,2.0380821E0,1.0054418E0,3.4106154E0,5.2184854E0,2.1893737E0,1.2212418E0,1.4632162E0,3.755269E0,1.1533679E0,1.0360059E0],"tree_param":{"num_deleted":"0","num_feature":"30","num_nodes":"13","size_leaf_vector":"1"}},{"base_weights":[-6.128163E-2,5.312069E-1,-3.0300254E-1,7.420113E-2,-5.6445063E-4,9.346997E-2,-6.1125916E-1,4.5005065E-1,-3.9125673E-2,-7.931491E-3,-7.2286904E-2,-2.8639135E-3,6.574973E-2],"categories":[],"categories_nodes":[],"categories_segments":[],"categories_sizes":[],"default_left":[0,0,0,0,0,1,0,1,0,0,0,0,0],"id":40,"left_children":[1,3,5,-1,-1,7,9,11,-1,-1,-1,-1,-1],"loss_changes":[2.0488682E0,4.7756946E-1,1.2792001E0,0E0,0E0,1.0819912E0,2.845266E-1,3.648802E-1,0E0,0E0,0E0,0E0,0E0],"parents":[2147483647,0,0,1,1,2,2,5,5,6,6,7,7],"right_children":[2,4,6,-1,-1,8,10,12,-1,-1,-1,-1,-1],"split_conditions":[2.085E-1,3.147E1,8.732E2,7.420113E-2,-5.6445063E-4,1.38E-1,1.131E2,1.442E-1,-3.9125673E-2,-7.931491E-3,-7.2286904E-2,-2.8639135E-3,6.574973E-2],"split_indices":[26,21,23,0,0,24,22,25,0,0,0,0,0],"split_type":[0,0,0,0,0,0,0,0,0,0,0,0,0],"sum_hessian":[1.2182186E1,3.1828976E0,8.999289E0,2.011063E0,1.1718342E0,4.241171E0,4.758117E0,2.484805E0,1.7563659E0,1.1218601E0,3.6362572E0,1.011857E0,1.4729481E0],"tree_param":{"num_deleted":"0","num_feature":"30","num_nodes":"13","size_leaf_vector":"1"}},{"base_weights":[-1.8641287E-2,2.6449198E-1,-7.246785E-2,5.5420595E-1,-4.8465412E-2,-1.2564666E-2,6.95441E-1,7.914447E-2,2.2652796E-2],"categories":[],"categories_nodes":[],"categories_segments":[],"categories_sizes":[],"default_left":[1,1,0,0,0,0,1,0,0],"id":41,"left_children":[1,3,-1,5,-1,-1,7,-1,-1],"loss_changes":[2.5290904E0,2.2389867E0,0E0,7.6078725E-1,0E0,0E0,8.9016914E-2,0E0,0E0],"parents":[2147483647,0,0,1,1,3,3,6,6],"right_children":[2,4,-1,6,-1,-1,8,-1,-1],"split_conditions":[4.314E1,1.459E-1,-7.246785E-2,1.725E-3,-4.8465412E-2,-1.2564666E-2,1.064E2,7.914447E-2,2.2652796E-2],"split_indices":[13,27,0,19,0,0,22,0,0],"split_type":[0,0,0,0,0,0,0,0,0],"sum_hessian":[1.0692788E1,8.078538E0,2.6142502E0,6.0132694E0,2.0652688E0,1.053326E0,4.9599433E0,3.546099E0,1.4138443E0],"tree_param":{"num_deleted":"0","num_feature":"30","num_nodes":"9","size_leaf_vector":"1"}},{"base_weights":[-2.8787117E-2,1.665691E-1,-6.880366E-2,5.545039E-1,-1.92339E-1,7.429199E-2,1.9120645E-3,4.3491147E-2,-4.600217E-1,-6.362891E-2,2.6293907E-3],"categories":[],"categories_nodes":[],"categories_segments":[],"categories_sizes":[],"default_left":[1,0,0,0,0,0,0,0,1,0,0],"id":42,"left_children":[1,3,-1,5,7,-1,-1,-1,9,-1,-1],"loss_changes":[1.6744761E0,1.5196291E0,0E0,5.0373316E-1,1.2098138E0,0E0,0E0,0E0,4.1970795E-1,0E0,0E0],"parents":[2147483647,0,0,1,1,3,3,4,4,8,8],"right_children":[2,4,-1,6,8,-1,-1,-1,10,-1,-1],"split_conditions":[1.177E2,2.648E1,-6.880366E-2,4.89E1,1.445E1,7.429199E-2,1.9120645E-3,4.3491147E-2,1.906E-2,-6.362891E-2,2.6293907E-3],"split_indices":[22,21,0,13,20,0,0,0,18,0,0],"split_type":[0,0,0,0,0,0,0,0,0,0,0],"sum_hessian":[1.1111878E1,9.14829E0,1.9635888E0,4.1344695E0,5.01382E0,2.771472E0,1.3629977E0,1.3128177E0,3.7010024E0,2.4900753E0,1.2109269E0],"tree_param":{"num_deleted":"0","num_feature":"30","num_nodes":"11","size_leaf_vector":"1"}},{"base_weights":[-6.983056E-2,3.0926555E-1,-4.2433956E-1,5.6053716E-1,-4.4007804E-2,3.641375E-2,-6.5859824E-1,7.4555375E-2,-4.0272684E-3,-7.4480385E-2,-1.713129E-2],"categories":[],"categories_nodes":[],"categories_segments":[],"categories_sizes":[],"default_left":[0,1,0,0,0,0,0,0,0,0,0],"id":43,"left_children":[1,3,5,7,-1,-1,9,-1,-1,-1,-1],"loss_changes":[1.6560825E0,1.3879719E0,1.400671E0,5.8349895E-1,0E0,0E0,9.089565E-2,0E0,0E0,0E0,0E0],"parents":[2147483647,0,0,1,1,2,2,3,3,6,6],"right_children":[2,4,6,8,-1,-1,10,-1,-1,-1,-1],"split_conditions":[2.757E1,4.89E1,1.445E1,1.177E2,-4.4007804E-2,3.641375E-2,3.313E1,7.4555375E-2,-4.0272684E-3,-7.4480385E-2,-1.713129E-2],"split_indices":[21,13,20,22,0,0,20,0,0,0,0],"split_type":[0,0,0,0,0,0,0,0,0,0,0],"sum_hessian":[1.0346193E1,5.0613904E0,5.2848024E0,3.979079E0,1.0823115E0,1.0834979E0,4.2013044E0,2.8580434E0,1.1210356E0,3.1207392E0,1.0805655E0],"tree_param":{"num_deleted":"0","num_feature":"30","num_nodes":"11","size_leaf_vector":"1"}},{"base_weights":[-6.0145624E-2,4.2367506E-1,-4.099164E-1,-1.8898945E-2,7.000595E-2,2.2479901E-2,-6.0696036E-1,-1.8516077E-3,-7.5653225E-2],"categories":[],"categories_nodes":[],"categories_segments":[],"categories_sizes":[],"default_left":[0,0,1,0,0,0,0,0,0],"id":44,"left_children":[1,3,5,-1,-1,-1,7,-1,-1],"loss_changes":[2.066584E0,1.0103197E0,1.0119723E0,0E0,0E0,0E0,4.7995973E-1,0E0,0E0],"parents":[2147483647,0,0,1,1,2,2,6,6],"right_children":[2,4,6,-1,-1,-1,8,-1,-1],"split_conditions":[1.456E-1,7.182E-2,2.027E-1,-1.8898945E-2,7.000595E-2,2.2479901E-2,2.604E-1,-1.8516077E-3,-7.5653225E-2],"split_indices":[27,29,10,0,0,0,26,0,0],"split_type":[0,0,0,0,0,0,0,0,0],"sum_hessian":[1.0185687E1,4.185205E0,6.0004816E0,1.3993838E0,2.7858212E0,1.3881464E0,4.612335E0,1.1625267E0,3.4498086E0],"tree_param":{"num_deleted":"0","num_feature":"30","num_nodes":"9","size_leaf_vector":"1"}},{"base_weights":[-4.7860198E-2,3.395638E-1,-3.572666E-1,5.45264E-1,-2.9587558E-2,4.150421E-2,-6.908961E-2,-3.6104673E-3,7.204415E-2,4.869871E-2,-3.6795042E-2],"categories":[],"categories_nodes":[],"categories_segments":[],"categories_sizes":[],"default_left":[0,1,0,0,0,0,0,0,0,0,0],"id":45,"left_children":[1,3,5,7,-1,9,-1,-1,-1,-1,-1],"loss_changes":[1.4836624E0,8.8794976E-1,9.3416375E-1,4.8952973E-1,0E0,9.1677547E-1,0E0,0E0,0E0,0E0,0E0],"parents":[2147483647,0,0,1,1,2,2,3,3,5,5],"right_children":[2,4,6,8,-1,10,-1,-1,-1,-1,-1],"split_conditions":[5.246E-2,3.444E1,7.613E2,1.205E-2,-2.9587558E-2,3.142E-1,-6.908961E-2,-3.6104673E-3,7.204415E-2,4.869871E-2,-3.6795042E-2],"split_indices":[7,13,3,15,0,28,0,0,0,0,0],"split_type":[0,0,0,0,0,0,0,0,0,0,0],"sum_hessian":[1.036507E1,4.5590177E0,5.8060527E0,3.5513182E0,1.0076993E0,3.0436845E0,2.7623684E0,1.0061299E0,2.5451884E0,1.3670218E0,1.6766626E0],"tree_param":{"num_deleted":"0","num_feature":"30","num_nodes":"11","size_leaf_vector":"1"}},{"base_weights":[-6.44403E-2,1.6495045E-1,-7.0934035E-2,5.684977E-1,-1.6257522E-1,7.145899E-2,7.858298E-3,3.230278E-2,-4.1164207E-1,1.1717136E-2,-6.447029E-2],"categories":[],"categories_nodes":[],"categories_segments":[],"categories_sizes":[],"default_left":[1,0,0,1,1,0,0,0,1,0,0],"id":46,"left_children":[1,3,-1,5,7,-1,-1,-1,9,-1,-1],"loss_changes":[1.7296375E0,1.2624383E0,0E0,2.4360824E-1,8.1801665E-1,0E0,0E0,0E0,5.911361E-1,0E0,0E0],"parents":[2147483647,0,0,1,1,3,3,4,4,8,8],"right_children":[2,4,-1,6,8,-1,-1,-1,10,-1,-1],"split_conditions":[8.765E2,1.368E-1,-7.0934035E-2,1.589E1,1.336E1,7.145899E-2,7.858298E-3,3.230278E-2,1.987E1,1.1717136E-2,-6.447029E-2],"split_indices":[23,24,0,20,20,0,0,0,13,0,0],"split_type":[0,0,0,0,0,0,0,0,0,0,0],"sum_hessian":[9.901012E0,7.8522077E0,2.0488045E0,3.1882281E0,4.6639795E0,2.1026263E0,1.0856019E0,1.4805043E0,3.1834753E0,1.1259507E0,2.0575244E0],"tree_param":{"num_deleted":"0","num_feature":"30","num_nodes":"11","size_leaf_vector":"1"}},{"base_weights":[-1.3143758E-3,3.900685E-1,-3.394352E-1,6.022642E-1,-2.0222737E-2,1.3157599E-2,-5.7948893E-1,6.979563E-2,1.8210514E-2,-1.4479615E-2,-6.771221E-2],"categories":[],"categories_nodes":[],"categories_segments":[],"categories_sizes":[],"default_left":[0,1,0,1,0,0,0,0,0,0,0],"id":47,"left_children":[1,3,5,7,-1,-1,9,-1,-1,-1,-1],"loss_changes":[1.5339286E0,7.972198E-1,7.7915794E-1,4.2082667E-2,0E0,0E0,8.457661E-2,0E0,0E0,0E0,0E0],"parents":[2147483647,0,0,1,1,2,2,3,3,6,6],"right_children":[2,4,6,8,-1,-1,10,-1,-1,-1,-1],"split_conditions":[2.757E1,4.384E-1,1.023E2,7.486E-2,-2.0222737E-2,1.3157599E-2,1.2E-2,6.979563E-2,1.8210514E-2,-1.4479615E-2,-6.771221E-2],"split_indices":[21,10,22,6,0,0,17,0,0,0,0],"split_type":[0,0,0,0,0,0,0,0,0,0,0],"sum_hessian":[9.590764E0,4.374055E0,5.2167096E0,3.207947E0,1.166108E0,1.913705E0,3.3030045E0,2.0743406E0,1.1336064E0,1.0612147E0,2.2417898E0],"tree_param":{"num_deleted":"0","num_feature":"30","num_nodes":"11","size_leaf_vector":"1"}},{"base_weights":[-2.0165369E-2,3.3304316E-1,-3.4762278E-1,5.713436E-1,-3.2383766E-2,-5.873037E-1,4.5986306E-2,7.55003E-2,-3.0267143E-3,-1.8025707E-2,-6.696045E-2,3.6405146E-2,-2.9691061E-2],"categories":[],"categories_nodes":[],"categories_segments":[],"categories_sizes":[],"default_left":[1,1,1,1,0,0,0,0,0,0,0,0,0],"id":48,"left_children":[1,3,5,7,-1,9,11,-1,-1,-1,-1,-1,-1],"loss_changes":[1.3300954E0,1.0556089E0,5.8714485E-1,5.137484E-1,0E0,5.35655E-3,4.543137E-1,0E0,0E0,0E0,0E0,0E0,0E0],"parents":[2147483647,0,0,1,1,2,2,3,3,5,5,6,6],"right_children":[2,4,6,8,-1,10,12,-1,-1,-1,-1,-1,-1],"split_conditions":[2.085E-1,3.905E1,6.259E-2,6.843E-2,-3.2383766E-2,1.269E-2,6.569E2,7.55003E-2,-3.0267143E-3,-1.8025707E-2,-6.696045E-2,3.6405146E-2,-2.9691061E-2],"split_indices":[26,13,9,6,0,17,3,0,0,0,0,0,0],"split_type":[0,0,0,0,0,0,0,0,0,0,0,0,0],"sum_hessian":[9.498999E0,4.561609E0,4.93739E0,3.4428453E0,1.1187633E0,2.7628841E0,2.1745057E0,2.4422936E0,1.0005517E0,1.0012217E0,1.7616624E0,1.0960944E0,1.0784113E0],"tree_param":{"num_deleted":"0","num_feature":"30","num_nodes":"13","size_leaf_vector":"1"}},{"base_weights":[-6.2162887E-2,3.6356372E-1,-3.8745034E-1,6.882527E-2,-2.3735305E-2,3.617621E-2,-6.082318E-1,-1.441216E-2,-7.434253E-2],"categories":[],"categories_nodes":[],"categories_segments":[],"categories_sizes":[],"default_left":[0,0,0,0,0,0,1,0,0],"id":49,"left_children":[1,3,5,-1,-1,-1,7,-1,-1],"loss_changes":[1.5136034E0,1.1017228E0,1.2295921E0,0E0,0E0,0E0,2.1204197E-1,0E0,0E0],"parents":[2147483647,0,0,1,1,2,2,6,6],"right_children":[2,4,6,-1,-1,-1,8,-1,-1],"split_conditions":[2.573E1,4.89E1,1.445E1,6.882527E-2,-2.3735305E-2,3.617621E-2,1.486E-1,-1.441216E-2,-7.434253E-2],"split_indices":[21,13,20,0,0,0,25,0,0],"split_type":[0,0,0,0,0,0,0,0,0],"sum_hessian":[8.912664E0,3.8093848E0,5.103279E0,2.378753E0,1.4306319E0,1.0162216E0,4.0870576E0,1.3880419E0,2.6990156E0],"tree_param":{"num_deleted":"0","num_feature":"30","num_nodes":"9","size_leaf_vector":"1"}},{"base_weights":[-6.7375444E-2,3.029949E-1,-3.8929236E-1,-2.393124E-2,5.810852E-2,1.0035343E-2,-5.9958375E-1,-1.7177172E-2,-6.843288E-2],"categories":[],"categories_nodes":[],"categories_segments":[],"categories_sizes":[],"default_left":[0,0,0,0,0,0,0,0,0],"id":50,"left_children":[1,3,5,-1,-1,-1,7,-1,-1],"loss_changes":[1.2702038E0,9.015938E-1,6.376146E-1,0E0,0E0,0E0,2.9881597E-2,0E0,0E0],"parents":[2147483647,0,0,1,1,2,2,6,6],"right_children":[2,4,6,-1,-1,-1,8,-1,-1],"split_conditions":[5.246E-2,1.114E-2,1.031E2,-2.393124E-2,5.810852E-2,1.0035343E-2,6.737E2,-1.7177172E-2,-6.843288E-2],"split_indices":[7,15,22,0,0,0,3,0,0],"split_type":[0,0,0,0,0,0,0,0,0],"sum_hessian":[8.664219E0,4.056236E0,4.6079826E0,1.42221E0,2.634026E0,1.5415055E0,3.0664773E0,1.0074692E0,2.059008E0],"tree_param":{"num_deleted":"0","num_feature":"30","num_nodes":"9","size_leaf_vector":"1"}},{"base_weights":[-3.7618983E-3,3.3605257E-1,-2.9094E-1,5.605239E-1,-1.383429E-2,2.4583096E-2,-5.059724E-1,6.4642064E-2,1.7264133E-2,-1.0278552E-3,-6.576212E-2],"categories":[],"categories_nodes":[],"categories_segments":[],"categories_sizes":[],"default_left":[0,0,1,1,0,0,0,0,0,0,0],"id":51,"left_children":[1,3,5,7,-1,-1,9,-1,-1,-1,-1],"loss_changes":[1.0454293E0,6.005983E-1,7.937262E-1,6.0845613E-3,0E0,0E0,3.2905877E-1,0E0,0E0,0E0,0E0],"parents":[2147483647,0,0,1,1,2,2,3,3,6,6],"right_children":[2,4,6,8,-1,-1,10,-1,-1,-1,-1],"split_conditions":[5.102E-2,1.806E-2,1.938E-1,1.911E1,-1.383429E-2,2.4583096E-2,2.671E-1,6.4642064E-2,1.7264133E-2,-1.0278552E-3,-6.576212E-2],"split_indices":[7,17,10,1,0,0,26,0,0,0,0],"split_type":[0,0,0,0,0,0,0,0,0,0,0],"sum_hessian":[8.710879E0,3.9118476E0,4.799032E0,2.5321481E0,1.3796996E0,1.3316631E0,3.4673688E0,1.5273741E0,1.004774E0,1.0624195E0,2.4049494E0],"tree_param":{"num_deleted":"0","num_feature":"30","num_nodes":"11","size_leaf_vector":"1"}},{"base_weights":[-5.8355227E-2,1.4396241E-1,-6.354471E-2,5.195965E-1,-2.136793E-1,6.914716E-2,3.906304E-3,2.921697E-2,-4.3821806E-1,-2.7820317E-3,-6.0530126E-2],"categories":[],"categories_nodes":[],"categories_segments":[],"categories_sizes":[],"default_left":[1,0,0,1,0,0,0,0,1,0,0],"id":52,"left_children":[1,3,-1,5,7,-1,-1,-1,9,-1,-1],"loss_changes":[1.1538315E0,1.1256244E0,0E0,3.0128384E-1,6.47949E-1,0E0,0E0,0E0,2.2797292E-1,0E0,0E0],"parents":[2147483647,0,0,1,1,3,3,4,4,8,8],"right_children":[2,4,-1,6,8,-1,-1,-1,10,-1,-1],"split_conditions":[8.765E2,1.416E-1,-6.354471E-2,1.025E2,2.321E1,6.914716E-2,3.906304E-3,2.921697E-2,2.11E0,-2.7820317E-3,-6.0530126E-2],"split_indices":[23,24,0,22,21,0,0,0,12,0,0],"split_type":[0,0,0,0,0,0,0,0,0,0,0],"sum_hessian":[8.098908E0,6.552324E0,1.5465845E0,2.97491E0,3.5774138E0,1.8678566E0,1.1070533E0,1.007187E0,2.570227E0,1.081153E0,1.4890738E0],"tree_param":{"num_deleted":"0","num_feature":"30","num_nodes":"11","size_leaf_vector":"1"}},{"base_weights":[-2.6622051E-2,1.4402007E-1,-5.8914255E-2,4.8694727E-1,-1.87257E-1,6.583186E-2,-3.485145E-4,3.6533862E-2,-5.5302143E-1,-1.2704143E-2,-6.90827E-2],"categories":[],"categories_nodes":[],"categories_segments":[],"categories_sizes":[],"default_left":[1,0,0,0,1,0,0,0,1,0,0],"id":53,"left_children":[1,3,-1,5,7,-1,-1,-1,9,-1,-1],"loss_changes":[9.65479E-1,9.821233E-1,0E0,3.495087E-1,1.1542802E0,0E0,0E0,0E0,1.0200232E-1,0E0,0E0],"parents":[2147483647,0,0,1,1,3,3,4,4,8,8],"right_children":[2,4,-1,6,8,-1,-1,-1,10,-1,-1],"split_conditions":[1.177E2,2.648E1,-5.8914255E-2,4.89E1,1.449E1,6.583186E-2,-3.485145E-4,3.6533862E-2,2.085E-1,-1.2704143E-2,-6.90827E-2],"split_indices":[22,21,0,13,20,0,0,0,26,0,0],"split_type":[0,0,0,0,0,0,0,0,0,0,0],"sum_hessian":[8.174221E0,6.842503E0,1.3317181E0,3.1312382E0,3.7112648E0,2.0667372E0,1.0645009E0,1.4785861E0,2.2326787E0,1.0154969E0,1.2171818E0],"tree_param":{"num_deleted":"0","num_feature":"30","num_nodes":"11","size_leaf_vector":"1"}},{"base_weights":[-2.0644508E-2,1.4210555E-1,-5.6771882E-2,-3.4080546E-2,3.313555E-1,5.324395E-1,-2.8931549E-2,6.5697655E-2,3.0431466E-3],"categories":[],"categories_nodes":[],"categories_segments":[],"categories_sizes":[],"default_left":[1,0,0,0,1,1,0,0,0],"id":54,"left_children":[1,3,-1,-1,5,7,-1,-1,-1],"loss_changes":[8.6787313E-1,8.087733E-1,0E0,0E0,9.000439E-1,2.842648E-1,0E0,0E0,0E0],"parents":[2147483647,0,0,1,1,4,4,5,5],"right_children":[2,4,-1,-1,6,8,-1,-1,-1],"split_conditions":[1.177E2,6.29E-2,-5.6771882E-2,-3.4080546E-2,1.193E-1,4.846E-2,-2.8931549E-2,6.5697655E-2,3.0431466E-3],"split_indices":[22,5,0,0,6,7,0,0,0],"split_type":[0,0,0,0,0,0,0,0,0],"sum_hessian":[7.841299E0,6.613949E0,1.2273505E0,1.6367123E0,4.9772367E0,3.866673E0,1.1105634E0,2.8507645E0,1.0159086E0],"tree_param":{"num_deleted":"0","num_feature":"30","num_nodes":"9","size_leaf_vector":"1"}},{"base_weights":[3.0476737E-3,5.7736754E-2,-2.3531036E-1,7.663483E-2,-5.1564914E-1,4.5088153E-2,-3.8391292E-2,-1.266815E-2,-6.1544206E-2],"categories":[],"categories_nodes":[],"categories_segments":[],"categories_sizes":[],"default_left":[0,0,0,1,1,0,0,0,0],"id":55,"left_children":[1,-1,3,5,7,-1,-1,-1,-1],"loss_changes":[1.2862353E0,0E0,6.209868E-1,8.655966E-1,6.299108E-2,0E0,0E0,0E0,0E0],"parents":[2147483647,0,0,2,2,3,3,4,4],"right_children":[2,-1,4,6,8,-1,-1,-1,-1],"split_conditions":[1.932E-1,5.7736754E-2,7.019E2,1.411E-1,2.061E0,4.5088153E-2,-3.8391292E-2,-1.266815E-2,-6.1544206E-2],"split_indices":[26,0,3,24,12,0,0,0,0],"split_type":[0,0,0,0,0,0,0,0,0],"sum_hessian":[7.4034133E0,1.7542663E0,5.649147E0,3.0177734E0,2.6313734E0,1.6764545E0,1.3413188E0,1.0006266E0,1.6307468E0],"tree_param":{"num_deleted":"0","num_feature":"30","num_nodes":"9","size_leaf_vector":"1"}},{"base_weights":[-2.2749698E-2,1.3665117E-1,-5.5966537E-2,-4.34988E-2,3.7713197E-1,5.5902565E-1,-1.4201912E-2,7.01989E-2,1.3096492E-2],"categories":[],"categories_nodes":[],"categories_segments":[],"categories_sizes":[],"default_left":[1,0,0,0,0,1,0,0,0],"id":56,"left_children":[1,3,-1,-1,5,7,-1,-1,-1],"loss_changes":[7.9644054E-1,1.1662291E0,0E0,0E0,6.1454165E-1,1.7728925E-1,0E0,0E0,0E0],"parents":[2147483647,0,0,1,1,4,4,5,5],"right_children":[2,4,-1,-1,6,8,-1,-1,-1],"split_conditions":[1.712E-1,1.203E-2,-5.5966537E-2,-4.34988E-2,1.177E2,7.259E2,-1.4201912E-2,7.01989E-2,1.3096492E-2],"split_indices":[27,15,0,0,22,23,0,0,0],"split_type":[0,0,0,0,0,0,0,0,0],"sum_hessian":[7.412258E0,6.290274E0,1.1219839E0,1.6231382E0,4.667136E0,3.3993185E0,1.2678177E0,2.06854E0,1.3307782E0],"tree_param":{"num_deleted":"0","num_feature":"30","num_nodes":"9","size_leaf_vector":"1"}},{"base_weights":[1.06046915E-1,5.3331893E-2,-1.746845E-1,3.2535408E-2,-3.66998E-1,1.0824999E-2,-5.7828467E-2],"categories":[],"categories_nodes":[],"categories_segments":[],"categories_sizes":[],"default_left":[0,0,0,0,1,0,0],"id":57,"left_children":[1,-1,3,-1,5,-1,-1],"loss_changes":[1.0140133E0,0E0,6.3737106E-1,0E0,5.004091E-1,0E0,0E0],"parents":[2147483647,0,0,2,2,4,4],"right_children":[2,-1,4,-1,6,-1,-1],"split_conditions":[7.393E2,5.3331893E-2,2.182E1,3.2535408E-2,2.452E-1,1.0824999E-2,-5.7828467E-2],"split_indices":[23,0,21,0,28,0,0],"split_type":[0,0,0,0,0,0,0],"sum_hessian":[6.677039E0,2.2907617E0,4.3862777E0,1.0262117E0,3.360066E0,1.1841702E0,2.1758957E0],"tree_param":{"num_deleted":"0","num_feature":"30","num_nodes":"7","size_leaf_vector":"1"}},{"base_weights":[-4.2942148E-2,3.339047E-1,-3.52064E-1,5.449115E-2,-1.3141927E-2,1.3283439E-2,-5.272179E-1,-1.336008E-2,-6.2462535E-2],"categories":[],"categories_nodes":[],"categories_segments":[],"categories_sizes":[],"default_left":[0,0,1,0,0,0,0,0,0],"id":58,"left_children":[1,3,5,-1,-1,-1,7,-1,-1],"loss_changes":[1.0269315E0,4.6740767E-1,4.7560787E-1,0E0,0E0,0E0,5.8770776E-2,0E0,0E0],"parents":[2147483647,0,0,1,1,2,2,6,6],"right_children":[2,4,6,-1,-1,-1,8,-1,-1],"split_conditions":[5.246E-2,3.766E0,1.938E-1,5.449115E-2,-1.3141927E-2,1.3283439E-2,2.572E1,-1.336008E-2,-6.2462535E-2],"split_indices":[7,12,10,0,0,0,21,0,0],"split_type":[0,0,0,0,0,0,0,0,0],"sum_hessian":[6.806362E0,3.0310602E0,3.775302E0,1.9677318E0,1.0633285E0,1.0659434E0,2.7093585E0,1.0079329E0,1.7014257E0],"tree_param":{"num_deleted":"0","num_feature":"30","num_nodes":"9","size_leaf_vector":"1"}},{"base_weights":[-4.1743968E-2,3.527165E-1,-2.6601708E-1,5.5107474E-2,-1.9703147E-3,2.2725955E-2,-4.7218043E-1,2.2702212E-3,-6.324787E-2],"categories":[],"categories_nodes":[],"categories_segments":[],"categories_sizes":[],"default_left":[1,0,1,0,0,0,0,0,0],"id":59,"left_children":[1,3,5,-1,-1,-1,7,-1,-1],"loss_changes":[8.0131626E-1,2.5675687E-1,6.837698E-1,0E0,0E0,0E0,3.5726565E-1,0E0,0E0],"parents":[2147483647,0,0,1,1,2,2,6,6],"right_children":[2,4,6,-1,-1,-1,8,-1,-1],"split_conditions":[1.55E-1,2.884E-1,1.336E1,5.5107474E-2,-1.9703147E-3,2.2725955E-2,6.016E-3,2.2702212E-3,-6.324787E-2],"split_indices":[8,28,20,0,0,0,14,0,0],"split_type":[0,0,0,0,0,0,0,0,0],"sum_hessian":[6.997204E0,2.3286943E0,4.6685095E0,1.2064174E0,1.1222769E0,1.3459044E0,3.3226054E0,1.0229293E0,2.299676E0],"tree_param":{"num_deleted":"0","num_feature":"30","num_nodes":"9","size_leaf_vector":"1"}},{"base_weights":[-4.6768386E-2,2.978443E-1,-3.3866885E-1,6.020218E-2,-1.1640968E-2,2.3883702E-3,-5.5879164E-2],"categories":[],"categories_nodes":[],"categories_segments":[],"categories_sizes":[],"default_left":[0,1,0,0,0,0,0],"id":60,"left_children":[1,3,5,-1,-1,-1,-1],"loss_changes":[8.6425894E-1,5.7565683E-1,3.785882E-1,0E0,0E0,0E0,0E0],"parents":[2147483647,0,0,1,1,2,2],"right_children":[2,4,6,-1,-1,-1,-1],"split_conditions":[1.456E-1,8.618E1,3.135E-1,6.020218E-2,-1.1640968E-2,2.3883702E-3,-5.5879164E-2],"split_indices":[27,2,28,0,0,0,0],"split_type":[0,0,0,0,0,0,0],"sum_hessian":[6.588912E0,3.0122907E0,3.5766213E0,1.4755557E0,1.5367352E0,1.687964E0,1.8886575E0],"tree_param":{"num_deleted":"0","num_feature":"30","num_nodes":"7","size_leaf_vector":"1"}},{"base_weights":[8.023676E-3,3.2500145E-1,-2.3603374E-1,5.7395678E-2,-4.805244E-3,-3.982227E-1,2.024814E-2,6.297365E-3,-5.7338353E-2],"categories":[],"categories_nodes":[],"categories_segments":[],"categories_sizes":[],"default_left":[0,0,1,0,0,1,0,0,0],"id":61,"left_children":[1,3,5,-1,-1,7,-1,-1,-1],"loss_changes":[6.8495554E-1,3.8430536E-1,4.3777102E-1,0E0,0E0,3.594646E-1,0E0,0E0,0E0],"parents":[2147483647,0,0,1,1,2,2,5,5],"right_children":[2,4,6,-1,-1,8,-1,-1,-1],"split_conditions":[1.977E1,2.671E-1,6.329E-2,5.7395678E-2,-4.805244E-3,1.449E1,2.024814E-2,6.297365E-3,-5.7338353E-2],"split_indices":[1,26,9,0,0,20,0,0,0],"split_type":[0,0,0,0,0,0,0,0,0],"sum_hessian":[6.862437E0,2.8409708E0,4.0214663E0,1.3808997E0,1.4600711E0,3.002753E0,1.0187131E0,1.00282E0,1.9999331E0],"tree_param":{"num_deleted":"0","num_feature":"30","num_nodes":"9","size_leaf_vector":"1"}},{"base_weights":[9.52426E-3,1.753216E-1,-4.4664837E-2,-2.914667E-2,3.5289687E-1,5.5134004E-1,-2.0488426E-2,6.680441E-2,1.34192975E-2],"categories":[],"categories_nodes":[],"categories_segments":[],"categories_sizes":[],"default_left":[1,0,0,0,1,1,0,0,0],"id":62,"left_children":[1,3,-1,-1,5,7,-1,-1,-1],"loss_changes":[6.7315793E-1,6.405319E-1,0E0,0E0,6.831512E-1,1.0851598E-1,0E0,0E0,0E0],"parents":[2147483647,0,0,1,1,4,4,5,5],"right_children":[2,4,-1,-1,6,8,-1,-1,-1],"split_conditions":[8.765E2,6.053E-2,-4.4664837E-2,-2.914667E-2,1.459E-1,1.043E2,-2.0488426E-2,6.680441E-2,1.34192975E-2],"split_indices":[23,5,0,0,27,22,0,0,0],"split_type":[0,0,0,0,0,0,0,0,0],"sum_hessian":[6.865047E0,5.486595E0,1.3784516E0,1.3352591E0,4.151336E0,3.0704887E0,1.0808475E0,1.9292799E0,1.1412089E0],"tree_param":{"num_deleted":"0","num_feature":"30","num_nodes":"9","size_leaf_vector":"1"}},{"base_weights":[-2.2245511E-2,4.9684748E-2,-2.456756E-1,9.205304E-2,-4.855594E-1,3.6624167E-2,-2.0787517E-2,-1.4882377E-2,-5.7747155E-2],"categories":[],"categories_nodes":[],"categories_segments":[],"categories_sizes":[],"default_left":[0,0,0,0,0,0,0,0,0],"id":63,"left_children":[1,-1,3,5,7,-1,-1,-1,-1],"loss_changes":[9.65564E-1,0E0,5.108179E-1,3.4176266E-1,2.3108304E-2,0E0,0E0,0E0,0E0],"parents":[2147483647,0,0,2,2,3,3,4,4],"right_children":[2,-1,4,6,8,-1,-1,-1,-1],"split_conditions":[2.085E-1,4.9684748E-2,1.712E-1,3.255E1,1.006E-1,3.6624167E-2,-2.0787517E-2,-1.4882377E-2,-5.7747155E-2],"split_indices":[26,0,27,13,4,0,0,0,0],"split_type":[0,0,0,0,0,0,0,0,0],"sum_hessian":[6.2727504E0,1.5192844E0,4.7534657E0,2.2300596E0,2.523406E0,1.0495152E0,1.1805445E0,1.1026947E0,1.4207113E0],"tree_param":{"num_deleted":"0","num_feature":"30","num_nodes":"9","size_leaf_vector":"1"}},{"base_weights":[-2.0465454E-2,3.0796143E-1,-2.8825012E-1,5.436957E-2,-4.2913468E-3,1.3680965E-2,-4.7032904E-2],"categories":[],"categories_nodes":[],"categories_segments":[],"categories_sizes":[],"default_left":[0,0,0,0,0,0,0],"id":64,"left_children":[1,3,5,-1,-1,-1,-1],"loss_changes":[6.996424E-1,3.2136083E-1,4.0044641E-1,0E0,0E0,0E0,0E0],"parents":[2147483647,0,0,1,1,2,2],"right_children":[2,4,6,-1,-1,-1,-1],"split_conditions":[5.246E-2,1.491E-1,1.349E-1,5.436957E-2,-4.2913468E-3,1.3680965E-2,-4.7032904E-2],"split_indices":[7,24,24,0,0,0,0],"split_type":[0,0,0,0,0,0,0],"sum_hessian":[5.9458623E0,2.6031597E0,3.3427026E0,1.2283522E0,1.3748075E0,1.0770273E0,2.2656753E0],"tree_param":{"num_deleted":"0","num_feature":"30","num_nodes":"7","size_leaf_vector":"1"}},{"base_weights":[4.9695563E-2,4.6080176E-2,-1.80086E-1,2.056129E-2,-3.5920572E-1,8.8906335E-4,-5.1534392E-2],"categories":[],"categories_nodes":[],"categories_segments":[],"categories_sizes":[],"default_left":[1,0,1,0,0,0,0],"id":65,"left_children":[1,-1,3,-1,5,-1,-1],"loss_changes":[7.6416534E-1,0E0,4.4309443E-1,0E0,2.3526454E-1,0E0,0E0],"parents":[2147483647,0,0,2,2,4,4],"right_children":[2,-1,4,-1,6,-1,-1],"split_conditions":[1.547E-1,4.6080176E-2,1.854E1,2.056129E-2,6.902E2,8.8906335E-4,-5.1534392E-2],"split_indices":[8,0,13,0,3,0,0],"split_type":[0,0,0,0,0,0,0],"sum_hessian":[6.210968E0,1.8663888E0,4.344579E0,1.3308814E0,3.0136976E0,1.1784818E0,1.8352158E0],"tree_param":{"num_deleted":"0","num_feature":"30","num_nodes":"7","size_leaf_vector":"1"}},{"base_weights":[1.4325503E-2,3.0754358E-1,-2.581622E-1,5.3328197E-2,-1.2423471E-2,-4.6864617E-1,1.5248502E-2,-1.27480095E-2,-5.7601042E-2],"categories":[],"categories_nodes":[],"categories_segments":[],"categories_sizes":[],"default_left":[0,0,1,0,0,1,0,0,0],"id":66,"left_children":[1,3,5,-1,-1,7,-1,-1,-1],"loss_changes":[6.5014505E-1,4.4610694E-1,4.3848494E-1,0E0,0E0,3.839165E-2,0E0,0E0,0E0],"parents":[2147483647,0,0,1,1,2,2,5,5],"right_children":[2,4,6,-1,-1,8,-1,-1,-1],"split_conditions":[2.757E1,4.89E1,1.879E-2,5.3328197E-2,-1.2423471E-2,1.025E2,1.5248502E-2,-1.27480095E-2,-5.7601042E-2],"split_indices":[21,13,18,0,0,22,0,0,0],"split_type":[0,0,0,0,0,0,0,0,0],"sum_hessian":[6.143441E0,2.8971887E0,3.2462525E0,1.7481525E0,1.1490362E0,2.052812E0,1.1934406E0,1.0149658E0,1.0378463E0],"tree_param":{"num_deleted":"0","num_feature":"30","num_nodes":"9","size_leaf_vector":"1"}},{"base_weights":[-5.1357985E-2,2.318298E-1,-3.049006E-1,4.6407264E-2,-2.175523E-2,1.5793215E-2,-5.4483246E-2],"categories":[],"categories_nodes":[],"categories_segments":[],"categories_sizes":[],"default_left":[1,1,1,0,0,0,0],"id":67,"left_children":[1,3,5,-1,-1,-1,-1],"loss_changes":[5.780516E-1,5.0862396E-1,5.480369E-1,0E0,0E0,0E0,0E0],"parents":[2147483647,0,0,1,1,2,2],"right_children":[2,4,6,-1,-1,-1,-1],"split_conditions":[2.085E-1,9.415E1,1.615E1,4.6407264E-2,-2.175523E-2,1.5793215E-2,-5.4483246E-2],"split_indices":[26,2,1,0,0,0,0],"split_type":[0,0,0,0,0,0,0],"sum_hessian":[6.0663705E0,2.9061074E0,3.1602633E0,1.894388E0,1.0117193E0,1.1956319E0,1.9646314E0],"tree_param":{"num_deleted":"0","num_feature":"30","num_nodes":"7","size_leaf_vector":"1"}},{"base_weights":[3.9665652E-3,-2.4261038E-1,2.536362E-1,1.1902524E-2,-4.0162218E-1,4.8282146E-2,-1.6522003E-2,-4.8591014E-2,-1.1947914E-2],"categories":[],"categories_nodes":[],"categories_segments":[],"categories_sizes":[],"default_left":[1,0,0,0,0,0,0,0,0],"id":68,"left_children":[1,3,5,-1,7,-1,-1,-1,-1],"loss_changes":[4.9197003E-1,2.794767E-1,4.6020344E-1,0E0,1.3929009E-2,0E0,0E0,0E0,0E0],"parents":[2147483647,0,0,1,1,2,2,4,4],"right_children":[2,4,6,-1,8,-1,-1,-1,-1],"split_conditions":[1.651E-2,1.818E-2,1.137E2,1.1902524E-2,8.136E-2,4.8282146E-2,-1.6522003E-2,-4.8591014E-2,-1.1947914E-2],"split_indices":[18,16,22,0,29,0,0,0,0],"split_type":[0,0,0,0,0,0,0,0,0],"sum_hessian":[5.9918094E0,3.0288012E0,2.9630084E0,1.0018328E0,2.0269685E0,1.8164104E0,1.1465979E0,1.0046309E0,1.0223374E0],"tree_param":{"num_deleted":"0","num_feature":"30","num_nodes":"9","size_leaf_vector":"1"}},{"base_weights":[-5.091608E-2,3.395738E-2,-2.4073361E-1,1.7043352E-2,-3.95588E-1,-5.1930904E-2,-3.9565377E-3],"categories":[],"categories_nodes":[],"categories_segments":[],"categories_sizes":[],"default_left":[0,0,1,0,0,0,0],"id":69,"left_children":[1,-1,3,-1,5,-1,-1],"loss_changes":[5.8087236E-1,0E0,3.9318693E-1,0E0,1.5642434E-1,0E0,0E0],"parents":[2147483647,0,0,2,2,4,4],"right_children":[2,-1,4,-1,6,-1,-1],"split_conditions":[2.339E1,3.395738E-2,1.336E1,1.7043352E-2,5.217E-3,-5.1930904E-2,-3.9565377E-3],"split_indices":[21,0,20,0,19,0,0],"split_type":[0,0,0,0,0,0,0],"sum_hessian":[5.733854E0,1.6174698E0,4.116384E0,1.0986527E0,3.0177312E0,1.8991274E0,1.118604E0],"tree_param":{"num_deleted":"0","num_feature":"30","num_nodes":"7","size_leaf_vector":"1"}},{"base_weights":[1.8368209E-2,3.6436415E-1,-2.672723E-1,5.7760257E-2,-5.3570657E-3,9.52954E-3,-4.5438726E-2],"categories":[],"categories_nodes":[],"categories_segments":[],"categories_sizes":[],"default_left":[0,0,0,0,0,0,0],"id":70,"left_children":[1,3,5,-1,-1,-1,-1],"loss_changes":[7.205035E-1,3.2275426E-1,3.1674117E-1,0E0,0E0,0E0,0E0],"parents":[2147483647,0,0,1,1,2,2],"right_children":[2,4,6,-1,-1,-1,-1],"split_conditions":[1.51E-1,8.732E2,9.934E-2,5.7760257E-2,-5.3570657E-3,9.52954E-3,-4.5438726E-2],"split_indices":[27,23,4,0,0,0,0],"split_type":[0,0,0,0,0,0,0],"sum_hessian":[5.3049297E0,2.2743766E0,3.030553E0,1.2530211E0,1.0213555E0,1.1986576E0,1.8318954E0],"tree_param":{"num_deleted":"0","num_feature":"30","num_nodes":"7","size_leaf_vector":"1"}},{"base_weights":[1.7865234E-3,3.0503094E-1,-2.3257446E-1,4.941155E-2,-6.7199045E-3,1.1090784E-2,-4.390252E-2],"categories":[],"categories_nodes":[],"categories_segments":[],"categories_sizes":[],"default_left":[0,0,0,0,0,0,0],"id":71,"left_children":[1,3,5,-1,-1,-1,-1],"loss_changes":[5.5730367E-1,2.736287E-1,3.6266142E-1,0E0,0E0,0E0,0E0],"parents":[2147483647,0,0,1,1,2,2],"right_children":[2,4,6,-1,-1,-1,-1],"split_conditions":[2.572E1,3.833E0,1.025E2,4.941155E-2,-6.7199045E-3,1.1090784E-2,-4.390252E-2],"split_indices":[21,12,22,0,0,0,0],"split_type":[0,0,0,0,0,0,0],"sum_hessian":[5.8435407E0,2.4159505E0,3.4275904E0,1.3849698E0,1.0309807E0,1.4604894E0,1.9671009E0],"tree_param":{"num_deleted":"0","num_feature":"30","num_nodes":"7","size_leaf_vector":"1"}},{"base_weights":[-1.6672106E-2,2.8657982E-1,-3.2854056E-1,5.2580833E-2,-1.882391E-2,5.736505E-3,-5.2744776E-2],"categories":[],"categories_nodes":[],"categories_segments":[],"categories_sizes":[],"default_left":[0,1,0,0,0,0,0],"id":72,"left_children":[1,3,5,-1,-1,-1,-1],"loss_changes":[7.0415103E-1,5.311015E-1,3.1009644E-1,0E0,0E0,0E0,0E0],"parents":[2147483647,0,0,1,1,2,2],"right_children":[2,4,6,-1,-1,-1,-1],"split_conditions":[6.937E2,2.126E1,3.444E1,5.2580833E-2,-1.882391E-2,5.736505E-3,-5.2744776E-2],"split_indices":[3,1,13,0,0,0,0],"split_type":[0,0,0,0,0,0,0],"sum_hessian":[5.449905E0,2.8042347E0,2.64567E0,1.7933184E0,1.0109164E0,1.141878E0,1.5037919E0],"tree_param":{"num_deleted":"0","num_feature":"30","num_nodes":"7","size_leaf_vector":"1"}},{"base_weights":[1.0885195E-2,2.9972005E-1,-2.2447243E-1,5.2186675E-2,-3.9737965E-3,-4.378495E-2,1.693916E-2],"categories":[],"categories_nodes":[],"categories_segments":[],"categories_sizes":[],"default_left":[0,0,0,0,0,0,0],"id":73,"left_children":[1,3,5,-1,-1,-1,-1],"loss_changes":[5.1008874E-1,2.7357793E-1,4.2386314E-1,0E0,0E0,0E0,0E0],"parents":[2147483647,0,0,1,1,2,2],"right_children":[2,4,6,-1,-1,-1,-1],"split_conditions":[2.573E1,1.384E-2,7.514E-3,5.2186675E-2,-3.9737965E-3,-4.378495E-2,1.693916E-2],"split_indices":[21,17,14,0,0,0,0],"split_type":[0,0,0,0,0,0,0],"sum_hessian":[5.513874E0,2.3528948E0,3.160979E0,1.0973918E0,1.255503E0,1.9778148E0,1.1831641E0],"tree_param":{"num_deleted":"0","num_feature":"30","num_nodes":"7","size_leaf_vector":"1"}},{"base_weights":[4.1150462E-2,2.1309955E-1,-3.8612977E-2,4.295516E-1,-1.5466347E-2,5.859771E-2,5.631205E-3],"categories":[],"categories_nodes":[],"categories_segments":[],"categories_sizes":[],"default_left":[1,1,0,0,0,0,0],"id":74,"left_children":[1,3,-1,5,-1,-1,-1],"loss_changes":[5.3345054E-1,4.662872E-1,0E0,1.6707063E-1,0E0,0E0,0E0],"parents":[2147483647,0,0,1,1,3,3],"right_children":[2,4,-1,6,-1,-1,-1],"split_conditions":[8.765E2,1.977E1,-3.8612977E-2,1.712E-1,-1.5466347E-2,5.859771E-2,5.631205E-3],"split_indices":[23,1,0,27,0,0,0],"split_type":[0,0,0,0,0,0,0],"sum_hessian":[5.1407886E0,4.023064E0,1.1177244E0,2.426753E0,1.5963112E0,1.3084168E0,1.1183362E0],"tree_param":{"num_deleted":"0","num_feature":"30","num_nodes":"7","size_leaf_vector":"1"}},{"base_weights":[-5.468772E-2,2.1026021E-1,-3.3647865E-1,4.3866362E-2,-2.070607E-2,1.0651933E-3,-5.2292503E-2],"categories":[],"categories_nodes":[],"categories_segments":[],"categories_sizes":[],"default_left":[0,1,1,0,0,0,0],"id":75,"left_children":[1,3,5,-1,-1,-1,-1],"loss_changes":[5.252941E-1,4.485868E-1,2.2140926E-1,0E0,0E0,0E0,0E0],"parents":[2147483647,0,0,1,1,2,2],"right_children":[2,4,6,-1,-1,-1,-1],"split_conditions":[6.937E2,1.405E-1,2.892E1,4.3866362E-2,-2.070607E-2,1.0651933E-3,-5.2292503E-2],"split_indices":[3,24,13,0,0,0,0],"split_type":[0,0,0,0,0,0,0],"sum_hessian":[5.0882196E0,2.7533162E0,2.3349037E0,1.7463701E0,1.006946E0,1.1453432E0,1.1895605E0],"tree_param":{"num_deleted":"0","num_feature":"30","num_nodes":"7","size_leaf_vector":"1"}},{"base_weights":[-1.4084823E-2,2.4313918E-1,-2.4524482E-1,4.1187685E-2,-7.511432E-3,-4.2116378E-2,7.2831917E-3],"categories":[],"categories_nodes":[],"categories_segments":[],"categories_sizes":[],"default_left":[1,0,1,0,0,0,0],"id":76,"left_children":[1,3,5,-1,-1,-1,-1],"loss_changes":[4.4086626E-1,2.2087446E-1,2.4748981E-1,0E0,0E0,0E0,0E0],"parents":[2147483647,0,0,1,1,2,2],"right_children":[2,4,6,-1,-1,-1,-1],"split_conditions":[2.085E-1,4.106E0,6.259E-2,4.1187685E-2,-7.511432E-3,-4.2116378E-2,7.2831917E-3],"split_indices":[26,12,9,0,0,0,0],"split_type":[0,0,0,0,0,0,0],"sum_hessian":[5.411677E0,2.5369055E0,2.8747714E0,1.465644E0,1.0712615E0,1.642344E0,1.2324274E0],"tree_param":{"num_deleted":"0","num_feature":"30","num_nodes":"7","size_leaf_vector":"1"}},{"base_weights":[-1.48281995E-2,2.3674983E-1,-2.5222376E-1,4.8645463E-2,-8.626575E-3,1.0163612E-2,-4.7572877E-2],"categories":[],"categories_nodes":[],"categories_segments":[],"categories_sizes":[],"default_left":[0,0,0,0,0,0,0],"id":77,"left_children":[1,3,5,-1,-1,-1,-1],"loss_changes":[4.3508375E-1,3.2969248E-1,3.423971E-1,0E0,0E0,0E0,0E0],"parents":[2147483647,0,0,1,1,2,2],"right_children":[2,4,6,-1,-1,-1,-1],"split_conditions":[1.384E-2,2.799E1,6.781E2,4.8645463E-2,-8.626575E-3,1.0163612E-2,-4.7572877E-2],"split_indices":[17,21,3,0,0,0,0],"split_type":[0,0,0,0,0,0,0],"sum_hessian":[5.285127E0,2.5672376E0,2.7178893E0,1.1625546E0,1.4046829E0,1.2632061E0,1.4546833E0],"tree_param":{"num_deleted":"0","num_feature":"30","num_nodes":"7","size_leaf_vector":"1"}},{"base_weights":[-2.9137032E-2,-2.6617473E-1,2.3915426E-1,1.0265592E-2,-4.476996E-2,4.1347906E-2,-5.4214294E-3],"categories":[],"categories_nodes":[],"categories_segments":[],"categories_sizes":[],"default_left":[1,0,0,0,0,0,0],"id":78,"left_children":[1,3,5,-1,-1,-1,-1],"loss_changes":[4.5467705E-1,2.9620504E-1,1.9685419E-1,0E0,0E0,0E0,0E0],"parents":[2147483647,0,0,1,1,2,2],"right_children":[2,4,6,-1,-1,-1,-1],"split_conditions":[1.694E-2,1.38E-1,1.106E2,1.0265592E-2,-4.476996E-2,4.1347906E-2,-5.4214294E-3],"split_indices":[18,24,22,0,0,0,0],"split_type":[0,0,0,0,0,0,0],"sum_hessian":[5.1485853E0,2.7376962E0,2.4108894E0,1.0462854E0,1.6914109E0,1.2554564E0,1.1554329E0],"tree_param":{"num_deleted":"0","num_feature":"30","num_nodes":"7","size_leaf_vector":"1"}},{"base_weights":[2.2775799E-2,2.309142E-1,-2.9681286E-2,-2.2933995E-2,4.5314275E-2],"categories":[],"categories_nodes":[],"categories_segments":[],"categories_sizes":[],"default_left":[1,0,0,0,0],"id":79,"left_children":[1,3,-1,-1,-1],"loss_changes":[4.78595E-1,5.432892E-1,0E0,0E0,0E0],"parents":[2147483647,0,0,1,1],"right_children":[2,4,-1,-1,-1],"split_conditions":[1.365E-1,5.684E-2,-2.9681286E-2,-2.2933995E-2,4.5314275E-2],"split_indices":[24,9,0,0,0],"split_type":[0,0,0,0,0],"sum_hessian":[5.164534E0,3.295645E0,1.8688895E0,1.0627007E0,2.2329443E0],"tree_param":{"num_deleted":"0","num_feature":"30","num_nodes":"5","size_leaf_vector":"1"}},{"base_weights":[7.4247625E-3,2.6878145E-1,-2.3387264E-1,4.5807015E-2,-5.000639E-3,-4.167587E-2,7.855497E-3],"categories":[],"categories_nodes":[],"categories_segments":[],"categories_sizes":[],"default_left":[1,1,1,0,0,0,0],"id":80,"left_children":[1,3,5,-1,-1,-1,-1],"loss_changes":[4.468286E-1,2.273501E-1,2.4417718E-1,0E0,0E0,0E0,0E0],"parents":[2147483647,0,0,1,1,2,2],"right_children":[2,4,6,-1,-1,-1,-1],"split_conditions":[2.085E-1,2.644E1,6.259E-2,4.5807015E-2,-5.000639E-3,-4.167587E-2,7.855497E-3],"split_indices":[26,13,9,0,0,0,0],"split_type":[0,0,0,0,0,0,0],"sum_hessian":[5.0884786E0,2.388029E0,2.7004495E0,1.2242097E0,1.1638194E0,1.4927185E0,1.207731E0],"tree_param":{"num_deleted":"0","num_feature":"30","num_nodes":"7","size_leaf_vector":"1"}},{"base_weights":[2.6019318E-2,-1.8946661E-1,2.5777966E-1,1.3194978E-2,-3.7041962E-2,4.1868225E-2,-3.6593762E-3],"categories":[],"categories_nodes":[],"categories_segments":[],"categories_sizes":[],"default_left":[1,1,0,0,0,0,0],"id":81,"left_children":[1,3,5,-1,-1,-1,-1],"loss_changes":[3.473233E-1,2.6252973E-1,1.717804E-1,0E0,0E0,0E0,0E0],"parents":[2147483647,0,0,1,1,2,2],"right_children":[2,4,6,-1,-1,-1,-1],"split_conditions":[1.694E-2,1.658E1,1.635E1,1.3194978E-2,-3.7041962E-2,4.1868225E-2,-3.6593762E-3],"split_indices":[18,1,20,0,0,0,0],"split_type":[0,0,0,0,0,0,0],"sum_hessian":[4.9766946E0,2.673458E0,2.3032365E0,1.0605214E0,1.6129367E0,1.2161915E0,1.087045E0],"tree_param":{"num_deleted":"0","num_feature":"30","num_nodes":"7","size_leaf_vector":"1"}},{"base_weights":[-4.181712E-2,2.1359721E-1,-2.730999E-1,4.541304E-2,-1.0731411E-2,2.8289221E-3,-4.206787E-2],"categories":[],"categories_nodes":[],"categories_segments":[],"categories_sizes":[],"default_left":[1,0,0,0,0,0,0],"id":82,"left_children":[1,3,5,-1,-1,-1,-1],"loss_changes":[4.013193E-1,3.0502486E-1,1.6694811E-1,0E0,0E0,0E0,0E0],"parents":[2147483647,0,0,1,1,2,2],"right_children":[2,4,6,-1,-1,-1,-1],"split_conditions":[2.085E-1,1.367E-2,2.757E1,4.541304E-2,-1.0731411E-2,2.8289221E-3,-4.206787E-2],"split_indices":[26,17,21,0,0,0,0],"split_type":[0,0,0,0,0,0,0],"sum_hessian":[4.8061433E0,2.3202598E0,2.4858835E0,1.0889386E0,1.2313212E0,1.0828242E0,1.4030592E0],"tree_param":{"num_deleted":"0","num_feature":"30","num_nodes":"7","size_leaf_vector":"1"}},{"base_weights":[-3.7105523E-2,1.5880871E-1,-3.326456E-2,-2.2192618E-2,3.520843E-1,5.1295787E-2,2.4534739E-3],"categories":[],"categories_nodes":[],"categories_segments":[],"categories_sizes":[],"default_left":[1,0,0,0,0,0,0],"id":83,"left_children":[1,3,-1,-1,5,-1,-1],"loss_changes":[3.8498583E-1,3.818059E-1,0E0,0E0,1.520207E-1,0E0,0E0],"parents":[2147483647,0,0,1,1,4,4],"right_children":[2,4,-1,-1,6,-1,-1],"split_conditions":[1.365E-1,6.374E-2,-3.326456E-2,-2.2192618E-2,7.019E2,5.1295787E-2,2.4534739E-3],"split_indices":[24,5,0,0,3,0,0],"split_type":[0,0,0,0,0,0,0],"sum_hessian":[4.7367177E0,3.1266818E0,1.6100358E0,1.002875E0,2.1238067E0,1.0446755E0,1.0791312E0],"tree_param":{"num_deleted":"0","num_feature":"30","num_nodes":"7","size_leaf_vector":"1"}},{"base_weights":[4.512519E-2,2.743126E-1,-2.2147262E-1,4.6252746E-2,-8.437562E-3,1.2145135E-2,-4.673065E-2],"categories":[],"categories_nodes":[],"categories_segments":[],"categories_sizes":[],"default_left":[0,0,1,0,0,0,0],"id":84,"left_children":[1,3,5,-1,-1,-1,-1],"loss_changes":[4.0827072E-1,2.7565706E-1,3.2504806E-1,0E0,0E0,0E0,0E0],"parents":[2147483647,0,0,1,1,2,2],"right_children":[2,4,6,-1,-1,-1,-1],"split_conditions":[8.765E2,1.809E0,2.792E-1,4.6252746E-2,-8.437562E-3,1.2145135E-2,-4.673065E-2],"split_indices":[23,11,28,0,0,0,0],"split_type":[0,0,0,0,0,0,0],"sum_hessian":[4.6876125E0,2.505102E0,2.1825106E0,1.4531118E0,1.0519902E0,1.1225625E0,1.0599481E0],"tree_param":{"num_deleted":"0","num_feature":"30","num_nodes":"7","size_leaf_vector":"1"}},{"base_weights":[2.830839E-2,3.3697285E-2,-1.3370843E-1,1.5243645E-2,-3.4104533E-2],"categories":[],"categories_nodes":[],"categories_segments":[],"categories_sizes":[],"default_left":[0,0,0,0,0],"id":85,"left_children":[1,-1,3,-1,-1],"loss_changes":[3.1815022E-1,0E0,3.0692765E-1,0E0,0E0],"parents":[2147483647,0,0,2,2],"right_children":[2,-1,4,-1,-1],"split_conditions":[2.085E-1,3.3697285E-2,1.607E-1,1.5243645E-2,-3.4104533E-2],"split_indices":[26,0,27,0,0],"split_type":[0,0,0,0,0],"sum_hessian":[4.4609165E0,1.1638185E0,3.2970982E0,1.4965304E0,1.8005676E0],"tree_param":{"num_deleted":"0","num_feature":"30","num_nodes":"5","size_leaf_vector":"1"}},{"base_weights":[4.4426814E-2,3.0697843E-1,-2.2283049E-1,4.4479776E-2,1.5657762E-3,6.7130984E-3,-3.9104354E-2],"categories":[],"categories_nodes":[],"categories_segments":[],"categories_sizes":[],"default_left":[0,1,0,0,0,0,0],"id":86,"left_children":[1,3,5,-1,-1,-1,-1],"loss_changes":[4.2866352E-1,1.1390489E-1,1.7861061E-1,0E0,0E0,0E0,0E0],"parents":[2147483647,0,0,1,1,2,2],"right_children":[2,4,6,-1,-1,-1,-1],"split_conditions":[6.937E2,1.017E-1,3.711E1,4.4479776E-2,1.5657762E-3,6.7130984E-3,-3.9104354E-2],"split_indices":[3,27,13,0,0,0,0],"split_type":[0,0,0,0,0,0,0],"sum_hessian":[4.134178E0,2.010476E0,2.1237023E0,1.0071683E0,1.0033079E0,1.0003097E0,1.1233925E0],"tree_param":{"num_deleted":"0","num_feature":"30","num_nodes":"7","size_leaf_vector":"1"}},{"base_weights":[1.210549E-2,2.7974117E-1,-2.1625113E-1,4.6386283E-2,-4.454752E-3,-3.7523646E-2,9.678304E-3],"categories":[],"categories_nodes":[],"categories_segments":[],"categories_sizes":[],"default_left":[0,0,1,0,0,0,0],"id":87,"left_children":[1,3,5,-1,-1,-1,-1],"loss_changes":[4.0753865E-1,2.027966E-1,2.1687706E-1,0E0,0E0,0E0,0E0],"parents":[2147483647,0,0,1,1,2,2],"right_children":[2,4,6,-1,-1,-1,-1],"split_conditions":[2.757E1,3.384E0,1.816E-2,4.6386283E-2,-4.454752E-3,-3.7523646E-2,9.678304E-3],"split_indices":[21,12,18,0,0,0,0],"split_type":[0,0,0,0,0,0,0],"sum_hessian":[4.6784177E0,2.0503607E0,2.6280568E0,1.0332887E0,1.0170721E0,1.6110973E0,1.0169595E0],"tree_param":{"num_deleted":"0","num_feature":"30","num_nodes":"7","size_leaf_vector":"1"}},{"base_weights":[-4.098312E-2,1.8718812E-1,-3.1264227E-2,4.315376E-2,-8.254885E-3],"categories":[],"categories_nodes":[],"categories_segments":[],"categories_sizes":[],"default_left":[1,1,0,0,0],"id":88,"left_children":[1,3,-1,-1,-1],"loss_changes":[3.890669E-1,2.6787776E-1,0E0,0E0,0E0],"parents":[2147483647,0,0,1,1],"right_children":[2,4,-1,-1,-1],"split_conditions":[1.025E2,5.536E2,-3.1264227E-2,4.315376E-2,-8.254885E-3],"split_indices":[22,23,0,0,0],"split_type":[0,0,0,0,0],"sum_hessian":[4.332662E0,2.5238125E0,1.8088496E0,1.0094897E0,1.514323E0],"tree_param":{"num_deleted":"0","num_feature":"30","num_nodes":"5","size_leaf_vector":"1"}},{"base_weights":[3.3437464E-2,-2.883868E-2,1.7796032E-1,5.338971E-2,-8.998918E-2,1.9827772E-2,-3.42089E-2],"categories":[],"categories_nodes":[],"categories_segments":[],"categories_sizes":[],"default_left":[0,0,0,0,1,0,0],"id":89,"left_children":[1,-1,3,-1,5,-1,-1],"loss_changes":[3.0930874E-1,0E0,4.7209513E-1,0E0,3.143612E-1,0E0,0E0],"parents":[2147483647,0,0,2,2,4,4],"right_children":[2,-1,4,-1,6,-1,-1],"split_conditions":[6.307E-2,-2.883868E-2,6.95E-2,5.338971E-2,7.259E2,1.9827772E-2,-3.42089E-2],"split_indices":[5,0,6,0,23,0,0],"split_type":[0,0,0,0,0,0,0],"sum_hessian":[4.546807E0,1.1005827E0,3.446224E0,1.0538241E0,2.3924E0,1.2157404E0,1.1766595E0],"tree_param":{"num_deleted":"0",