{"learner":{"attributes":{},"feature_names":["num0","cat0","num1","cat1","num2","cat2"],"feature_types":["q","c","q","c","q","c"],"gradient_booster":{"model":{"cats":{"enc":[],"feature_segments":[],"sorted_idx":[]},"gbtree_model_param":{"num_parallel_tree":"1","num_trees":"50"},"iteration_indptr":[0,1,2,3,4,5,6,7,8,9,10,11,12,13,14,15,16,17,18,19,20,21,22,23,24,25,26,27,28,29,30,31,32,33,34,35,36,37,38,39,40,41,42,43,44,45,46,47,48,49,50],"tree_info":[0,0,0,0,0,0,0,0,0,0,0,0,0,0,0,0,0,0,0,0,0,0,0,0,0,0,0,0,0,0,0,0,0,0,0,0,0,0,0,0,0,0,0,0,0,0,0,0,0,0],"trees":[{"base_weights":[4.50494E-9,-9.212898E-1,7.638083E-1,-1.6921295E0,4.4914842E-1,-1.3689289E0,9.777824E-1,-6.724418E-1,-1.849483E0,-9.4515216E-1,1.0849699E0,-3.2332793E-1,-5.2952748E-2,1.179906E0,-1.22165844E-1,-2.6171345E-1,9.948582E-2,-3.9712614E-1,-9.199016E-1,-2.9253012E-1,1.24968484E-1,3.2362828E-1,-2.8179955E-1,5.352174E-1,1.4951134E0,-9.199016E-1,7.3990667E-1,-2.6171345E-1,3.600787E-2,-1.6456094E-1,1.24968484E-1,-6.085147E-1,1.0148422E0,1.5778152E0,-9.1508245E-3,-2.514422E-1,-9.1508245E-3,-1.0168567E-2,2.5675637E-1,-2.7077672E-1,2.139291E-1,2.7256805E-1,1.1889947E-2,3.4288275E-1,1.633992E-1],"categories":[0,1,2,3,2,1,3,6,1,0,3,0,2],"categories_nodes":[3,6,10,25,32,33],"categories_segments":[0,4,5,8,9,11],"categories_sizes":[4,1,3,1,2,2],"default_left":[0,1,0,0,0,1,1,0,0,0,1,0,0,1,1,0,0,0,1,0,0,0,0,0,1,1,0,0,0,0,0,1,0,1,0,0,0,0,0,0,0,0,0,0,0],"id":0,"left_children":[1,3,5,7,9,11,13,15,17,19,21,-1,-1,23,25,-1,-1,-1,27,-1,-1,-1,29,31,33,35,37,-1,-1,-1,-1,39,41,43,-1,-1,-1,-1,-1,-1,-1,-1,-1,-1,-1],"loss_changes":[7.518747E1,5.1922016E1,2.7996948E1,3.7633972E0,1.7182373E1,1.1427889E0,1.2077114E1,4.9248505E0,1.5225906E0,5.985671E0,9.916692E0,0E0,0E0,8.432747E0,7.0336885E0,0E0,0E0,0E0,2.4773803E0,0E0,0E0,0E0,2.718873E0,9.656483E0,3.889801E0,1.4886642E0,2.2131195E0,0E0,0E0,0E0,0E0,8.319672E0,3.90337E0,1.5570984E0,0E0,0E0,0E0,0E0,0E0,0E0,0E0,0E0,0E0,0E0,0E0],"parents":[2147483647,0,0,1,1,2,2,3,3,4,4,5,5,6,6,7,7,8,8,9,9,10,10,13,13,14,14,18,18,22,22,23,23,24,24,25,25,26,26,31,31,32,32,33,33],"right_children":[2,4,6,8,10,12,14,16,18,20,22,-1,-1,24,26,-1,-1,-1,28,-1,-1,-1,30,32,34,36,38,-1,-1,-1,-1,40,42,44,-1,-1,-1,-1,-1,-1,-1,-1,-1,-1,-1],"split_conditions":[-4.2171452E-2,1.7466596E-1,-1.2856895E0,1E-45,-1.048553E0,1.1368914E0,1E-45,-4.8102713E-1,-2.0289683E-1,9.3929875E-1,1E-45,-3.2332793E-1,-5.2952748E-2,1.8133843E-1,8.1235096E-2,-2.6171345E-1,9.948582E-2,-3.9712614E-1,-4.462456E-1,-2.9253012E-1,1.24968484E-1,3.2362828E-1,9.664813E-1,-1.3389224E-1,1.286427E0,1E-45,8.644362E-1,-2.6171345E-1,3.600787E-2,-1.6456094E-1,1.24968484E-1,-8.153897E-2,1E-45,1E-45,-9.1508245E-3,-2.514422E-1,-9.1508245E-3,-1.0168567E-2,2.5675637E-1,-2.7077672E-1,2.139291E-1,2.7256805E-1,1.1889947E-2,3.4288275E-1,1.633992E-1],"split_indices":[0,2,2,3,0,0,3,0,0,2,5,0,0,0,2,0,0,0,2,0,0,0,2,2,4,1,0,0,0,0,0,4,5,3,0,0,0,0,0,0,0,0,0,0,0],"split_type":[0,0,0,1,0,0,1,0,0,0,1,0,0,0,0,0,0,0,0,0,0,0,0,0,0,1,0,0,0,0,0,0,1,1,0,0,0,0,0,0,0,0,0,0,0],"sum_hessian":[1.0484762E2,4.7431065E1,5.7416553E1,3.02061E1,1.7224966E1,4.7431064E0,5.2673447E1,4.7431064E0,2.5462994E1,5.242381E0,1.1982585E1,3.4949207E0,1.2481859E0,4.443542E1,8.238028E0,2.9956462E0,1.7474604E0,2.121916E1,4.243832E0,3.994195E0,1.2481859E0,8.487664E0,3.4949207E0,1.5477506E1,2.8957914E1,4.243832E0,3.994195E0,2.9956462E0,1.2481859E0,2.2467346E0,1.2481859E0,4.493469E0,1.0984036E1,2.746009E1,1.4978231E0,2.746009E0,1.4978231E0,1.9970975E0,1.9970975E0,3.2452834E0,1.2481859E0,7.738753E0,3.2452834E0,2.221771E1,5.242381E0],"tree_param":{"num_deleted":"0","num_feature":"6","num_nodes":"45","size_leaf_vector":"1"}},{"base_weights":[-1.8094927E-3,-7.659195E-1,6.342626E-1,-1.4948733E0,2.4165802E-1,-1.17056E0,8.1855017E-1,-3.177728E-1,-7.8575283E-1,-1.0053875E0,7.763025E-1,-2.7611277E-1,-4.703395E-2,1.2225211E0,3.0659732E-1,-2.3100893E-1,4.3938663E-2,-2.927779E-1,1.1167701E-1,1.3598243E0,-4.2187396E-1,6.235053E-1,3.1938535E-1,1.2916602E0,-2.265286E-1,1.2247439E-1,2.9654315E-1,1.5699384E-1,-1.0329509E0,-5.429814E-1,1.3097723E0,1.1125787E-1,2.847148E-1,-9.0335166E-1,1.016817E0,-2.5190622E-1,-5.409372E-2,7.029422E-2,-1.9239521E-1,3.0142006E-1,1.8503567E-2,-5.421154E-2,-2.8717855E-1,-5.803596E-2,2.7759203E-1],"categories":[1,3,4,6,0,1,2,3,1,3,6,0,1,2,0,1,2,1,0,1,3,4,5,6,7,1,3,6],"categories_nodes":[6,8,10,14,20,24,29,33],"categories_segments":[0,4,8,11,14,17,18,25],"categories_sizes":[4,4,3,3,3,1,7,3],"default_left":[0,1,0,0,0,1,0,0,1,0,1,0,0,1,0,0,0,0,0,0,0,1,0,1,1,0,0,0,0,1,0,0,0,1,0,0,0,0,0,0,0,0,0,0,0],"id":1,"left_children":[1,3,5,7,9,11,13,-1,15,17,19,-1,-1,21,23,-1,-1,-1,-1,25,27,29,-1,31,33,-1,-1,-1,35,37,39,-1,-1,41,43,-1,-1,-1,-1,-1,-1,-1,-1,-1,-1],"loss_changes":[5.0806812E1,3.5239136E1,1.9932804E1,5.972481E-1,1.4644782E1,7.94415E-1,1.0452179E1,0E0,2.1916904E0,5.6038375E0,1.1144237E1,0E0,0E0,5.491894E0,1.3119419E1,0E0,0E0,0E0,0E0,4.770279E-2,5.025344E0,1.093115E1,0E0,5.4558754E-2,1.49706545E1,0E0,0E0,0E0,3.893671E-1,2.3752656E0,1.8616343E0,0E0,0E0,3.4299202E0,3.4860992E0,0E0,0E0,0E0,0E0,0E0,0E0,0E0,0E0,0E0,0E0],"parents":[2147483647,0,0,1,1,2,2,3,3,4,4,5,5,6,6,8,8,9,9,10,10,13,13,14,14,19,19,20,20,21,21,23,23,24,24,28,28,29,29,30,30,33,33,34,34],"right_children":[2,4,6,8,10,12,14,-1,16,18,20,-1,-1,22,24,-1,-1,-1,-1,26,28,30,-1,32,34,-1,-1,-1,36,38,40,-1,-1,42,44,-1,-1,-1,-1,-1,-1,-1,-1,-1,-1],"split_conditions":[-4.2171452E-2,1.0990766E-2,-1.2856895E0,-2.0289683E-1,-1.0930616E0,1.1368914E0,1E-45,-3.177728E-1,1E-45,9.3929875E-1,1E-45,-2.7611277E-1,-4.703395E-2,2.8427967E-1,1E-45,-2.3100893E-1,4.3938663E-2,-2.927779E-1,1.1167701E-1,-6.9204986E-1,1E-45,-2.8318587E-1,3.1938535E-1,5.1945396E-2,1E-45,1.2247439E-1,2.9654315E-1,1.5699384E-1,6.390487E-1,1E-45,1.4782174E0,1.1125787E-1,2.847148E-1,1E-45,-5.178168E-1,-2.5190622E-1,-5.409372E-2,7.029422E-2,-1.9239521E-1,3.0142006E-1,1.8503567E-2,-5.421154E-2,-2.8717855E-1,-5.803596E-2,2.7759203E-1],"split_indices":[0,2,2,0,0,0,5,0,5,2,5,0,0,0,3,0,0,0,0,0,3,2,0,0,1,0,0,0,2,5,4,0,0,5,2,0,0,0,0,0,0,0,0,0,0],"split_type":[0,0,0,0,0,0,1,0,1,0,1,0,0,0,1,0,0,0,0,0,1,0,0,0,1,0,0,0,0,1,0,0,0,1,0,0,0,0,0,0,0,0,0,0,0],"sum_hessian":[1.02535E2,4.648667E1,5.6048332E1,2.669208E1,1.9794594E1,4.6969433E0,5.1351387E1,2.2472797E1,4.2192807E0,5.675694E0,1.41189E1,3.4471126E0,1.2498307E0,2.792691E1,2.3424477E1,2.9770482E0,1.2422328E0,4.438259E0,1.237435E0,9.40411E0,4.7147903E0,1.1766643E1,1.6160267E1,7.726089E0,1.5698388E1,2.1726444E0,7.2314653E0,1.4891785E0,3.2256117E0,4.4357457E0,7.3308973E0,1.9686501E0,5.7574387E0,1.0342068E1,5.35632E0,1.9841249E0,1.2414869E0,1.4664294E0,2.9693162E0,6.1033707E0,1.2275264E0,5.4180846E0,4.9239836E0,1.2328678E0,4.123452E0],"tree_param":{"num_deleted":"0","num_feature":"6","num_nodes":"45","size_leaf_vector":"1"}},{"base_weights":[1.9032271E-4,-5.121358E-1,7.1172446E-1,-1.0929362E0,5.021615E-1,-4.9055812E-1,1.003652E0,-2.7789697E-1,-7.067405E-1,-8.958686E-1,8.020156E-1,-8.8430166E-1,1.4869915E-1,2.7228352E-1,5.226717E-1,-1.0805327E0,7.849963E-2,-2.5682306E-2,-2.2955719E-1,1.1198264E0,-1.7265822E-1,-2.4133287E-1,-2.1929681E-1,1.1611664E0,-1.7724803E-1,-2.796037E-1,-2.5793666E-1,-7.753117E-1,2.0479956E-1,1.3570085E0,-1.5369831E-1,-7.412032E-1,1.9562247E-1,-2.0345275E-1,1.6047859E-1,1.2322804E0,7.423374E-2,6.223806E-1,-2.5046113E-1,-1.292515E-1,5.72593E-2,3.1105042E-2,-2.4013661E-1,2.845751E-1,7.2787695E-2,-3.0598108E-2,-2.1717508E-1,2.6461214E-1,7.973151E-2,1.9624142E-1,-2.2506842E-2],"categories":[3,4,6,1,3,6,0,2,0,2,3,4,1,0,0,1,2,3,0,2],"categories_nodes":[6,10,14,15,20,24,27,29,37],"categories_segments":[0,3,6,8,12,13,14,18,19],"categories_sizes":[3,3,2,4,1,1,4,1,1],"default_left":[1,1,0,0,0,0,0,0,1,0,1,0,0,0,0,1,1,0,0,1,1,0,0,0,1,0,0,1,0,1,0,0,0,0,0,1,0,1,0,0,0,0,0,0,0,0,0,0,0,0,0],"id":2,"left_children":[1,3,5,7,9,11,13,-1,15,17,19,21,-1,-1,23,25,27,-1,-1,29,31,-1,33,35,37,39,-1,41,-1,43,-1,45,-1,-1,-1,47,-1,49,-1,-1,-1,-1,-1,-1,-1,-1,-1,-1,-1,-1,-1],"loss_changes":[3.625131E1,3.46084E1,1.5103235E1,3.2644997E0,9.8307E0,4.9357514E0,5.1088104E0,0E0,5.4093113E0,6.8611765E-1,5.900915E0,1.2642474E0,0E0,0E0,7.3788185E0,1.7095051E0,6.269352E0,0E0,0E0,7.325884E0,4.2561297E0,0E0,3.710915E0,2.1611214E-2,8.107582E0,9.8087823E-1,0E0,1.8232877E0,0E0,3.2103157E-1,0E0,6.815896E-1,0E0,0E0,0E0,3.1874657E-2,0E0,1.5757186E0,0E0,0E0,0E0,0E0,0E0,0E0,0E0,0E0,0E0,0E0,0E0,0E0,0E0],"parents":[2147483647,0,0,1,1,2,2,3,3,4,4,5,5,6,6,8,8,9,9,10,10,11,11,14,14,15,15,16,16,19,19,20,20,22,22,23,23,24,24,25,25,27,27,29,29,31,31,35,35,37,37],"right_children":[2,4,6,8,10,12,14,-1,16,18,20,22,-1,-1,24,26,28,-1,-1,30,32,-1,34,36,38,40,-1,42,-1,44,-1,46,-1,-1,-1,48,-1,50,-1,-1,-1,-1,-1,-1,-1,-1,-1,-1,-1,-1,-1],"split_conditions":[-4.2171452E-2,2.686291E-1,-7.919175E-1,-4.688642E-1,-1.179158E0,1.336528E0,1E-45,-2.7789697E-1,-4.462456E-1,-1.5829384E0,1E-45,6.663831E-1,1.4869915E-1,2.7228352E-1,1E-45,1E-45,-8.153897E-2,-2.5682306E-2,-2.2955719E-1,1.4782174E0,1E-45,-2.4133287E-1,-1.2882828E0,1.1880298E0,1E-45,-9.4722986E-1,-2.5793666E-1,1E-45,2.0479956E-1,1E-45,-1.5369831E-1,-1.9680034E-1,1.9562247E-1,-2.0345275E-1,1.6047859E-1,6.298145E-1,7.423374E-2,1E-45,-2.5046113E-1,-1.292515E-1,5.72593E-2,3.1105042E-2,-2.4013661E-1,2.845751E-1,7.2787695E-2,-3.0598108E-2,-2.1717508E-1,2.6461214E-1,7.973151E-2,1.9624142E-1,-2.2506842E-2],"split_indices":[0,2,2,0,0,0,5,0,2,0,5,0,0,0,3,3,4,0,0,4,1,0,2,0,1,2,0,3,0,3,0,4,0,0,0,4,0,3,0,0,0,0,0,0,0,0,0,0,0,0,0],"split_type":[0,0,0,0,0,0,1,0,0,0,1,0,0,0,1,1,0,0,0,0,1,0,0,0,1,0,0,1,0,1,0,0,0,0,0,0,0,1,0,0,0,0,0,0,0,0,0,0,0,0,0],"sum_hessian":[9.744476E1,5.6815857E1,4.0628902E1,3.6079002E1,2.0736855E1,7.8048363E0,3.2824066E1,1.8938663E1,1.7140339E1,3.3111892E0,1.7425665E1,6.131808E0,1.6730286E0,1.777331E1,1.50507555E1,1.1357742E1,5.7825966E0,1.1913921E0,2.1197972E0,1.302854E1,4.3971257E0,3.5812624E0,2.5505455E0,7.5261245E0,7.524631E0,2.8356507E0,8.522091E0,3.1332135E0,2.6493828E0,1.1824669E1,1.2038705E0,3.1812954E0,1.2158306E0,1.434497E0,1.1160485E0,6.3909698E0,1.1351548E0,4.556543E0,2.968088E0,1.6345843E0,1.2010665E0,1.1816956E0,1.951518E0,1.0683277E1,1.1413918E0,1.708857E0,1.4724383E0,5.2338862E0,1.1570834E0,2.8364828E0,1.7200601E0],"tree_param":{"num_deleted":"0","num_feature":"6","num_nodes":"51","size_leaf_vector":"1"}},{"base_weights":[-1.3942559E-3,-4.5467618E-1,6.2717277E-1,-9.642627E-1,4.2738035E-1,-4.2507592E-1,8.9067334E-1,-1.2449685E0,-6.141933E-1,-8.0174416E-1,7.002975E-1,-7.80347E-1,1.3240832E-1,2.5174567E-1,4.8732337E-1,-2.556207E-1,-7.255858E-2,-8.684602E-1,2.4209823E-1,-2.2921404E-2,-2.0716345E-1,9.938339E-1,-1.5055802E-1,-2.2851086E-1,-2.6459923E-1,1.0753024E0,-1.554167E-1,3.445621E-2,-1.0463973E0,2.0316063E-1,-9.797703E-2,1.2240747E0,-1.3633703E-1,-6.6139865E-1,1.777895E-1,-1.9375078E-1,1.11501396E-1,1.1411124E0,6.368528E-2,4.8317355E-1,-2.15842E-1,-2.2953391E-1,-1.4135008E-2,2.5737303E-1,6.587617E-2,-2.6755145E-2,-1.9558316E-1,2.4557912E-1,7.905366E-2,1.8436341E-1,-5.2581754E-2],"categories":[1,3,4,6,1,3,6,0,2,0,1,3,4,5,6,0,1,2,1,0,0,2],"categories_nodes":[6,10,14,17,18,22,26,31,39],"categories_segments":[0,4,7,9,15,18,19,20,21],"categories_sizes":[4,3,2,6,3,1,1,1,1],"default_left":[1,1,0,0,0,0,0,1,1,0,1,0,0,0,0,0,0,0,0,0,0,1,1,0,0,0,1,0,1,0,0,1,0,0,0,0,0,0,0,1,0,0,0,0,0,0,0,0,0,0,0],"id":3,"left_children":[1,3,5,7,9,11,13,15,17,19,21,23,-1,-1,25,-1,-1,27,29,-1,-1,31,33,-1,35,37,39,-1,41,-1,-1,43,-1,45,-1,-1,-1,47,-1,49,-1,-1,-1,-1,-1,-1,-1,-1,-1,-1,-1],"loss_changes":[2.6507565E1,2.470811E1,1.1187017E1,2.6321487E0,7.4334188E0,3.7932034E0,4.062645E0,6.862259E-2,3.989273E0,5.5496025E-1,4.469775E0,9.778886E-1,0E0,0E0,6.463308E0,0E0,0E0,2.6989632E0,3.1910763E0,0E0,0E0,5.8464594E0,3.4051337E0,0E0,2.9301348E0,7.6314926E-2,5.7323594E0,0E0,1.0805779E0,0E0,0E0,2.3792648E-1,0E0,5.589839E-1,0E0,0E0,0E0,1.5238762E-2,0E0,2.1776476E0,0E0,0E0,0E0,0E0,0E0,0E0,0E0,0E0,0E0,0E0,0E0],"parents":[2147483647,0,0,1,1,2,2,3,3,4,4,5,5,6,6,7,7,8,8,9,9,10,10,11,11,14,14,17,17,18,18,21,21,22,22,24,24,25,25,26,26,28,28,31,31,33,33,37,37,39,39],"right_children":[2,4,6,8,10,12,14,16,18,20,22,24,-1,-1,26,-1,-1,28,30,-1,-1,32,34,-1,36,38,40,-1,42,-1,-1,44,-1,46,-1,-1,-1,48,-1,50,-1,-1,-1,-1,-1,-1,-1,-1,-1,-1,-1],"split_conditions":[-4.2171452E-2,2.686291E-1,-7.919175E-1,-4.688642E-1,-1.179158E0,1.336528E0,1E-45,1.1930882E0,-1.8229744E-1,-1.5829384E0,1E-45,4.938368E-1,1.3240832E-1,2.5174567E-1,1E-45,-2.556207E-1,-7.255858E-2,1E-45,1E-45,-2.2921404E-2,-2.0716345E-1,1.4782174E0,1E-45,-2.2851086E-1,-1.2882828E0,1.222445E0,1E-45,3.445621E-2,1.5602595E0,2.0316063E-1,-9.797703E-2,1E-45,-1.3633703E-1,-1.9680034E-1,1.777895E-1,-1.9375078E-1,1.11501396E-1,2.2693596E0,6.368528E-2,1E-45,-2.15842E-1,-2.2953391E-1,-1.4135008E-2,2.5737303E-1,6.587617E-2,-2.6755145E-2,-1.9558316E-1,2.4557912E-1,7.905366E-2,1.8436341E-1,-5.2581754E-2],"split_indices":[0,2,2,0,0,0,5,4,2,0,5,0,0,0,3,0,0,5,3,0,0,4,1,0,2,0,1,0,4,0,0,3,0,4,0,0,0,2,0,3,0,0,0,0,0,0,0,0,0,0,0],"split_type":[0,0,0,0,0,0,1,0,0,0,1,0,0,0,1,0,0,1,1,0,0,0,1,0,0,0,1,0,0,0,0,1,0,0,0,0,0,0,0,1,0,0,0,0,0,0,0,0,0,0,0],"sum_hessian":[9.103489E1,5.305308E1,3.7981808E1,3.3567238E1,1.9485846E1,7.483686E0,3.0498123E1,1.721051E1,1.6356726E1,3.1884558E0,1.629739E1,5.8530807E0,1.6306053E0,1.48379135E1,1.566021E1,1.6154915E1,1.0555947E0,1.260083E1,3.755896E0,1.1886663E0,1.9997895E0,1.1992172E1,4.3052173E0,2.7244067E0,3.128674E0,7.827036E0,7.833174E0,1.8444662E0,1.0756364E1,1.6374133E0,2.118483E0,1.0780245E1,1.2119277E0,3.1305292E0,1.1746881E0,1.5891482E0,1.5395259E0,6.733867E0,1.0931689E0,4.9135523E0,2.9196217E0,9.585263E0,1.1711007E0,9.663707E0,1.116538E0,1.7072511E0,1.423278E0,5.453057E0,1.2808104E0,2.9459808E0,1.9675714E0],"tree_param":{"num_deleted":"0","num_feature":"6","num_nodes":"51","size_leaf_vector":"1"}},{"base_weights":[-1.9553406E-3,-4.0668252E-1,5.604269E-1,-8.8066775E-1,3.3696073E-1,-3.821063E-1,8.042628E-1,-2.312324E-1,-5.17559E-1,-6.401064E-1,6.2565243E-1,-8.4838027E-1,3.4193173E-1,1.1571115E0,4.3590227E-1,2.9764342E-1,-7.768477E-1,-2.1617202E-1,9.229535E-2,9.478581E-1,-1.8804812E-1,-2.2054939E-2,-2.2032507E-1,-1.10892706E-1,1.8720263E-1,7.074376E-2,2.4130774E-1,9.7974217E-1,-1.3782564E-1,-1.0556579E-1,1.8703662E-1,-2.1172778E-1,6.2167566E-2,2.4147275E-1,-1.7441936E-3,-6.4110094E-1,1.6301432E-1,1.042787E0,5.774626E-2,-5.814525E-1,1.8905145E-1,-1.2157869E-1,1.758465E-1,-1.690102E-1,1.583411E-1,1.5552999E-2,-2.0683932E-1,2.2532625E-1,7.147278E-2,-2.1647218E-1,2.9965926E-2],"categories":[1,3,4,6,0,3,4,5,6,1,3,6,0,1,2,3,4,0,2,1,1,0,2],"categories_nodes":[6,8,10,11,14,20,28,35],"categories_segments":[0,4,9,12,17,19,20,21],"categories_sizes":[4,5,3,5,2,1,1,2],"default_left":[1,1,0,0,0,0,0,0,0,0,1,0,0,0,0,0,1,0,0,0,1,0,0,0,0,0,0,0,1,0,0,0,1,0,1,1,0,0,0,0,0,0,0,0,0,0,0,0,0,0,0],"id":4,"left_children":[1,3,5,7,9,11,13,-1,15,17,19,21,23,25,27,29,31,-1,-1,33,35,-1,-1,-1,-1,-1,-1,37,39,-1,-1,-1,41,-1,43,45,-1,47,-1,49,-1,-1,-1,-1,-1,-1,-1,-1,-1,-1,-1],"loss_changes":[1.9593052E1,1.7939621E1,8.586867E0,2.4873123E0,6.1005187E0,3.0186834E0,3.2575455E0,0E0,3.4266748E0,2.9765525E0,4.4005156E0,8.5117364E-1,2.5845594E0,1.3624382E-1,5.053917E0,2.793984E0,2.8430133E0,0E0,0E0,2.885786E0,2.9778376E0,0E0,0E0,0E0,0E0,0E0,0E0,5.686617E-2,4.656943E0,0E0,0E0,0E0,2.6684754E0,0E0,3.0177138E0,1.2902868E0,0E0,8.093357E-3,0E0,2.610371E0,0E0,0E0,0E0,0E0,0E0,0E0,0E0,0E0,0E0,0E0,0E0],"parents":[2147483647,0,0,1,1,2,2,3,3,4,4,5,5,6,6,8,8,9,9,10,10,11,11,12,12,13,13,14,14,15,15,16,16,19,19,20,20,27,27,28,28,32,32,34,34,35,35,37,37,39,39],"right_children":[2,4,6,8,10,12,14,-1,16,18,20,22,24,26,28,30,32,-1,-1,34,36,-1,-1,-1,-1,-1,-1,38,40,-1,-1,-1,42,-1,44,46,-1,48,-1,50,-1,-1,-1,-1,-1,-1,-1,-1,-1,-1,-1],"split_conditions":[-4.2171452E-2,1.7466596E-1,-7.919175E-1,-4.1361898E-1,-1.0930616E0,9.008265E-1,1E-45,-2.312324E-1,1E-45,9.3929875E-1,1E-45,1E-45,-1.5175776E0,9.435159E-2,1E-45,-7.0377964E-1,3.495651E-1,-2.1617202E-1,9.229535E-2,1.5501962E0,1E-45,-2.2054939E-2,-2.2032507E-1,-1.10892706E-1,1.8720263E-1,7.074376E-2,2.4130774E-1,1.222445E0,1E-45,-1.0556579E-1,1.8703662E-1,-2.1172778E-1,-4.3382424E-1,2.4147275E-1,-6.9204986E-1,1E-45,1.6301432E-1,2.2693596E0,5.774626E-2,3.55852E-1,1.8905145E-1,-1.2157869E-1,1.758465E-1,-1.690102E-1,1.583411E-1,1.5552999E-2,-2.0683932E-1,2.2532625E-1,7.147278E-2,-2.1647218E-1,2.9965926E-2],"split_indices":[0,2,2,0,0,0,5,0,5,2,5,5,2,0,3,2,4,0,0,4,1,0,0,0,0,0,0,0,1,0,0,0,2,0,0,3,0,2,0,4,0,0,0,0,0,0,0,0,0,0,0],"split_type":[0,0,0,0,0,0,1,0,1,0,1,1,0,0,1,0,0,0,0,0,1,0,0,0,0,0,0,0,1,0,0,0,0,0,0,1,0,0,0,0,0,0,0,0,0,0,0,0,0,0,0],"sum_hessian":[8.407983E1,4.905412E1,3.502571E1,2.9846329E1,1.920779E1,7.082329E0,2.794338E1,1.5728723E1,1.4117607E1,4.103242E0,1.51045475E1,4.2035475E0,2.8787813E0,1.3178544E1,1.4764837E1,3.3710675E0,1.074654E1,2.9440944E0,1.1591476E0,1.0701959E1,4.402589E0,1.4405069E0,2.7630408E0,1.1740193E0,1.704762E0,1.2365129E0,1.1942031E1,7.216551E0,7.5482864E0,1.5440063E0,1.8270612E0,7.848713E0,2.8978271E0,8.19186E0,2.5100985E0,3.2814398E0,1.1211492E0,6.1466804E0,1.0698702E0,5.6834974E0,1.8647895E0,1.7327948E0,1.1650323E0,1.1852927E0,1.3248057E0,1.4436204E0,1.8378195E0,4.9031954E0,1.2434855E0,3.0881274E0,2.5953698E0],"tree_param":{"num_deleted":"0","num_feature":"6","num_nodes":"51","size_leaf_vector":"1"}},{"base_weights":[2.5849796E-3,-6.8740565E-1,2.806617E-1,-2.4003689E-1,-6.521916E-2,-6.49183E-1,5.195422E-1,6.8099725E-1,-5.052736E-1,-2.0910731E-1,3.0264005E-1,8.974967E-1,1.1084355E-1,-2.0318149E-2,1.8904643E-1,-1.8046483E-1,1.4805655E-1,-7.486269E-2,1.7916077E-1,2.4455789E-1,5.541298E-1,-4.5185372E-1,8.120344E-1,-8.99731E-2,1.13185585E-1,7.7075523E-1,2.7438322E-2,4.4826782E-1,-1.217423E0,9.385813E-1,2.3323862E-2,-8.029933E-4,2.099175E-1,1.123881E-1,-1.5817109E-1,-4.252971E-2,1.7743425E-1,-2.7252528E-1,-4.491059E-2,5.750853E-2,2.1767382E-1],"categories":[0,1,3,4,7,0,1,2,0,3,4,6,1,0,1,2,1,2,3,4,6,3],"categories_nodes":[4,6,11,12,20,21,26],"categories_segments":[0,5,8,12,13,16,21],"categories_sizes":[5,3,4,1,3,5,1],"default_left":[0,0,0,0,0,1,1,0,1,0,0,0,0,0,0,0,0,0,0,0,0,1,0,0,0,1,1,1,1,1,0,0,0,0,0,0,0,0,0,0,0],"id":5,"left_children":[1,3,5,-1,7,9,11,13,15,-1,17,19,21,-1,-1,-1,23,-1,-1,-1,25,27,29,-1,-1,31,33,35,37,39,-1,-1,-1,-1,-1,-1,-1,-1,-1,-1,-1],"loss_changes":[1.5181552E1,7.1734076E0,1.2862526E1,0E0,4.0634847E0,4.8322554E0,6.91636E0,1.0529587E0,2.1307595E0,0E0,2.0598023E0,1.9423409E0,9.4271E0,0E0,0E0,0E0,1.1963738E0,0E0,0E0,0E0,1.489439E0,9.767352E0,8.216839E-1,0E0,0E0,2.0228872E0,2.585557E0,2.184801E0,7.753687E-1,5.4617405E-1,0E0,0E0,0E0,0E0,0E0,0E0,0E0,0E0,0E0,0E0,0E0],"parents":[2147483647,0,0,1,1,2,2,4,4,5,5,6,6,7,7,8,8,10,10,11,11,12,12,16,16,20,20,21,21,22,22,25,25,26,26,27,27,28,28,29,29],"right_children":[2,4,6,-1,8,10,12,14,16,-1,18,20,22,-1,-1,-1,24,-1,-1,-1,26,28,30,-1,-1,32,34,36,38,40,-1,-1,-1,-1,-1,-1,-1,-1,-1,-1,-1],"split_conditions":[-5.183214E-1,1.8133843E-1,-7.6414394E-1,-2.4003689E-1,1E-45,6.021169E-1,1E-45,-1.237074E0,6.9153875E-1,-2.0910731E-1,-1.2348258E0,1E-45,1E-45,-2.0318149E-2,1.8904643E-1,-1.8046483E-1,-1.2882828E0,-7.486269E-2,1.7916077E-1,2.4455789E-1,1E-45,1E-45,2.2567234E0,-8.99731E-2,1.13185585E-1,-2.3202766E-1,1E-45,2.2161044E-1,1.0569879E0,-2.3202766E-1,2.3323862E-2,-8.029933E-4,2.099175E-1,1.123881E-1,-1.5817109E-1,-4.252971E-2,1.7743425E-1,-2.7252528E-1,-4.491059E-2,5.750853E-2,2.1767382E-1],"split_indices":[2,0,0,0,5,2,3,2,0,0,0,5,1,0,0,0,2,0,0,0,3,5,0,0,0,2,5,2,2,2,0,0,0,0,0,0,0,0,0,0,0],"split_type":[0,0,0,0,1,0,1,0,0,0,0,1,1,0,0,0,0,0,0,0,1,1,0,0,0,0,1,0,0,0,0,0,0,0,0,0,0,0,0,0,0],"sum_hessian":[7.711851E1,2.172941E1,5.5389095E1,1.1402769E1,1.032664E1,1.0970136E1,4.441896E1,3.627621E0,6.699019E0,7.6754885E0,3.2946467E0,2.2456114E1,2.1962847E1,1.071039E0,2.556582E0,3.929696E0,2.7693229E0,1.7109566E0,1.5836902E0,1.0216354E1,1.2239759E1,1.2382017E1,9.58083E0,1.1077318E0,1.6615912E0,8.344373E0,3.8953874E0,5.8813996E0,6.500618E0,7.8099566E0,1.7708731E0,2.4691455E0,5.875227E0,2.5457826E0,1.3496047E0,2.5528011E0,3.3285983E0,5.346327E0,1.154291E0,2.006885E0,5.8030715E0],"tree_param":{"num_deleted":"0","num_feature":"6","num_nodes":"41","size_leaf_vector":"1"}},{"base_weights":[4.7265803E-3,-3.4300855E-1,4.7871694E-1,-6.825475E-1,3.7649342E-1,-1.5071224E-1,6.060517E-1,-6.546874E-2,-8.106206E-1,-5.252309E-1,6.0290515E-1,9.3430233E-1,2.865825E-1,-4.926728E-1,1.0893925E-1,-9.69544E-1,-3.5152388E-1,2.0761121E-2,-1.6705494E-1,7.4507135E-1,-5.6868315E-2,1.4233066E-1,2.151864E-1,6.375881E-1,-3.5672843E-1,-1.6562311E-1,4.9616467E-2,-1.0319678E0,-3.1027032E-2,-6.889353E-1,3.7185606E-1,8.9430016E-1,-4.6493104E-4,-1.029241E-1,1.352563E-1,7.350895E-1,-2.3600223E-2,-7.361488E-1,1.4448415E-1,-6.9814086E-2,-2.2112945E-1,-1.7978589E-1,2.057359E-2,-3.069113E-2,1.4093383E-1,1.9864888E-1,7.944853E-2,3.8764182E-2,1.6045843E-1,1.9706937E-2,-1.9763112E-1],"categories":[0,1,3,4,5,6,1,3,4,6,0,1,0,2,2,1,0,3,4,5,6,1,1,0,1,3],"categories_nodes":[3,6,9,12,19,24,27,29,30,31],"categories_segments":[0,6,10,12,14,15,16,21,22,23],"categories_sizes":[6,4,2,2,1,1,5,1,1,3],"default_left":[1,1,0,0,0,0,0,0,1,0,0,0,1,0,0,1,1,0,0,1,0,1,0,1,1,0,0,0,0,1,0,1,0,0,0,0,0,0,0,0,0,0,0,0,0,0,0,0,0,0,0],"id":6,"left_children":[1,3,5,7,9,-1,11,13,15,17,19,21,23,25,-1,27,29,-1,-1,31,-1,33,-1,35,37,-1,-1,39,-1,41,43,45,-1,-1,-1,47,-1,49,-1,-1,-1,-1,-1,-1,-1,-1,-1,-1,-1,-1,-1],"loss_changes":[1.19929285E1,1.0512395E1,5.287572E0,2.229002E0,3.1960216E0,0E0,2.716529E0,1.845604E0,1.3974638E0,7.4296004E-1,1.6925035E0,1.3716202E0,3.8097165E0,1.2202616E0,0E0,7.1074104E-1,2.1344295E0,0E0,0E0,1.1613026E0,0E0,1.4756615E0,0E0,8.693371E-1,3.08742E0,0E0,0E0,4.0566635E-1,0E0,1.0233011E0,6.496103E-1,3.1658173E-2,0E0,0E0,0E0,1.9177103E-1,0E0,1.1729128E0,0E0,0E0,0E0,0E0,0E0,0E0,0E0,0E0,0E0,0E0,0E0,0E0,0E0],"parents":[2147483647,0,0,1,1,2,2,3,3,4,4,6,6,7,7,8,8,9,9,10,10,11,11,12,12,13,13,15,15,16,16,19,19,21,21,23,23,24,24,27,27,29,29,30,30,31,31,35,35,37,37],"right_children":[2,4,6,8,10,-1,12,14,16,18,20,22,24,26,-1,28,30,-1,-1,32,-1,34,-1,36,38,-1,-1,40,-1,42,44,46,-1,-1,-1,48,-1,50,-1,-1,-1,-1,-1,-1,-1,-1,-1,-1,-1,-1,-1],"split_conditions":[-4.2171452E-2,3.6795408E-1,-1.4546487E0,1E-45,-1.2348258E0,-1.5071224E-1,1E-45,-6.0411666E-2,-1.8229744E-1,1E-45,1.5501962E0,1.7742614E-1,1E-45,-2.1274029E-1,1.0893925E-1,1.5602595E0,-4.796558E-1,2.0761121E-2,-1.6705494E-1,1E-45,-5.6868315E-2,-2.3202766E-1,2.151864E-1,1.286427E0,1E-45,-1.6562311E-1,4.9616467E-2,1E-45,-3.1027032E-2,1E-45,1E-45,1E-45,-4.6493104E-4,-1.029241E-1,1.352563E-1,5.1945396E-2,-2.3600223E-2,1.5634897E-1,1.4448415E-1,-6.9814086E-2,-2.2112945E-1,-1.7978589E-1,2.057359E-2,-3.069113E-2,1.4093383E-1,1.9864888E-1,7.944853E-2,3.8764182E-2,1.6045843E-1,1.9706937E-2,-1.9763112E-1],"split_indices":[0,2,2,5,0,0,5,2,2,5,4,0,3,0,0,4,0,0,0,3,0,2,0,4,1,0,0,5,0,1,1,5,0,0,0,0,0,0,0,0,0,0,0,0,0,0,0,0,0,0,0],"split_type":[0,0,0,1,0,0,1,0,0,1,0,0,1,0,0,0,0,0,0,1,0,0,0,0,1,0,0,1,0,1,1,1,0,0,0,0,0,0,0,0,0,0,0,0,0,0,0,0,0,0,0],"sum_hessian":[7.076618E1,4.0978977E1,2.9787205E1,2.7875607E1,1.3103369E1,2.329133E0,2.745807E1,5.0508585E0,2.2824749E1,2.364907E0,1.07384615E1,1.2593677E1,1.4864394E1,3.0840995E0,1.9667591E0,1.6129442E1,6.695307E0,1.0004073E0,1.3644997E0,9.393548E0,1.3449136E0,2.2146482E0,1.0379028E1,9.622842E0,5.241553E0,2.0416338E0,1.0424657E0,1.4733029E1,1.3964123E0,4.5981665E0,2.0971403E0,7.6663017E0,1.7272464E0,1.0091877E0,1.2054605E0,8.547058E0,1.0757835E0,4.11322E0,1.1283324E0,1.993546E0,1.2739483E1,3.527377E0,1.0707898E0,1.0223608E0,1.0747794E0,5.5610676E0,2.1052341E0,1.3729637E0,7.1740947E0,1.0950975E0,3.0181227E0],"tree_param":{"num_deleted":"0","num_feature":"6","num_nodes":"51","size_leaf_vector":"1"}},{"base_weights":[3.224671E-3,-6.180399E-1,2.3404852E-1,-8.1243044E-1,1.7405248E-1,-4.1493812E-1,4.8735327E-1,-2.1072482E-1,-4.4901964E-1,-2.0277195E-1,-6.375244E-2,9.4714224E-1,2.1450044E-1,-1.8701388E-1,1.8622993E-1,-1.8287067E-1,2.5026342E-1,2.1676841E-1,2.2801092E-1,-2.1690804E-1,7.385823E-1,1.0863043E-1,-6.512526E-2,7.372215E-1,-3.7617126E-1,1.1959316E-1,-3.7904635E-2,4.688391E-1,-2.3255622E-1,3.1487995E-1,2.065923E-1,2.0085533E-1,-1.2758672E-2,-1.5462491E-1,7.363261E-2,1.6645436E-1,1.779498E-2,-3.0023996E-2,1.16395764E-1],"categories":[0,1,2,0,1,2,0,1,3,4,6,1,2,3,4],"categories_nodes":[6,11,12,14,16,19,27],"categories_segments":[0,3,4,5,6,8,11],"categories_sizes":[3,1,1,1,2,3,4],"default_left":[0,1,0,0,0,0,0,0,0,0,0,0,0,0,0,0,0,0,0,1,1,0,0,0,1,0,0,1,0,1,0,0,0,0,0,0,0,0,0],"id":7,"left_children":[1,3,5,7,-1,9,11,-1,13,-1,15,17,19,-1,21,-1,23,-1,25,27,29,-1,-1,31,33,-1,-1,35,-1,37,-1,-1,-1,-1,-1,-1,-1,-1,-1],"loss_changes":[9.675218E0,5.995127E0,8.287315E0,9.8927975E-1,0E0,2.9530551E0,4.2924757E0,0E0,2.767224E0,0E0,2.9295528E0,1.0360403E0,5.5371194E0,0E0,9.9429303E-1,0E0,2.7695673E0,0E0,6.3100415E-1,9.507409E0,1.0423489E0,0E0,0E0,1.1196539E0,1.536057E0,0E0,0E0,1.1301594E0,0E0,8.243097E-1,0E0,0E0,0E0,0E0,0E0,0E0,0E0,0E0,0E0],"parents":[2147483647,0,0,1,1,2,2,3,3,5,5,6,6,8,8,10,10,11,11,12,12,14,14,16,16,18,18,19,19,20,20,23,23,24,24,27,27,29,29],"right_children":[2,4,6,8,-1,10,12,-1,14,-1,16,18,20,-1,22,-1,24,-1,26,28,30,-1,-1,32,34,-1,-1,36,-1,38,-1,-1,-1,-1,-1,-1,-1,-1,-1],"split_conditions":[-4.796558E-1,1.0931576E0,-5.183214E-1,1.7423035E-1,1.7405248E-1,1.8133843E-1,1E-45,-2.1072482E-1,-1.0225068E0,-2.0277195E-1,-1.5897884E0,1E-45,1E-45,-1.8701388E-1,1E-45,-1.8287067E-1,1E-45,2.1676841E-1,4.2336762E-1,1E-45,6.4856105E-2,1.0863043E-1,-6.512526E-2,-7.361624E-1,8.644362E-1,1.1959316E-1,-3.7904635E-2,1E-45,-2.3255622E-1,1.5630384E-1,2.065923E-1,2.0085533E-1,-1.2758672E-2,-1.5462491E-1,7.363261E-2,1.6645436E-1,1.779498E-2,-3.0023996E-2,1.16395764E-1],"split_indices":[0,2,2,2,0,0,3,0,0,0,2,5,1,0,1,0,5,0,2,5,0,0,0,2,0,0,0,3,0,2,0,0,0,0,0,0,0,0,0],"split_type":[0,0,0,0,0,0,1,0,0,0,0,1,1,0,1,0,1,0,0,1,0,0,0,0,0,0,0,1,0,0,0,0,0,0,0,0,0,0,0],"sum_hessian":[6.5460175E1,1.7278198E1,4.8181976E1,1.5683822E1,1.5943772E0,1.334723E1,3.4834747E1,8.285513E0,7.3983088E0,4.236029E0,9.1112E0,1.2052916E1,2.2781832E1,3.923977E0,3.4743316E0,1.9411744E0,7.1700263E0,9.701586E0,2.3513298E0,1.2817208E1,9.964623E0,2.010941E0,1.4633906E0,3.9346101E0,3.2354164E0,1.0175745E0,1.3337554E0,7.7226834E0,5.094525E0,4.933474E0,5.0311494E0,2.7605114E0,1.1740987E0,2.0848744E0,1.1505419E0,3.3380518E0,4.3846316E0,1.9597137E0,2.9737601E0],"tree_param":{"num_deleted":"0","num_feature":"6","num_nodes":"39","size_leaf_vector":"1"}},{"base_weights":[3.6783922E-3,-5.5597097E-1,2.1964297E-1,-2.072115E-1,-6.2401246E-2,-6.64972E-1,3.7224656E-1,-1.6966814E-1,2.2433376E-1,-1.8069263E-1,7.413419E-2,8.508273E-1,1.091155E-1,6.563362E-1,-3.360948E-1,3.508003E-1,1.0130599E0,-2.98217E-1,6.286805E-1,1.813524E-1,-1.1374538E-2,-1.4071451E-1,6.7007445E-2,-6.693531E-2,7.133293E-1,2.1430798E-1,5.5862077E-2,3.7881702E-1,-2.1333197E-1,-2.6221152E-2,8.228713E-1,2.0136848E-1,2.3996953E-2,-2.1709023E-2,1.6804127E-1,1.379193E-1,-1.2071518E-1,6.866862E-2,2.0077431E-1],"categories":[0,1,2,0,1,1,1,3,4,6,0,1,2,3],"categories_nodes":[6,8,12,17,29],"categories_segments":[0,3,5,6,10],"categories_sizes":[3,2,1,4,4],"default_left":[0,0,0,0,0,1,0,0,0,0,0,1,0,0,1,0,1,1,1,0,0,0,0,0,1,0,0,1,0,1,1,0,0,0,0,0,0,0,0],"id":8,"left_children":[1,3,5,-1,7,9,11,-1,13,-1,-1,15,17,19,21,23,25,27,29,-1,-1,-1,-1,-1,31,-1,-1,33,-1,35,37,-1,-1,-1,-1,-1,-1,-1,-1],"loss_changes":[7.4961286E0,4.027863E0,6.287152E0,0E0,2.3492477E0,2.049331E0,4.7929893E0,0E0,2.1114721E0,0E0,0E0,7.4923706E-1,5.7283487E0,8.9977956E-1,1.2372879E0,1.4478197E0,1.19143486E-1,8.392116E0,1.5257177E0,0E0,0E0,0E0,0E0,0E0,4.8903286E-1,0E0,0E0,2.0925665E0,0E0,1.9346409E0,4.4977665E-1,0E0,0E0,0E0,0E0,0E0,0E0,0E0,0E0],"parents":[2147483647,0,0,1,1,2,2,4,4,5,5,6,6,8,8,11,11,12,12,13,13,14,14,15,15,16,16,17,17,18,18,24,24,27,27,29,29,30,30],"right_children":[2,4,6,-1,8,10,12,-1,14,-1,-1,16,18,20,22,24,26,28,30,-1,-1,-1,-1,-1,32,-1,-1,34,-1,36,38,-1,-1,-1,-1,-1,-1,-1,-1],"split_conditions":[-5.183214E-1,1.8133843E-1,-1.0225068E0,-2.072115E-1,-1.5897884E0,9.664813E-1,1E-45,-1.6966814E-1,1E-45,-1.8069263E-1,7.413419E-2,-2.4858657E-1,1E-45,-7.361624E-1,8.644362E-1,-1.1094055E-1,1.0581079E0,1E-45,-8.131463E-1,1.813524E-1,-1.1374538E-2,-1.4071451E-1,6.7007445E-2,-6.693531E-2,5.1952326E-1,2.1430798E-1,5.5862077E-2,3.692974E-1,-2.1333197E-1,1E-45,4.461609E-2,2.0136848E-1,2.3996953E-2,-2.1709023E-2,1.6804127E-1,1.379193E-1,-1.2071518E-1,6.866862E-2,2.0077431E-1],"split_indices":[2,0,0,0,2,2,3,0,5,0,0,2,1,2,0,4,4,5,0,0,0,0,0,0,4,0,0,2,0,5,2,0,0,0,0,0,0,0,0],"split_type":[0,0,0,0,0,0,1,0,1,0,0,0,1,0,0,0,0,1,0,0,0,0,0,0,0,0,0,0,0,1,0,0,0,0,0,0,0,0,0],"sum_hessian":[6.0010616E1,1.6271189E1,4.3739426E1,7.6910906E0,8.580098E0,5.9412994E0,3.7798126E1,1.7699767E0,6.8101215E0,4.932954E0,1.0083455E0,1.2616983E1,2.5181145E1,3.7490556E0,3.061066E0,3.8654304E0,8.751554E0,1.4353895E1,1.082725E1,2.5739076E0,1.1751481E0,1.9467741E0,1.1142918E0,1.3637167E0,2.5017135E0,7.67916E0,1.0723933E0,7.9003506E0,6.4535446E0,2.6740575E0,8.153192E0,1.2074997E0,1.2942138E0,4.21394E0,3.6864104E0,1.1070743E0,1.5669832E0,3.027989E0,5.1252027E0],"tree_param":{"num_deleted":"0","num_feature":"6","num_nodes":"39","size_leaf_vector":"1"}},{"base_weights":[7.7876532E-3,-2.721152E-1,3.8775158E-1,-4.316772E-1,7.7258277E-1,-2.68783E-1,5.765622E-1,-1.9866191E-1,-2.5447378E-1,5.437435E-2,1.7912053E-1,-5.6665605E-1,9.36771E-2,6.959166E-1,-4.6294525E-2,-6.9875085E-1,4.4266533E-2,-1.3433406E-2,-1.5633409E-1,7.562217E-1,-1.36545375E-2,8.602376E-2,-1.0012175E-1,-1.923124E-1,-1.8057506E-1,5.9178895E-1,-2.7308807E-1,1.7867615E-2,8.4126437E-1,-1.2039783E-1,9.706715E-2,1.459647E-1,1.2675009E-2,-1.3389628E-1,4.4487026E-2,1.9380113E-1,8.9286245E-2],"categories":[2,0,1,2,3,4,0,1,2,0,1,0,1,1,0],"categories_nodes":[6,11,16,24,25,26,28],"categories_segments":[0,1,6,9,11,13,14],"categories_sizes":[1,5,3,2,2,1,1],"default_left":[1,1,0,0,0,0,1,0,0,0,0,0,0,0,0,0,0,0,0,0,0,0,0,0,0,0,0,0,1,0,0,0,0,0,0,0,0],"id":9,"left_children":[1,3,5,7,9,11,13,-1,15,-1,-1,17,-1,19,21,23,25,-1,-1,27,-1,-1,-1,-1,29,31,33,-1,35,-1,-1,-1,-1,-1,-1,-1,-1],"loss_changes":[6.0566688E0,5.802493E0,3.1483867E0,2.643652E0,4.6358824E-2,1.5995103E0,1.4500804E0,0E0,3.1455956E0,0E0,0E0,4.6081853E-1,0E0,7.921095E-1,1.0820955E0,1.1194091E0,2.7631938E0,0E0,0E0,7.7415085E-1,0E0,0E0,0E0,0E0,1.5343132E0,3.7750053E-1,2.1450994E0,0E0,2.3129654E-1,0E0,0E0,0E0,0E0,0E0,0E0,0E0,0E0],"parents":[2147483647,0,0,1,1,2,2,3,3,4,4,5,5,6,6,8,8,11,11,13,13,14,14,15,15,16,16,19,19,24,24,25,25,26,26,28,28],"right_children":[2,4,6,8,10,12,14,-1,16,-1,-1,18,-1,20,22,24,26,-1,-1,28,-1,-1,-1,-1,30,32,34,-1,36,-1,-1,-1,-1,-1,-1,-1,-1],"split_conditions":[-4.2171452E-2,9.9673945E-1,-7.919175E-1,-1.0707526E0,1.388474E0,1.336528E0,1E-45,-1.9866191E-1,-1.8229744E-1,5.437435E-2,1.7912053E-1,1E-45,9.36771E-2,1.867559E0,2.2050765E-1,-5.2567296E-2,1E-45,-1.3433406E-2,-1.5633409E-1,6.326199E-2,-1.36545375E-2,8.602376E-2,-1.0012175E-1,-1.923124E-1,1E-45,1E-45,1E-45,1.7867615E-2,1E-45,-1.2039783E-1,9.706715E-2,1.459647E-1,1.2675009E-2,-1.3389628E-1,4.4487026E-2,1.9380113E-1,8.9286245E-2],"split_indices":[0,2,2,0,2,0,3,0,2,0,0,5,0,0,0,0,3,0,0,0,0,0,0,0,3,5,1,0,1,0,0,0,0,0,0,0,0],"split_type":[0,0,0,0,0,0,1,0,0,0,0,1,0,0,0,0,1,0,0,0,0,0,0,0,1,1,1,0,1,0,0,0,0,0,0,0,0],"sum_hessian":[5.495664E1,3.1808525E1,2.3148113E1,2.8103003E1,3.7055209E0,5.075603E0,1.807251E1,5.635681E0,2.2467321E1,1.3639606E0,2.3415604E0,3.7796428E0,1.2959604E0,1.5067848E1,3.0046613E0,8.494935E0,1.3972387E1,1.5323358E0,2.247307E0,1.397542E1,1.0924287E0,1.4926558E0,1.5120057E0,5.0685654E0,3.4263694E0,4.809663E0,9.1627245E0,1.8125274E0,1.2162892E1,2.1572008E0,1.2691687E0,3.5112746E0,1.2983882E0,4.8955083E0,4.267216E0,8.0909815E0,4.071911E0],"tree_param":{"num_deleted":"0","num_feature":"6","num_nodes":"37","size_leaf_vector":"1"}},{"base_weights":[7.599769E-3,-4.7777256E-1,1.8746944E-1,-1.9041713E-1,-5.5776138E-2,-3.3680224E-1,3.759073E-1,-1.5626685E-1,2.112198E-1,-5.4859626E-1,1.4251536E-1,7.01665E-1,8.51213E-2,5.765234E-1,-2.8544247E-1,-1.8099485E-1,-1.9046938E-1,8.6830395E-1,-4.1865773E-2,-1.3364483E-1,6.647001E-1,1.5957162E-1,-9.929152E-3,-1.2156465E-1,5.557793E-2,-1.2850934E-1,2.8218174E-1,3.1695705E-2,1.9803391E-1,9.076542E-2,-1.1934127E-1,6.2557787E-1,-4.875226E-1,5.3392857E-4,1.7766686E-1,1.380599E-1,-3.1857014E-2,1.6902387E-1,-1.233353E-2,-1.794704E-1,4.477828E-2],"categories":[3,4,6,0,1,1,0,1,2],"categories_nodes":[6,8,12,19],"categories_segments":[0,3,5,6],"categories_sizes":[3,2,1,3],"default_left":[0,0,0,0,0,1,0,0,0,0,0,0,1,0,1,0,1,1,0,0,1,0,0,0,0,0,0,0,0,0,0,0,0,0,0,0,0,0,0,0,0],"id":10,"left_children":[1,3,5,-1,7,9,11,-1,13,15,-1,17,19,21,23,-1,25,27,29,31,33,-1,-1,-1,-1,-1,35,-1,-1,-1,-1,37,39,-1,-1,-1,-1,-1,-1,-1,-1],"loss_changes":[4.6567807E0,2.8345017E0,3.9683995E0,0E0,1.8497404E0,2.793271E0,2.6947389E0,0E0,1.4607892E0,1.0476215E0,0E0,1.7184849E0,2.181147E0,6.560341E-1,8.4024894E-1,0E0,1.4707015E0,8.064461E-1,1.216809E0,3.7473645E0,6.918962E-1,0E0,0E0,0E0,0E0,0E0,7.6665604E-1,0E0,0E0,0E0,0E0,7.3278725E-1,2.912754E0,0E0,0E0,0E0,0E0,0E0,0E0,0E0,0E0],"parents":[2147483647,0,0,1,1,2,2,4,4,5,5,6,6,8,8,9,9,11,11,12,12,13,13,14,14,16,16,17,17,18,18,19,19,20,20,26,26,31,31,32,32],"right_children":[2,4,6,-1,8,10,12,-1,14,16,-1,18,20,22,24,-1,26,28,30,32,34,-1,-1,-1,-1,-1,36,-1,-1,-1,-1,38,40,-1,-1,-1,-1,-1,-1,-1,-1],"split_conditions":[-5.183214E-1,1.8133843E-1,-4.8102713E-1,-1.9041713E-1,-1.5897884E0,1.0931576E0,1E-45,-1.5626685E-1,1E-45,-1.0707526E0,1.4251536E-1,1.5602595E0,1E-45,-7.361624E-1,8.644362E-1,-1.8099485E-1,-3.7137172E-1,-4.462456E-1,1.4123276E0,1E-45,-9.152257E-1,1.5957162E-1,-9.929152E-3,-1.2156465E-1,5.557793E-2,-1.2850934E-1,-8.8778573E-1,3.1695705E-2,1.9803391E-1,9.076542E-2,-1.1934127E-1,2.2693596E0,3.55852E-1,5.3392857E-4,1.7766686E-1,1.380599E-1,-3.1857014E-2,1.6902387E-1,-1.233353E-2,-1.794704E-1,4.477828E-2],"split_indices":[2,0,0,0,2,2,5,0,5,0,0,4,1,2,0,0,4,2,0,3,4,0,0,0,0,0,0,0,0,0,0,2,4,0,0,0,0,0,0,0,0],"split_type":[0,0,0,0,0,0,1,0,1,0,0,0,1,0,0,0,0,0,0,1,0,0,0,0,0,0,0,0,0,0,0,0,0,0,0,0,0,0,0,0,0],"sum_hessian":[5.1314045E1,1.3426599E1,3.7887447E1,5.7300377E0,7.6965604E0,9.809136E0,2.807831E1,1.5521693E0,6.144391E0,8.558925E0,1.250212E0,1.2576401E1,1.5501908E1,3.4477303E0,2.6966608E0,3.5245855E0,5.0343385E0,1.0136755E1,2.4396453E0,1.1812577E1,3.689331E0,2.3447373E0,1.1029931E0,1.6649013E0,1.0317595E0,2.3894477E0,2.644891E0,1.8223908E0,8.314364E0,1.3846563E0,1.0549891E0,3.511371E0,8.301207E0,1.1870909E0,2.5022402E0,1.0814683E0,1.5634227E0,2.487133E0,1.0242378E0,5.1011734E0,3.2000337E0],"tree_param":{"num_deleted":"0","num_feature":"6","num_nodes":"41","size_leaf_vector":"1"}},{"base_weights":[8.37838E-3,-2.1244828E-1,3.6050567E-1,-6.012366E-1,2.3670056E-1,-5.012931E-1,4.981911E-1,2.587255E-2,-6.937286E-1,4.6155575E-1,-2.7161705E-1,-1.26080755E-2,-1.3703261E-1,8.2655215E-1,1.850265E-1,-7.409014E-2,8.2168005E-2,-7.8664637E-1,1.5464517E-3,1.00985445E-1,1.8467668E-1,4.187378E-2,-5.755167E-1,3.620739E-2,1.88846E-1,-1.9441174E-1,1.5766408E-1,-4.071139E-1,-9.393806E-1,3.7484664E-1,-1.2998204E-1,-3.209832E-2,-1.4203207E-1,1.370568E-1,-5.5531687E-1,-1.3955991E-1,6.978079E-2,-2.0046382E-1,-5.2545805E-2,-6.041903E-2,1.3891558E-1,2.1604775E-2,-1.5867983E-1],"categories":[0,1,3,4,5,6,7,1,3,6,0,1,2,1,3,4,6,0,1,2,1,0,3,5,6,0,0,1,2],"categories_nodes":[3,4,5,6,10,14,17,22,25],"categories_segments":[0,7,10,13,17,20,21,25,26],"categories_sizes":[7,3,3,4,3,1,4,1,3],"default_left":[1,1,0,0,1,0,0,0,1,1,1,0,0,0,0,0,0,0,0,0,0,0,0,0,0,0,0,1,1,0,0,0,0,0,1,0,0,0,0,0,0,0,0],"id":11,"left_children":[1,3,5,7,9,11,13,15,17,19,21,-1,-1,23,25,-1,-1,27,-1,29,-1,-1,31,-1,-1,33,-1,35,37,39,-1,-1,-1,-1,41,-1,-1,-1,-1,-1,-1,-1,-1],"loss_changes":[3.8278456E0,5.429556E0,2.49997E0,9.756861E-1,1.813082E0,2.0748645E-1,1.5801039E0,6.230879E-1,9.463153E-1,1.6731884E0,8.744575E-1,0E0,0E0,4.3209743E-1,2.4228494E0,0E0,0E0,3.5653496E-1,0E0,1.6995099E0,0E0,0E0,7.7564836E-2,0E0,0E0,2.5676281E0,0E0,1.4352219E0,9.120512E-2,1.4699285E0,0E0,0E0,0E0,0E0,9.4438446E-1,0E0,0E0,0E0,0E0,0E0,0E0,0E0,0E0],"parents":[2147483647,0,0,1,1,2,2,3,3,4,4,5,5,6,6,7,7,8,8,9,9,10,10,13,13,14,14,17,17,19,19,22,22,25,25,27,27,28,28,29,29,34,34],"right_children":[2,4,6,8,10,12,14,16,18,20,22,-1,-1,24,26,-1,-1,28,-1,30,-1,-1,32,-1,-1,34,-1,36,38,40,-1,-1,-1,-1,42,-1,-1,-1,-1,-1,-1,-1,-1],"split_conditions":[5.1945396E-2,1.1206079E-1,-1.2882828E0,1E-45,1E-45,1E-45,1E-45,-1.2668882E-1,1.1673044E0,-6.9204986E-1,1E-45,-1.26080755E-2,-1.3703261E-1,2.8427967E-1,1E-45,-7.409014E-2,8.2168005E-2,1E-45,1.5464517E-3,1.5501962E0,1.8467668E-1,4.187378E-2,1E-45,3.620739E-2,1.88846E-1,1E-45,1.5766408E-1,-2.9779088E-1,-1.0183884E-1,-1.179158E0,-1.2998204E-1,-3.209832E-2,-1.4203207E-1,1.370568E-1,-7.223273E-1,-1.3955991E-1,6.978079E-2,-2.0046382E-1,-5.2545805E-2,-6.041903E-2,1.3891558E-1,2.1604775E-2,-1.5867983E-1],"split_indices":[0,2,2,5,5,3,5,4,4,0,3,0,0,0,1,0,0,5,0,4,0,0,1,0,0,3,0,0,2,0,0,0,0,0,4,0,0,0,0,0,0,0,0],"split_type":[0,0,0,1,1,1,1,0,0,0,1,0,0,0,1,0,0,1,0,0,0,0,1,0,0,1,0,0,0,0,0,0,0,0,0,0,0,0,0,0,0,0,0],"sum_hessian":[4.7242035E1,2.92779E1,1.7964134E1,1.551196E1,1.3765941E1,2.1108806E0,1.5853254E1,2.0863678E0,1.3425592E1,9.607874E0,4.1580667E0,1.0207596E0,1.090121E0,6.9386005E0,8.914654E0,1.0466021E0,1.0397657E0,1.1747978E1,1.6776147E0,6.0797753E0,3.5280988E0,1.7303997E0,2.427667E0,1.4612741E0,5.4773264E0,5.888724E0,3.02593E0,4.422907E0,7.325071E0,4.8219495E0,1.2578259E0,1.1316E0,1.2960669E0,1.4516287E0,4.437095E0,3.2502182E0,1.1726885E0,6.261378E0,1.0636932E0,1.5645696E0,3.25738E0,1.316199E0,3.1208963E0],"tree_param":{"num_deleted":"0","num_feature":"6","num_nodes":"43","size_leaf_vector":"1"}},{"base_weights":[6.2620738E-3,-4.3774745E-1,1.6737229E-1,-1.7808487E-1,-6.451647E-2,-2.9610452E-1,3.3786577E-1,-1.3889912E-1,1.7101404E-1,-5.00871E-1,1.3273121E-1,7.01689E-1,1.3887824E-1,-7.7743046E-2,4.5700017E-1,-1.6787341E-1,-1.7491983E-1,1.7340547E-1,-1.05929445E-4,4.5754722E-1,-3.080142E-1,1.585305E-1,-3.224544E-2,-1.1680665E-1,2.4515629E-1,6.5009016E-1,-1.4822045E-1,-7.3942554E-1,4.9124575E-1,1.2310281E-1,-3.176477E-2,1.7249885E-1,2.1162115E-2,-1.3313861E-1,7.618585E-2,-1.9154394E-1,-4.0183174E-3,1.432321E-1,-2.6344943E-3],"categories":[0,1,2,0,1,2,3,4,5,6,0,1,2,3,6,0,1,1,0],"categories_nodes":[6,8,11,12,14,20,25],"categories_segments":[0,3,10,11,15,17,18],"categories_sizes":[3,7,1,4,2,1,1],"default_left":[0,0,0,0,0,1,0,0,1,0,0,0,1,0,1,0,1,0,0,0,1,0,0,0,0,1,0,1,0,0,0,0,0,0,0,0,0,0,0],"id":12,"left_children":[1,3,5,-1,7,9,11,-1,13,15,-1,17,19,-1,21,-1,23,-1,-1,25,27,-1,-1,-1,29,31,33,35,37,-1,-1,-1,-1,-1,-1,-1,-1,-1,-1],"loss_changes":[3.2754254E0,2.0028937E0,2.7526665E0,0E0,1.2704903E0,2.2113333E0,1.7130687E0,0E0,1.2104703E0,7.854321E-1,0E0,9.983969E-1,2.6207585E0,0E0,1.1093025E0,0E0,1.1000446E0,0E0,0E0,1.3288763E0,3.0686173E0,0E0,0E0,0E0,6.1414814E-1,8.5720205E-1,1.1744446E0,8.435793E-1,3.8963598E-1,0E0,0E0,0E0,0E0,0E0,0E0,0E0,0E0,0E0,0E0],"parents":[2147483647,0,0,1,1,2,2,4,4,5,5,6,6,8,8,9,9,11,11,12,12,14,14,16,16,19,19,20,20,24,24,25,25,26,26,27,27,28,28],"right_children":[2,4,6,-1,8,10,12,-1,14,16,-1,18,20,-1,22,-1,24,-1,-1,26,28,-1,-1,-1,30,32,34,36,38,-1,-1,-1,-1,-1,-1,-1,-1,-1,-1],"split_conditions":[-5.183214E-1,1.8133843E-1,-4.8102713E-1,-1.7808487E-1,-1.5897884E0,1.0931576E0,1E-45,-1.3889912E-1,1E-45,-1.0707526E0,1.3273121E-1,1E-45,1E-45,-7.7743046E-2,1E-45,-1.6787341E-1,-3.7137172E-1,1.7340547E-1,-1.05929445E-4,1.9934286E0,1E-45,1.585305E-1,-3.224544E-2,-1.1680665E-1,-8.8778573E-1,1E-45,3.547577E-1,7.7432513E-1,5.4973185E-1,1.2310281E-1,-3.176477E-2,1.7249885E-1,2.1162115E-2,-1.3313861E-1,7.618585E-2,-1.9154394E-1,-4.0183174E-3,1.432321E-1,-2.6344943E-3],"split_indices":[2,0,0,0,2,2,3,0,5,0,0,5,5,0,5,0,4,0,0,2,1,0,0,0,0,1,0,2,4,0,0,0,0,0,0,0,0,0,0],"split_type":[0,0,0,0,0,0,1,0,1,0,0,1,1,0,1,0,0,0,0,0,1,0,0,0,0,1,0,0,0,0,0,0,0,0,0,0,0,0,0],"sum_hessian":[4.376385E1,1.1194754E1,3.25691E1,4.432741E0,6.7620125E0,8.560666E0,2.4008432E1,1.3098586E0,5.4521537E0,7.449445E0,1.1112218E0,7.5952306E0,1.6413202E1,1.7222239E0,3.72993E0,2.881703E0,4.567742E0,5.957769E0,1.6374617E0,9.567203E0,6.8459992E0,2.234579E0,1.4953508E0,2.1163342E0,2.4514074E0,7.2041874E0,2.3630152E0,4.494756E0,2.351243E0,1.0057445E0,1.4456631E0,4.7614055E0,2.4427822E0,1.0642287E0,1.2987865E0,3.1940653E0,1.3006911E0,1.3358337E0,1.0154095E0],"tree_param":{"num_deleted":"0","num_feature":"6","num_nodes":"39","size_leaf_vector":"1"}},{"base_weights":[3.2767127E-3,-4.075617E-1,1.5050738E-1,-1.7060018E-1,-6.52965E-2,5.7254505E-1,-3.182417E-2,-1.3042723E-1,1.5076531E-1,-3.664688E-2,6.847175E-1,-5.5729735E-1,1.6662985E-1,4.7022742E-1,-2.6053223E-1,-1.1150004E-2,1.6990112E-1,-1.6731338E-1,3.828731E-2,-7.260559E-3,6.031386E-1,1.3341118E-1,-8.08453E-3,-9.9729285E-2,2.6332831E-2,-1.4652617E-2,2.6301214E-2,1.6781454E-1,-1.5866986E-1,1.7473368E-2,1.6815005E-1,5.1322706E-2,-9.170117E-2],"categories":[0,1,3,4,6,0,1,1,0,1,0,2],"categories_nodes":[2,8,12,20,28],"categories_segments":[0,5,7,8,10],"categories_sizes":[5,2,1,2,2],"default_left":[0,0,0,0,0,0,0,0,0,0,1,1,1,0,1,0,0,0,0,0,0,0,0,0,0,0,0,0,0,0,0,0,0],"id":13,"left_children":[1,3,5,-1,7,9,11,-1,13,-1,15,17,19,21,23,-1,-1,-1,25,27,29,-1,-1,-1,-1,-1,-1,-1,31,-1,-1,-1,-1],"loss_changes":[2.5822675E0,1.6617212E0,2.4353695E0,0E0,1.0433192E0,9.3332624E-1,2.4790933E0,0E0,9.4499E-1,0E0,1.085602E0,1.1136739E0,1.3235546E0,4.1691244E-1,3.8130128E-1,0E0,0E0,0E0,4.116442E-2,1.8523548E0,5.3476965E-1,0E0,0E0,0E0,0E0,0E0,0E0,0E0,1.6394352E0,0E0,0E0,0E0,0E0],"parents":[2147483647,0,0,1,1,2,2,4,4,5,5,6,6,8,8,10,10,11,11,12,12,13,13,14,14,18,18,19,19,20,20,28,28],"right_children":[2,4,6,-1,8,10,12,-1,14,-1,16,18,20,22,24,-1,-1,-1,26,28,30,-1,-1,-1,-1,-1,-1,-1,32,-1,-1,-1,-1],"split_conditions":[-5.183214E-1,1.8133843E-1,1E-45,-1.7060018E-1,-1.5897884E0,-1.632686E-2,-4.8102713E-1,-1.3042723E-1,1E-45,-3.664688E-2,-1.8297404E0,6.021169E-1,1E-45,-7.5507194E-1,7.811981E-1,-1.1150004E-2,1.6990112E-1,-1.6731338E-1,8.5281086E-1,-2.2521937E-1,1E-45,1.3341118E-1,-8.08453E-3,-9.9729285E-2,2.6332831E-2,-1.4652617E-2,2.6301214E-2,1.6781454E-1,1E-45,1.7473368E-2,1.6815005E-1,5.1322706E-2,-9.170117E-2],"split_indices":[2,0,5,0,2,2,0,0,5,0,0,2,1,2,0,0,0,0,2,2,3,0,0,0,0,0,0,0,3,0,0,0,0],"split_type":[0,0,1,0,0,0,0,0,1,0,0,0,1,0,0,0,0,0,0,0,1,0,0,0,0,0,0,0,1,0,0,0,0],"sum_hessian":[4.067646E1,1.0264843E1,3.0411617E1,3.8117888E0,6.4530544E0,8.529196E0,2.1882421E1,1.1934023E0,5.259652E0,1.0204232E0,7.508773E0,5.5030546E0,1.6379366E1,2.8796775E0,2.3799746E0,1.487309E0,6.021464E0,3.4709249E0,2.03213E0,1.2416441E1,3.9629254E0,1.8574438E0,1.0222337E0,1.3119999E0,1.0679746E0,1.0225579E0,1.0095721E0,1.1949989E0,1.1221442E1,1.6812365E0,2.281689E0,4.7653794E0,6.456063E0],"tree_param":{"num_deleted":"0","num_feature":"6","num_nodes":"33","size_leaf_vector":"1"}},{"base_weights":[3.3964373E-3,-1.839849E-1,3.04962E-1,-4.6129587E-1,3.171059E-1,-8.8241816E-2,4.3426695E-1,-8.781918E-3,-5.7299596E-1,5.155201E-1,-1.6368923E-1,6.616828E-1,6.6956608E-3,-3.0514872E-1,9.318772E-2,-7.672377E-1,-1.350786E-1,-1.8108398E-2,6.5417635E-1,5.0604362E-2,-1.113103E-1,8.210532E-1,-1.4097401E-3,-3.7022313E-1,1.1528184E-1,-1.12716E-1,1.9027373E-2,-1.9331898E-1,-2.2844589E-1,-1.06045865E-1,1.5643688E-1,3.1071588E-2,1.5500288E-1,4.7096476E-2,1.775897E-1,9.652439E-3,-1.0961815E-1,3.4081347E-2,-1.0165776E-1,-3.2932557E-2,9.005772E-2],"categories":[0,3,4,5,6,7,0,2,0,1,3,1,0,1,3,4,0,1,2,0,1],"categories_nodes":[3,6,10,11,12,18,28,30],"categories_segments":[0,6,8,10,11,12,16,19],"categories_sizes":[6,2,2,1,1,4,3,2],"default_left":[1,1,0,0,0,0,1,0,0,0,1,1,0,0,0,1,0,0,0,0,0,0,0,1,0,0,0,0,1,0,0,0,0,0,0,0,0,0,0,0,0],"id":14,"left_children":[1,3,5,7,9,-1,11,13,15,17,19,21,23,25,-1,27,29,-1,31,-1,-1,33,-1,35,-1,-1,-1,-1,37,-1,39,-1,-1,-1,-1,-1,-1,-1,-1,-1,-1],"loss_changes":[2.2759287E0,3.5997174E0,1.6804472E0,8.242209E-1,9.8554456E-1,0E0,1.3234229E0,7.4202186E-1,1.0142808E0,6.4141214E-1,7.1684146E-1,9.547684E-1,1.448484E0,3.876562E-1,0E0,7.3413134E-1,6.8792844E-1,0E0,2.2676253E-1,0E0,0E0,7.2907925E-2,0E0,3.294345E-1,0E0,0E0,0E0,0E0,5.0077915E-1,0E0,4.321744E-1,0E0,0E0,0E0,0E0,0E0,0E0,0E0,0E0,0E0,0E0],"parents":[2147483647,0,0,1,1,2,2,3,3,4,4,6,6,7,7,8,8,9,9,10,10,11,11,12,12,13,13,15,15,16,16,18,18,21,21,23,23,28,28,30,30],"right_children":[2,4,6,8,10,-1,12,14,16,18,20,22,24,26,-1,28,30,-1,32,-1,-1,34,-1,36,-1,-1,-1,-1,38,-1,40,-1,-1,-1,-1,-1,-1,-1,-1,-1,-1],"split_conditions":[5.1945396E-2,3.6795408E-1,-1.2882828E0,1E-45,7.950333E-1,-8.8241816E-2,1E-45,-3.8508803E-2,9.789829E-1,-1.0930616E0,1E-45,1E-45,1E-45,-9.815039E-2,9.318772E-2,-1.8229744E-1,-5.1080513E-1,-1.8108398E-2,1E-45,5.0604362E-2,-1.113103E-1,-9.008378E-1,-1.4097401E-3,-1.4876765E0,1.1528184E-1,-1.12716E-1,1.9027373E-2,-1.9331898E-1,1E-45,-1.06045865E-1,1E-45,3.1071588E-2,1.5500288E-1,4.7096476E-2,1.775897E-1,9.652439E-3,-1.0961815E-1,3.4081347E-2,-1.0165776E-1,-3.2932557E-2,9.005772E-2],"split_indices":[0,2,2,5,4,0,3,2,4,0,3,5,1,0,0,2,0,0,3,0,0,2,0,4,0,0,0,0,3,0,3,0,0,0,0,0,0,0,0,0,0],"split_type":[0,0,0,1,0,0,1,0,0,0,1,1,1,0,0,0,0,0,1,0,0,0,0,0,0,0,0,0,1,0,1,0,0,0,0,0,0,0,0,0,0],"sum_hessian":[3.828346E1,2.3852392E1,1.4431066E1,1.5405938E1,8.446455E0,1.7751532E0,1.2655913E1,3.2635257E0,1.2142413E1,5.9279065E0,2.5185483E0,7.9042673E0,4.7516456E0,2.2291048E0,1.0344208E0,7.8905025E0,4.25191E0,1.1683016E0,4.759605E0,1.3949114E0,1.1236368E0,6.1991296E0,1.7051378E0,3.0704288E0,1.6812167E0,1.1066728E0,1.122432E0,5.1798964E0,2.710606E0,1.457453E0,2.7944572E0,1.373886E0,3.385719E0,1.0990157E0,5.100114E0,1.1331131E0,1.9373158E0,1.2788947E0,1.4317114E0,1.5453987E0,1.2490585E0],"tree_param":{"num_deleted":"0","num_feature":"6","num_nodes":"41","size_leaf_vector":"1"}},{"base_weights":[1.681016E-3,2.2395581E-1,-2.242489E-1,-2.2127375E-1,3.9957467E-1,-5.7206935E-1,8.505756E-3,-4.7147387E-1,6.962496E-2,-5.862483E-2,5.0211996E-1,-1.6531757E-1,-1.1220749E-1,3.924754E-1,-2.0785616E-1,-1.3010542E-1,-1.7851655E-1,6.7896116E-1,7.088409E-2,-8.7578565E-2,6.4279735E-2,-5.031385E-2,6.460577E-1,-5.135101E-1,2.8119615E-1,9.878321E-3,-6.43475E-2,2.2445433E-1,1.644286E-1,-2.5661293E-1,1.07545875E-1,1.4767621E-1,3.9837215E-2,2.743028E-2,-1.4748903E-1,-4.138272E-2,1.2134373E-1,-2.3079807E-2,8.311303E-2,1.2251667E-2,-9.9291675E-2],"categories":[0,1,2,1,3,4,6,7,3,1,1,0,1,2,3,2],"categories_nodes":[0,6,10,12,14,16,29],"categories_segments":[0,3,8,9,10,11,15],"categories_sizes":[3,5,1,1,1,4,1],"default_left":[1,1,0,1,0,1,0,0,0,0,0,0,0,1,0,0,0,0,0,0,0,0,0,0,0,0,0,0,0,0,0,0,0,0,0,0,0,0,0,0,0],"id":15,"left_children":[1,3,5,7,9,11,13,15,-1,-1,17,-1,19,21,23,-1,25,27,29,-1,-1,-1,31,33,35,-1,-1,37,-1,39,-1,-1,-1,-1,-1,-1,-1,-1,-1,-1,-1],"loss_changes":[1.9127699E0,1.5893636E0,1.5343733E0,1.0293912E0,1.1503427E0,7.954774E-1,1.1037508E0,1.2748241E-1,0E0,0E0,9.1808844E-1,0E0,6.859603E-1,9.432959E-1,1.4184747E0,0E0,1.1838292E-1,3.9261723E-1,8.7205476E-1,0E0,0E0,0E0,6.00183E-3,9.169494E-1,7.4908143E-1,0E0,0E0,2.752874E-1,0E0,2.971539E-1,0E0,0E0,0E0,0E0,0E0,0E0,0E0,0E0,0E0,0E0,0E0],"parents":[2147483647,0,0,1,1,2,2,3,3,4,4,5,5,6,6,7,7,10,10,12,12,13,13,14,14,16,16,17,17,18,18,22,22,23,23,24,24,27,27,29,29],"right_children":[2,4,6,8,10,12,14,16,-1,-1,18,-1,20,22,24,-1,26,28,30,-1,-1,-1,32,34,36,-1,-1,38,-1,40,-1,-1,-1,-1,-1,-1,-1,-1,-1,-1,-1],"split_conditions":[1E-45,-9.8551077E-1,-1.5682112E-2,5.868279E-1,-1.2882828E0,1.7466596E-1,1E-45,-1.0225068E0,6.962496E-2,-5.862483E-2,1E-45,-1.6531757E-1,1E-45,-1.0021214E0,1E-45,-1.3010542E-1,1E-45,-2.8709003E-1,3.563664E-1,-8.7578565E-2,6.4279735E-2,-5.031385E-2,4.3148795E-1,4.6313033E-1,3.356357E-1,9.878321E-3,-6.43475E-2,1.6821085E-2,1.644286E-1,1E-45,1.07545875E-1,1.4767621E-1,3.9837215E-2,2.743028E-2,-1.4748903E-1,-4.138272E-2,1.2134373E-1,-2.3079807E-2,8.311303E-2,1.2251667E-2,-9.9291675E-2],"split_indices":[3,0,0,2,2,2,5,0,0,0,5,0,1,2,1,0,5,4,0,0,0,0,4,0,2,0,0,2,0,1,0,0,0,0,0,0,0,0,0,0,0],"split_type":[1,0,0,0,0,0,1,0,0,0,1,0,1,0,1,0,1,0,0,0,0,0,0,0,0,0,0,0,0,1,0,0,0,0,0,0,0,0,0,0,0],"sum_hessian":[3.6088867E1,1.8195992E1,1.7892876E1,5.073548E0,1.3122443E1,6.5888724E0,1.1304004E1,3.644217E0,1.429331E0,1.4524667E0,1.1669976E1,3.7280498E0,2.8608227E0,3.780648E0,7.5233555E0,1.5042677E0,2.1399493E0,7.868717E0,3.801259E0,1.6280752E0,1.2327474E0,1.0702872E0,2.7103608E0,4.5990033E0,2.9243522E0,1.0786407E0,1.0613086E0,2.5001204E0,5.3685966E0,2.4987113E0,1.3025476E0,1.7056428E0,1.004718E0,1.2767735E0,3.3222299E0,1.3157681E0,1.608584E0,1.0424654E0,1.4576551E0,1.3947792E0,1.1039321E0],"tree_param":{"num_deleted":"0","num_feature":"6","num_nodes":"41","size_leaf_vector":"1"}},{"base_weights":[9.5438043E-4,-3.5493663E-1,1.2401952E-1,-7.1216124E-1,1.6775258E-2,4.905959E-1,-3.123443E-2,-1.6081443E-1,-4.1817594E-2,2.6143175E-1,-6.016248E-2,1.5087858E-1,1.23306446E-1,-5.0755507E-1,1.4233015E-1,1.6923661E-3,9.175584E-2,-2.503003E-1,1.21153556E-1,-1.4707053E-1,-8.247758E-3,-7.2118905E-3,5.326881E-1,-1.02143645E-1,2.1777188E-2,1.5046363E-1,-1.4755443E-1,1.2779375E-2,1.504352E-1,-6.06322E-2,1.1265526E-1],"categories":[0,1,3,4,6,0,1,0,1,2,0,1,2,3,1,0,1],"categories_nodes":[2,4,5,9,14,22],"categories_segments":[0,5,7,10,14,15],"categories_sizes":[5,2,3,4,1,2],"default_left":[0,0,0,0,0,1,0,0,0,1,0,0,1,1,1,0,0,1,0,0,0,0,0,0,0,0,0,0,0,0,0],"id":16,"left_children":[1,3,5,7,9,11,13,-1,-1,15,-1,-1,17,19,21,-1,-1,23,-1,-1,-1,25,27,-1,-1,-1,29,-1,-1,-1,-1],"loss_changes":[1.5878384E0,1.2489582E0,1.5481393E0,5.2597046E-2,5.0928366E-1,6.891581E-1,1.7141149E0,0E0,0E0,1.7911902E-1,0E0,0E0,9.7534925E-1,5.5636084E-1,8.9913774E-1,0E0,0E0,3.6270672E-1,0E0,0E0,0E0,1.3981969E0,3.904121E-1,0E0,0E0,0E0,1.3906052E0,0E0,0E0,0E0,0E0],"parents":[2147483647,0,0,1,1,2,2,3,3,4,4,5,5,6,6,9,9,12,12,13,13,14,14,17,17,21,21,22,22,26,26],"right_children":[2,4,6,8,10,12,14,-1,-1,16,-1,-1,18,20,22,-1,-1,24,-1,-1,-1,26,28,-1,-1,-1,30,-1,-1,-1,-1],"split_conditions":[-5.183214E-1,4.938368E-1,1E-45,-7.718887E-1,1E-45,1E-45,-4.8102713E-1,-1.6081443E-1,-4.1817594E-2,1E-45,-6.016248E-2,1.5087858E-1,6.390487E-1,6.021169E-1,1E-45,1.6923661E-3,9.175584E-2,-4.4092262E-1,1.21153556E-1,-1.4707053E-1,-8.247758E-3,-2.2521937E-1,1E-45,-1.02143645E-1,2.1777188E-2,1.5046363E-1,1.9066188E0,1.2779375E-2,1.504352E-1,-6.06322E-2,1.1265526E-1],"split_indices":[2,0,5,2,5,3,0,0,0,5,0,0,2,2,1,0,0,0,0,0,0,2,3,0,0,0,4,0,0,0,0],"split_type":[0,0,1,0,1,1,0,0,0,1,0,0,0,0,1,0,0,0,0,0,0,0,1,0,0,0,0,0,0,0,0],"sum_hessian":[3.4248806E1,8.315923E0,2.5932882E1,3.7735496E0,4.542373E0,7.0728745E0,1.8860008E1,2.6847322E0,1.0888175E0,2.6656704E0,1.8767028E0,3.5029893E0,3.5698853E0,4.523012E0,1.4336996E1,1.6252371E0,1.0404333E0,2.2831042E0,1.286781E0,2.6510322E0,1.8719803E0,1.1075582E1,3.2614145E0,1.0789591E0,1.2041451E0,1.047259E0,1.0028322E1,1.4517741E0,1.8096405E0,8.697813E0,1.3305094E0],"tree_param":{"num_deleted":"0","num_feature":"6","num_nodes":"31","size_leaf_vector":"1"}},{"base_weights":[7.756057E-3,-1.5147512E-1,2.710606E-1,-4.316183E-1,1.9940902E-1,-8.278803E-2,3.8082093E-1,-6.179898E-1,-1.0499897E-1,3.9370835E-1,-2.249864E-1,6.963693E-1,1.2143974E-1,-1.6015036E-1,-2.2114483E-1,-3.572756E-1,6.340652E-2,2.0198308E-2,1.6316767E-1,4.7114003E-2,-9.790739E-2,2.1739392E-2,1.6278665E-1,-1.8458956E-1,1.1679059E-1,1.7896296E-2,-8.988668E-2,1.5947333E-2,-1.11459605E-1,9.812803E-2,-3.8610134E-1,2.371029E-1,-5.287004E-1,-1.275631E-1,1.5920538E-2,5.128083E-3,6.5649904E-2,-1.6305171E-2,-1.3944222E-1],"categories":[1,3,6,1,3,4,6,0,1,2,1,0,1,2,3,0,3,0,1,2],"categories_nodes":[4,6,10,12,14,17,23],"categories_segments":[0,3,7,10,11,15,17],"categories_sizes":[3,4,3,1,4,2,3],"default_left":[1,1,0,1,1,0,0,0,1,1,1,0,0,0,0,0,0,0,0,0,0,0,0,1,0,0,0,0,0,0,0,0,0,0,0,0,0,0,0],"id":17,"left_children":[1,3,5,7,9,-1,11,13,15,17,19,21,23,-1,25,27,-1,29,-1,-1,-1,-1,-1,31,-1,-1,-1,-1,-1,-1,33,35,37,-1,-1,-1,-1,-1,-1],"loss_changes":[1.457165E0,2.2180681E0,1.1415875E0,6.8849015E-1,9.389749E-1,0E0,8.812617E-1,3.7959242E-1,7.20251E-1,1.1562352E0,5.874615E-1,2.647493E-1,1.1959461E0,0E0,3.0980504E-1,3.974334E-1,0E0,1.1396971E0,0E0,0E0,0E0,0E0,0E0,9.069705E-1,0E0,0E0,0E0,0E0,0E0,0E0,4.29083E-1,5.15403E-2,1.8999171E-1,0E0,0E0,0E0,0E0,0E0,0E0],"parents":[2147483647,0,0,1,1,2,2,3,3,4,4,6,6,7,7,8,8,9,9,10,10,11,11,12,12,14,14,15,15,17,17,23,23,30,30,31,31,32,32],"right_children":[2,4,6,8,10,-1,12,14,16,18,20,22,24,-1,26,28,-1,30,-1,-1,-1,-1,-1,32,-1,-1,-1,-1,-1,-1,34,36,38,-1,-1,-1,-1,-1,-1],"split_conditions":[6.326199E-2,1.6520555E-1,-1.4546487E0,-8.153897E-2,1E-45,-8.278803E-2,1E-45,5.5135353E-3,-4.462456E-1,-8.131463E-1,1E-45,3.130677E-1,1E-45,-1.6015036E-1,1E-45,5.340829E-1,6.340652E-2,1E-45,1.6316767E-1,4.7114003E-2,-9.790739E-2,2.1739392E-2,1.6278665E-1,1E-45,1.1679059E-1,1.7896296E-2,-8.988668E-2,1.5947333E-2,-1.11459605E-1,9.812803E-2,5.77451E-1,2.2432892E-1,-4.0955207E-1,-1.275631E-1,1.5920538E-2,5.128083E-3,6.5649904E-2,-1.6305171E-2,-1.3944222E-1],"split_indices":[0,2,2,4,5,0,5,2,2,0,3,0,1,0,5,4,0,3,0,0,0,0,0,3,0,0,0,0,0,0,2,4,4,0,0,0,0,0,0],"split_type":[0,0,0,0,1,0,1,0,0,0,1,0,1,0,1,0,0,1,0,0,0,0,0,1,0,0,0,0,0,0,0,0,0,0,0,0,0,0,0],"sum_hessian":[3.277609E1,2.0689192E1,1.2086898E1,1.137633E1,9.312861E0,1.2865281E0,1.080037E1,6.6752834E0,4.701047E0,6.4377837E0,2.875078E0,4.112547E0,6.687823E0,3.873565E0,2.8017182E0,3.0382934E0,1.6627536E0,3.9715319E0,2.4662519E0,1.0889206E0,1.7861574E0,1.006398E0,3.106149E0,4.386394E0,2.301429E0,1.4443974E0,1.3573208E0,1.1428146E0,1.8954787E0,1.7442901E0,2.2272418E0,2.1107426E0,2.2756512E0,1.2058852E0,1.0213566E0,1.0216947E0,1.089048E0,1.0289477E0,1.2467035E0],"tree_param":{"num_deleted":"0","num_feature":"6","num_nodes":"39","size_leaf_vector":"1"}},{"base_weights":[6.0196654E-3,-5.020315E-1,8.151864E-2,-1.3953978E-1,-7.8666145E-3,3.8027358E-1,-7.045035E-2,-3.03534E-2,7.008815E-1,1.4002818E-1,-4.925381E-1,-4.0074688E-1,7.670078E-2,1.6523626E-1,2.4200112E-2,-1.3819987E-1,4.6745405E-1,-1.6943882E-1,6.310039E-2,-8.3729485E-3,-1.1179954E-1,-1.6229303E-1,2.3918106E-1,1.4917963E-2,1.3447064E-1,8.9832574E-2,-4.0423766E-2,4.4417802E-2,-4.1912545E-2],"categories":[0,1,2,1,3,6,1,2,2],"categories_nodes":[2,6,10,11,22],"categories_segments":[0,3,6,7,8],"categories_sizes":[3,3,1,1,1],"default_left":[0,1,0,0,0,1,1,1,0,1,1,0,0,0,0,0,1,0,0,0,0,0,1,0,0,0,0,0,0],"id":18,"left_children":[1,3,5,-1,-1,7,9,11,13,15,17,19,-1,-1,-1,21,23,-1,-1,-1,-1,-1,25,27,-1,-1,-1,-1,-1],"loss_changes":[1.2652088E0,3.5906804E-1,1.3274822E0,0E0,0E0,1.31351E0,1.8309401E0,9.603223E-1,3.0354524E-1,1.3411227E0,2.2218976E0,1.6207892E-1,0E0,0E0,0E0,2.3149128E0,6.080034E-1,0E0,0E0,0E0,0E0,0E0,6.580142E-1,1.907109E-1,0E0,0E0,0E0,0E0,0E0],"parents":[2147483647,0,0,1,1,2,2,5,5,6,6,7,7,8,8,9,9,10,10,11,11,15,15,16,16,22,22,23,23],"right_children":[2,4,6,-1,-1,8,10,12,14,16,18,20,-1,-1,-1,22,24,-1,-1,-1,-1,-1,26,28,-1,-1,-1,-1,-1],"split_conditions":[-1.0002153E0,6.7538136E-1,1E-45,-1.3953978E-1,-7.8666145E-3,-5.0294054E-1,1E-45,5.1945396E-2,4.8249173E0,5.5135353E-3,1E-45,1E-45,7.670078E-2,1.6523626E-1,2.4200112E-2,6.326199E-2,-6.9204986E-1,-1.6943882E-1,6.310039E-2,-8.3729485E-3,-1.1179954E-1,-1.6229303E-1,1E-45,8.52284E-3,1.3447064E-1,8.9832574E-2,-4.0423766E-2,4.4417802E-2,-4.1912545E-2],"split_indices":[0,2,3,0,0,2,5,0,0,2,1,1,0,0,0,0,0,0,0,0,0,0,3,4,0,0,0,0,0],"split_type":[0,0,1,0,0,0,1,0,0,0,1,1,0,0,0,0,0,0,0,0,0,0,1,0,0,0,0,0,0],"sum_hessian":[3.0917849E1,3.2691846E0,2.7648663E1,1.9406328E0,1.3285519E0,8.815673E0,1.883299E1,4.2621446E0,4.5535283E0,1.3012445E1,5.820545E0,2.265895E0,1.9962493E0,3.3951635E0,1.1583649E0,7.347162E0,5.6652837E0,4.011435E0,1.8091103E0,1.0803705E0,1.1855245E0,2.225863E0,5.121299E0,2.1000226E0,3.5652611E0,3.4580514E0,1.6632475E0,1.0976584E0,1.0023642E0],"tree_param":{"num_deleted":"0","num_feature":"6","num_nodes":"29","size_leaf_vector":"1"}},{"base_weights":[1.9323756E-3,-3.1318378E-1,1.1221769E-1,-1.2996511E-1,1.15944985E-2,4.0307486E-1,-4.9313925E-2,2.4257538E-1,-5.7283144E-2,5.750819E-1,-2.3643028E-2,1.8986265E-1,-3.7082085E-1,4.0385E-3,7.534542E-2,-8.311184E-3,1.4167516E-1,-2.4013788E-1,4.0937665E-1,-6.5838933E-1,2.1383493E-1,-1.19097546E-1,2.4146503E-2,5.810906E-1,5.27071E-4,-1.579308E-1,-1.912688E-2,1.111953E-1,-4.5589812E-2,1.4807737E-1,2.4434316E-3],"categories":[0,1,2,0,1,0,1,2,3,6,0,1,1,0],"categories_nodes":[2,4,5,6,7,12,18],"categories_segments":[0,3,5,6,10,12,13],"categories_sizes":[3,2,1,4,2,1,1],"default_left":[0,0,0,0,0,0,1,0,0,0,0,0,1,0,0,0,0,1,1,1,0,0,0,1,0,0,0,0,0,0,0],"id":19,"left_children":[1,3,5,-1,7,9,11,13,-1,15,-1,17,19,-1,-1,-1,-1,21,23,25,27,-1,-1,29,-1,-1,-1,-1,-1,-1,-1],"loss_changes":[1.0798068E0,8.8841826E-1,1.1006224E0,0E0,4.193733E-1,8.1423116E-1,1.2761877E0,9.3976006E-2,0E0,5.578017E-1,0E0,1.0094534E0,1.322331E0,0E0,0E0,0E0,0E0,5.7106704E-1,4.7062588E-1,2.9056692E-1,5.9104747E-1,0E0,0E0,4.212991E-1,0E0,0E0,0E0,0E0,0E0,0E0,0E0],"parents":[2147483647,0,0,1,1,2,2,4,4,5,5,6,6,7,7,9,9,11,11,12,12,17,17,18,18,19,19,20,20,23,23],"right_children":[2,4,6,-1,8,10,12,14,-1,16,-1,18,20,-1,-1,-1,-1,22,24,26,28,-1,-1,30,-1,-1,-1,-1,-1,-1,-1],"split_conditions":[-5.183214E-1,4.938368E-1,1E-45,-1.2996511E-1,1E-45,1E-45,1E-45,1E-45,-5.7283144E-2,-1.0225068E0,-2.3643028E-2,-4.4595428E-2,1E-45,4.0385E-3,7.534542E-2,-8.311184E-3,1.4167516E-1,1.7466596E-1,1E-45,9.3929875E-1,5.4973185E-1,-1.19097546E-1,2.4146503E-2,9.0103173E-1,5.27071E-4,-1.579308E-1,-1.912688E-2,1.111953E-1,-4.5589812E-2,1.4807737E-1,2.4434316E-3],"split_indices":[2,0,3,0,5,5,5,3,0,0,0,0,1,0,0,0,0,2,1,2,4,0,0,4,0,0,0,0,0,0,0],"split_type":[0,0,1,0,1,1,1,1,0,0,0,0,1,0,0,0,0,0,1,0,0,0,0,0,0,0,0,0,0,0,0],"sum_hessian":[2.9059898E1,7.05682E0,2.2003078E1,2.9736843E0,4.0831356E0,7.322572E0,1.4680506E1,2.4050517E0,1.6780838E0,5.428253E0,1.8943189E0,8.652883E0,6.0276237E0,1.3378394E0,1.0672122E0,1.087154E0,4.3410993E0,2.8926296E0,5.760253E0,3.9558077E0,2.071816E0,1.1298858E0,1.7627437E0,3.7489219E0,2.0113313E0,2.8806837E0,1.0751239E0,1.0219116E0,1.0499043E0,2.6932578E0,1.0556641E0],"tree_param":{"num_deleted":"0","num_feature":"6","num_nodes":"31","size_leaf_vector":"1"}},{"base_weights":[-2.9209352E-4,-5.2921724E-2,1.2516074E-1,-1.1915656E-1,2.1105973E-2,2.1930857E-1,-1.7401947E-1,3.4447786E-1,-1.5999797E-1,-3.6633155E-1,1.1439022E-1,8.181062E-3,1.540827E-1,-8.447722E-2,5.4521095E-2,-5.058558E-1,-1.9573307E-2,-1.0251958E-1,1.09241776E-1,-7.1597725E-2,6.4854406E-2,-1.9505698E-2,-1.3037221E-1,7.470877E-2,-7.252989E-2,-7.716916E-2,5.0279822E-2],"categories":[0,1,2,0,3,1,0,1,2,0],"categories_nodes":[4,5,6,9,15,16],"categories_segments":[0,3,5,6,7,9],"categories_sizes":[3,2,1,1,2,1],"default_left":[1,0,0,0,1,1,0,1,1,0,1,1,0,0,0,1,1,1,0,0,0,0,0,0,0,0,0],"id":20,"left_children":[1,3,-1,-1,5,7,9,11,13,15,17,19,-1,-1,-1,21,23,25,-1,-1,-1,-1,-1,-1,-1,-1,-1],"loss_changes":[9.8164046E-1,1.1167296E0,0E0,0E0,1.0106026E0,6.683451E-1,7.7559465E-1,1.4302053E0,5.564239E-1,3.8557374E-1,6.23041E-1,8.8169396E-1,0E0,0E0,0E0,2.8152764E-1,5.920754E-1,5.8550674E-1,0E0,0E0,0E0,0E0,0E0,0E0,0E0,0E0,0E0],"parents":[2147483647,0,0,1,1,4,4,5,5,6,6,7,7,8,8,9,9,10,10,11,11,15,15,16,16,17,17],"right_children":[2,4,-1,-1,6,8,10,12,14,16,18,20,-1,-1,-1,22,24,26,-1,-1,-1,-1,-1,-1,-1,-1,-1],"split_conditions":[1.5982035E0,-1.0707526E0,1.2516074E-1,-1.1915656E-1,1E-45,1E-45,1E-45,-1.632686E-2,3.563664E-1,1E-45,3.9009333E-1,-2.4513127E-1,1.540827E-1,-8.447722E-2,5.4521095E-2,1E-45,1E-45,-2.3202766E-1,1.09241776E-1,-7.1597725E-2,6.4854406E-2,-1.9505698E-2,-1.3037221E-1,7.470877E-2,-7.252989E-2,-7.716916E-2,5.0279822E-2],"split_indices":[2,0,0,0,3,5,1,2,0,5,0,4,0,0,0,3,1,2,0,0,0,0,0,0,0,0,0],"split_type":[0,0,0,0,1,1,1,0,0,1,0,0,0,0,0,1,1,0,0,0,0,0,0,0,0,0,0],"sum_hessian":[2.7785662E1,2.6475595E1,1.3100659E0,2.3313313E0,2.4144264E1,1.19162035E1,1.2228061E1,9.028625E0,2.887579E0,7.174148E0,5.053912E0,5.614731E0,3.4138937E0,1.8120996E0,1.0754794E0,4.78857E0,2.3855786E0,3.8716855E0,1.1822267E0,2.5398912E0,3.0748394E0,1.7005861E0,3.0879836E0,1.0703268E0,1.3152517E0,2.1001892E0,1.7714964E0],"tree_param":{"num_deleted":"0","num_feature":"6","num_nodes":"27","size_leaf_vector":"1"}},{"base_weights":[2.3937973E-3,2.8022078E-1,-1.2368315E-1,-5.588502E-2,5.284028E-1,-4.6056715E-1,3.621008E-2,-1.0744219E-1,2.9308075E-1,-1.8873397E-2,1.4147517E-1,1.860375E-2,-6.3809055E-1,1.9249494E-1,-2.572437E-1,7.059877E-3,8.721514E-2,-1.4977926E-1,-4.274207E-2,-1.2234323E-1,3.7641048E-1,4.3988656E-2,-5.141472E-1,-9.948918E-2,7.11024E-2,6.048437E-1,-2.6572224E-2,-1.3379788E-1,-3.0187173E-2,1.3693531E-1,3.619826E-2,-4.093174E-2,2.8402044E-2],"categories":[0,1,3,4,6,0,1,2,3,0,0,1,0,1,2,0],"categories_nodes":[0,5,6,8,12,14,22],"categories_segments":[0,5,9,10,11,12,15],"categories_sizes":[5,4,1,1,1,3,1],"default_left":[0,0,0,0,1,0,1,0,0,0,0,0,1,1,0,0,0,0,0,0,0,0,0,0,0,0,0,0,0,0,0,0,0],"id":21,"left_children":[1,3,5,7,9,11,13,-1,15,-1,-1,-1,17,19,21,-1,-1,-1,-1,23,25,-1,27,-1,-1,29,31,-1,-1,-1,-1,-1,-1],"loss_changes":[9.9918514E-1,7.7205485E-1,1.074308E0,9.444299E-1,6.4814126E-1,6.8757665E-1,7.026969E-1,0E0,1.0857752E-1,0E0,0E0,0E0,7.354641E-2,6.1726856E-1,7.7227753E-1,0E0,0E0,0E0,0E0,9.641646E-1,6.119005E-1,0E0,1.12457395E-1,0E0,0E0,1.7282844E-2,1.2812363E-1,0E0,0E0,0E0,0E0,0E0,0E0],"parents":[2147483647,0,0,1,1,2,2,3,3,4,4,5,5,6,6,8,8,12,12,13,13,14,14,19,19,20,20,22,22,25,25,26,26],"right_children":[2,4,6,8,10,12,14,-1,16,-1,-1,-1,18,20,22,-1,-1,-1,-1,24,26,-1,28,-1,-1,30,32,-1,-1,-1,-1,-1,-1],"split_conditions":[1E-45,1.484657E-1,-2.0289683E-1,1.7742614E-1,-1.8297404E0,1E-45,1E-45,-1.0744219E-1,1E-45,-1.8873397E-2,1.4147517E-1,1.860375E-2,1E-45,-7.457522E-1,1E-45,7.059877E-3,8.721514E-2,-1.4977926E-1,-4.274207E-2,7.849575E-1,8.215857E-1,4.3988656E-2,1E-45,-9.948918E-2,7.11024E-2,5.354084E-1,1.2872909E-1,-1.3379788E-1,-3.0187173E-2,1.3693531E-1,3.619826E-2,-4.093174E-2,2.8402044E-2],"split_indices":[5,2,0,0,0,3,1,0,3,0,0,0,1,2,3,0,0,0,0,0,0,0,5,0,0,2,2,0,0,0,0,0,0],"split_type":[1,0,0,0,0,1,1,0,1,0,0,0,1,0,1,0,0,0,0,0,0,0,1,0,0,0,0,0,0,0,0,0,0],"sum_hessian":[2.6536205E1,7.9015317E0,1.8634672E1,3.685367E0,4.2161646E0,5.392526E0,1.32421465E1,1.3222122E0,2.363155E0,1.0467018E0,3.169463E0,1.4249638E0,3.9675622E0,8.8649645E0,4.377183E0,1.288034E0,1.0751209E0,2.5397503E0,1.4278119E0,3.3924098E0,5.472554E0,1.5821944E0,2.7949884E0,1.8775722E0,1.5148377E0,3.1730018E0,2.2995524E0,1.3693439E0,1.4256445E0,2.1522572E0,1.0207446E0,1.0141894E0,1.2853631E0],"tree_param":{"num_deleted":"0","num_feature":"6","num_nodes":"33","size_leaf_vector":"1"}},{"base_weights":[-1.7858174E-4,-6.827149E-2,4.4456577E-1,-1.3981692E-1,1.5169596E-2,1.1610192E-1,1.5884502E-2,2.0588654E-1,-1.7754272E-1,-5.401339E-2,2.9333788E-1,-3.4204903E-1,6.0004566E-2,7.834702E-2,1.23626314E-1,-4.990209E-1,-1.6674438E-2,-1.446738E-1,9.830522E-2,-4.3506917E-2,7.587884E-2,-2.8578525E-3,-1.344124E-1,6.36317E-2,-6.1176922E-2,-8.6048834E-2,1.8065182E-2],"categories":[0,1,2,1,0,1,2,0],"categories_nodes":[4,8,11,15,16],"categories_segments":[0,3,4,5,7],"categories_sizes":[3,1,1,2,1],"default_left":[1,0,1,0,1,0,0,0,0,0,1,0,1,1,0,1,1,0,0,0,0,0,0,0,0,0,0],"id":22,"left_children":[1,3,5,-1,7,-1,-1,9,11,-1,13,15,17,19,-1,21,23,25,-1,-1,-1,-1,-1,-1,-1,-1,-1],"loss_changes":[8.3083344E-1,1.2627989E0,1.3471729E-1,0E0,8.447405E-1,0E0,0E0,5.585048E-1,4.6892282E-1,0E0,6.642989E-1,3.4556228E-1,5.609239E-1,7.3159534E-1,0E0,3.7953603E-1,4.1585723E-1,3.4314287E-1,0E0,0E0,0E0,0E0,0E0,0E0,0E0,0E0,0E0],"parents":[2147483647,0,0,1,1,2,2,4,4,7,7,8,8,10,10,11,11,12,12,13,13,15,15,16,16,17,17],"right_children":[2,4,6,-1,8,-1,-1,10,12,-1,14,16,18,20,-1,22,24,26,-1,-1,-1,-1,-1,-1,-1,-1,-1],"split_conditions":[9.9673945E-1,-1.0707526E0,-2.3937918E-1,-1.3981692E-1,1E-45,1.1610192E-1,1.5884502E-2,-1.2856895E0,1E-45,-5.401339E-2,1.8133843E-1,1E-45,3.9009333E-1,-1.8229744E-1,1.23626314E-1,1E-45,1E-45,-2.3202766E-1,9.830522E-2,-4.3506917E-2,7.587884E-2,-2.8578525E-3,-1.344124E-1,6.36317E-2,-6.1176922E-2,-8.6048834E-2,1.8065182E-2],"split_indices":[2,0,0,0,3,0,0,2,1,0,0,5,0,2,0,3,1,2,0,0,0,0,0,0,0,0,0],"split_type":[0,0,0,0,1,0,0,0,1,0,0,1,0,0,0,1,1,0,0,0,0,0,0,0,0,0,0],"sum_hessian":[2.5432568E1,2.278981E1,2.642758E0,1.8004277E0,2.0989382E1,1.4959852E0,1.1467727E0,1.0514947E1,1.0474436E1,1.3079952E0,9.206952E0,5.9287415E0,4.5456944E0,6.2867684E0,2.9201834E0,3.6393251E0,2.2894163E0,3.5341291E0,1.0115651E0,3.3104897E0,2.9762788E0,1.2421964E0,2.3971288E0,1.0146321E0,1.2747842E0,1.2203444E0,2.3137846E0],"tree_param":{"num_deleted":"0","num_feature":"6","num_nodes":"27","size_leaf_vector":"1"}},{"base_weights":[-6.5403443E-4,2.6211742E-1,-1.1874996E-1,-4.8830163E-2,5.0878817E-1,-4.145853E-1,1.8089617E-2,6.364572E-2,-7.545498E-2,1.4297728E-1,1.1845943E-2,1.4781261E-2,-5.7708055E-1,1.59835E-1,-2.3913002E-1,-1.3758568E-1,-3.554637E-2,-1.072527E-1,3.1755787E-1,5.075269E-2,-4.339699E-1,-8.631135E-2,6.101164E-2,5.288341E-1,-3.9537646E-2,-1.1112409E-1,-2.6973922E-2,3.0553667E-2,1.3262866E-1,-3.3058714E-2,2.19802E-2],"categories":[0,1,3,4,6,0,1,2,3,0,1,0,1,2,4,0,1,2],"categories_nodes":[0,5,6,12,14,23],"categories_segments":[0,5,9,10,11,15],"categories_sizes":[5,4,1,1,4,3],"default_left":[0,1,0,0,0,0,1,0,0,0,0,0,1,1,0,0,0,0,0,0,0,0,0,0,0,0,0,0,0,0,0],"id":23,"left_children":[1,3,5,7,9,11,13,-1,-1,-1,-1,-1,15,17,19,-1,-1,21,23,-1,25,-1,-1,27,29,-1,-1,-1,-1,-1,-1],"loss_changes":[8.182453E-1,6.520032E-1,7.437841E-1,6.66126E-1,3.8822877E-1,5.0256413E-1,5.2656054E-1,0E0,0E0,0E0,0E0,0E0,7.521999E-2,4.2307782E-1,6.05597E-1,0E0,0E0,6.900619E-1,4.7799867E-1,0E0,7.302946E-2,0E0,0E0,9.446573E-2,7.7974394E-2,0E0,0E0,0E0,0E0,0E0,0E0],"parents":[2147483647,0,0,1,1,2,2,3,3,4,4,5,5,6,6,12,12,13,13,14,14,17,17,18,18,20,20,23,23,24,24],"right_children":[2,4,6,8,10,12,14,-1,-1,-1,-1,-1,16,18,20,-1,-1,22,24,-1,26,-1,-1,28,30,-1,-1,-1,-1,-1,-1],"split_conditions":[1E-45,-2.4513127E-1,-2.0289683E-1,-4.9928045E-1,6.5654534E-1,1E-45,1E-45,6.364572E-2,-7.545498E-2,1.4297728E-1,1.1845943E-2,1.4781261E-2,1E-45,-7.457522E-1,1E-45,-1.3758568E-1,-3.554637E-2,7.849575E-1,8.215857E-1,5.075269E-2,1.4123276E0,-8.631135E-2,6.101164E-2,1E-45,1.7423035E-1,-1.1112409E-1,-2.6973922E-2,3.0553667E-2,1.3262866E-1,-3.3058714E-2,2.19802E-2],"split_indices":[5,4,0,4,4,3,1,0,0,0,0,0,1,2,3,0,0,0,0,0,0,0,0,5,2,0,0,0,0,0,0],"split_type":[1,0,0,0,0,1,1,0,0,0,0,0,1,0,1,0,0,0,0,0,0,0,0,1,0,0,0,0,0,0,0],"sum_hessian":[2.4364553E1,7.1766005E0,1.7187954E1,3.5294716E0,3.6471288E0,4.794007E0,1.2393947E1,1.6814473E0,1.8480242E0,2.0960205E0,1.5511086E0,1.3327341E0,3.4612727E0,8.234685E0,4.1592617E0,2.143635E0,1.3176378E0,3.1761649E0,5.05852E0,1.0926713E0,3.0665905E0,1.7516907E0,1.4244741E0,2.8759985E0,2.1825216E0,1.5702832E0,1.4963074E0,1.3193256E0,1.5566729E0,1.1275591E0,1.0549624E0],"tree_param":{"num_deleted":"0","num_feature":"6","num_nodes":"31","size_leaf_vector":"1"}},{"base_weights":[4.686656E-4,-4.7029298E-2,1.09716676E-1,2.1109091E-1,-1.6232389E-1,-7.665275E-2,4.6412134E-1,-4.4901222E-1,-2.7646955E-2,-3.1618854E-1,6.990724E-2,1.4031528E-1,1.19749615E-2,-1.13971174E-1,-2.166713E-3,1.0813987E-1,-2.645985E-1,4.2440323E-3,-1.0275735E-1,2.1731693E-1,-1.688306E-1,-4.6873185E-1,5.1838785E-2,-3.568044E-2,6.6208474E-2,5.340307E-3,-5.6156456E-2,-2.3447957E-2,-1.200936E-1],"categories":[0,1,3,4,6,4,0,2,0,1],"categories_nodes":[1,7,8,15,21],"categories_segments":[0,5,6,7,8],"categories_sizes":[5,1,1,1,2],"default_left":[1,0,0,1,0,1,0,1,1,1,0,0,0,0,0,1,0,0,0,0,0,0,0,0,0,0,0,0,0],"id":24,"left_children":[1,3,-1,5,7,9,11,13,15,17,-1,-1,-1,-1,-1,19,21,-1,-1,23,25,27,-1,-1,-1,-1,-1,-1,-1],"loss_changes":[6.651211E-1,7.342048E-1,0E0,5.959457E-1,6.371286E-1,5.657786E-1,3.6470914E-1,2.750697E-1,4.311751E-1,2.3624945E-1,0E0,0E0,0E0,0E0,0E0,2.9866683E-1,6.398644E-1,0E0,0E0,3.5839042E-1,7.343651E-2,1.0762185E-1,0E0,0E0,0E0,0E0,0E0,0E0,0E0],"parents":[2147483647,0,0,1,1,3,3,4,4,5,5,6,6,7,7,8,8,9,9,15,15,16,16,19,19,20,20,21,21],"right_children":[2,4,-1,6,8,10,12,14,16,18,-1,-1,-1,-1,-1,20,22,-1,-1,24,26,28,-1,-1,-1,-1,-1,-1,-1],"split_conditions":[1.5982035E0,1E-45,1.09716676E-1,-1.8581888E-1,-2.0289683E-1,1.965574E-1,4.7147626E-1,1E-45,1E-45,-8.222463E-1,6.990724E-2,1.4031528E-1,1.19749615E-2,-1.13971174E-1,-2.166713E-3,1E-45,1.9066188E0,4.2440323E-3,-1.0275735E-1,-9.278654E-1,5.270042E-1,1E-45,5.1838785E-2,-3.568044E-2,6.6208474E-2,5.340307E-3,-5.6156456E-2,-2.3447957E-2,-1.200936E-1],"split_indices":[2,5,0,4,0,0,4,3,1,4,0,0,0,0,0,3,4,0,0,2,0,3,0,0,0,0,0,0,0],"split_type":[0,1,0,0,0,0,0,1,1,0,0,0,0,0,0,1,0,0,0,0,0,1,0,0,0,0,0,0,0],"sum_hessian":[2.3556866E1,2.2519585E1,1.0372809E0,6.696548E0,1.5823037E1,3.4595003E0,3.2370477E0,4.311373E0,1.1511664E1,2.3799644E0,1.079536E0,1.5758659E0,1.6611819E0,3.1438358E0,1.1675373E0,7.663601E0,3.8480632E0,1.2086848E0,1.1712797E0,5.651324E0,2.012277E0,2.844585E0,1.003478E0,1.1346135E0,4.5167103E0,1.0099E0,1.002377E0,1.2907164E0,1.5538687E0],"tree_param":{"num_deleted":"0","num_feature":"6","num_nodes":"29","size_leaf_vector":"1"}},{"base_weights":[6.0799386E-4,-7.179509E-2,3.2131898E-1,-2.306392E-1,1.8164375E-1,4.331793E-1,-6.5603107E-3,-5.3736117E-2,-3.8776082E-1,-6.794852E-2,3.053978E-1,2.5713256E-2,1.0158924E-1,1.2571448E-1,-8.090427E-2,-1.4545701E-1,-1.3501363E-1,4.034246E-1,-1.5421601E-2,-5.5523563E-2,3.0142096E-1,-3.0037433E-1,4.548155E-2,1.11773424E-1,7.849143E-2,-1.0079866E-3,9.792631E-2,-8.94782E-2,-6.7755706E-3,-2.5850823E-2,4.8022255E-2],"categories":[0,3,6,0,2,2,0,0,1,2],"categories_nodes":[3,7,10,17,21],"categories_segments":[0,3,5,6,7],"categories_sizes":[3,2,1,1,3],"default_left":[1,1,1,0,0,1,0,1,1,0,1,0,0,0,0,0,1,1,0,0,0,1,0,0,0,0,0,0,0,0,0],"id":25,"left_children":[1,3,5,7,9,11,-1,13,15,-1,17,-1,-1,19,-1,-1,21,23,-1,-1,25,27,-1,-1,29,-1,-1,-1,-1,-1,-1],"loss_changes":[5.750993E-1,8.555841E-1,1.9488657E-1,3.367628E-1,6.423217E-1,1.5242219E-2,0E0,5.048806E-1,4.727099E-1,0E0,3.037873E-1,0E0,0E0,4.7590232E-1,0E0,0E0,3.7046003E-1,2.566198E-1,0E0,0E0,2.524816E-1,1.3736781E-1,0E0,0E0,1.3473351E-1,0E0,0E0,0E0,0E0,0E0,0E0],"parents":[2147483647,0,0,1,1,2,2,3,3,4,4,5,5,7,7,8,8,10,10,13,13,16,16,17,17,20,20,21,21,24,24],"right_children":[2,4,6,8,10,12,-1,14,16,-1,18,-1,-1,20,-1,-1,22,24,-1,-1,26,28,-1,-1,30,-1,-1,-1,-1,-1,-1],"split_conditions":[7.607826E-1,5.1945396E-2,2.1348006E-1,1E-45,-1.4546487E0,-1.179158E0,-6.5603107E-3,1E-45,-4.3382424E-1,-6.794852E-2,1E-45,2.5713256E-2,1.0158924E-1,-4.462456E-1,-8.090427E-2,-1.4545701E-1,-4.796558E-1,1E-45,-1.5421601E-2,-5.5523563E-2,-2.9779088E-1,1E-45,4.548155E-2,1.11773424E-1,4.0529627E-2,-1.0079866E-3,9.792631E-2,-8.94782E-2,-6.7755706E-3,-2.5850823E-2,4.8022255E-2],"split_indices":[2,0,0,5,2,0,0,3,2,0,3,0,0,2,0,0,0,1,0,0,0,3,0,0,4,0,0,0,0,0,0],"split_type":[0,0,0,1,0,0,0,1,0,0,1,0,0,0,0,0,0,1,0,0,0,1,0,0,0,0,0,0,0,0,0],"sum_hessian":[2.277343E1,1.9212248E1,3.5611815E0,1.1865466E1,7.3467817E0,2.5366468E0,1.0245347E0,6.212651E0,5.652815E0,1.0745034E0,6.2722783E0,1.0358757E0,1.5007712E0,4.5345426E0,1.6781082E0,1.6110777E0,4.0417376E0,4.9492254E0,1.3230528E0,1.1999837E0,3.3345587E0,2.8929727E0,1.1487648E0,2.8607476E0,2.088478E0,1.639007E0,1.6955518E0,1.4269739E0,1.4659986E0,1.0014615E0,1.0870166E0],"tree_param":{"num_deleted":"0","num_feature":"6","num_nodes":"31","size_leaf_vector":"1"}},{"base_weights":[-2.2240465E-3,2.2174928E-1,-1.02286465E-1,-5.2011378E-2,4.2413205E-1,-1.6434652E-1,5.550396E-2,-8.854574E-2,6.0440578E-2,-6.551032E-3,1.2847683E-1,-1.3075303E-1,-5.906152E-2,-3.5064077E-1,5.4331247E-2,-1.12260975E-1,7.602939E-3,2.3927228E-1,-1.3718739E-1,7.292359E-2,-1.03355255E-2,1.6724525E-2,-6.48572E-2],"categories":[0,1,3,4,6,0,2,3],"categories_nodes":[0,14,17,18],"categories_segments":[0,5,6,7],"categories_sizes":[5,1,1,1],"default_left":[0,0,1,0,1,0,0,0,0,0,0,0,0,1,0,0,0,1,0,0,0,0,0],"id":26,"left_children":[1,3,5,7,9,11,-1,-1,-1,-1,-1,-1,13,15,17,-1,-1,19,21,-1,-1,-1,-1],"loss_changes":[5.392735E-1,4.3391785E-1,4.3728098E-1,6.943617E-1,4.5812416E-1,7.297307E-1,0E0,0E0,0E0,0E0,0E0,0E0,4.6112078E-1,3.3884647E-1,4.0446982E-1,0E0,0E0,2.2680473E-1,2.6633066E-1,0E0,0E0,0E0,0E0],"parents":[2147483647,0,0,1,1,2,2,3,3,4,4,5,5,12,12,13,13,14,14,17,17,18,18],"right_children":[2,4,6,8,10,12,-1,-1,-1,-1,-1,-1,14,16,18,-1,-1,20,22,-1,-1,-1,-1],"split_conditions":[1E-45,1.484657E-1,1.3014281E0,3.8728046E-1,-1.0002153E0,-7.718887E-1,5.550396E-2,-8.854574E-2,6.0440578E-2,-6.551032E-3,1.2847683E-1,-1.3075303E-1,-4.796558E-1,6.021169E-1,1E-45,-1.12260975E-1,7.602939E-3,1E-45,1E-45,7.292359E-2,-1.03355255E-2,1.6724525E-2,-6.48572E-2],"split_indices":[5,2,0,0,0,2,0,0,0,0,0,0,0,2,1,0,0,3,5,0,0,0,0],"split_type":[1,0,0,0,0,0,0,0,0,0,0,0,0,0,1,0,0,1,1,0,0,0,0],"sum_hessian":[2.2050484E1,6.433666E0,1.5616817E1,3.050414E0,3.3832521E0,1.3911051E1,1.7057663E0,1.3316468E0,1.7187674E0,1.3684562E0,2.0147958E0,1.5405062E0,1.2370544E1,2.8779328E0,9.492612E0,1.578248E0,1.2996848E0,4.7023854E0,4.7902265E0,3.1095464E0,1.592839E0,2.4508448E0,2.339382E0],"tree_param":{"num_deleted":"0","num_feature":"6","num_nodes":"23","size_leaf_vector":"1"}},{"base_weights":[-5.28591E-3,-7.937099E-2,4.571028E-2,-7.4453734E-2,1.00188844E-1,2.9236796E-1,-7.205659E-2,4.4048655E-1,-3.214021E-2,-2.0084116E-1,3.0750427E-1,1.5770608E-1,1.4743881E-1,2.4488305E-1,-3.950472E-1,-1.5225567E-2,1.1071223E-1,7.249426E-2,-6.0860682E-2,-3.3984095E-2,1.07776694E-1,-1.09327435E-1,4.104386E-2],"categories":[3,4,6,1,0,1,2,0],"categories_nodes":[4,6,9,13],"categories_segments":[0,3,4,7],"categories_sizes":[3,1,3,1],"default_left":[0,0,0,0,0,1,1,1,0,0,1,1,0,1,0,0,0,0,0,0,0,0,0],"id":27,"left_children":[1,-1,3,-1,5,7,9,11,-1,13,15,17,-1,19,21,-1,-1,-1,-1,-1,-1,-1,-1],"loss_changes":[4.6415368E-1,0E0,5.077165E-1,0E0,6.52143E-1,6.8875784E-1,5.9241694E-1,4.884411E-1,0E0,8.5075295E-1,3.390476E-1,5.7975405E-1,0E0,4.892335E-1,6.990762E-1,0E0,0E0,0E0,0E0,0E0,0E0,0E0,0E0],"parents":[2147483647,0,0,2,2,4,4,5,5,6,6,7,7,9,9,10,10,11,11,13,13,14,14],"right_children":[2,-1,4,-1,6,8,10,12,-1,14,16,18,-1,20,22,-1,-1,-1,-1,-1,-1,-1,-1],"split_conditions":[-1.0707526E0,-7.937099E-2,-1.2856895E0,-7.4453734E-2,1E-45,9.0103173E-1,1E-45,-1.9680034E-1,-3.214021E-2,1E-45,-3.689031E-2,-5.8876556E-1,1.4743881E-1,1E-45,1.9066188E0,-1.5225567E-2,1.1071223E-1,7.249426E-2,-6.0860682E-2,-3.3984095E-2,1.07776694E-1,-1.09327435E-1,4.104386E-2],"split_indices":[0,0,2,0,5,4,1,4,0,3,2,4,0,1,4,0,0,0,0,0,0,0,0],"split_type":[0,0,0,0,1,0,1,0,0,1,0,0,0,1,0,0,0,0,0,0,0,0,0],"sum_hessian":[2.1335812E1,1.67701E0,1.96588E1,1.5942028E0,1.8064598E1,8.208617E0,9.85598E0,6.2071357E0,2.001482E0,7.7106314E0,2.1453493E0,3.9623208E0,2.2448146E0,2.2608309E0,5.4498E0,1.1081771E0,1.0371721E0,2.8947828E0,1.067538E0,1.1128114E0,1.1480194E0,4.4223356E0,1.0274646E0],"tree_param":{"num_deleted":"0","num_feature":"6","num_nodes":"23","size_leaf_vector":"1"}},{"base_weights":[-2.5232005E-4,-5.192215E-2,7.2425775E-2,-1.1871345E-1,1.7128272E-2,1.8197377E-1,-1.4538991E-1,2.8419122E-1,-3.3094432E-2,-2.6755446E-1,4.161133E-2,-4.813234E-2,4.1440392E-1,-4.5429015E-1,6.9439314E-2,2.012382E-1,-4.111026E-2,4.1872483E-2,-5.8368172E-2,2.089735E-2,1.0453107E-1,-3.267276E-2,-1.1053403E-1,-1.9957246E-3,2.2688596E-2,-3.5581656E-3,6.1766494E-2],"categories":[0,1,2,1,0,0,1,2],"categories_nodes":[4,6,9,10],"categories_segments":[0,3,4,5],"categories_sizes":[3,1,1,3],"default_left":[1,0,0,0,1,0,0,1,0,0,1,0,0,1,0,0,0,0,0,0,0,0,0,0,0,0,0],"id":28,"left_children":[1,3,-1,-1,5,7,9,11,-1,13,15,17,19,21,23,25,-1,-1,-1,-1,-1,-1,-1,-1,-1,-1,-1],"loss_changes":[4.208867E-1,7.4579966E-1,0E0,0E0,5.1985353E-1,3.8751242E-1,2.3569432E-1,3.5642505E-1,0E0,4.141664E-1,2.2875373E-1,2.5469324E-1,1.3630998E-1,2.5484204E-2,1.17394645E-2,8.541031E-2,0E0,0E0,0E0,0E0,0E0,0E0,0E0,0E0,0E0,0E0,0E0],"parents":[2147483647,0,0,1,1,4,4,5,5,6,6,7,7,9,9,10,10,11,11,12,12,13,13,14,14,15,15],"right_children":[2,4,-1,-1,6,8,10,12,-1,14,16,18,20,22,24,26,-1,-1,-1,-1,-1,-1,-1,-1,-1,-1,-1],"split_conditions":[1.0931576E0,-1.0707526E0,7.2425775E-2,-1.1871345E-1,1E-45,2.259309E0,1E-45,-1.5897884E0,-3.3094432E-2,1E-45,1E-45,3.6540458E-1,-1.3105401E-1,-4.1515774E-1,-4.180641E-1,3.2246292E-1,-4.111026E-2,4.1872483E-2,-5.8368172E-2,2.089735E-2,1.0453107E-1,-3.267276E-2,-1.1053403E-1,-1.9957246E-3,2.2688596E-2,-3.5581656E-3,6.1766494E-2],"split_indices":[2,0,0,0,3,0,1,2,0,5,5,4,0,4,4,4,0,0,0,0,0,0,0,0,0,0,0],"split_type":[0,0,0,0,1,0,1,0,0,1,1,0,0,0,0,0,0,0,0,0,0,0,0,0,0,0,0],"sum_hessian":[2.0474066E1,1.8668896E1,1.8051702E0,1.2519797E0,1.7416916E1,8.587116E0,8.829801E0,6.775765E0,1.8113512E0,5.0802207E0,3.7495797E0,2.0849633E0,4.6908016E0,3.0449047E0,2.035316E0,2.3911147E0,1.358465E0,1.082334E0,1.0026292E0,1.7230473E0,2.9677546E0,1.4417989E0,1.6031058E0,1.0013353E0,1.0339807E0,1.0626115E0,1.3285033E0],"tree_param":{"num_deleted":"0","num_feature":"6","num_nodes":"27","size_leaf_vector":"1"}},{"base_weights":[-3.937029E-3,1.9761382E-1,-9.367989E-2,-5.874811E-2,4.1535777E-1,-1.5334556E-1,5.141274E-2,5.2717485E-2,-6.852057E-2,1.16363004E-1,1.8556423E-2,-4.3770167E-1,6.3195727E-3,-1.10010825E-1,-2.7083075E-2,1.7621547E-1,-2.6137483E-1,3.6310017E-1,-4.0896025E-2,-8.971344E-3,-9.850567E-2,9.863409E-2,-3.3808928E-3,2.4766786E-2,-2.7406726E-2],"categories":[0,1,3,4,6,0,1,3,6,2,0],"categories_nodes":[0,11,12,16,17],"categories_segments":[0,5,7,9,10],"categories_sizes":[5,2,2,1,1],"default_left":[0,1,1,0,0,1,0,0,0,0,0,0,1,0,0,1,0,1,0,0,0,0,0,0,0],"id":29,"left_children":[1,3,5,7,9,11,-1,-1,-1,-1,-1,13,15,-1,-1,17,19,21,-1,23,-1,-1,-1,-1,-1],"loss_changes":[3.9767846E-1,4.0286022E-1,3.5715437E-1,4.5536557E-1,1.4951974E-1,6.2031317E-1,0E0,0E0,0E0,0E0,0E0,9.211111E-2,4.8705828E-1,0E0,0E0,5.387692E-1,2.3872432E-1,2.4260116E-1,0E0,6.8173215E-2,0E0,0E0,0E0,0E0,0E0],"parents":[2147483647,0,0,1,1,2,2,3,3,4,4,5,5,11,11,12,12,15,15,16,16,17,17,19,19],"right_children":[2,4,6,8,10,12,-1,-1,-1,-1,-1,14,16,-1,-1,18,20,22,-1,24,-1,-1,-1,-1,-1],"split_conditions":[1E-45,-2.4513127E-1,1.3014281E0,-4.9928045E-1,4.7147626E-1,-5.183214E-1,5.141274E-2,5.2717485E-2,-6.852057E-2,1.16363004E-1,1.8556423E-2,1E-45,1E-45,-1.10010825E-1,-2.7083075E-2,7.9711133E-1,1E-45,1E-45,-4.0896025E-2,-1.5682112E-2,-9.850567E-2,9.863409E-2,-3.3808928E-3,2.4766786E-2,-2.7406726E-2],"split_indices":[5,4,0,4,4,2,0,0,0,0,0,3,5,0,0,4,1,1,0,0,0,0,0,0,0],"split_type":[1,0,0,0,0,0,0,0,0,0,0,1,1,0,0,0,1,1,0,0,0,0,0,0,0],"sum_hessian":[1.9962587E1,5.7798324E0,1.4182755E1,2.9898794E0,2.7899532E0,1.2601832E1,1.5809232E0,1.4334751E0,1.5564042E0,1.3102015E0,1.4797517E0,3.905301E0,8.696531E0,2.249551E0,1.6557499E0,5.529125E0,3.1674056E0,3.739575E0,1.7895504E0,2.0106869E0,1.1567186E0,2.5641139E0,1.1754612E0,1.0032736E0,1.0074134E0],"tree_param":{"num_deleted":"0","num_feature":"6","num_nodes":"25","size_leaf_vector":"1"}},{"base_weights":[-3.7911427E-3,-2.2613576E-1,7.412964E-2,-4.6431488E-1,1.09970085E-1,1.6615231E-1,-1.7617503E-1,-1.0854354E-1,-2.9867921E-2,-3.2690324E-2,6.8207584E-2,-5.6103695E-2,2.3543006E-1,4.5410883E-2,-3.7980115E-1,3.3193803E-1,-5.475339E-2,-1.3712256E-1,3.081142E-2,4.0091833E-1,-1.593059E-2,3.954751E-2,-5.4627806E-2,1.1559192E-1,-5.90292E-3],"categories":[3,6,0,1,2,1,2,0,1],"categories_nodes":[2,6,14,16,19],"categories_segments":[0,2,5,6,7],"categories_sizes":[2,3,1,1,2],"default_left":[0,0,1,0,0,0,0,0,0,0,0,0,0,0,0,1,0,0,0,1,0,0,0,0,0],"id":30,"left_children":[1,3,5,7,9,11,13,-1,-1,-1,-1,-1,15,-1,17,19,21,-1,-1,23,-1,-1,-1,-1,-1],"loss_changes":[3.7170032E-1,4.9642184E-1,3.9604604E-1,4.0857196E-3,2.5259838E-1,4.4225046E-1,4.7754592E-1,0E0,0E0,0E0,0E0,0E0,3.281576E-1,0E0,6.836976E-1,2.7178544E-1,2.536674E-1,0E0,0E0,5.810534E-1,0E0,0E0,0E0,0E0,0E0],"parents":[2147483647,0,0,1,1,2,2,3,3,4,4,5,5,6,6,12,12,14,14,15,15,16,16,19,19],"right_children":[2,4,6,8,10,12,14,-1,-1,-1,-1,-1,16,-1,18,20,22,-1,-1,24,-1,-1,-1,-1,-1],"split_conditions":[-5.183214E-1,1.336528E0,1E-45,-9.734808E-1,5.1952326E-1,-1.1280113E0,1E-45,-1.0854354E-1,-2.9867921E-2,-3.2690324E-2,6.8207584E-2,-5.6103695E-2,5.8232427E0,4.5410883E-2,1E-45,1.5853543E0,1E-45,-1.3712256E-1,3.081142E-2,1E-45,-1.593059E-2,3.954751E-2,-5.4627806E-2,1.1559192E-1,-5.90292E-3],"split_indices":[2,0,5,2,4,0,3,0,0,0,0,0,2,0,1,4,1,0,0,3,0,0,0,0,0],"split_type":[0,0,1,0,0,0,1,0,0,0,0,0,0,0,1,0,1,0,0,1,0,0,0,0,0],"sum_hessian":[1.9486666E1,4.5633006E0,1.4923366E1,2.4474661E0,2.1158345E0,1.1157568E1,3.765798E0,1.3807299E0,1.0667362E0,1.10313E0,1.0127045E0,1.0887336E0,1.0068834E1,1.2249811E0,2.540817E0,7.44794E0,2.6208944E0,1.4347086E0,1.1061084E0,6.401085E0,1.046855E0,1.2593827E0,1.3615117E0,4.292711E0,2.108374E0],"tree_param":{"num_deleted":"0","num_feature":"6","num_nodes":"25","size_leaf_vector":"1"}},{"base_weights":[-1.028683E-2,1.8308306E-1,-9.6658565E-2,-5.0557546E-2,3.9396888E-1,-1.6403773E-1,1.7880164E-1,4.036317E-2,-6.652358E-2,1.1356449E-1,1.6162734E-2,-2.7676025E-1,1.2173021E-1,-4.9203634E-2,9.664705E-2,9.856016E-2,-4.4967806E-1,-5.018394E-2,3.408174E-1,-3.252865E-2,6.0748603E-2,-2.6510349E-2,-5.0776035E-1,9.578281E-3,9.272232E-2,-1.2105477E-1,-3.4594893E-2],"categories":[0,1,3,4,6,1,0,1,2],"categories_nodes":[0,5,11],"categories_segments":[0,5,6],"categories_sizes":[5,1,3],"default_left":[0,1,0,1,0,1,0,0,0,0,0,0,1,0,0,1,0,0,0,0,0,0,0,0,0,0,0],"id":31,"left_children":[1,3,5,7,9,11,13,-1,-1,-1,-1,15,17,-1,-1,19,21,-1,23,-1,-1,-1,25,-1,-1,-1,-1],"loss_changes":[3.4958434E-1,3.392448E-1,2.9642278E-1,3.4908035E-1,1.4575708E-1,4.2294133E-1,5.4653585E-1,0E0,0E0,0E0,0E0,6.265431E-1,4.2129266E-1,0E0,0E0,2.4500951E-1,4.9131036E-2,0E0,8.621138E-2,0E0,0E0,0E0,5.8192253E-2,0E0,0E0,0E0,0E0],"parents":[2147483647,0,0,1,1,2,2,3,3,4,4,5,5,6,6,11,11,12,12,15,15,16,16,18,18,22,22],"right_children":[2,4,6,8,10,12,14,-1,-1,-1,-1,16,18,-1,-1,20,22,-1,24,-1,-1,-1,26,-1,-1,-1,-1],"split_conditions":[1E-45,-1.8581888E-1,2.2247164E0,-8.222463E-1,4.7147626E-1,1E-45,6.663831E-1,4.036317E-2,-6.652358E-2,1.1356449E-1,1.6162734E-2,1E-45,-8.131463E-1,-4.9203634E-2,9.664705E-2,-2.6164544E-1,-8.929367E-1,-5.018394E-2,2.8052628E-1,-3.252865E-2,6.0748603E-2,-2.6510349E-2,5.4973185E-1,9.578281E-3,9.272232E-2,-1.2105477E-1,-3.4594893E-2],"split_indices":[5,4,4,4,4,1,0,0,0,0,0,3,0,0,0,0,4,0,2,0,0,0,4,0,0,0,0],"split_type":[1,0,0,0,0,1,0,0,0,0,0,1,0,0,0,0,0,0,0,0,0,0,0,0,0,0,0],"sum_hessian":[1.8871508E1,5.480963E0,1.3390544E1,2.9608717E0,2.5200915E0,1.1083862E1,2.3066816E0,1.7128204E0,1.2480513E0,1.097542E0,1.4225494E0,7.9711328E0,3.11273E0,1.0430487E0,1.2636329E0,2.6497757E0,5.321357E0,1.098675E0,2.014055E0,1.2569584E0,1.3928175E0,1.3318205E0,3.9895363E0,1.0054836E0,1.0085714E0,2.4639227E0,1.5256134E0],"tree_param":{"num_deleted":"0","num_feature":"6","num_nodes":"27","size_leaf_vector":"1"}},{"base_weights":[-5.8965064E-3,-6.749212E-2,2.7069822E-1,-2.0795676E-1,1.6131644E-1,8.074461E-2,-3.3371784E-3,-3.2958943E-1,-4.117029E-2,-4.5572683E-2,2.6814342E-1,-1.1528108E-1,-9.965383E-2,-2.4046539E-1,7.5667866E-2,4.2029512E-1,-1.6394995E-2,-7.6491706E-2,6.603863E-2,7.940689E-3,-8.220393E-2,1.3759494E-2,1.2140725E-1,-1.6723787E-2,1.1767712E-2],"categories":[0,0,1,4,0,1],"categories_nodes":[2,7,13],"categories_segments":[0,1,4],"categories_sizes":[1,3,2],"default_left":[1,1,0,1,0,0,0,0,1,0,1,0,0,0,0,0,0,0,0,0,0,0,0,0,0],"id":32,"left_children":[1,3,5,7,9,-1,-1,11,13,-1,15,-1,17,19,-1,21,23,-1,-1,-1,-1,-1,-1,-1,-1],"loss_changes":[3.4822515E-1,5.6834894E-1,1.4921403E-1,2.0445812E-1,3.4766364E-1,0E0,0E0,2.871667E-1,5.6545305E-1,0E0,2.6091647E-1,0E0,6.554019E-1,2.2937667E-1,0E0,2.1165323E-1,2.0127121E-2,0E0,0E0,0E0,0E0,0E0,0E0,0E0,0E0],"parents":[2147483647,0,0,1,1,2,2,3,3,4,4,7,7,8,8,10,10,12,12,13,13,15,15,16,16],"right_children":[2,4,6,8,10,-1,-1,12,14,-1,16,-1,18,20,-1,22,24,-1,-1,-1,-1,-1,-1,-1,-1],"split_conditions":[7.607826E-1,5.1945396E-2,1E-45,-1.8229744E-1,-1.2882828E0,8.074461E-2,-3.3371784E-3,1E-45,-4.796558E-1,-4.5572683E-2,-1.4322324E-1,-1.1528108E-1,5.1945396E-2,1E-45,7.5667866E-2,-5.4980195E-1,4.16237E-1,-7.6491706E-2,6.603863E-2,7.940689E-3,-8.220393E-2,1.3759494E-2,1.2140725E-1,-1.6723787E-2,1.1767712E-2],"split_indices":[2,0,3,2,2,0,0,3,0,0,2,0,0,3,0,2,4,0,0,0,0,0,0,0,0],"split_type":[0,0,1,0,0,0,0,1,0,0,0,0,0,1,0,0,0,0,0,0,0,0,0,0,0],"sum_hessian":[1.836695E1,1.564002E1,2.7269285E0,9.747315E0,5.892705E0,1.5873522E0,1.1395763E0,5.072192E0,4.6751227E0,1.0251137E0,4.8675914E0,1.7195702E0,3.352622E0,3.4587698E0,1.2163528E0,2.8607469E0,2.0068443E0,2.0886822E0,1.2639399E0,1.5991164E0,1.8596535E0,1.4672998E0,1.393447E0,1.0009768E0,1.0058676E0],"tree_param":{"num_deleted":"0","num_feature":"6","num_nodes":"25","size_leaf_vector":"1"}},{"base_weights":[-2.8712924E-3,9.555992E-2,-1.7294954E-1,1.9283022E-1,-1.7162398E-1,-7.218208E-2,-3.3885643E-2,-5.0281167E-2,4.6586192E-1,-7.096689E-2,3.5678655E-2,-1.968903E-1,4.2387243E-2,-7.425327E-2,1.8484566E-1,1.3872789E-2,1.2013512E-1,-8.151711E-2,1.4208776E-2,-3.0932013E-2,8.244762E-2],"categories":[0,2,0,3,0],"categories_nodes":[0,1,6],"categories_segments":[0,2,4],"categories_sizes":[2,2,1],"default_left":[1,1,1,1,1,0,0,0,1,0,0,1,0,0,0,0,0,0,0,0,0],"id":33,"left_children":[1,3,5,7,9,-1,11,13,15,-1,-1,17,-1,-1,19,-1,-1,-1,-1,-1,-1],"loss_changes":[3.322719E-1,3.603146E-1,1.7779423E-1,6.673639E-1,3.12719E-1,0E0,2.5338045E-1,5.240554E-1,2.0779347E-1,0E0,0E0,2.3751591E-1,0E0,0E0,3.841896E-1,0E0,0E0,0E0,0E0,0E0,0E0],"parents":[2147483647,0,0,1,1,2,2,3,3,4,4,6,6,7,7,8,8,11,11,14,14],"right_children":[2,4,6,8,10,-1,12,14,16,-1,-1,18,-1,-1,20,-1,-1,-1,-1,-1,-1],"split_conditions":[1E-45,1E-45,-5.183214E-1,-1.632686E-2,3.563664E-1,-7.218208E-2,1E-45,-2.4513127E-1,-1.179158E0,-7.096689E-2,3.5678655E-2,-9.683961E-1,4.2387243E-2,-7.425327E-2,5.1945396E-2,1.3872789E-2,1.2013512E-1,-8.151711E-2,1.4208776E-2,-3.0932013E-2,8.244762E-2],"split_indices":[3,5,2,2,0,0,5,4,0,0,0,4,0,0,0,0,0,0,0,0,0],"split_type":[1,1,0,0,0,0,1,0,0,0,0,0,0,0,0,0,0,0,0,0,0],"sum_hessian":[1.7860563E1,1.1590695E1,6.2698665E0,8.701233E0,2.8894627E0,1.9878173E0,4.282049E0,5.034385E0,3.6668482E0,1.887645E0,1.0018178E0,2.6944263E0,1.587623E0,1.8837563E0,3.1506286E0,1.3147066E0,2.3521416E0,1.2165519E0,1.4778745E0,1.3920693E0,1.7585593E0],"tree_param":{"num_deleted":"0","num_feature":"6","num_nodes":"21","size_leaf_vector":"1"}},{"base_weights":[-3.0955954E-3,1.9052133E-1,-9.033525E-2,-7.0814234E-3,8.3222665E-2,-3.016538E-1,3.8401096E-3,-4.502474E-2,3.440703E-2,-1.05594754E-1,-5.8366425E-2,-1.3551758E-1,1.877866E-1,-4.962995E-2,3.384123E-2,5.0648607E-2,-2.7339855E-1,-2.1206977E-2,8.541855E-2,1.7001098E-2,-3.8252285E-1,-1.2359492E-1,1.4679662E-3],"categories":[0,1,3,4,6,1,0,1,0,1,2,0],"categories_nodes":[0,6,12,16,20],"categories_segments":[0,5,6,8,11],"categories_sizes":[5,1,2,3,1],"default_left":[0,0,0,0,0,1,0,0,0,0,0,0,0,0,0,0,0,0,0,0,0,0,0],"id":34,"left_children":[1,3,5,7,-1,9,11,-1,-1,-1,13,15,17,-1,-1,-1,19,-1,-1,-1,21,-1,-1],"loss_changes":[3.281506E-1,2.721818E-1,2.6721144E-1,2.0287111E-1,0E0,1.9679505E-1,2.8781646E-1,0E0,0E0,0E0,1.7658909E-1,4.1251487E-1,3.8496226E-1,0E0,0E0,0E0,2.3621687E-1,0E0,0E0,0E0,3.8772738E-1,0E0,0E0],"parents":[2147483647,0,0,1,1,2,2,3,3,5,5,6,6,10,10,11,11,12,12,16,16,20,20],"right_children":[2,4,6,8,-1,10,12,-1,-1,-1,14,16,18,-1,-1,-1,20,-1,-1,-1,22,-1,-1],"split_conditions":[1E-45,5.77451E-1,-2.0289683E-1,3.8728046E-1,8.3222665E-2,1.0990766E-2,1E-45,-4.502474E-2,3.440703E-2,-1.05594754E-1,-8.1336427E-1,2.1348006E-1,1E-45,-4.962995E-2,3.384123E-2,5.0648607E-2,1E-45,-2.1206977E-2,8.541855E-2,1.7001098E-2,1E-45,-1.2359492E-1,1.4679662E-3],"split_indices":[5,2,0,0,0,2,1,0,0,0,0,0,3,0,0,0,3,0,0,0,5,0,0],"split_type":[1,0,0,0,0,0,1,0,0,0,0,0,1,0,0,0,1,0,0,0,1,0,0],"sum_hessian":[1.7408525E1,5.039697E0,1.2368829E1,3.202842E0,1.8368554E0,3.1338122E0,9.235017E0,1.3286242E0,1.8742176E0,1.0172977E0,2.1165144E0,5.40413E0,3.8308868E0,1.1047729E0,1.0117415E0,1.1958127E0,4.2083173E0,1.9695587E0,1.8613281E0,1.0338379E0,3.1744792E0,1.6143867E0,1.5600927E0],"tree_param":{"num_deleted":"0","num_feature":"6","num_nodes":"23","size_leaf_vector":"1"}},{"base_weights":[-5.1274807E-3,-6.642713E-2,3.9150536E-2,-1.7982867E-1,1.2023879E-1,-7.576679E-2,1.6664542E-2,2.588729E-1,-5.3198725E-2,3.4077272E-1,-2.4460932E-2,1.4832434E-1,-2.7730107E-1,4.6053413E-1,-2.0113679E-2,7.086204E-2,-4.3102246E-2,1.538714E-3,-9.213071E-2,3.233127E-2,1.1945682E-1],"categories":[3,6,2,0,2,0,1,2,3,4,5,6],"categories_nodes":[4,8,9,11,12],"categories_segments":[0,2,3,4,5],"categories_sizes":[2,1,1,1,7],"default_left":[0,0,0,0,0,0,0,1,0,1,0,0,1,1,0,0,0,0,0,0,0],"id":35,"left_children":[1,-1,3,5,7,-1,-1,9,11,13,-1,15,17,19,-1,-1,-1,-1,-1,-1,-1],"loss_changes":[2.7324963E-1,0E0,3.185987E-1,2.8923446E-1,3.2164752E-1,0E0,0E0,2.6915765E-1,3.3548492E-1,3.773026E-1,0E0,3.8237953E-1,1.8301159E-1,1.1208451E-1,0E0,0E0,0E0,0E0,0E0,0E0,0E0],"parents":[2147483647,0,0,2,2,3,3,4,4,7,7,8,8,9,9,11,11,12,12,13,13],"right_children":[2,-1,4,6,8,-1,-1,10,12,14,-1,16,18,20,-1,-1,-1,-1,-1,-1,-1],"split_conditions":[-1.0707526E0,-6.642713E-2,-5.183214E-1,1.336528E0,1E-45,-7.576679E-2,1.6664542E-2,1.1751498E0,1E-45,1E-45,-2.4460932E-2,1E-45,1E-45,1.0990766E-2,-2.0113679E-2,7.086204E-2,-4.3102246E-2,1.538714E-3,-9.213071E-2,3.233127E-2,1.1945682E-1],"split_indices":[0,0,2,0,5,0,0,4,3,3,0,1,5,2,0,0,0,0,0,0,0],"split_type":[0,0,0,0,1,0,0,0,1,1,0,1,1,0,0,0,0,0,0,0,0],"sum_hessian":[1.6973717E1,1.2489151E0,1.5724801E1,3.9203057E0,1.1804495E1,1.9819069E0,1.9383988E0,6.28672E0,5.517775E0,5.262104E0,1.024616E0,3.0832849E0,2.4344902E0,4.104758E0,1.1573464E0,1.9854187E0,1.0978662E0,1.3281362E0,1.106354E0,1.9735464E0,2.131211E0],"tree_param":{"num_deleted":"0","num_feature":"6","num_nodes":"21","size_leaf_vector":"1"}},{"base_weights":[-8.4547475E-3,1.7121007E-1,-8.9985244E-2,-5.0693233E-2,3.613429E-1,-1.452075E-1,4.3248814E-2,4.5845494E-2,-5.935141E-2,9.973915E-2,1.5804853E-2,-1.0620612E-1,-5.6561515E-2,-2.5664186E-1,5.059385E-2,-7.839039E-2,3.9147534E-3,2.811208E-1,-9.1780335E-2,1.6473716E-2,6.761522E-2,-4.9735475E-2,4.1656327E-2],"categories":[0,1,3,4,6,1],"categories_nodes":[0,18],"categories_segments":[0,5],"categories_sizes":[5,1],"default_left":[0,1,1,0,0,0,0,0,0,0,0,0,0,1,1,0,0,0,0,0,0,0,0],"id":36,"left_children":[1,3,5,7,9,11,-1,-1,-1,-1,-1,-1,13,15,17,-1,-1,19,21,-1,-1,-1,-1],"loss_changes":[2.726851E-1,2.641641E-1,2.4679005E-1,3.1363183E-1,8.705002E-2,3.5949534E-1,0E0,0E0,0E0,0E0,0E0,0E0,2.3554093E-1,1.491405E-1,2.750922E-1,0E0,0E0,7.7667385E-3,3.0834493E-1,0E0,0E0,0E0,0E0],"parents":[2147483647,0,0,1,1,2,2,3,3,4,4,5,5,12,12,13,13,14,14,17,17,18,18],"right_children":[2,4,6,8,10,12,-1,-1,-1,-1,-1,-1,14,16,18,-1,-1,20,22,-1,-1,-1,-1],"split_conditions":[1E-45,-2.4513127E-1,1.3014281E0,-4.9928045E-1,4.7147626E-1,-7.718887E-1,4.3248814E-2,4.5845494E-2,-5.935141E-2,9.973915E-2,1.5804853E-2,-1.0620612E-1,-2.0829876E-1,6.021169E-1,-3.9935285E-1,-7.839039E-2,3.9147534E-3,1.5634897E-1,1E-45,1.6473716E-2,6.761522E-2,-4.9735475E-2,4.1656327E-2],"split_indices":[5,4,0,4,4,2,0,0,0,0,0,0,0,2,2,0,0,0,1,0,0,0,0],"split_type":[1,0,0,0,0,0,0,0,0,0,0,0,0,0,0,0,0,0,1,0,0,0,0],"sum_hessian":[1.656389E1,4.826973E0,1.1736918E1,2.565808E0,2.261165E0,1.0389249E1,1.3476691E0,1.2323345E0,1.3334736E0,1.0055292E0,1.2556357E0,1.0086653E0,9.380584E0,2.7851362E0,6.5954475E0,1.5881435E0,1.1969928E0,2.1460779E0,4.44937E0,1.0228654E0,1.1232125E0,3.034126E0,1.4152437E0],"tree_param":{"num_deleted":"0","num_feature":"6","num_nodes":"23","size_leaf_vector":"1"}},{"base_weights":[-4.684957E-3,9.040097E-2,-1.6311713E-1,-1.1940975E-2,3.286164E-1,-6.4686626E-2,-3.9524354E-2,1.6271491E-1,-2.6678854E-1,1.6373327E-2,7.926551E-2,-5.6770958E-2,1.09839015E-1,-4.8597828E-2,3.6317888E-1,-7.0784055E-2,-1.8273293E-3,6.7682825E-2,-2.0607078E-2,1.3744784E-2,8.6927645E-2],"categories":[0,2,0,3],"categories_nodes":[0,3],"categories_segments":[0,2],"categories_sizes":[2,2],"default_left":[1,1,1,0,1,0,0,0,1,0,0,0,0,0,0,0,0,0,0,0,0],"id":37,"left_children":[1,3,5,7,9,-1,11,13,15,-1,-1,-1,17,-1,19,-1,-1,-1,-1,-1,-1],"loss_changes":[2.7416143E-1,2.8196803E-1,1.2225342E-1,4.4144621E-1,2.5402308E-2,0E0,2.1319655E-1,5.703033E-1,8.690786E-2,0E0,0E0,0E0,2.2056483E-1,0E0,6.2037468E-2,0E0,0E0,0E0,0E0,0E0,0E0],"parents":[2147483647,0,0,1,1,2,2,3,3,4,4,6,6,7,7,8,8,12,12,14,14],"right_children":[2,4,6,8,10,-1,12,14,16,-1,-1,-1,18,-1,20,-1,-1,-1,-1,-1,-1],"split_conditions":[1E-45,4.1605005E-1,-5.183214E-1,1E-45,-1.2340564E0,-6.4686626E-2,-1.7858909E-1,-1.8703128E-1,3.6806744E-1,1.6373327E-2,7.926551E-2,-5.6770958E-2,4.6313033E-1,-4.8597828E-2,-7.6414394E-1,-7.0784055E-2,-1.8273293E-3,6.7682825E-2,-2.0607078E-2,1.3744784E-2,8.6927645E-2],"split_indices":[3,0,2,5,2,0,0,2,2,0,0,0,0,0,0,0,0,0,0,0,0],"split_type":[1,0,0,1,0,0,0,0,0,0,0,0,0,0,0,0,0,0,0,0,0],"sum_hessian":[1.6220123E1,1.04048605E1,5.8152623E0,7.942488E0,2.4623728E0,1.8276438E0,3.9876184E0,4.927216E0,3.015272E0,1.0058732E0,1.4564995E0,1.1712471E0,2.8163714E0,1.5593103E0,3.3679056E0,1.9740558E0,1.0412161E0,1.073721E0,1.7426503E0,1.0408216E0,2.327084E0],"tree_param":{"num_deleted":"0","num_feature":"6","num_nodes":"21","size_leaf_vector":"1"}},{"base_weights":[-3.5873456E-3,-4.581644E-2,6.2380683E-2,-8.681602E-2,1.3479584E-2,1.6683172E-1,-1.2629768E-1,2.8369388E-1,-3.4559075E-2,-2.0058794E-1,2.4055092E-2,3.2464872E-4,3.901584E-1,-3.1823942E-1,4.3334175E-2,9.7813986E-2,1.9002033E-2,-8.148706E-3,-9.341275E-2,-4.4018403E-2,5.6505065E-2],"categories":[0,1,2,1,0,1,2],"categories_nodes":[4,9,12],"categories_segments":[0,3,4],"categories_sizes":[3,1,3],"default_left":[1,0,0,0,1,0,0,1,0,0,0,0,0,0,1,0,0,0,0,0,0],"id":38,"left_children":[1,3,-1,-1,5,7,9,11,-1,13,-1,-1,15,17,19,-1,-1,-1,-1,-1,-1],"loss_changes":[2.395943E-1,3.6929825E-1,0E0,0E0,3.3541596E-1,3.4366727E-1,1.7508778E-1,1.7660087E-1,0E0,2.0629367E-1,0E0,0E0,7.849479E-2,1.7280442E-1,2.5516802E-1,0E0,0E0,0E0,0E0,0E0,0E0],"parents":[2147483647,0,0,1,1,4,4,5,5,6,6,7,7,9,9,12,12,13,13,14,14],"right_children":[2,4,-1,-1,6,8,10,12,-1,14,-1,-1,16,18,20,-1,-1,-1,-1,-1,-1],"split_conditions":[1.1776822E0,-1.0002153E0,6.2380683E-2,-8.681602E-2,1E-45,2.259309E0,2.7131517E0,-1.5897884E0,-3.4559075E-2,1E-45,2.4055092E-2,3.2464872E-4,1E-45,-5.3493124E-1,-8.914146E-1,9.7813986E-2,1.9002033E-2,-8.148706E-3,-9.341275E-2,-4.4018403E-2,5.6505065E-2],"split_indices":[2,0,0,0,3,0,4,2,0,1,0,0,3,4,2,0,0,0,0,0,0],"split_type":[0,0,0,0,1,0,0,0,0,1,0,0,1,0,0,0,0,0,0,0,0],"sum_hessian":[1.5911047E1,1.4786606E1,1.1244408E0,1.1216446E0,1.3664962E1,6.4237723E0,7.241189E0,4.901803E0,1.5219697E0,5.7079363E0,1.5332525E0,1.6213616E0,3.2804413E0,3.6451075E0,2.062829E0,1.9649172E0,1.3155241E0,1.7171328E0,1.9279747E0,1.0196815E0,1.0431474E0],"tree_param":{"num_deleted":"0","num_feature":"6","num_nodes":"21","size_leaf_vector":"1"}},{"base_weights":[-3.343818E-3,1.3340594E-1,-9.8757096E-2,-2.3094232E-3,8.668858E-2,1.2847589E-1,-2.1442056E-1,-2.113725E-1,2.368555E-1,-2.5266064E-2,8.5188664E-2,-4.459066E-1,1.9912244E-1,5.964874E-3,-6.5504916E-2,8.878397E-2,-1.1947195E-2,-1.5730223E-2,-1.263052E-1,-2.4181684E-2,7.9444654E-2],"categories":[1,3,4,6,0,1,2,0,1,0,1,2,3,0,1,2,3,4,5,6],"categories_nodes":[0,2,5,6,7,11],"categories_segments":[0,4,7,8,9,13],"categories_sizes":[4,3,1,1,4,7],"default_left":[0,1,0,1,0,1,0,1,0,0,0,1,0,0,0,0,0,0,0,0,0],"id":39,"left_children":[1,3,5,7,-1,9,11,13,15,-1,-1,17,19,-1,-1,-1,-1,-1,-1,-1,-1],"loss_changes":[2.2926019E-1,2.9546884E-1,2.9903448E-1,3.4876856E-1,0E0,3.6530375E-1,7.799497E-1,1.1387475E-1,2.2660191E-1,0E0,0E0,2.8692228E-1,2.5612408E-1,0E0,0E0,0E0,0E0,0E0,0E0,0E0,0E0],"parents":[2147483647,0,0,1,1,2,2,3,3,5,5,6,6,7,7,8,8,11,11,12,12],"right_children":[2,4,6,8,-1,10,12,14,16,-1,-1,18,20,-1,-1,-1,-1,-1,-1,-1,-1],"split_conditions":[1E-45,3.9009333E-1,1E-45,1.7466596E-1,8.668858E-2,1E-45,1E-45,1E-45,7.402669E-1,-2.5266064E-2,8.5188664E-2,1E-45,3.6806744E-1,5.964874E-3,-6.5504916E-2,8.878397E-2,-1.1947195E-2,-1.5730223E-2,-1.263052E-1,-2.4181684E-2,7.9444654E-2],"split_indices":[5,0,3,2,0,1,1,3,4,0,0,5,2,0,0,0,0,0,0,0,0],"split_type":[1,0,1,0,0,1,1,1,0,0,0,1,0,0,0,0,0,0,0,0,0],"sum_hessian":[1.5561133E1,6.231595E0,9.329537E0,4.97401E0,1.2575852E0,3.1096098E0,6.219928E0,2.716031E0,2.257979E0,1.9847856E0,1.1248242E0,3.9375653E0,2.2823627E0,1.1243922E0,1.5916389E0,1.0371547E0,1.2208244E0,1.799971E0,2.1375942E0,1.0216135E0,1.2607492E0],"tree_param":{"num_deleted":"0","num_feature":"6","num_nodes":"21","size_leaf_vector":"1"}},{"base_weights":[1.8524545E-3,-5.9161007E-2,4.3639123E-2,2.3508477E-1,-4.963111E-2,-3.4989764E-3,8.573755E-2,-2.3754075E-1,3.705573E-2,4.2140767E-2,-4.199074E-2,-7.340387E-2,6.5245903E-3,1.6592433E-1,-1.965972E-1,-2.1764742E-2,2.819514E-1,3.4357836E-3,-6.0610414E-2,9.439086E-2,-2.3758952E-2],"categories":[0,1,3,4,6,0,0,1,2,4,5,0,1,2],"categories_nodes":[2,8,13,14],"categories_segments":[0,5,6,11],"categories_sizes":[5,1,5,3],"default_left":[0,0,0,1,0,0,0,1,1,0,0,0,0,0,1,0,1,0,0,0,0],"id":40,"left_children":[1,-1,3,5,7,9,-1,11,13,-1,-1,-1,-1,15,17,-1,19,-1,-1,-1,-1],"loss_changes":[2.130759E-1,0E0,2.7921355E-1,2.3627403E-1,1.8636616E-1,1.8879355E-1,0E0,1.3706852E-1,2.8327534E-1,0E0,0E0,0E0,0E0,2.1900743E-1,8.296567E-2,0E0,3.9353454E-1,0E0,0E0,0E0,0E0],"parents":[2147483647,0,0,2,2,3,3,4,4,5,5,7,7,8,8,13,13,14,14,16,16],"right_children":[2,-1,4,6,8,10,-1,12,14,-1,-1,-1,-1,16,18,-1,20,-1,-1,-1,-1],"split_conditions":[-1.2856895E0,-5.9161007E-2,1E-45,-1.8581888E-1,-2.0829876E-1,-4.9928045E-1,8.573755E-2,6.021169E-1,1E-45,4.2140767E-2,-4.199074E-2,-7.340387E-2,6.5245903E-3,1E-45,1E-45,-2.1764742E-2,6.298145E-1,3.4357836E-3,-6.0610414E-2,9.439086E-2,-2.3758952E-2],"split_indices":[2,0,5,4,0,4,0,2,1,0,0,0,0,5,3,0,4,0,0,0,0],"split_type":[0,0,1,0,0,0,0,0,1,0,0,0,0,1,1,0,0,0,0,0,0],"sum_hessian":[1.5093052E1,1.109667E0,1.3983385E1,4.082733E0,9.900652E0,2.2687724E0,1.8139609E0,2.576152E0,7.3244996E0,1.1033908E0,1.1653816E0,1.4991585E0,1.0769935E0,4.907624E0,2.4168754E0,1.4755815E0,3.4320426E0,1.0822316E0,1.3346438E0,2.207654E0,1.2243885E0],"tree_param":{"num_deleted":"0","num_feature":"6","num_nodes":"21","size_leaf_vector":"1"}},{"base_weights":[-1.3454008E-3,-5.8775503E-2,3.9082315E-2,-7.5585425E-2,1.728767E-1,-3.1314838E-1,6.594002E-2,2.866736E-1,-3.8927678E-2,-2.2532397E-3,-9.977857E-2,1.576385E-1,-3.7562806E-2,4.2380598E-1,-1.7462874E-2,-3.2780185E-2,3.5195753E-1,-4.2464803E-3,1.149349E-1,-5.343695E-3,1.1392315E-1],"categories":[3,2,2],"categories_nodes":[4,5,6],"categories_segments":[0,1,2],"categories_sizes":[1,1,1],"default_left":[0,0,1,0,1,0,1,0,0,0,0,0,0,0,0,0,0,0,0,0,0],"id":41,"left_children":[1,-1,3,5,7,9,11,13,-1,-1,-1,15,-1,17,-1,-1,19,-1,-1,-1,-1],"loss_changes":[1.9834828E-1,0E0,2.3958428E-1,3.1135094E-1,3.534969E-1,1.8513438E-1,1.7490862E-1,3.3649606E-1,0E0,0E0,0E0,3.7825185E-1,0E0,3.1056327E-1,0E0,0E0,3.0498755E-1,0E0,0E0,0E0,0E0],"parents":[2147483647,0,0,2,2,3,3,4,4,5,5,6,6,7,7,11,11,13,13,16,16],"right_children":[2,-1,4,6,8,10,12,14,-1,-1,-1,16,-1,18,-1,-1,20,-1,-1,-1,-1],"split_conditions":[-1.0707526E0,-5.8775503E-2,-3.689031E-2,5.1945396E-2,1E-45,1E-45,1E-45,1.5602595E0,-3.8927678E-2,-2.2532397E-3,-9.977857E-2,-1.4215866E-1,-3.7562806E-2,-6.91284E-1,-1.7462874E-2,-3.2780185E-2,-7.919175E-1,-4.2464803E-3,1.149349E-1,-5.343695E-3,1.1392315E-1],"split_indices":[0,0,2,0,5,1,3,4,0,0,0,4,0,4,0,0,2,0,0,0,0],"split_type":[0,0,0,0,1,1,1,0,0,0,0,0,0,0,0,0,0,0,0,0,0],"sum_hessian":[1.4800478E1,1.03586E0,1.3764619E1,7.646387E0,6.1182313E0,2.401908E0,5.244479E0,4.8396544E0,1.2785767E0,1.318943E0,1.0829649E0,4.130592E0,1.1138874E0,3.4437184E0,1.3959363E0,1.614921E0,2.5156708E0,1.0894064E0,2.354312E0,1.238393E0,1.2772778E0],"tree_param":{"num_deleted":"0","num_feature":"6","num_nodes":"21","size_leaf_vector":"1"}},{"base_weights":[-4.8091947E-3,-4.4900134E-2,5.042016E-2,-2.0213452E-1,8.269352E-2,7.2776075E-3,-2.6867223E-1,2.5288865E-1,-9.520883E-2,-4.106386E-1,-4.402315E-2,-1.2415475E-2,7.8710094E-2,-2.3930834E-1,2.3323257E-2,-1.0293043E-1,-2.1868372E-2,3.9642215E-2,-4.9967326E-2,6.3021253E-3,-7.5175695E-2],"categories":[0,1,2,1],"categories_nodes":[4,8],"categories_segments":[0,3],"categories_sizes":[3,1],"default_left":[1,1,0,1,1,0,1,1,0,0,0,0,0,0,0,0,0,0,0,0,0],"id":42,"left_children":[1,3,-1,5,7,-1,9,11,13,15,17,-1,-1,19,-1,-1,-1,-1,-1,-1,-1],"loss_changes":[1.6980624E-1,3.0077794E-1,0E0,1.1504984E-1,2.8222826E-1,0E0,1.5113404E-1,2.2959635E-1,1.773247E-1,4.1850686E-2,2.0779136E-1,0E0,0E0,1.3171194E-1,0E0,0E0,0E0,0E0,0E0,0E0,0E0],"parents":[2147483647,0,0,1,1,3,3,4,4,6,6,7,7,8,8,9,9,10,10,13,13],"right_children":[2,4,-1,6,8,-1,10,12,14,16,18,-1,-1,20,-1,-1,-1,-1,-1,-1,-1],"split_conditions":[9.9673945E-1,-4.796558E-1,5.042016E-2,-9.971944E-1,1E-45,7.2776075E-3,-2.2522077E-1,-1.5897884E0,1E-45,2.3848063E-1,7.526501E-1,-1.2415475E-2,7.8710094E-2,4.6313033E-1,2.3323257E-2,-1.0293043E-1,-2.1868372E-2,3.9642215E-2,